solver_type L2R_L2LOSS_SVC
nr_class 3
label 1 0 2
nr_feature 24971
bias -1
w
-0.2051324237541893 0.4219146700161029 -0.673336093042161 
-0.0420601905590364 0.13790898528908 -0.2502487740751181 
-0.00495022959055006 0.003706001140548349 -0.4972826209694457 
-5.59715709208666e-05 8.467672832866509e-05 -8.528716995314102e-05 
-0.8144351120237806 0.7533189648868139 6.712500619528172e-06 
-0.001969784728463761 0.0009637347034276118 -2.174484199834176e-05 
3.376601422626644e-05 0.0008028159936339784 -0.001262095587602819 
-4.352588242457784e-08 2.528947891685062e-05 0.001042954271597467 
0.3452177486915722 -0.7898275885907787 -0.003404655784360188 
0.9745457175918825 -1.110184433014215 0.6315864978923622 
-0.0007436424549025244 0.4732208249289642 -0.3449404945152188 
-0.00484896075575109 0.002641557939529063 -0.0003792453386737538 
-8.454034425180855e-06 -3.679983891959452e-05 -6.907519560932672e-05 
-7.35167916633007e-05 -0.001192118119813183 -0.0002276701793796243 
-0.001936097967369109 0.00123238387466371 -0.0001875783089374266 
6.362714497609813e-06 0.0004230772585455171 -0.000568660462171177 
1.414904738349792e-06 3.007248471846058e-05 5.173217754643836e-05 
-4.625603359052775e-06 -0.0004081754280280602 -0.0003565702732080935 
1.254398433777164e-05 4.103010150011815e-05 -0.0002170975966471704 
-0.001546192354264361 0.0006178659770147653 1.519067269410424e-05 
-0.0002140649554573071 2.896487012005841e-05 3.57194933153015e-05 
-3.329665669918234e-05 0.0001695502651206525 -9.23131001003492e-05 
0 0 0 
-0.0003176489496757641 0.004774303441642959 -0.04111576701582229 
6.130326164141378e-05 -0.001418865250036962 -0.002001690581239616 
-1.41602816649594 1.006120805157731 -0.0008673405798437108 
-5.81472370603509e-05 0.0001149996823755691 -0.0003081982436365961 
2.217361167281187e-05 0.000130335664961574 1.007745034273262e-05 
0.0005520704960638732 0.006066466982960561 -0.01211781163628868 
2.047968161189854e-05 0.0001945019867067374 -0.0003060991128788662 
1.168588561880916e-06 0.0002811998416451543 -0.001075279845435697 
2.078656038003363e-06 -0.0004908853731386149 -0.000195275621800953 
-0.000484060075695994 0.002820973726243321 -0.006640653990653353 
-3.998337831324521e-06 0.00155455789196443 -0.004732138270241746 
-0.001131269015714646 0.003702629628158438 -0.008077205223894627 
-0.01404771868045473 0.6156497370891784 -0.01631718758600518 
-0.0004944181232417379 0.05028746036430809 -0.5907208539272174 
-0.0009181392248130653 0.003641338193163876 -0.006016956489906004 
-0.002925644272573559 0.001930794969879341 -0.003780493782242583 
-1.021227457888929e-05 0.001151906548033914 -0.003255606847735328 
-0.007788774313985534 0.001955336396161455 -0.0003483399414868986 
-0.1742874987367085 0.01894957905884954 -0.02008866150598433 
-0.002912843298180602 0.0193802050246542 -0.04188321779084184 
-0.007818069971777971 0.01103683488013361 -0.01444112351845069 
-1.242075269453362e-05 4.28313037200703e-05 -0.0001934234717486846 
-0.001269277601092247 0.0008631316845174095 -0.0001918711367275479 
-3.547157140723105e-05 -0.0001020560488071958 4.394275305301717e-05 
-0.0001961135107012148 0.002132377831078579 -0.007384311047361954 
2.492543421049372e-06 0.0007942630617856786 -0.002200318477647136 
-0.0005234207042385433 0.003185261020913307 -0.008812297099127817 
-2.834174441352423e-08 0.001594158663030798 -0.005296230519738958 
1.629297073853696e-05 -5.292116562586686e-05 0.000229667249519046 
-0.0001849324887345 0.001571986765162963 -0.004001053812281373 
-0.000579867532818724 0.001972978567057929 -0.3811936803508796 
3.38858429262665e-06 0.001753340687340129 -0.004893761733271437 
-8.378883392394986e-06 0.0003870537908817437 -0.001337217769972694 
-0.000389401199938778 0.08975925855193519 -0.6986823245876543 
4.634193623030379e-05 0.001829330707077098 -0.00614932448949304 
-0.6777475439982091 0.3413157261595157 -0.0006980638227787324 
-0.002606719794236993 0.002117837026921985 -0.00125564920133202 
-1.525566921582368e-05 0.002291563153309412 -0.006793033092619947 
-0.01538467307356266 0.00184748359289965 -0.0001075048079900637 
-0.000708275721534968 0.001298939780222231 3.059252506706729e-05 
2.098179538941845e-05 0.00173402658691377 -0.007143462272735491 
-4.317377416876046e-06 0.0001974378446358696 -0.0009217124082814345 
-1.097476034428412e-05 7.961455459553601e-05 3.832753287483128e-05 
-1.216886202678377e-05 -0.0001268797584287798 0.0001229702287248984 
0 0 0 
3.965334580943512e-05 0.0002267303411215019 -0.001715256867687145 
8.271506287328678e-06 -4.428287863647622e-05 -6.901427492427069e-05 
-0.001180293729043315 0.0003484231743809279 0.000127586459916659 
-4.734748591763428e-05 -3.95206161084009e-05 2.716155110130692e-05 
-2.041815041345719e-05 -6.822511689407788e-05 1.88813757134449e-05 
4.823781961479235e-06 -4.268406930683061e-05 0.0002214628298193457 
-0.005500018481980834 0.0008849966094791258 0.0006019127444538147 
0.000143683779706967 0.0001152568166127905 -0.002389476918859163 
-0.000183479491077427 -0.0002454141304730817 -5.317713331506433e-05 
-0.0007978710416249941 0.0003786686448168459 -0.0006031832353971308 
-0.0003502252179450604 0.001129104012592843 -0.003240419320105478 
-7.532852361762065e-06 0.0002316817033826692 -0.001454751376926138 
-0.03323166865412349 -1.179459311300962 1.197838457445296 
-0.03196612121143966 -1.462711325885175 1.103969302414498 
2.831199998388905 -2.592112928899966 0.04019215698220006 
-0.008773950680198813 0.003073992437147847 -0.0002661017406358371 
-1.109963540156319e-05 0.1739759022606964 -0.6526226981708139 
-0.0004487618559090271 -4.554959295065116e-05 0.0003135937130629602 
-0.000481897507805733 -0.0005085635443774607 0.0001186831212970448 
-3.563876070253493e-06 -9.59312087662737e-06 5.389255756548981e-05 
9.483492093607037e-07 -0.0004203321616707648 0.0009716127963415125 
-0.0001829608448976141 0.002916262547961985 -0.008363609071768531 
-1.538897250677807e-07 0.0005481171083768709 -0.002363637010680387 
-0.008385276222686986 0.002710633901665263 -0.000456941608181407 
-5.169706479079491e-05 -0.0004063282982948639 9.555066284161011e-05 
-5.758803408953116e-06 2.411546181252681e-05 -0.001028373360772938 
-0.0003545129109588232 8.916834356301244e-05 -4.15397121604817e-05 
-4.166124982896698e-05 -0.0009444180884825646 0.0001187799468674672 
-1.723630446736009e-05 -0.0001071471156437108 5.245123108092086e-05 
-4.152194209816006e-05 -0.0001585380056754911 0.0001644286244591119 
-0.0008046672371028712 0.0004017816003619373 -0.0001812110524441124 
9.113427355355312e-08 0.0005690885133176676 -0.00226293502946484 
0 0 0 
-0.004253275953353408 0.00382023463221737 0.0004033234930698325 
-7.427080387020921e-06 0.0001095486395093417 -0.0002889503455611779 
-0.0001948455712886771 0.0003901844217189523 1.201245235131929e-05 
-0.0001129339154672189 -0.0001727905324695899 -0.000432028569001989 
-4.188861863703192e-05 0.001439370982081441 -0.001103605326698367 
-0.001119097770184874 -0.0001129672961035792 6.896387981859855e-05 
-0.01007293720016376 0.2995923846337928 -0.1544135617118731 
0.0003019353715706228 0.4887907948754867 -0.2078934023032099 
-0.03026847214796471 0.08674347009918353 -0.00483484207026232 
-0.002353677573191988 -0.0003967367232904907 2.681708956880488e-05 
-0.005737711764398175 0.001354000715739824 -0.000922978191947654 
1.051321311405388e-05 -0.001115049603464359 0.0002200497641733663 
-4.521653786811753e-05 0.2025848543187384 -0.1857284087990639 
-0.0006312336229647237 0.0008528435557183281 -0.002150691020752131 
-3.190323612000998e-05 0.00160209313214979 -0.003679851647464775 
-0.002502974611680771 0.001871036063782647 -0.01098742993114979 
-0.0003463317338949104 -0.003579151980154123 0.008992746862329176 
-0.0137092888155648 0.008755779456913441 -0.02891667738447338 
-0.005656274415495515 0.2025541484154707 -0.1858932967238557 
-0.007584007459722806 0.1012308302031676 -0.6318441662496872 
-0.2090413563466673 0.3690969192851462 -0.4016586834814168 
-0.05224336288151676 0.3736746034325376 -0.004051801562553643 
-9.918048320330622e-05 0.002285827857124511 -0.007853773052419615 
-0.0001269738769222178 0.0009072645209676739 -0.02424542454940799 
-7.774723845453857e-06 -4.666868811845864e-05 7.176652310792378e-05 
-9.693164908478197e-06 -4.904537164166275e-05 7.427254639960686e-05 
2.988665612098435e-06 3.301248707497919e-05 -0.0001079685636106931 
-0.001286764394681953 0.0005037377774416425 -0.0002891841065572627 
1.715203531222481e-05 -5.557256348749782e-05 -9.279972749669494e-05 
-7.157675435817549e-05 -0.0007921288570105104 0.001136453124735692 
-0.0009451492813414365 -0.0006689516823997748 3.956361578414872e-05 
-8.369374113360426e-06 1.846278951214859e-05 -3.848208097960219e-05 
-2.196884332721615e-05 5.786129726878989e-06 4.867290470028364e-06 
-0.483787570942608 0.433586167971128 -0.147675992371444 
-0.002791843981459376 0.06367957972623745 -0.3128741050276845 
-0.06610239464867702 0.07793863157817581 -0.02765487465652929 
-0.0008389484432467143 0.7370757395636324 -0.3212577731473273 
6.908111969908356e-05 0.0003545538008632784 7.746581216054499e-07 
-0.001812996372639746 -0.0002804549118249951 -0.002871614981311825 
-0.0001886010396561538 0.001792939586766979 -0.004050408964778667 
-6.726956566905402e-08 0.001831179851757764 -0.005967496735778278 
-0.001827736797089721 0.0007579992282166426 -0.0004131770714356386 
-0.0002149936593061778 0.0001041744757478691 4.706138744447162e-05 
-3.585780930868528e-05 -0.0004249181269252077 0.0001651931539522357 
-3.631525127662145e-05 -5.675618211138321e-05 6.451707323420558e-05 
2.500527790283254 -1.386318051834669 -0.219775425515023 
-0.206508941509665 -1.401534569232044 1.678165049691656 
0.9065511619159636 -0.06201051063007593 -0.7268715896372248 
0.0002711190735790171 -0.001534534506511566 -0.0008194420718943496 
-9.986731091444393e-05 0.002992335666319508 0.00781283349392704 
-0.004280784757199476 0.2155899650139692 -0.01116609610483793 
-0.09030977084917489 0.03819622559229965 0.0008028441158562242 
-0.05487161111343693 1.015271781243277 -1.21908136325093 
0 0 0 
-0.00012499722080032 2.070141989120462e-05 0.0004381556097267049 
-0.001441519893716965 0.0004133860588055027 -0.0002064384591457194 
-1.872571021796391e-05 -0.0006725905453637721 2.24111863531607e-05 
0.001257927496870047 -0.001256907962741287 0.0001183145068378063 
-0.0001372530580869688 -3.83278076535088e-06 -0.001167575131192614 
-0.02188668082136622 0.002796423659728531 -0.001287933174544357 
-0.85428017114469 0.3275429418517879 -0.0001681150318839678 
-4.27326955176639e-05 0.5000172238111013 -0.5114090173983421 
-4.123348756307913e-05 -0.0004751112010660271 -4.787801349561046e-05 
-0.01777503974601965 0.005440523081007419 -0.4449324056421011 
-0.001699804411114674 0.003956251527703292 -0.01304632407326238 
-0.001576939527095102 0.006440221696169024 -0.01645214145133167 
0.001101883282877058 -2.838251810189762 2.679354713246846 
5.274809123619334e-06 -0.001000857033134413 -0.0007271738445380064 
1.223678879315324 -1.102083056349913 -0.0260608261275143 
-0.007546993442620214 0.004228039738057743 -9.630084022015365e-05 
8.175749958298189e-05 0.2526556659224615 -0.5581050706568425 
-4.277321082163588e-05 0.0001226211207086137 -6.226326616719283e-05 
-0.0008278448036819732 -0.0008750154970757367 0.001822216044295295 
-5.414889917256823e-05 -0.0004277969902497976 -0.0002318027654589087 
-0.0005862761973773993 -0.0001440502819806032 0.002071323414860108 
-2.250315411106251e-05 0.003287899321006113 -0.002302449342038827 
-1.83270904898993e-06 2.434202548156541e-05 -0.0001118326366142037 
1.491251251078355e-05 4.61337133642656e-05 -0.001244592242996958 
-7.946879618286202e-05 0.002227042259072957 -0.003864116512396774 
7.767587170383996e-07 4.014553445602378e-05 -9.577904570739782e-05 
7.056066719488971e-05 0.0003457780400957007 -0.001346619951383023 
-0.002152247476992698 0.0008110353336507085 -0.0001588019592204988 
-5.699704900037915e-06 0.0001810659272037167 -0.0009307401058909117 
-4.673478246929087e-05 -0.0004683539297850762 -5.067648831255988e-05 
-5.140283556366614e-05 0.0009025689656687922 -0.003030097210149447 
-4.70348286107499e-06 -0.000122639878222405 -0.0002777590411000056 
-6.281151729592409e-05 0.001915874861756471 -0.004388535151875657 
5.100953691222832e-05 0.0003745893042341137 -0.001761993045742536 
1.454380085737144e-06 -0.0001153880680061526 -1.123279739202828e-05 
-9.232934376212618e-05 0.0002693780785412281 -0.0005660987416493842 
-0.004103759488237962 -0.0009406986279075097 0.000620295876619586 
-0.000186797878996185 -0.0007408168772851599 -0.001681889656950417 
-0.00345872585970456 -0.001047740273980048 0.001742758011139345 
-0.01501072075811981 0.006407788545683081 0.03269521957163374 
9.893701299610447e-05 0.001195755931486645 0.0008121636257190359 
0 0 0 
-0.00357322153086289 0.007431146963908192 0.0008783142250229621 
-0.0001671618689921618 -0.0004723127143041984 -0.0007926808353134382 
-0.001450393247084889 0.001206901406000562 -0.001765108357906449 
-0.0002183204974200564 -0.00124585701483336 -0.002535574561249582 
-0.007342591839779334 0.0007792005898903786 -0.0007056160717630144 
-0.003513475603952706 0.001329847189981968 -0.004391459429193606 
-0.002063943887290921 0.0006770132865008358 0.0001582728164302355 
-0.0005071269333639156 3.383963116877598e-05 -0.0002884343983913311 
0 0 0 
-0.1922306454278174 0.06718194244511275 -0.001174975606169536 
-9.186445081239e-06 -0.00218851771277018 -0.0004446187881939319 
-0.002147573057027461 5.032521123732008e-05 -0.0007648593809711072 
-0.0007338217259019124 0.0001762546061272251 -0.0001441377052556959 
-5.031292334255549e-05 -0.0002658685825796451 0.0008684590918466663 
-0.0001533195992230426 0.0009966801983868783 -0.00206026369171161 
-3.578240931715693e-05 0.001861873130869352 -0.01079273685324712 
-0.0003609338794158967 -0.0005309336404673008 -0.0007672614794338154 
-0.009078589226973891 0.04385374427708688 -0.02027341559495622 
-5.430002552423421e-05 -0.0003081457186530684 0.0007975326272417234 
-0.0001265436757499331 -0.001538413705004673 -0.0002043318195978121 
-0.01092944919780537 0.01588823931657764 -0.0272372155822256 
-9.399955687402907e-05 0.0002094101328451468 -0.0004973726254042816 
-2.774261810914272e-06 -0.000475667714610172 0.0001254655743745003 
-2.843495489935688e-06 -6.625994559561994e-05 -0.0002132787213157282 
-0.0515915608429708 0.03935247434843882 -0.03459390103497807 
-0.0100981128708952 0.00519942132803316 -0.03238373065229809 
-0.05415651013333497 0.1419615867036263 -0.678526328215168 
-0.002096045085141412 0.003506291316100108 0.000108032881453693 
4.946183221474712e-05 0.002262229263262099 -0.01011455025501998 
-2.484799300774758e-07 -0.0005545552380916922 0.0001937769459202951 
-0.001936474678074126 0.0008505362162826215 -6.190959921120985e-05 
-0.2064998076382561 0.6212560716003128 -0.007902113385057091 
0.0007080580553876733 4.185576331015246e-05 0.0001128953000006665 
-0.001317259274961251 0.0004248732078065242 0.0001379423808229895 
-0.0003968389285804781 0.0004651938853530872 -0.000508257563566999 
-1.154632841775704e-05 -0.0004600858900057092 0.001682493867170335 
-0.0567905199739007 0.0347834696571303 -0.0008634194321209938 
-0.01309304463696555 0.008026071859267642 -0.2293987652329416 
-0.0009551731526671921 0.004044435676526642 -0.01320155529969759 
-1.983297170931671e-05 -2.327664661554272e-05 6.262033698691699e-05 
-1.762804997239027e-05 -8.48767244851961e-05 5.534117430233326e-05 
-1.990914279916757e-05 1.865673167524372e-05 -0.0001011911510113356 
-0.0003994377066826229 0.07176349116578377 -0.02350583426332197 
-0.000357389762399895 0.003476807274982081 -0.01005798641672041 
-0.8213915229577677 0.3494929034015115 -0.1544548077368418 
2.226872589102128e-06 -0.0005330522312572111 0.000271122135198252 
-0.00036917615017441 0.0006834133017707079 -0.0002228451604827058 
-0.0001106080459993305 1.672517632329284e-05 0.0001046729595638229 
-0.002733592722446305 0.0006610222607395863 -1.155504098503686e-05 
-0.0002480119618898765 0.0004457921971875616 -0.002516698986679053 
-2.962739904562779e-05 3.183353439791572e-05 0.0002558472670069102 
-0.0001567257072410912 0.08363429147215196 -0.2060349350896765 
2.912291124938644e-05 0.002550327618694033 -0.0006354513172745677 
-0.0008387935264186708 0.04624651860534427 -0.01210684014964885 
-0.07878847518917327 1.044055761595809 -0.439402455559889 
-0.0002278968187473443 0.04764805336937759 -0.04150905291032164 
-0.02064386259412805 0.6523136201630793 -0.5835349545737034 
-9.909907935587361e-05 0.0009841936358126427 -0.0009934963807138437 
0.0001000843042439788 0.0009681740788168832 -0.003658711530660832 
-0.002719608072763212 0.0003742770528971669 -8.420150601328062e-05 
-0.007546993442620214 0.004228039738057743 -9.630084022015365e-05 
3.405065121763557e-06 0.001766677044926714 -0.005328144581240778 
-2.051673149900952e-05 0.002271167653324387 -0.01260234294112342 
-0.000464219159804869 0.001272006552802312 -0.00215255978198597 
-1.377619179782357e-05 0.0003189902458354603 -0.0002025851145909789 
-0.01088311518348808 0.002160705832485277 9.696748540949795e-05 
-0.003056518215054116 0.002467418992522268 -0.001719026005309094 
0.0001010547629358915 0.2404282374720722 -0.4597936059912797 
-0.002181494945485899 0.001094416112332607 0.0007394156065727309 
-0.3318125102656889 0.08406899204649715 -0.07085648840566622 
-0.00365336143305527 0.1320344440159216 -0.1065788340926479 
-0.004362922659003947 0.5819743355756158 -0.6342877229566867 
-0.0003782467519820171 6.851130201354495e-06 -0.0001392801954129543 
-5.752290383791598e-06 -5.960566511243959e-05 -0.0008708516199549334 
7.995646424117882e-06 -0.000121263331527971 -0.001408403443217821 
-2.937385192955328e-07 0.001001914385719346 -0.008219993296298382 
3.770841698751691e-06 1.852281021478021e-06 -3.111489325878649e-05 
-0.3838411577238557 0.003418916009341977 -0.0002688060009289436 
-0.003460361565897531 0.0001792331676319645 -0.0001375868938812158 
-3.828204398557944e-05 5.098542454533804e-05 -0.001512435080833454 
5.574696860049716e-05 -0.0001609800740683818 -0.001001184103929772 
-0.003919106475937339 0.0001702425872432307 -0.0004723696850169048 
-0.3056287324994934 1.178972361338844 -0.240831397892912 
-0.001193794161134856 0.002212554826896502 -0.004200821932237158 
-0.000873807571031437 0.01123149121254338 -0.03486333616388403 
-0.0003223191501659203 0.006165655313611504 -0.01543923375300218 
-0.06498585516373026 0.01482734092681366 -0.4311741480708329 
-0.0003207545925422051 0.003292201199013777 -0.007758332727763406 
2.296939245800893e-06 0.0001685696666051083 0.0005894296805858985 
-5.295437680467837e-05 0.0008662576571112661 -0.002366737706553313 
-2.13394557742152e-05 -7.832963245526476e-05 -2.807486084788095e-05 
-2.38454210682246e-05 -1.664589401732838e-05 -6.262213155496011e-05 
-2.234800632596229e-05 -5.240258269825073e-05 2.560061372597789e-05 
-0.001011977954201899 -0.00930585986685485 0.01177310454909761 
-0.001398612071080407 -0.004969251550501583 0.002746923585450037 
-0.03762236114373382 0.01868095887326082 -0.04257238638413031 
6.022946192687561e-06 3.640732946628501e-05 -0.001737920224075666 
3.770841698751691e-06 1.852281021478021e-06 -3.111489325878649e-05 
-0.0001097307469943768 0.08457865875443635 -0.003656697670405817 
-0.0003957549560314074 0.0007987719426184153 -0.001795927590279769 
-2.881872173111449e-08 0.001631352580242298 -0.005398064667999662 
-0.0007980306995592745 0.0002456214284428855 0.0002425622304650259 
-0.003121209504100534 0.0005888906392008834 -0.0003826702982227559 
0.0001135858366852131 0.001035875416717926 -0.003277653604172537 
-0.002083881504047989 4.301267610181578e-05 0.0002986833049710191 
-0.0007808554726234904 0.0004773642397783577 -0.004283502798144393 
-4.270908386305924e-05 2.66082148682061e-06 -0.00171553796841639 
-0.00212012657238755 0.006488559599125024 -0.01450057490532522 
-0.02050871631629977 0.004593651686175741 0.0009568068588031639 
-5.489207974775169e-06 0.0007146853568027932 -0.0006380106737405498 
0 0 0 
-0.0001767817118722817 0.001259539263492562 -0.003480091187829066 
-0.0006771140958465609 0.001188197725889597 -0.001510657592683688 
-0.000214010285947306 0.0002427925204542648 -0.000238348875727202 
-1.479096854563606 0.5000398605150018 0.6437221414395048 
0.002824232362380657 -0.7205299526879865 1.065678000670206 
0.6141668187031232 -0.6025534636196157 -0.00469462827804658 
-0.002642239020643926 0.001631614525180412 -0.03677121969578787 
0.0001166444900039539 0.001769673376105985 -0.01125412317030396 
-0.001743232895673075 0.005658556005570327 -0.1779367386105204 
-0.01329957250135742 0.003089507950049542 -0.004478172610893547 
-0.4179209916203525 0.1884129352618597 -0.006032182387068394 
-0.005983921947053108 0.005708751466775149 -0.02839679244746269 
-6.445198616876378e-05 -0.000100030701409139 -0.000288105329069933 
3.519048242791516e-06 3.815023541901775e-05 -0.001921509775894816 
0.0001560070417171182 0.0001966637969732631 2.123978506143389e-05 
-2.046480791548267e-06 -0.0004167731267819144 -0.004065281766663867 
9.152128598532379e-06 -6.562316724183009e-05 -9.302778366678988e-05 
-0.002203979924037668 0.001027506695417466 -0.0003853573270263152 
-0.001506211308252282 0.0009570056700706355 1.807544536827707e-05 
-4.767749014028374e-06 4.458221303162123e-05 -5.441190335295841e-05 
-3.596103903778192e-06 -0.0003018157393089297 -7.237938142808572e-05 
-0.1204271114723113 0.01214614420032846 0.00335589251903087 
1.168405353003012 -0.9033114069901508 -0.2728237531335127 
0 0 0 
-0.001075242357890351 0.5368553424044512 -0.6753525555601186 
-0.0001137480174849508 1.075674927095908 -1.269743199830013 
-1.888273387571746e-05 0.004898672952784895 -0.02786156611690181 
-0.0007934251138887371 0.0004476511216123172 -0.0005634320068990279 
3.173259155627576e-05 5.543323960875478e-06 -0.00138232166527093 
-0.004932110258836577 1.940336929650777e-05 -0.001492804594815741 
-0.001266001353306927 0.001033723662855 -1.232615406749727e-05 
2.033184662555149e-05 8.165119469962531e-05 -0.0002126639403052148 
-2.647588359870176e-05 0.0001136748947636756 -0.0001270356420405091 
-0.4401051577595745 0.4906350089541741 -0.01012858579997596 
-0.002975820210722201 0.01197765444559349 -0.01517752925468162 
-0.2186689731916369 0.08999392624239347 -0.354252135102832 
-0.004006346788538302 -1.22598078150791 1.321726786180723 
-2.028071682386951e-06 -0.0005849134146087293 -0.0004513356007425616 
-0.002423413834985224 -1.100495473832358 0.9990357002398783 
-0.006359690800252031 0.001236985521381612 -0.002874192292168219 
-0.001895826598502793 0.0001879835808387549 -0.004916583590794611 
-0.008015612351172983 6.191489160379302e-05 -0.0001415460778799769 
-0.002823757455787222 0.002063823580862644 0.0002637659513624324 
-1.013544462558803e-05 0.0004684384555598026 -0.001779050117929408 
-1.138926272688563e-05 -4.439682248115134e-05 0.0003546163770209032 
-0.01573877193715695 0.004079374529072297 -0.002291183721253612 
-1.381839844198185e-05 0.000106335697740177 -0.0002182419175103587 
-0.04041463217038825 0.004971925933790243 0.0001549907905311111 
-0.02670413545845777 -2.365665485231897 2.722364560888599 
0.0009393089485953963 -2.220405928803307 1.972012266382905 
-0.9480207521056685 -2.086451929378851 2.039324958430458 
-0.00355427335805991 0.001891176921129569 -7.54350828489759e-05 
2.294445409948886 -1.649757454069538 -0.09111658680295158 
-0.003856324846824815 0.4686137893074528 -0.0002816279171390012 
-0.0002134248178606644 0.01099044866401696 -0.002646852458348225 
-0.7060109025806794 0.8055365086648351 -0.001520249088032913 
0 0 0 
-0.02792246782653877 0.01679134883222322 -0.03694176520366015 
-0.005644899733161872 0.3404827323132406 -0.4213764831639142 
-0.007128252119312439 0.01025405220916667 -0.03799921434546601 
-1.388952715622521e-05 0.0005891205224592701 -0.009339454025745552 
-1.255268630203511e-05 2.263895136524915e-05 -2.851052237645883e-05 
-0.000148578252086513 -0.0001156373007237318 -0.0007945616455537643 
-0.006173905278830812 0.0001208640292867124 7.472295970080738e-06 
2.880542760671203e-06 0.0002467966959549501 -0.0001993441460752172 
2.341919315815492e-05 0.0001573622830279711 -0.0001456928021927506 
-0.02669164139059096 0.003182844356852337 5.160274944430207e-05 
-2.097445813552168e-05 7.874963332807713e-05 -0.0005453355912124038 
0 0 0 
9.742452768653322e-06 0.001303326776233559 4.161740734218294e-05 
2.490146852978757e-06 3.346789455018331e-05 -5.11351104628166e-05 
-2.348920379473777e-05 -9.444834163710015e-05 8.001685667383642e-05 
-0.002185232216667304 6.667105956928936e-05 -0.0003889275884459868 
1.507801806129962e-05 0.00039693280943742 -0.00413190926636659 
-7.957131957999569e-06 8.112970928864547e-05 -0.000592800621606653 
-0.002816477778405337 0.001860142151431297 -0.0001876574432794705 
3.93371295016075e-07 -0.0003042822481351879 -0.000163165803732736 
-3.405653994260048e-06 0.0001030166778475604 -0.0003162098948427554 
-0.01862982279588696 0.002565634640329175 2.58760386663707e-05 
0.0005682813172500999 0.002942588406553914 -0.003509094439258014 
0 0 0 
-0.001692183094007619 -0.003697035749771457 0.0002826876332016467 
-0.01662585768861775 0.002391085374638726 -0.0007665843806700839 
0 0 0 
-0.0001094406251683536 0.001617540037061679 -0.002776904111479912 
-2.236573888422849e-05 4.241653513598811e-05 -0.000148284151031613 
-0.0005565111579973833 0.001795145417375591 -0.004027635491453105 
2.366499336456861e-05 0.001955965313696799 -0.009058303516875921 
1.821513132416649e-05 4.452164258295073e-05 -0.000272044910718245 
-0.001356507620621356 0.005403708596798265 -0.003835594896982277 
-0.06933271548083994 0.7709372682275303 -0.03751019170058497 
-0.3994116401833442 0.5053821759041529 -0.01509817001730789 
-0.04658641598976335 0.004447765576173054 -0.0002393365994482041 
-0.008966722674718756 0.004598245573002101 -0.004142033407444961 
-2.16022581834592e-05 -0.0003772144341656155 -0.0004483363412353212 
-0.002492098923332617 8.581472487515933e-05 -0.0006103762586329428 
-2.398934152668746e-05 -0.0004270554916718394 -1.973003085580634e-05 
-3.571785125191775e-05 -9.118857873728572e-05 -9.585135032106283e-07 
-2.065389400218466e-05 -2.31150705479604e-05 1.438974703603003e-05 
-0.000942370196725894 0.4459928450737883 -0.04171123778917996 
5.626722930403328e-06 0.0002174538549370009 -0.0005931065436030382 
-0.08017370689960922 0.4287464692088652 -0.003582839527195013 
-6.281413268705455e-05 -0.0004147997613962613 0.0004181405898894752 
-5.055718865044329e-05 0.0002887615318160601 -0.0002844307000935783 
-0.0002641329821139059 -0.0005732427753335632 -7.228664037287603e-05 
-0.001172612950926534 -0.0002198444567903669 -1.965609586187488e-06 
-2.832091194360056e-06 -0.000499714493622756 -0.0008408632213333722 
-4.790282528800063e-06 4.474989829526869e-05 -5.399372137910102e-05 
-6.054929595769996e-05 0.0001800222188274846 0.0001039628487122124 
0.0002374893520440999 -0.0003624958488158988 -0.0003001599903419411 
-2.603947880242576e-05 -5.316658280239182e-06 4.343275014754783e-05 
-0.003627487310283098 0.006540388392339475 -0.01565670202190748 
-1.842684201303465e-05 0.003055530007801505 -0.01095094046237699 
-0.001662218498956942 0.1252297063759295 -0.00129025715780159 
0.004099340714372281 -1.496853440577889 1.91358367866255 
-0.0006803057811059692 -2.154267119814749 2.823526041174222 
1.351816021007262 -1.379671951570301 -0.05591460455045668 
-0.004044809973061115 0.005778671960980998 -0.1103642096956707 
-0.06500888153731554 0.2938842729522953 -0.003888884125346587 
-0.8280078161974442 0.7744401980037263 -0.003986216920086122 
-0.0003018018134160418 0.0006713634556575445 -0.0007311571860472962 
6.961375928216463e-06 0.001117142287297981 -0.004780639015609035 
-0.0004746379690965659 0.0002465889284690565 -0.0002051248363427773 
-0.0001533764117530669 -0.0003640349274506275 -6.817145998311707e-05 
-1.074359204118715e-05 -0.001057783825626955 -0.0004095141567952708 
1.889165520176838e-05 1.102715526252994e-05 0.0003125523823203682 
2.512864803318378e-05 0.001223171347134232 -0.004012521469473708 
-9.561061348062978e-06 0.0005687553208625943 -0.001756329035187145 
-0.002669273889575406 0.001863964933194507 -0.001177663706536442 
-0.009345761375185176 0.0005822861666360794 -0.0001196580866713516 
-0.0006990477462424036 0.00133677134901649 -0.003203967213722549 
-6.846646603494172e-05 -3.481292756913189e-05 6.761189840837662e-06 
-3.083491831099354e-05 3.101306283315178e-05 -1.10531834877566e-05 
-5.318653062705031e-05 0.0001720387783200568 -0.0003135213869308827 
-2.005086861518639e-05 -0.0004959040490838555 -1.0795282168251e-05 
-0.0001907320905917574 0.0007192901362971252 7.375867171856857e-07 
-2.541748767682967e-05 -0.001580104866063703 0.000225538751648395 
-0.0001781472142557674 -0.0007800774600959727 -0.0001965253377547628 
-0.02272336707536891 0.2355061079054723 -0.03108815543767549 
-0.0008095460174894232 0.001495182822303953 -0.009648160278129854 
-0.0001785574546882732 0.001192386435076865 -0.01033843801995672 
0.0001328872590215082 0.0472335626907309 -0.2183286205764974 
2.751507337348019e-06 4.219346811396888e-05 -0.0001816978279174053 
-0.0002634726399224081 0.004912597029640329 0.00017785247727262 
-0.0004869871224785515 0.006253180499115815 -0.0149265915447906 
-0.0001098224888247308 0.001801353646727176 -0.003038233623740959 
-0.006264780166213848 0.04121757911318284 -0.002664394859217874 
-7.741241653228768e-06 0.001058334240425715 -0.001970846766925089 
7.557005380454948e-06 -0.0001076960614110768 -8.932318937231358e-05 
-0.0001818709743919865 0.001215337082344211 -0.003125386029328899 
-0.0004791501548539076 0.1088350992603969 -0.00270017728619985 
0.0003512105242569806 0.5185259309806338 -0.001462293739770493 
-1.074018816609369e-05 0.0001161097958496699 -0.0001518351546899833 
-0.001383674658078122 0.001606090976424926 -0.001017561749271514 
6.007280556228958e-06 0.0004792904373703159 -0.002521247321638091 
-6.232147486444666e-05 0.0003618913701097691 -0.000195953601913704 
-0.001065976688911802 0.0006633414895137616 -0.003826970246619108 
3.208376913722647e-05 -0.0004656632172778191 -0.001815220148555007 
-0.001402619175408576 0.001680244080282064 -0.002543901832279091 
-2.394365357528464e-05 0.001393125472722962 -0.002310411645621081 
5.263871088478922e-05 0.0001630787718733441 0.0002949813541445598 
-1.435329258096814e-05 -0.000211186896717203 -0.0009527383455286072 
-0.00819614098314995 0.004477696240526734 -0.0003104682718055335 
0.0001125586376062146 0.002777610247210959 -0.01286893113368389 
3.051177477069899e-05 -0.0008244788664285284 -0.000674576332036308 
-0.001556999803614012 0.0001893216478824401 -0.0001985498802653724 
2.595034495710215e-05 -0.0001951550261924246 -0.0009133761999397547 
1.29910970458979e-06 -0.000664890625583206 -0.0003977931487992986 
-0.001475648118194222 0.0006910580950373763 -0.0003007700218716662 
-8.199702745560307e-06 -0.0003199431818724064 -0.001431806829144142 
3.025910307963744e-06 -0.0005265702808540587 -0.0008460705373914559 
-0.003294517202643148 0.002407396663281912 -0.001213785590769461 
-6.388363380319387e-06 7.836301228164304e-05 -0.005457250788876458 
-3.8015143698315e-05 -0.0001188421183631388 -0.0005985934877804466 
-0.011504285434293 0.2142612535924563 -0.0001776945509404465 
5.828513268706687e-05 0.02168028376778646 -0.08029805758375688 
-0.0004017851351682846 0.003094903757105861 -0.001756742100521786 
-0.0008036131131636188 0.000566689230940369 0.000156618394949236 
-3.13320489789479e-05 0.001195156597726413 0.0002502644763430246 
-8.599557686545684e-05 -0.001101371559950934 0.0002893683198540081 
-0.004917895821714907 0.159764662995432 -0.0593321591426265 
0.0001405315757424372 -0.000237303231280093 -0.0164323779099455 
-0.08978033861155914 0.03517216226655152 -0.05093713161266272 
-0.0002196840622837816 0.0007709250612567921 -0.0003511667468553128 
-3.368105081776119e-06 0.0002762162211531989 -0.001708147161673454 
-2.176925868781865e-05 3.849918766417948e-05 0.0001603263096816688 
-4.005821043283069e-05 -0.0005749942979537566 -0.0002625905405299805 
-4.906755501179466e-05 -0.001197730179160331 0.001505947487078137 
-2.864909606059033e-05 9.682196204499767e-05 -0.0003303274239378901 
-0.002479568606633347 0.001088053594817838 0.0004317158267810272 
1.704235003468633e-05 -0.001706669159698909 -0.0003393006319141437 
-0.001296118041744119 0.003920175650359234 -0.02775024821306383 
-0.000293019248838118 0.2110547289070343 -1.202108063814979 
3.668552718983145e-06 0.001577657276596768 -0.004051279571014853 
-0.0002691158294230094 1.257759721283851 -0.9389484369477979 
-0.000344120585394153 -0.0002634566581563936 0.0002684498556921854 
-2.484231066967573e-05 -1.249864666105009e-05 -3.772407111660654e-05 
-9.859076243534549e-06 3.516762024172527e-05 -6.519100474744828e-05 
-0.0001847687930194522 0.09581301582503984 -0.005134096873203556 
2.607708865958788e-05 0.0004095581375071131 -0.002615297955927137 
3.581757035040686e-05 0.007757345699820283 -0.2782763249980637 
-4.317666514168718e-05 -1.797772493343339e-05 3.700532946653126e-05 
-4.189314915556585e-05 -3.946170706787697e-05 4.273775921874178e-05 
-3.171532238499577e-05 0.0002515884999534696 -0.0001358866000222403 
-0.0001983030070841594 0.4440358275705292 -0.2897222174477008 
2.27127899782142e-05 0.001732466087335136 -0.008559709144974217 
-0.1441854013218257 0.01079831033945138 -0.01687994921952035 
-0.006749563111567418 0.6799805447620934 -0.02489945147675485 
0.0004100906201925328 0.002813094054186861 -0.003905304780841593 
0.0004076164141581124 0.002925185048592867 -0.004890191878022522 
0.001967115575995014 0.000431873427542213 -0.0002495816817991172 
-0.001386495363144195 0.001078066083491116 -0.001893074370182038 
1.859243909271495e-05 0.0005023223459195217 -0.001796486293241798 
0.000377058809032471 -3.3634569635164e-05 7.147707251548776e-05 
-3.296115035188476e-05 -0.0004975332024326939 0.000913406249343732 
-7.942814208197684e-05 0.000171864868069203 0.001659610791742546 
-0.02639964922541889 0.03273251588151634 -0.4631012370378008 
-0.0003435735864873802 0.2755354251866357 -0.09509020682061675 
-0.008014685690925463 0.006645215029461401 -0.06449530381815938 
-0.1810688652935244 0.0006667629228958605 0.0006299249614329514 
-3.641902039952561e-05 -0.0002549122106333839 -0.001340794258123402 
-0.01124023090952016 0.002540651615765031 -0.002524454051602839 
3.105331415974118 -3.246513838648769 -0.001055156617401233 
0.000358841515934467 -4.228694191803968 4.166692628458441 
-1.364616488510341e-05 0.0002333592835775167 2.248517506760768e-05 
-0.0005827159416520466 0.002406977038807078 -0.0005110031467321467 
-5.677741555489728e-05 4.667376871789788e-06 -0.001785826383878475 
-0.000700191585875138 0.002726447217759027 -0.0003544420051683612 
-0.0005919708863295805 0.006511169586701249 -0.01169602106808966 
-1.843511615800382e-05 -0.0006974755207083993 -0.0002569506993283967 
-0.002940084224215761 0.06498928843694682 -0.007501459102552823 
-0.001771834372330497 0.3448492116071561 -0.01382369487273772 
-9.921413225986807e-06 9.733837070850237e-05 -0.0001356495079139269 
-0.4936729693436526 0.2758955919249794 0.0001006339151403922 
-0.0006806315546732872 0.0005207543104578893 0.000190702619998697 
0.0001204924871890661 -7.834162382574048e-05 -0.0007057113131290734 
-3.394829569285346e-05 1.539313259782969e-05 -0.0002626405889717218 
-6.935723122765071e-05 0.001539350889805783 0.0009435995266877968 
-8.390777628541986e-06 0.08617390215168302 -0.5354798178329097 
-2.148205431560542e-05 -5.129434934010317e-05 1.657866691893345e-05 
-0.0009194023702217291 0.0002696568785738422 -0.000507233987384005 
-6.364917918999607e-06 0.0003388645527348041 -0.0004881804500004859 
-0.0001026516332569937 -0.0003881344871657597 0.0001937873825487975 
-0.00163975078703964 0.000851309218915505 -0.0006195122373489966 
6.545428482966402e-05 0.0004978897033853029 -0.002715725435701423 
-0.003085118896427187 0.003317866942669527 -0.01159255165693125 
-0.0007150105243388404 0.002501223597812956 -0.2284044106424491 
-1.117041596210655e-05 0.0005603535375386233 -0.0009304572317124497 
-8.454977428399954e-05 0.0001423713379174591 -0.0004988004303496471 
-0.000405825701402077 6.375316039026391e-06 -0.0004152086388154005 
2.294991943694104e-05 0.0005552112631448363 -0.00136800889195929 
-0.001003684238704353 0.002447809192824741 0.0003139145415206971 
-0.001918673678055374 0.0002838946282571986 -4.731878621814679e-05 
-0.0001996459980024869 0.0008408930809493731 -0.001996638244919834 
9.236797766591112e-06 -0.0004017451333413963 9.781963268407033e-05 
-0.001139175842939392 0.007813380670193982 -0.01210237729654383 
0.0001771874634937639 0.005910981275899932 -0.07630936834481192 
-0.01499239926508625 0.0004397707397086391 -0.0003084483801964042 
0.001024082132905013 -7.718445417842887e-05 2.922753737718291e-05 
-1.541649008023046e-05 -3.083067241532012e-05 8.83730597358892e-05 
-7.123548381281908e-06 -0.0009210926951391185 -0.0001737791471041644 
-0.005937861447970092 0.0008961354425197223 0.000294004726851774 
-1.144421277783076e-05 -0.0001618870694775699 -0.0002511344644661419 
0 0 0 
-0.0005475483466640898 0.00034086785551792 -0.0001100377442990421 
-0.001035593010762609 0.001187899492194822 -0.0008861291019071123 
-0.0009835408199131818 0.0004682503270932138 -0.0005156697059147234 
-0.000289316214664573 0.000381705805546667 -5.756203535213457e-05 
4.145955768339938e-06 0.0003511614268201926 -0.001947900491510268 
0 0 0 
-0.002287360091178751 0.2580459506480588 -0.04934077539509416 
-4.610645087489759e-05 -0.0005534433423546933 -0.0008538197722067386 
-0.007882214534486577 0.01055621697534763 -0.003352786810270256 
-0.001819535885334592 0.000199069458679028 -6.190784477301519e-05 
-5.557364426635874e-05 -0.0001407382351588696 -0.0005394960896136958 
-4.048961855057708e-06 3.848870153004292e-06 -0.0001007967066279691 
-0.0008712114270860934 0.001256682804787263 -0.001754812472368503 
-4.228054430887067e-06 -1.672590919677923e-05 -3.454887490132049e-05 
-0.007514870722725932 0.0003103769814018403 2.371245393346376e-05 
-3.657746035490842e-05 -0.0006012682468149431 -0.001571333077653599 
2.363696129403343e-06 0.0004251222737749266 -0.0004615332643782077 
-0.002425793376468143 0.001821738960587993 -0.001382107089795436 
-0.00150516948789314 -0.003876100358210109 -0.03426206414264768 
-0.0130112242173677 1.509650051685409 -0.001752444908852803 
-0.004651561183675039 -0.002787466790744373 -0.009687447573407183 
-0.002432601561845047 0.36789567059633 -0.01934476451316243 
4.513058243828986e-06 0.0004107916549816479 -0.004260926937983856 
9.74878147426161e-06 4.350246041716622e-05 -0.001185648012988683 
0.001677805482180296 -0.0006634086197898308 0.0001650036648189889 
-6.330924920303702e-05 -0.0003723018476772178 0.0005239716376085262 
-0.004329212625475262 0.001293485266113203 -0.000754003106389931 
-0.001332799784839606 0.001160981952048327 0.0004145513808198446 
5.809922750857128e-07 -9.647306533269312e-05 -0.0001890661968347685 
0 0 0 
-0.0004775123977081611 0.0002657283575017278 -0.0004328391562515193 
3.025910307963744e-06 -0.0005265702808540587 -0.0008460705373914559 
3.025910307963744e-06 -0.0005265702808540587 -0.0008460705373914559 
0.0003521886910083851 -0.0004372074230674745 0.0001284072681559557 
3.509311198378799e-06 -5.066721778524437e-05 4.751234069128301e-05 
2.177218515293868e-06 1.677981831264715e-05 -0.0001519528269575803 
-7.501522118508382e-06 0.002492068998445418 -0.01204829794272046 
4.768698238241807e-06 -0.001911709020719992 0.0003841067567600034 
-0.1224046064251927 0.004394220556404022 -0.004243226484523187 
2.956382220835417e-05 0.0001930029597630435 -3.014381595922986e-05 
1.03934438541189e-05 0.0001996608951789634 -0.001016061770263228 
-6.915184902423476e-05 -0.000260882997895134 9.463843537970244e-06 
-0.005926183572569374 0.0007429793937204675 -6.605875893875089e-06 
1.602407150915118e-05 2.637794251828877e-05 -0.0001922187558906986 
0 0 0 
-0.001738473057435874 0.0005531765720819615 0.0001757562357117437 
-0.0004847612224199325 -0.0001628650915752543 -0.000260796356140068 
0 0 0 
2.45597813619994e-06 -0.0007941895469697781 -6.747951656411187e-05 
-3.476419740456738e-05 -0.001107738217124414 0.001582292704850098 
1.738673199436071e-05 5.597260854127762e-05 -6.759706684528968e-05 
-0.002254400922941761 0.004778790224531769 -0.007607311327466405 
1.942267310316386e-05 -0.001137297468828631 -0.0008999911380510804 
-0.01356896828211943 0.004056910641883391 -0.008393692934029272 
-0.001739433132058753 -0.0005013614272216365 -0.0002763599795402055 
-0.0001412663164434398 -6.26555260689057e-05 0.0008292600473153533 
-0.003591613876806065 0.001444869822028377 -0.001431537809527097 
-0.0006339895027711339 0.0001565751660974911 -0.0001173203473084349 
1.311547041286775e-05 -0.0001881585083110576 -0.00132851172200271 
-1.574322953573554e-07 -0.0003200668445247735 -0.0002878637612283349 
-0.01649214982586199 0.1235109332768019 -0.0168442528831346 
-0.0001006368887310117 0.00133576530506123 -0.006600428051210877 
-0.01685491275834342 0.007247559366824809 -0.004748030902616367 
-0.007679401422098911 0.001667913189861887 -8.449788597556901e-05 
-6.898209793406637e-06 7.283426703848708e-06 0.000188138501885159 
-5.651752758881572e-05 -0.0003830686973846285 9.82204843099884e-05 
-4.179290609867718e-05 -0.0005963408528757682 -0.0001304530503199961 
-7.659974057900966e-05 -0.00153143106640183 0.0002321365087877606 
-0.001352019847019904 0.0003716825682829488 -0.0005822855154534396 
-5.910584570100645e-05 -0.0002844056376924843 0.0002477831011480538 
-0.00208458034114685 0.001631236830191806 1.390478662575332e-06 
-3.649752770605189e-05 -6.072108484417529e-05 0.000233627964410295 
-0.2420708038771589 0.3710172081331974 -0.01707752135015635 
-6.767351698674276e-05 -0.001230856023623818 -0.001258402192230398 
-0.001434449742091342 0.008233404325593829 -0.01154979894933177 
-0.0001653860829934078 0.0002303905525794038 -0.0006024082257755564 
6.686092695219117e-05 0.0003899030657344797 -0.0009990817443510265 
-0.001397493160036372 -0.0003292457586473039 -0.0001138095759229882 
-0.004368994058224098 0.002594985982924802 -0.0006000920074240656 
-0.0001676107539018205 0.0001531894127416354 -0.00200738830187111 
-0.000219598251591346 -0.0009721743397622441 -0.001484375963177466 
7.488736722692348e-06 0.000342352435742873 -0.0002295888867787066 
7.162660372823253e-06 2.386901753342406e-05 -7.571323645506055e-05 
-0.0001339867209616837 9.495783380304228e-05 3.657403032175989e-05 
0.0008524048699266119 0.005028242976858127 -0.002768728322650294 
-6.898021926270253e-06 -0.000177756048651057 -0.0002652778927884097 
-0.0005446690447564984 -0.0001402803287738098 -0.001606121225555894 
-0.0009195054198844154 0.0015012607426612 -0.0001245090640933569 
3.98161492623535e-07 -0.000333166051055547 -0.0001542471204916324 
3.926319422356388e-07 -0.0003038209660249579 -0.0001649748776694031 
-0.005109781703038158 0.001808794338854068 -8.304221707733328e-05 
-8.634532799398766e-06 0.0001243205592925734 -0.0004158942483051946 
-0.0003147896632155157 5.914709953350581e-05 5.802294705051067e-05 
-0.004007806637059597 0.0009996422052441689 -0.0001288108121671293 
-5.91508006237676e-06 0.0002105999931035303 -0.0009314329417570596 
-0.0002432930588655295 0.0001469577789509239 -1.854862174566722e-05 
-0.001710417920146427 0.002189705346301059 -0.0002254002103538422 
-1.266533393116888e-07 2.102061721627794e-05 2.642337785555771e-05 
-0.0002234565816922969 -0.001720919265953972 -2.102319356516833e-05 
-0.006711857241053183 0.00318254145921657 -0.0004704503941806272 
-0.0003851932849751648 0.001417266051616338 -0.001576792612623578 
-7.666174686474562e-05 0.000512335780449817 4.128285067061702e-05 
-0.006589032201035271 0.004073924704936636 -0.01374129439566479 
-0.001577262037745281 0.07477511586638891 -0.01043391119160803 
-0.00758210789820786 0.0004452795373076622 -0.00625812816246655 
-0.007272566681129459 0.4295450436663517 -0.02220446997551999 
3.532485260919377e-05 0.008614840947453243 -0.3026734264961071 
-0.2463609642640627 0.01162813745212573 -0.02728101012413838 
-0.02888824887043649 0.3599376790760035 -0.0150141342960552 
-5.554085604404936e-06 0.0776500835761702 -0.2696434010794737 
1.487473666682474 -1.793016357394096 -1.410492615769783 
-0.002765521093732332 0.0005827554155628303 -0.002022333985185425 
-0.1654540628229138 0.6134775845960964 -0.004634658741622192 
-5.989804497930843e-05 -0.003337415742945294 -0.002056102450216794 
-0.002061241837055224 0.007873758846369412 -0.02650300417556649 
-0.001671368715534719 0.04407588374341444 -0.01943634803238994 
-0.01558204854558266 0.008077377753349903 -0.01015872837543353 
-0.01281478418452625 0.001259361604868615 0.03027792907362422 
-0.001303529973199052 -0.008330790338364332 0.002103196232767292 
0 0 0 
-0.0005832765933529933 0.00018928049544664 2.419242000235981e-05 
1.68420100163983e-05 0.0001308577121414604 -0.001241280050086607 
0 0 0 
-0.0002327153288258356 0.004264331751327412 -0.01045323673806038 
2.881083860771448e-05 0.00121465866553496 -0.003813654637762127 
-0.00531609926348452 0.003365215006179663 -0.003100969172966225 
-0.001108302986097848 0.001892393957494772 -0.0007803089010847105 
-0.0001857185963989806 3.094739062511027e-05 -0.000263356367491656 
-2.345706518755294e-05 0.0002423251281685138 -0.001448139785574017 
-0.00105575636066549 0.0002199619899137216 0.0007304960571425529 
-0.0004221579687220607 0.000425542042402978 -0.000784948506005213 
-2.659247324236628e-05 -0.0002473047207562833 -0.0009053783950493163 
-0.0004801257166754499 -0.000417633031300668 -8.314317793760513e-05 
-5.256557094809004e-05 -0.0005117801050854604 0.0001277970975317163 
-1.155319064449718e-06 8.085090076198982e-05 -0.0001324708901729237 
-0.001406933027313686 0.002454660866220327 6.666155441053617e-05 
0.0001889252598768202 0.01969323730313532 -0.002088754467219244 
1.352553703506721e-05 0.0004929169169484937 -0.00065423312631051 
-0.0001393625504338775 1.662840075642976e-05 -1.305543072887394e-05 
-3.64268762059536e-05 8.428951203015426e-05 -3.166398114613173e-05 
-5.065744819036729e-05 -3.487578172784792e-05 -1.385168014701463e-05 
-0.0014831910075971 0.0006779263797133116 4.899705849310413e-05 
2.978032578890822e-07 0.000110344486304195 -0.0005266049452857441 
-1.55868160613537e-05 -3.872230435042195e-05 0.002208001513091558 
-0.01156674144993219 0.252278652911781 -0.003119772447454817 
0.0001022345890423692 -0.0002218524529637892 -0.004924748119135902 
-0.001109885315924168 0.002762825927811037 -0.008611051719999038 
-0.01286751027393915 -0.7718467703388598 0.2110532851167068 
5.488241976084105e-05 0.005214419737487759 -0.01211102345001522 
-1.017769706263025 -0.8168704760752095 1.043615402440418 
1.754925584287225e-05 -0.0004427338810160375 -0.0006471171130687362 
-2.386432123029262e-06 3.945877640468734e-05 -3.404498269631371e-05 
-0.0007530716103717898 -0.0001002806705443808 -3.000335783714016e-05 
-0.004473768174263552 0.0007706692923897184 -0.004988500350804334 
-0.0001520576713808184 0.00101754759877769 -0.003508932850741274 
-0.003663661562000909 0.0009025925038101343 -0.001047163347056819 
-0.0001888890000462095 0.001636306823032056 -0.003766924089227875 
-0.0004276608674939523 0.1051732987682574 -0.005457914190923273 
-0.0005232746241506162 0.001631694811754788 -0.002867797924576514 
-0.0005708584696105411 0.00101523804413876 -0.0009482210283216161 
-2.097445813552168e-05 7.874963332807713e-05 -0.0005453355912124038 
-0.0001769138402118467 0.0001979104802444024 -0.0002364881582161857 
-0.001729595627111861 0.0008311744494919283 8.078729372313959e-05 
-1.15042098698042e-06 0.000114836589913106 -0.0002487035272442549 
-1.183784169060553e-05 0.004244922831377125 -0.04730280132663202 
-0.004258992296655432 0.001472925777597994 -0.001993255671829739 
3.744640639112742e-05 -1.548900891284304e-05 -0.002930469558777451 
2.340824159337332e-05 -0.0003349889581834876 -0.001773702294132006 
-0.01481147716450195 0.005232467886400919 -0.0008579087197693199 
-0.002273932125237117 0.009101725184253588 -0.65487799695793 
-0.001508030647728871 -0.003378639629402568 -0.002539177641497108 
-0.777529319610097 1.044956421810272 -0.148128974649722 
-0.0002145948616037245 0.4677935361600895 -1.301203280341936 
-0.04193095713314762 0.01622481887992876 -0.02486924474164747 
-0.1442306338182008 0.2083531160761329 -0.01109507038472309 
-0.001909768584936864 0.00253770878243447 -0.002538693161097761 
-0.0062163240258853 0.009755127144191878 0.003392902970660449 
-0.01343826511580088 0.01228947753377504 -0.01658562135312832 
-1.756302968586201e-05 0.0006030290900934935 -0.0006397438537082843 
-0.01694421255463288 0.007297563425171384 -0.2909471157305685 
-0.09497756834710329 0.03425253359010926 -0.003683975340541157 
-0.0002217741949521425 -0.001339071810323914 -0.001728909405697486 
-0.01040073679475386 0.002277641813921424 -0.0007749112356278541 
-0.0002931208516169314 0.001022946611690936 -0.003286088422292824 
-0.0002332126811989966 0.0003221803247915835 -0.001755675349436004 
-0.0001807363452989252 0.001398413502148268 -0.003532941642295775 
-2.662081749080376e-05 0.0001081099967348171 -1.893768462946041e-05 
2.933414691517298e-05 0.0002269818205237163 -0.001228720680619844 
-0.0003116847471405181 -0.0006209435712398963 5.359583882980864e-05 
-0.000131893560004404 -0.0037192878402112 0.001724412573275002 
-0.001009112007109207 -0.00169081548680261 0.0006513683925698804 
-0.0001748307835669744 -0.002148380928977945 -2.425312197871027e-05 
-0.2886428581921269 0.002190545176199669 -2.676267485057426e-05 
-9.856777627750353e-06 -0.0002527680910291491 -0.000111310240131578 
-0.0001247688461541104 -0.0005440299283552485 -5.431751604492699e-05 
-0.002180536096761311 0.0004267924795785369 -0.0001771941324404615 
3.345102424046866e-05 0.0003094158283182137 -0.001872573784724838 
-1.564895119439626e-05 0.0008246837771872352 -0.001467360953892545 
-9.074332643453729e-05 0.0005796434675305922 -6.646757384645619e-05 
8.576339741858626e-06 -2.620362936729795e-05 -6.61946475228377e-06 
-2.406096119556219e-05 -0.001126991594430823 -1.076034060889016e-05 
-0.000606240073118072 0.001001525807451801 -0.001166836813085857 
6.246367590091685e-05 0.0005502421428225196 -0.002430535410043727 
-0.001167550406550582 0.0005819018866082794 -0.0004942372117527362 
-0.0002214339554343203 0.003293481255678085 -0.002865451464168139 
1.08686636061166e-05 -0.0002218850207734191 -0.001148789236465989 
4.291600157017831e-05 1.870310586823397e-05 -0.001118446088301042 
-0.0003059601164821277 0.0002542838740949246 -8.358457438612208e-05 
-0.0001388489234817196 -0.000228662138165187 -0.0009698549781549873 
-0.0002271321397470932 2.179347784705628e-05 1.199955065216219e-05 
-0.0009390420363450562 0.004322950432929244 -0.001125027094490662 
3.70234298337822e-05 0.0001053865837849164 -0.001744233015976801 
-1.476049121990775e-05 0.0003857274600224147 0.0003630882964862165 
-6.802217462449304e-05 -2.387810409294546e-05 -7.974538703485522e-05 
-4.445615393728238e-05 -0.0008368300095212872 0.0002973069801714391 
-0.0005532379020360475 -7.012233967826871e-05 -0.0001308594675839842 
6.052625556190417e-05 0.001548175541369462 -0.001254890583207843 
4.362036808468372e-05 0.002015220967140298 -0.00327260792375282 
-0.0003530707437537123 -0.0001143100026351506 -0.0002199866332257935 
-0.0008790451912212998 -0.0003872937817526722 -0.001088625265688812 
1.517730830420223e-05 0.0002963063552091126 -0.001517152053187891 
-0.001126295833390127 0.001522496158012604 -0.002232410595002525 
-0.0001930288101168479 -0.0003721237456158384 6.866450332958986e-05 
-1.358045678538557e-05 -0.0001324074322992897 0.0008376438337634729 
0 0 0 
-1.42785528000804e-05 -0.0004511708463183393 0.0001778643764680498 
-1.131946850944628e-06 -0.001115465391911656 -0.0001439994761142466 
-0.0001148441306223149 -0.001403043900666302 0.00127616400902709 
0.0001074219570072738 0.08951838020644544 -0.009084876939779581 
-0.3014223921377044 0.7575262454342886 -0.01776855606160287 
1.227861267500811e-05 0.1573515072221814 -0.1514284608719591 
-1.854152070266665e-05 0.002149691152182369 -0.004973607426137209 
-1.954002389910936e-06 0.0004775122411464375 -0.001765414630816363 
-0.0003502252179450604 0.001129104012592843 -0.003240419320105478 
-0.0008964814262625017 0.001393876666324619 -0.000208733534491699 
2.578673378294556e-05 0.001760802384480223 -0.007216584914671392 
1.324727061384182e-05 -0.000735953102721744 -0.000111095126564859 
-5.642996578894959e-05 3.101604239963312e-05 -4.62198016764893e-05 
-7.234063348343251e-05 -0.0001126441844489623 0.0001613512266442173 
-0.0004624694024022467 5.894083838388285e-07 7.524970774791087e-05 
-2.750324835055252e-05 0.0002500318240306487 -0.001685892821366077 
-6.609560695076818e-05 6.10899907354611e-05 -0.0002230790398166719 
-0.002675006614181607 -0.0001173425608326998 -3.18225352627276e-05 
-0.01640122874773583 0.002801205203459745 0.0003281319210864699 
-7.230552650552039e-05 0.000258203763320996 -0.0002434634260540865 
0 0 0 
-0.005754783415571876 0.001044787706750994 -0.0005849399355318433 
-0.0001431633780110494 0.0008281238777869647 -0.001954257243383313 
-3.004422454858344e-05 0.001049321820849578 -0.002419629579292569 
-0.008582041948171594 0.003493943371639604 -0.006751111058551554 
7.164949632425195e-05 -0.0003044795669809257 -0.01228053076623493 
-0.0005373681986115703 0.003440764561270351 -0.05892873048036135 
-0.01131107098930169 0.009727329691868181 0.000789901394177393 
-0.02400270280777854 0.0198832415500223 -0.02027234957751463 
-0.001599741773799643 0.0004212930655232195 -0.08888565275085041 
-3.209273942116621e-05 0.0001895386768743836 -8.718166694781844e-07 
-1.846524208231392e-05 -0.0003411580849205335 -0.0009965417055733715 
-0.0001620297626223126 0.0001136209191649907 -8.461462646780371e-05 
-8.267610078369693e-05 0.1744665890369655 -0.08861025148916811 
2.512830566841126e-05 -0.0001895996928662111 0.0001660174730175322 
-1.421104869055712 0.7277834460437035 6.568531283136126e-05 
1.970273535043863e-05 8.585697131988356e-05 -6.564544445278625e-05 
-1.495706245090854e-05 0.0001736214835940852 -0.0009561674410824908 
-3.120571959072413e-06 -2.851909005320027e-05 -9.571208755985103e-05 
-0.001754713977284842 -0.002187531547806694 -0.000281600246247737 
-9.933162379302436e-06 -0.001315551200870096 -0.001049315839141975 
-1.213159727526587 0.8374480386110194 -0.412899629137938 
-0.00249545637081017 0.001322899585016559 -0.0002756498679651857 
-0.001067298017614348 0.001375333667249344 -0.00080032379376797 
-1.846324060630466e-05 -0.0003805342106967005 -0.0004961237753803055 
-0.005568525275917318 0.0007919410564844625 -0.0001226137396759165 
-5.081168988149547e-05 -0.0008373977701825526 0.0001930359765479836 
-0.002400570841762973 -3.370443637574819e-05 0.0007390152560259865 
-0.0002130478556772965 0.0001847898750229292 -0.0002391844802638831 
5.0935765146955e-06 0.0006189569038546077 -0.001997196248520987 
-0.0001244287846200134 8.043238094807523e-05 -4.53749017658652e-05 
-0.0121450230761752 0.2375058545457054 0.0002446124531001565 
5.279568697605194e-05 0.2996013790813298 -0.1773734066356834 
-4.830576873206021e-05 -0.00106389009044454 -0.0005092648225562007 
-0.07971743745466679 0.280599196323805 0.006388888263880968 
0.0007735808582641767 0.01662584805361622 -0.0707797083157284 
-0.0009421164206905443 -0.006030785831908805 -0.004596188699081538 
-1.732438897640225e-05 -0.0002565124401524216 -0.000409348041687445 
4.695464521730578e-06 -0.0006485996338682815 -0.0001559025845461235 
-0.0003063601850719691 -0.0001028825511010297 -0.0007407374563079939 
-0.003380542250254737 -0.0005071295448331277 0.002983709310785031 
-3.959544253413768e-05 0.0003511896009717188 -0.0009729758989747553 
-0.00038852886419938 0.006616111806230193 -0.02583747124961332 
-0.000678122088089614 -0.0007102931059652753 -8.739618301149143e-05 
-4.228054430887067e-06 -1.672590919677923e-05 -3.454887490132049e-05 
-5.643803632568521e-05 4.127074241423348e-06 -7.606211879985998e-05 
-0.003913449509746371 -0.001624273968372783 0.002656234626457832 
-0.02994328959923386 0.004671227914286397 -0.00295123507829 
-0.0001080172480111601 0.0003376931683266326 -0.001386333023262104 
-0.000393534192364578 0.001281372245526338 -0.004614057767649863 
1.170911250253549e-06 -0.0004596555348814948 -0.000568598485915794 
-6.494337369881178e-05 0.00554658617324874 -0.07819531652841752 
-0.08733009790404514 0.00337691914213755 0.000106652500880131 
-0.0001470991559610956 0.001178604959382477 -0.002166125782373143 
-0.0007912830673773014 -0.001251630615426445 2.114667486478464e-05 
-8.743195479097448e-05 -0.001020438836145965 4.56450073576218e-05 
5.884477303288483e-05 -0.0004843269896870668 -0.0008113981453396965 
-0.007008321359588849 0.0006542899621265606 -0.0002826798872403105 
-0.0001759442267919224 2.184243011160454e-05 8.171974856790687e-05 
-1.061988639977834e-06 2.943468218036908e-05 -0.0001215217310660898 
-2.389447747316554e-05 -5.301941426644472e-05 -2.649075385144746e-05 
-0.3051342797387083 -2.069057791925669 3.193807382638585 
0.03439473082471995 -2.704969535692618 2.392939788195144 
1.871582797032041 -2.260477659638537 1.780373403299215 
0.0001442659301494832 -4.87502883065622e-05 -2.002567171032219e-05 
9.278328159206294e-06 7.765819600484978e-05 -0.0001892701553182719 
-1.808615942420155e-05 -6.761368331578367e-05 -3.644316644648973e-05 
-0.003282044517457189 0.009919034133358668 -0.9097459158104372 
0.0001109918185474863 0.1230889735896675 -0.06604940625433676 
-0.01672851680915422 0.6054233697745691 -0.3808755943079439 
-0.0009068953416460838 -8.504400152327964e-05 -0.001583023159296034 
1.371493371215851e-05 0.0001046095693819904 -0.0007252352876339266 
-0.001429467735461967 0.000525379820398645 -6.773232312708713e-05 
-0.0001236983201949833 0.0007626443957543686 -0.0008880777286893717 
1.761777838409407e-05 -0.0004191308289928058 -6.216341752418462e-06 
-0.0003336189218674588 -2.018238103737538e-05 -0.0002310354176591343 
-0.007012451146790112 0.00113966773970865 -0.0001119586922125797 
-8.728465548990907e-06 -0.0003890814766217659 0.0005576955688883021 
-5.228538414591532e-05 -0.0001180827566923416 -3.334460158359597e-05 
-0.001068085023269442 0.2558455094177506 -1.445534038729949 
2.831505835632397e-05 -5.88419242865803e-06 -0.0003844688445757814 
-0.0113548653037269 0.0053638693519087 -0.001360216725287524 
-0.007546993442620214 0.004228039738057743 -9.630084022015365e-05 
0.0002383093471933041 0.005126634643367486 -0.2291129211094418 
-1.636261718543499e-05 -0.0006476479475713636 -9.371912266887705e-05 
-0.2596753573503207 0.429601013975379 -0.02519673611602583 
0.001223734725926071 0.2241053308468932 -0.6535460050453292 
-0.02461843505468674 0.5008700555249234 -0.3857425161338682 
-0.002549128893664961 0.0008629359880684712 -9.149477030668651e-05 
1.089036917398216e-07 7.388093237170556e-05 -0.000343433998798749 
-0.0001850075602762143 1.154859721450101e-05 -2.35042090903963e-05 
-0.0002719058020742839 0.000890812686412303 -0.0007351404322063895 
5.762913735480194e-06 0.0005939045045058994 -0.001667189523158911 
-0.003143991379105941 0.0008342910583147592 -5.404628519347002e-05 
-0.002309761870547663 -0.00173699646853821 0.0003026997278276833 
-0.000123708203233192 -5.002553612126625e-05 0.006573534403687173 
0.5590808624358642 -0.5199850974148421 -0.01026722260555554 
7.293854682333163e-06 0.0005344299936385451 -0.003006021016140409 
9.542561311843581e-07 -0.0004365845079452777 0.0009530171168678846 
7.190345993083162e-06 -6.374065546870564e-05 -0.001152678333212094 
-0.0002635123558626687 -0.0007413841216257865 -0.000363399169489684 
-0.0002352654794517424 -0.001427067690399601 -0.001533629767572754 
-0.01274266087104411 0.006187828509528646 -0.003802124294929189 
-0.009932411613667775 0.4760889794211889 -0.5451058331250759 
-0.0006167796587738682 0.2022616579739118 -1.225184448597278 
-0.5844284830006572 1.085234395436645 -0.01364087644381328 
-3.430092647267328e-06 -5.030387079020703e-05 0.0002023902580053751 
-4.055572121842759e-06 -4.472891183100574e-05 -1.826476082305747e-05 
-1.05410104029371e-05 -0.0001435606355303425 5.956484711677425e-05 
-0.005283677111681088 0.001122041622489991 -0.001210837210764535 
-0.0003806979040982645 0.0007436106219759825 -0.001468201038933355 
-0.001515801239908476 0.001097859089922651 -0.002506581575535208 
-0.004507847871398309 0.003038224048458514 -0.228471075819525 
5.834543652356254e-05 0.001354374985473044 -0.004017629531089552 
-0.003595344999581969 0.000148637191167604 -0.007097262834333024 
-0.01335515456846526 0.003738859524148484 0.0001843720050347615 
-0.0004610705067675078 -0.000176471955531623 -0.0006943808511658964 
-1.094536783545104e-05 -0.0005663953899008693 -5.269755580764732e-05 
-0.001536019677614696 0.0004520243402591016 9.346213795000886e-05 
-1.362301703184305e-05 6.108219208345838e-06 -5.950668385400556e-05 
-7.305383527797341e-06 -2.509166250779119e-05 -1.14818938573108e-05 
-0.00619088117228022 1.077736063750869 -0.02130216556055552 
7.53584397405751e-05 0.2186989227245954 -0.7760758707382825 
-1.063993523959748 0.7059773932452397 -0.01717703641137554 
-0.4164442578954197 0.6662957439188908 -0.2217399872653135 
-0.00180182435458894 1.06465567230092 -1.498485372245291 
-0.6713976468499216 0.8796731304862286 -0.6163260440975504 
-0.0001149523367143135 0.001934910160100332 -0.00106760942709576 
-1.357202066343881e-05 -0.0003866007808984062 -0.0001434330477738436 
-1.726168698907258e-05 -8.767484605100215e-05 6.815839924675734e-05 
-0.03907229606266692 0.6074364281339164 -0.6598630152527138 
-0.009047951568081983 -0.0260321155947203 -0.003329885315593727 
0.450656841575878 -0.8100851735704777 0.6312130816846975 
-0.004864257457984865 -0.0005888083985547558 -0.007157810818499243 
-0.001078425572140526 0.002801111135050389 -0.01678309196332082 
-0.01800375626439537 0.002106156839249866 -0.00262925231147488 
-5.182551202349848e-05 0.000385561888203436 -0.001551980200395496 
-1.490930059778479e-05 0.0001073196542074392 -0.0003587390670279685 
-0.002312363986350747 0.000997208904699533 -0.002134897653362283 
-0.01611544746827652 0.09946703570862742 -0.0007276366412312925 
-0.0001995478273363705 0.000311213037539574 -0.0004482419898087736 
-0.001975212902358119 0.00292934263093106 -0.0007957521609404315 
4.71727286614882e-05 0.7178540017582784 -1.178783542835912 
-2.593008782631534e-05 -0.0002463187225602884 0.0002062072707739388 
-0.2969496947452022 1.011268840095112 0.0001942731636798734 
-0.005651656455181309 0.5306575281928704 -0.02843428872638287 
0.000150927179372056 -0.001406325546143546 -0.003146472969667143 
-0.004719140360441197 0.3258986452304152 -0.2443645135783131 
-0.005720979355203893 1.950280066445035e-05 -0.0006260493821926053 
4.519185767038254e-05 -0.0006978979264132588 -0.0004893349193158368 
-0.0001642609055128795 -0.002241323172018259 -0.003962599697373692 
-0.01036084003300211 0.003388128912662375 0.0009756138569134218 
-2.678536034150923e-05 0.003288856987802686 -0.01100879891107524 
-0.00195677042634692 0.001107986629175795 -0.1954370278831009 
0.0008131551963906325 -0.0001906939161135677 1.118448936608286e-05 
-1.163649998588712e-06 -0.0005793794638569012 4.977711789310401e-05 
-4.666190229121555e-06 -0.0002578519002652343 5.64496200233398e-06 
9.348379032550799e-05 0.002962284562114056 -0.01032148708717797 
2.415297105815764e-05 1.551572483239554e-05 0.000207835934921793 
-0.003182491349247241 0.00633011751202432 -0.003932586582834287 
-0.0001429415984206376 -0.001107747448032508 0.003680239765594226 
-0.0002384207940955005 -0.0001800656943916919 0.0004648598962825086 
-0.0002789420900328993 -0.0004298312350824194 -0.0003979246871905327 
2.305051834085342 -1.773955971872442 -0.0889711459254784 
-4.807854463153601e-06 -6.840979795716793e-05 -0.0002089846014189572 
-0.002115693398091944 0.0005664785718484943 -5.862158405990067e-05 
1.445608168996664e-05 0.0003428835711324654 -3.308244529766466e-05 
-4.070043162693346e-06 -1.197292466166266e-05 -0.0001550456326627371 
-4.68361484652746e-05 -0.0007131648953635241 -4.83724396276822e-05 
-0.000134539788748144 -0.000426970698551117 -0.0002283111129973093 
3.088225688783723e-05 0.0002407636028366269 -0.0008165787730191466 
-0.000156800333556366 -0.0006280334592539229 -6.690890187524337e-05 
-0.0009571314112337979 0.001252874683639978 -0.000558990620094507 
-4.29010756786046e-05 -0.0005416412950349235 -0.0001831167786517342 
-0.0002118139614628405 0.005955203229782189 -0.03079615197350824 
0.0005318762881717625 5.628300019090309e-05 2.914130403598132e-05 
7.99669235876479e-06 -0.0005476081657384404 -0.001129485709677131 
-0.0002144310939884884 -0.0003780592238925398 -3.109878594837305e-05 
-0.003668412750210381 0.3790046596204899 -0.008029567202450608 
-1.001494867088371e-05 -8.625800414557096e-06 -0.0002810160648009616 
8.986115971414016e-05 0.00295458166760175 -0.006496963582854983 
-0.007014590282781523 0.1747519904686629 -0.006511768683674922 
-0.000243824457203319 0.005858283649890762 -0.01257004601089215 
0.0002997873068155722 0.5647578805313735 -0.2813351867923623 
0.0002912575921521449 -0.0001029704002648547 0.0001106790693971923 
-2.359240655505333e-05 -0.0009113863871955662 -8.893976512811977e-05 
-1.32406412542312e-05 3.234249579740329e-05 -0.0002778265112054475 
-0.004109507391792711 0.001321387600537172 0.0002055983354072275 
2.454597463623362e-06 7.062240392738574e-05 -0.0002753385381556366 
-7.429307758307297e-06 5.210030174661505e-06 -0.0001848537303348952 
-6.726956566905402e-08 0.001831179851757764 -0.005967496735778278 
1.114228582306356e-05 7.313083878473972e-06 -0.000114384967257591 
-0.0007368006880977913 0.0009373431502190489 -0.001536923596391378 
-2.184685594675147e-05 0.0001576299764038569 7.666532854088423e-05 
-2.637670191059391e-06 -0.0001014790251891385 0.0005934438887675138 
0 0 0 
-0.0005849332234563071 -0.0003528210105930544 -8.453857977139567e-05 
-3.021718777003581e-06 4.931910962112167e-05 -0.0001801031048090294 
4.0303755265893e-05 7.477703635984117e-05 -7.631557607113784e-05 
-0.0003732735651725686 0.001677552069930188 -0.005065498074780849 
1.813195385581403e-05 -0.0003474667614217392 -0.000323442963954418 
-0.004866880480329148 0.003252761005354303 -0.002549322727073788 
5.73707941596657e-06 0.0003080583354321148 -0.0001119240210179235 
8.145011108162171e-06 6.30296462049517e-05 -0.0001920898155615008 
-1.038390269195152e-05 0.0001709373530762648 -0.001320356783606951 
-0.0001843042090235218 -0.0001720057222391044 1.914576133866766e-05 
-8.790303266695995e-06 0.0001281536945533523 -0.0003431449698812413 
-6.562773216390507e-06 -0.001387337518840772 -4.276190495796945e-05 
2.240521297326596e-06 -0.0003803275088998801 -0.0008928156133526004 
8.576339741858626e-06 -2.6203629367298e-05 -6.619464752283794e-06 
-0.00191822985034923 0.0008754180085279265 -9.290615868531314e-06 
1.050837503790361e-06 0.000490983020701591 -0.00232965795802108 
2.545119439986947e-06 -3.698053634153122e-05 3.043351049679088e-05 
-0.0007322316608256716 0.460947147940147 -0.1912698694555663 
-0.0001026690940359679 0.001140760680854206 -0.007756616580515428 
1.26570235751149e-05 1.945485014459408e-05 4.686057684535148e-05 
-7.042542598696992e-05 -0.0001716865769455614 -0.0009054091819424381 
-2.781547198339468e-05 6.364628901915222e-05 0.0001409906304716691 
-2.969059213929527e-05 -3.104127600459805e-05 4.353864296483775e-05 
-6.058718579933095e-05 -0.000209961670171288 -0.0004124946103146572 
-0.002840360685116926 0.001741206216171426 0.0007736833371958049 
-0.004758147864887837 0.005770319437700208 -0.01032911345097091 
-0.00199426427735808 -0.0009616509892604241 -0.004688477061122449 
2.235673406839663e-06 -0.0003315271183823399 -0.000954981332904246 
8.576339741858626e-06 -2.6203629367298e-05 -6.619464752283794e-06 
-0.0002904427095230441 -0.0002477060958476642 -2.199126071578996e-05 
-0.06046303101761023 0.009065147498129981 -0.006876990216255955 
-0.0001791567710379439 0.0001430623069796046 -0.007070081180196652 
-0.01184188187789871 0.009935118240344598 -0.02306770308063757 
0.0002183800209737091 0.003107271995301473 -0.003976599761554921 
-1.727148387995474e-05 -2.54166018201615e-05 -0.0001310137999483747 
-4.722057947381264e-05 0.0004718059561686916 -0.001559866961735484 
4.802748209615448e-05 -2.835596538313125e-05 -0.0009432208557755681 
6.708710413968455e-05 0.0003700289718013237 -0.0001408865867154739 
-0.0002365759829798791 -0.00026125683239401 -0.001034463899117033 
-0.0004607212196545887 -0.0006093274972124931 -8.636815212576898e-05 
1.173996837206832e-06 0.0001726357457251318 -0.0008930044750062264 
-4.267013108115907e-05 1.359684122111149e-06 3.186316535480336e-05 
-0.0006316169884556844 0.0005061052397908139 -4.11272376202062e-05 
-1.896818301834899e-05 -7.489202010580678e-05 5.395473516046989e-06 
-2.579948088668297e-05 -6.774051398352513e-05 -5.220506683638866e-06 
-0.003033239664008413 0.001751682617611429 -0.001451942523993591 
2.567263300915022e-06 3.100498163718421e-06 -0.001604395858289143 
1.421102713950839e-05 0.0005470453124581244 -0.0002236058683805551 
-0.0004016214089218766 -0.0001354335031313734 0.0002520823453750016 
-0.0003319170245273233 -0.0001372666693461714 -0.0008033013149466208 
0 0 0 
-0.004476843508306385 0.0002904426622934704 -3.504634902378669e-05 
-0.00166045454732401 0.0006562095347423096 -0.0001482105850173194 
-1.057534351375147e-05 -0.0004130582157344879 0.0001402743471883966 
-0.0002034716996630363 0.003096918743359248 -0.009007125090234951 
-4.605174196820274e-06 0.0007138166221704152 -0.003713120695791967 
-0.0106163942734534 0.00323583474627126 -0.00057365950906673 
-0.01824772200098224 0.007257413347876499 -0.01198054689250133 
0.0003729191954872575 -0.001609304555451373 -0.001742251715699006 
-0.01981712451903592 0.003206208471780995 -0.00411580723166892 
-0.0001102436540633835 -0.000571885680105194 0.0001911652171316555 
1.042642525316422e-05 -0.0003225088308047044 -1.439905004121572e-05 
-2.846925370665568e-05 4.727270675243689e-05 0.0002008816924584058 
-0.001958792021769068 0.0008957251264014691 -1.384955100616545e-05 
9.923053391037713e-06 0.0001447518385871205 -0.0007276249816595096 
-1.508010617745654e-05 0.0002195415654909687 -0.0006972398111369964 
-1.338078836201585e-06 -0.0002058312941528204 -0.0001872325658979722 
2.326742388260725e-07 0.001428937181202205 -0.006306745740515403 
-0.0009504200118113793 0.0003720531764250885 -7.9507442411245e-05 
-2.854652293164288e-06 0.1254194760718125 -0.02881201510422021 
2.758620112869555e-06 1.458574795456418e-05 0.002404158628903215 
-0.005779100455097769 0.3776897808115117 -0.01565162902262399 
-2.89606532979306e-05 -0.0003074654319107143 0.0001353027805144713 
-0.001436274905301515 5.425277562435583e-05 -0.0002480019275355376 
-2.084900786420344e-06 -5.890744092364445e-07 -9.763914576396942e-05 
-4.69369935660039e-05 0.0002044339904445701 -0.0002492140955380002 
-4.399668729808988e-06 5.397206319526135e-05 -0.0001423362264147306 
1.121360833382481e-05 8.01390884382998e-05 -2.288962808716593e-05 
-0.0248673029116032 0.9072759071318496 -0.2618866919428972 
-2.090014623167852e-05 0.005509774807975664 -0.0595610665534131 
-0.0004511707741135449 0.0007456859507059999 -0.002763250663052312 
-0.005937296094404488 0.00727566708117022 -0.0005026621905123602 
1.381608496237102e-05 0.001345511351388394 -0.007968518267242108 
-1.40262749398542e-05 0.001277450662601751 -0.001006483468873638 
-0.01706619045166552 0.004097624019159397 -0.001107324727129247 
2.112301111441371e-06 0.002442528021904388 -0.0007634989253872648 
-0.002467987046639499 0.0002177709660283141 -0.0004277700904175724 
1.517802494823157e-05 -7.447444862597479e-05 4.960595199139871e-05 
-5.779633633921795e-05 0.00190456737739224 -2.370632396180063e-05 
-1.820236855826977e-05 -1.291537187768464e-05 0.0001681970052442194 
-5.774981042593309e-05 -0.0004251091193516236 -0.0005095250327329271 
-6.386655348197672e-05 -0.0004077048099391576 -0.0005672336096274353 
-0.9302790917077405 0.6440434291777428 -0.001522734224909659 
-0.002716197552776405 0.0008651954946442008 -0.0009099959621510948 
-0.00025584124346669 0.002921881590467865 -0.006723486887025568 
-0.0001845061158280157 -0.001118136158730485 -0.0003105311141434793 
-0.001154883248776643 0.000956187861192228 -0.0001115135713329379 
7.557005380454948e-06 -0.0001076960614110768 -8.932318937231343e-05 
-6.971209940582059e-06 7.040939675987373e-05 -6.053672711828037e-05 
-0.001003582103199398 0.007266718567945754 -0.1156817613584504 
-4.228054430887067e-06 -1.672590919677906e-05 -3.454887490132049e-05 
-0.0004167518120388678 0.003282125885254051 0.0004461945135682965 
-0.04257340174817346 -0.4212780045290432 0.1877285894554698 
-0.7621763451972476 0.09314205956069722 0.8087908479700495 
0.5118634569396587 -0.9010326390586966 -1.64912197696014 
-0.0001277683387744627 7.746382821921803e-05 5.917967706200972e-06 
6.306713252225614e-06 -5.970090689701947e-06 -0.0001420664514958939 
-3.096444727552951e-05 -2.449210388235536e-05 2.557204516554495e-05 
-0.8998899549056341 0.2900103165897497 -0.6225118352450547 
-0.01994521492501974 0.1893388895172673 -0.574264098356539 
0.4946583510939179 -0.7862425354241879 0.971175953435178 
0.0001018269524224112 8.413046442775199e-05 -0.001321027490848509 
1.114205004865529e-05 1.4675817726666e-05 -0.0001378235494367759 
-0.002060322072216575 0.0008976303238277974 -0.0002009633566994811 
-0.002063781540263836 0.0009284505355687228 -0.0009643928128062378 
-0.0002595264966275761 0.0008743198313934751 -0.002056584824900238 
-0.0007801234700598514 0.0001027622438982664 -0.0005059384200542544 
-0.267792198275551 0.4724565011554906 -0.1878887290613658 
-0.01070589712570626 0.3851239332963058 -0.1696215142734396 
-0.001149490150224043 0.001795656775811251 -0.005901330615986026 
-0.1220864329274226 1.116175837600524 -0.006039318371654138 
-1.997717764432293e-07 0.5355403060588225 -1.344860066226188 
5.157496966008804e-06 5.698631838055252e-05 0.001190799949500226 
-0.0005131324606914682 -0.0006285985755599701 -0.0002757398288389285 
2.774853997204382e-05 -0.0009186295027425249 -0.001198854282790448 
5.234331349309486e-06 7.40338742573304e-05 0.001210994081385678 
-0.08800675098167202 0.6271106179243117 -0.8706001623597877 
-0.02153464685635257 -0.0002375789574239625 -0.01051794011720109 
-1.203461800346764 -1.005779751950647 1.809517046744759 
-0.01342497203728613 0.002238385233882483 -0.0008204783507018481 
-0.00177073744514163 0.0007223229969794413 -0.00930659321740806 
-0.001402603079580357 0.005048447294478837 -0.01960359219845779 
-0.001745467277816488 0.002479651794518849 0.0004320595746605312 
3.08401693999107e-05 0.003065531927313931 -0.009139354119888962 
-1.269354618564798e-05 0.0001515085277901677 -0.0004875694088494157 
-9.670466685121643e-07 -0.0006999140579993798 -0.0002853736457421264 
2.978032578890822e-07 0.000110344486304195 -0.0005266049452857441 
-0.000284332117492247 0.0006444585049263749 -0.0004385114213590418 
-0.01118278417410215 0.004052465683994705 -0.005669199582137669 
-0.007281771998508373 0.5966555654713656 -0.02975107544831561 
-0.01295923001175868 0.007914026374444189 -0.01943045877158649 
-0.01016831596821961 0.003217782598012238 -1.411890783692415e-05 
-0.0001195629067098767 0.0005723895581220992 -0.002817833404352492 
-2.426318421428311e-05 -0.001212561324489452 -0.0001426477795038023 
-0.0001531030460713564 -2.049927486436906e-05 0.0002983430530252624 
-3.195272262171494e-06 -0.0002322319861589977 0.0001638411576936824 
-1.379034290895154e-05 -0.0001093469880624396 0.0002670858534945902 
-0.0366590222695536 -0.6827172964544272 1.35234992408685 
-0.001681141837558706 -1.447160830903806 1.276297530508162 
-0.3897479313607827 -1.677056455981069 1.903530758399132 
-0.0003542799144199944 0.0001521887929262675 -0.0002684176811358734 
5.500909383808562e-06 -0.0002326412835380725 -0.001397048639293139 
7.877357679672202e-06 3.824215400075936e-05 -8.353289272937003e-05 
-0.0005756065815728679 0.004914003810056504 -0.002253189575095079 
-4.591769737252803e-05 0.6465031420273649 -0.8939717620480636 
-0.0001458415534015918 0.001102349180008653 -0.006643407919459653 
-0.001301977377803324 0.0004847143562940283 4.719458886830855e-06 
-2.208793452012183e-05 -0.0001358408108444357 -0.000236433523715536 
-1.414365806000372e-05 4.618334549122186e-05 -0.0001071810429558246 
-3.692903937384948e-05 -0.0004078454936422195 -0.0008377800295819991 
3.970925180696499e-05 0.0008526614574199874 -0.001136616270151769 
-2.18998492876648e-05 -9.909623769716385e-05 -0.0001140229127099444 
-3.790209355343151e-05 0.0004268621865168019 -0.001526369390894084 
1.081825133344743e-05 0.0002131454485764065 -0.001919290471404266 
5.302276579386735e-06 0.001957674642349823 -0.004893925689694641 
-0.001493353868931711 0.0003779242508984335 -8.270853283184181e-05 
3.704951588942961e-05 0.0001782405731910185 -0.004092297302640499 
1.270418091118876e-05 0.0001389688451483254 0.0002058875943796957 
-0.0003450964613041038 0.000953542799754988 -0.002867916584407665 
-1.347148725151069e-05 0.001966412668845561 -0.0061293461626141 
4.590375655248903e-05 0.002237863104307767 -0.005852276464386528 
-0.02103541029199829 0.005645626186823494 -0.003338638494314176 
1.520966961568904e-06 0.0001063943996402316 -0.0001313468492287679 
-0.001378694668061915 0.002033864709478978 -0.004092769422118078 
-0.2854890926595317 0.005818167561353171 -0.001796375953525424 
-0.002323033811450553 0.00372876477681009 -0.00628570554935097 
-0.001447379230501822 0.001942618199176559 -0.005176026832536818 
-0.0006565254909938343 0.0008720705504092234 7.56173898071695e-05 
-1.296661312701796e-07 0.001418102697412596 -0.003566332340385301 
0 0 0 
-0.07494021837781868 0.004661903547081289 -0.002296594920500636 
1.469466915458998e-05 -8.40279574152304e-05 -0.0002840983176481635 
-0.0001562666459674343 0.00181843059056264 -3.420779457023672e-05 
0.0001415994566737915 5.179276663487538e-05 0.0008307033740857867 
-4.579011994402111e-08 -3.729474993880488e-05 -0.0001223724694301467 
-8.432798829240474e-08 -0.0001828002586094822 -3.19137707667398e-05 
-0.005313102667207998 5.909409016850606e-05 -0.006416632423614557 
1.175172288462556e-05 0.002389465858719698 -0.009942921716702793 
-0.01553712994808317 0.01186242230366043 -0.02795876716318396 
-0.01229248473073949 -2.045434051517494 2.77194164840948 
-8.821451093511009e-05 -0.002160673580941515 -0.001269826875585229 
2.885176651965397 -1.97748280410329 0.002885376835734067 
-0.00225922538150776 0.001225230631814306 -0.004830400219385237 
4.202705669350619e-05 0.0009000956726285131 -0.004912546994194862 
-0.01960562684929951 0.001031258749078203 -0.003371398649783653 
-0.005236138413940349 0.1774203582510886 0.0003214802751407625 
1.282621294784866e-05 -0.0001357043435358132 -0.000181462086352604 
1.959443646773869e-05 0.0009447479583161814 -0.002472434813745839 
1.528228488975821 -1.736179675512564 2.175819152499423 
-0.001071755066685709 -0.5186089415120665 -0.299225570550647 
-1.041264452039397 -1.625926897975683 1.808188780929816 
-0.001383509061352084 0.001595721334917896 -0.001018900449944586 
2.61570297352578e-05 0.0006145703277119204 -0.002605282531646569 
-1.178176119256066e-05 0.003879074879757545 -0.01341682773574571 
-2.606360695751381e-05 0.0001542597996259286 -0.0004332851528494867 
-2.214959908420893e-05 3.754132899169442e-05 6.436311527206603e-05 
-0.0001473832765446719 0.00014178535060859 5.829199870819882e-05 
6.133376702642591e-05 -3.596580985055351e-05 -0.001732450319645831 
-8.296740088196194e-08 -4.759790697851907e-05 7.352298178301131e-06 
1.591756752721453e-05 -0.0004421175134138641 -0.00103540691257103 
-0.002044865321499579 0.0007634754205090091 -5.207937032294903e-05 
1.212706625362167e-05 0.0002886678305727484 -0.002405705181958779 
3.926319422356388e-07 -0.0003038209660249579 -0.0001649748776694031 
-0.01024007236137226 0.005212642712063223 -0.009575301748521611 
-0.0009023610827038424 0.0001957412274752203 -0.001076563650089668 
-0.002519877703586442 0.003992186386781535 -0.02750634263191565 
-0.04248141753777835 0.0148550322564029 -0.005619776262272257 
0.001287687273275097 0.007527839336749798 -0.06184395491444212 
-0.00463808302220586 0.005715500729979197 -0.01295325792935522 
-0.006152336328847086 0.5172098285954564 -0.427325953665291 
-1.229049340612253 0.9964164537788398 -0.09628032505626746 
0.3330282673664411 -0.3044964001110726 -0.8724295491788739 
-0.000708275721534968 0.001298939780222231 3.059252506706729e-05 
7.540066627118088e-06 5.398306259725767e-06 -0.0005546905055774857 
-4.712164699772763e-06 -0.0005853336819785461 -5.85386840693529e-05 
-0.0008200660006119148 0.0003895296407967778 -0.0002839328393689525 
-4.633082076090188e-06 -0.0002967825152829979 -0.0005625091313921636 
-1.48562594591895e-05 0.002114422068888659 -0.0001953388569586607 
-0.001930946334782339 0.000880124383910472 -1.41191418092234e-05 
2.047506063688125e-05 0.0001781322570936616 -0.001145334696331468 
-2.560296917721225e-06 0.0002288765789484266 0.0006407075330641417 
-0.003985079132396244 0.002530830540808622 -0.0006621057214735146 
5.850662960834677e-05 0.005636379931750281 -0.007283296115426395 
0.0001174290367293288 0.0006399737768512464 0.0006683506514558439 
2.712172890670902 -1.920122292476615 0.9200167680223398 
0.02840185642581441 -1.611247061047782 1.686748518864296 
3.311724327709244 -2.216275015803453 1.012868607348868 
-0.0003547411464624542 0.04570122106380393 -0.003205835735057545 
2.751507337348019e-06 4.219346811396884e-05 -0.0001816978279174053 
2.39498325669586e-05 0.0005374103873303645 8.440061785557685e-05 
-0.000139724003112265 0.001997045740269994 -0.002949946207860016 
7.903279287240313e-06 0.274261240246485 -0.006432954838025294 
-1.807063284731301e-05 0.001077109205148633 -0.002546758770203057 
-1.124432644138527e-05 0.0001663042674408293 -0.001958745905962516 
-4.807854463153601e-06 -6.840979795716793e-05 -0.0002089846014189572 
-0.0003862850795514735 0.001635359448547114 -0.003218359984527306 
-0.004935075176365549 0.000203983619374265 -0.0002637784450660825 
0.0003453779800487339 0.001287020708715417 -0.001191686805600698 
-0.00109478092709868 -0.000870006827726527 -0.0002554975701623253 
-6.060664234088454e-06 0.0002028097374460819 -0.0007557786674831803 
2.23671930955869e-06 -0.0003403707518625665 -0.0009875081868784546 
-0.001623674630251418 -0.0003528478491014179 -7.414920648866156e-05 
-3.623419307496719e-05 0.000110618848789374 -2.627016052069002e-05 
0.0001426643529180226 -2.431766283675329e-06 -0.0004104002211369616 
-2.209647159083108e-05 0.002798001354588963 -0.001330497292737625 
-0.0001059023543171502 -0.0007426983422336556 0.0007275432322693457 
-0.0001204532729956735 -0.0006580351698761337 -0.001932591854925521 
-0.001265167925599228 -0.0008842366637137742 -0.0008543990310384098 
-1.097476034428412e-05 7.961455459553601e-05 3.832753287483128e-05 
-1.319539920492432e-06 -5.080898020669396e-05 0.0002970302568801264 
0 0 0 
-2.136962773705874e-05 5.937728184081654e-07 7.67703087161717e-06 
-4.321144494196203e-06 6.388730000601227e-05 -8.724908501992506e-05 
-2.847342180342182e-06 -0.0001728994662593961 -0.0005672691795488222 
-0.006896376462965085 0.3272326941715129 -0.2054063654503065 
-2.75763316678727e-05 0.001119789921301518 -0.0008275009284679551 
-0.00533657273838137 0.6602067245306652 -0.02960842453459286 
-0.8113627705157178 0.2175981744651207 -0.04222975370727514 
-0.0003614598035770776 0.005809826805585202 -0.06179298441499382 
-0.1893979031763714 0.3466756101652284 -0.06178878647899999 
-0.0001380386223364399 7.974421872550442e-05 8.531854759808698e-05 
-1.964976590418461e-05 -0.0002084569256512318 9.838634235860125e-06 
2.21388493541964e-06 1.664372395869481e-05 -0.0002039306156190077 
-0.001336923885089312 0.001957140447229838 -0.157597316239898 
5.721102549090493e-05 -0.0003874102318448389 -0.001732039128712825 
-0.004059353974141979 0.5052470614961633 -0.0001297740861407167 
8.888495256970458e-05 0.002245495341196265 -0.005833369273368361 
1.905405994648679e-05 0.001319897468651221 -0.005386458232872272 
-0.001865834638136054 0.0001588965015089107 -0.001663385155275188 
-6.816653038593147e-05 -0.0004919538396070382 -5.922700799123064e-05 
-6.040495674484424e-05 -0.0004985931381932028 -0.0002095377524184753 
-0.0001186675730346939 5.226107860735823e-05 -1.3320052130594e-05 
-0.207257279549369 1.084050378961529 -0.01916515926827713 
-0.006281380511425648 0.6513291015567485 -0.05048259857523296 
-0.003348579337740505 0.01077417812806678 -0.04472853845540407 
-2.781170961043203e-05 0.001435720881955167 0.001067144498583 
1.960868971389354e-05 0.0002343648094168454 -8.277443849514483e-06 
8.932897549619118e-06 0.0002348950272596094 -0.00110397381718362 
-0.0002615647883432231 0.008396100904064547 -0.02324416648700248 
1.5282023903436e-05 -0.000174280011376926 -0.002422744430477978 
-0.0001819444785013899 0.6045523180573036 -0.2547523378670421 
-0.2066783149356765 0.1453397658376241 -0.009306152728491598 
-0.006349830840191788 0.009667851258172122 -0.01352977546826331 
-0.04349176535261194 0.0101018013802892 0.001741925324669354 
0.000168849000047334 0.0005236546548010567 -0.002971958052947735 
6.401709761881542e-05 0.0001559482386053746 -0.001352467646339642 
-0.0001388539777762711 0.001283972455628622 -0.00670884165682787 
-0.01061784286973799 0.03656620022881128 -0.007967144366398065 
-0.000314971075699193 0.003564026449169721 -0.02066147538021401 
-0.0004051302206802771 0.0002965191250216301 -0.002201298837672953 
-0.01121925229318774 0.1127951900153395 -0.1524668796905799 
0.0001908428905794694 0.009466349936461336 -0.03108796917819974 
-0.001247521901367424 -0.004172268750637957 -0.001495022397140679 
-3.039663661040492e-05 0.003406139629619805 -0.00952603159550494 
-9.124436452560753e-06 -0.0001617159395290334 -0.0004117869828553842 
-0.000229379744867405 0.005771042399369924 -0.0222633787060096 
-8.296034166949099e-05 -0.0001074391782127535 -0.0004399608155059421 
-2.7621013651849e-05 -0.0003180881357655426 0.0001300062432323571 
-0.005123531056843958 -0.0001406865388667337 0.0003532208938505155 
-1.21732991714903e-06 0.001353937046424248 0.0007774559355278593 
-2.037146298628912e-05 -6.675833544797394e-05 4.755823348809188e-05 
-0.00104458215043716 0.0004825107595671463 -6.390869059882303e-05 
-0.0007400761294777694 -0.0001767496591374841 -2.772496773943072e-05 
-0.0002021614530593089 0.00146443133526742 -0.0006344583500507264 
9.226370327961545e-06 -0.0004208976736408449 0.0001196116202093003 
-0.002154639955082892 0.6572269128353517 -0.619581486986909 
-3.672658136713464e-05 0.2549054380912428 -0.0227028005954631 
0.0006677302727165436 0.003307409107089745 -0.003098989905648387 
-0.009669605333112943 0.7475672074521552 -0.7327505307535763 
0.001222459121151842 0.6466326543146417 -1.027217873676562 
-0.7557445940937768 0.009114600864111 -0.0406498509643034 
-0.00559457214108777 -0.001873175827698072 0.0001531905718208761 
-0.0001480444394170989 0.002467234700252732 -0.004947615562531567 
2.520548004453916e-05 0.0004104637733029296 -0.0001511476347867246 
-0.000238560757060812 0.0001685112926166446 -4.423218846214835e-05 
2.232697826216903e-06 -0.0003220326554910394 -0.001003262598081432 
-3.978361040751467e-06 -0.0004780411096602074 -3.474901201540834e-05 
-4.539283965640256e-05 3.365166220905414e-06 3.121924922876774e-05 
-0.01318987976731926 0.1037367480760882 -6.248453318466931e-05 
-1.430816020928727e-05 -2.595598876894326e-05 7.675543701968882e-05 
6.10682070630738e-07 0.001629439869702852 -0.004535352884415868 
1.334901380028492e-05 0.05788459363532647 -0.5256585370961669 
1.559955378960625e-05 0.000168936564400533 -0.001144357516808957 
4.447906748341404e-05 -0.000385664039385514 -0.0003708273602246833 
-0.0003807522297222475 0.001338082017096924 -0.3273280080936549 
1.915256648627294e-05 -0.0006619357512115484 -0.002053142685368259 
-0.4366114836032735 -0.003550625194976462 -0.0005441054184847411 
-0.0001208030745300459 -0.001016415682627146 0.005834373255859343 
-0.003536974391212999 0.002186327394881346 -0.0311657343485866 
-0.01364274646159024 0.001569635299277333 -4.429981810240797e-05 
-0.0003590845323797717 0.0008694000559161214 4.680349659439246e-05 
-7.012495545728631e-05 -0.0003399015885012648 -7.147948190808855e-05 
-0.0007416452116442894 0.002197627882388551 -0.001419741684887974 
-0.0003437522449207334 0.000891679798441808 -0.004738136721636606 
9.59180220204465e-07 0.001063686064849879 -0.001224649753799897 
-5.102536359121265e-05 0.0001365374552535592 -0.001825452848762246 
-3.415290527223142e-05 -0.001398420621544243 -0.0002434805190423373 
-0.0008954799249723525 -0.001598854656046568 -0.0003607888551459275 
-0.0005399098500837803 0.001066880051090671 0.0006872343606552627 
1.691756918419704e-05 -0.0002570093024443642 -0.0002713930011938676 
7.649862118132472e-06 0.002546000646957015 -0.02724078810646787 
-0.0003242892597251177 -0.001062052348182153 -0.001366254383953397 
-0.001889073493769615 -0.001896256169753717 0.0002269714804372832 
-0.008856138737059361 0.0001382559286412334 0.0003998395885390646 
-2.767621276567207e-05 0.001346532396675453 -0.0006356877148965796 
-1.193898968613265e-05 -1.369068704016843e-05 -0.0001786791875031262 
8.97270852945515e-06 0.0002034123331730323 -0.00109027115716466 
-7.581449942656555e-05 0.0001204307256022436 0.0006407993271506524 
4.68068760263861e-06 -8.068222945630665e-05 -0.0001535245140547102 
-8.409808479257675e-06 0.001875563546702249 -0.0271929415004708 
1.984874664331693e-05 2.022348025593438e-05 3.615527535157397e-05 
7.008373947847248e-06 2.986048966008651e-05 -7.700194386246581e-05 
2.423067065220631e-06 -2.544972286325409e-05 4.451390964416933e-05 
-0.3964874168056036 1.003550698809826 -0.02330442337659652 
-0.0001877096188417963 0.005180516014305648 -0.002588686139128107 
-2.40120546877242e-05 -0.0006203909803623942 -0.0003215510148181383 
-0.004769383460609701 0.003229887046395209 -0.001079589769879159 
0.0002336464086856634 0.0002394684487842679 -0.01140259356211594 
-0.0002296274581477886 0.001955599129869201 -0.02733970401497596 
0.0001830888683556472 0.007558484579087452 -0.02587012317836537 
-0.0008771670974821073 0.008718938065725218 -0.008657768973653819 
-2.136657117649953 1.291858337543493 -0.006450661603284296 
-0.002804711776784953 0.002994125027344964 -0.004108976211806508 
-4.374321029158725e-05 0.001737097753948626 -0.003178578376713881 
-0.007430015633855057 0.002806235785925582 -0.005730886599995291 
-0.001004133531635007 0.1401794965425128 -0.01323829374023681 
-2.062112136985621e-05 0.0005606813621824075 -0.007273089930383896 
-0.0006720033471061815 0.003173378120067991 -0.006035988440021157 
-0.0002829943034787576 0.001871358243453991 -0.0005052553001525788 
-1.592250367186241e-05 0.5833275429493154 -0.7417975083691342 
-3.860897790306445e-05 -0.001649999689740284 0.0001161582565435632 
-0.02382801747466405 0.006052948301847614 -0.003837024966704339 
7.127688199180034e-05 -0.0003135296149990586 -0.005652949556469041 
-0.002955646983119627 0.004943506796528167 -0.03378550306866736 
-4.267469507263248e-07 0.0001579466579473906 0.0001881556845456898 
3.1128518946897e-06 2.125422670501266e-06 -0.0006299498420716365 
2.712145205670154 -1.948345147082267 0.01346227285702415 
-0.002796190889148226 0.003459710529210186 -0.01797058502233022 
-0.0005932580691951345 0.008079574730684777 -0.02471073955167455 
-0.0007855438159583137 0.04024048495656977 -0.00631830822329131 
1.318459614667915 -1.403529083221741 -0.0847575250974862 
-0.3728160161621347 -0.8952109718359438 1.261787411785412 
-0.1160698593102467 0.8207107915442271 -1.276013995334815 
-0.001722578950490437 0.001514102966721651 0.0002553427075871844 
-2.010062606699801e-05 1.651019185270157e-05 -8.421153468712256e-05 
-3.246253120243852e-05 -6.632973084236371e-05 0.0001075913523179272 
-0.02839782914251646 0.00444294654554362 -0.0002013474052161617 
3.139846938689269e-05 0.00261347644331283 -0.007953350082299521 
-0.0001924558866688128 -0.0003684641597097793 0.0006869694964030986 
-0.001201538611476652 0.0009022004475918811 -0.0002515518531931443 
7.600855260274834e-07 0.00139801503110112 -0.0001440223362284626 
-1.649399353533819e-05 1.987194839072346e-05 0.001691615818803875 
-0.001248496649211622 -5.949737472232e-05 -0.0001269452740074293 
-6.233947760151207e-06 0.0001419843054280776 -0.00309538296649251 
0 0 0 
-0.001369085655095971 0.00142803437311235 -0.0009771352516096746 
5.410607917989759e-05 0.0005101267432557256 -0.003259924680058556 
-6.232147486444666e-05 0.0003618913701097691 -0.000195953601913704 
0.000179470410491953 -0.0001489070581817764 -1.189564578894096e-05 
-2.146920362287247e-05 -0.0001217996035263181 -9.567972223210073e-05 
-0.000186309690459198 -0.0001765256590913743 0.0006194794353018205 
-1.214827482117705 0.3784457029583898 -1.234753162855017 
-0.2341645766656773 -0.003364151995389773 -0.1775616670552966 
0.08773785125131826 -0.6594002360469936 0.6151208435607224 
-0.001294255235633221 -0.0002684796576130291 -0.000356520761228328 
-1.933099102106118e-05 0.002231265268358435 -0.008761776227063036 
-0.0001828048224198629 0.0001546991044564188 -0.0002244536170722083 
-0.1230052720731034 0.7341546663381476 -0.008226662214223118 
-0.01139256242035121 0.2279348115621062 -0.2390073726046827 
-0.2319451348367062 0.5400055616151189 -0.03135360877913626 
-0.4322194433787948 0.6781386447801659 -0.009938781184424324 
1.709479765366502e-05 0.00185949683765842 -0.01459750843609238 
-0.009103694809117019 -0.001145759070241724 -0.00446872106906537 
0.4198697947691364 -0.02064687128494845 -0.677140535804946 
-0.03542875566744387 -0.9854930061780531 0.6553530632294859 
-0.863056861606921 1.495280149384861 -1.620776523283714 
3.509813772720258e-05 0.002729268446670586 -0.009794949467124938 
-2.883788258220053e-06 5.152876726129935e-05 -6.729085265287908e-05 
-0.0003560709501983452 0.002094425221673688 -0.002083854358008675 
-0.008044016492979644 0.134658841393922 -3.425675542799667e-05 
-9.85008046665809e-06 0.2548858781609192 -0.004883963896723176 
1.421744990616455e-06 2.721778512025323e-05 6.108207431900769e-05 
-0.0005849332234563071 -0.0003528210105930544 -8.453857977139567e-05 
-3.405653994260048e-06 0.0001030166778475604 -0.0003162098948427554 
4.185382656281464e-05 6.956911529375615e-05 -6.367359552300316e-05 
-0.002484872656347583 -1.023205818701402 0.9693679746353095 
-0.0008095461280458496 -1.29658329157631 1.350316939316492 
1.913718388051731 -1.832437205251728 -0.01126178689738624 
-0.005768664398955774 0.001731439944504499 -0.0002297047133394478 
-0.0001880941906426953 0.001715048280805432 -0.003989194922946969 
-3.404914643889258e-06 0.0001028955133262874 -0.0003158452300194998 
-0.01040746089218862 0.005850793470934948 -0.01198835409457345 
-0.0006894453399116981 0.00534642232231584 -0.01976190581276448 
-0.01313397324419784 0.002454479681549403 -0.0009405478325978063 
-5.580214928077439e-05 0.00683592056282864 -0.02094403129466126 
5.790453034024404e-06 -0.0006337241839086333 0.0008919054512648186 
-0.0009221607170421117 0.004811124414455988 -0.01167586459648107 
-0.003101809105275884 0.002282247814249431 0.00233671000288505 
-8.504724640691279e-06 -0.0003919356243441723 -0.002408034116476702 
-2.67611276871366e-05 0.0182399616612072 -0.06235998540468105 
-0.002786811419300243 0.002195469947937896 -0.002501241726475742 
-2.33214648676511e-06 4.641228615196166e-05 -0.002141674812386139 
-1.654230518352962e-05 0.003110582838777684 -0.05883409004000697 
-5.76549649442671e-05 -4.808531916545045e-06 8.406878965256376e-05 
-8.564286837919695e-05 7.396662164959132e-05 1.372091396252235e-05 
-1.538716709880661e-05 0.0001237947260907852 -0.0002121191685093902 
-0.02678568187324647 0.6871300366952758 -0.8288477140813714 
-0.6458626183493734 0.4131656341822894 -0.5332564149207967 
0.1483052386026843 0.4688550425752079 -1.322980445767985 
-0.07577549219817016 0.5155425728446024 -0.5063567957977055 
-0.0001160391831109704 0.03545827676046766 -0.03726729298983588 
-0.001324369272773522 0.01009765588690894 -0.08154256590605108 
-1.744414551685642e-05 7.704815095857767e-06 7.441758982644954e-05 
-1.760579884894063e-05 -5.569854196741615e-05 0.0001428341577857263 
-1.602096998622129e-05 1.415275943633559e-05 -1.59998330173505e-05 
-0.4575572356531786 0.003202002758246823 0.0003369228578749703 
-0.0003443401152835017 0.6774836248098605 -0.03676891281420483 
-0.000140735550948772 0.003536948229766637 -0.01166104566784848 
-2.338817561857288e-05 5.338294716844904e-05 -8.252776576293771e-05 
2.068445435742235e-05 -6.766520234319085e-05 -0.0007252321050232715 
7.424639513248512e-06 -0.0007688945160084939 -6.890852081502739e-05 
-0.005750848575760644 0.0009904223538098847 -0.002899592540472753 
-5.232304113812009e-05 0.0008121466465991289 5.473265413808964e-05 
-0.003787091844047318 1.132422934367092 -0.6898705676764388 
-2.085074320743036e-05 -2.139973409749858e-05 2.29405933918631e-05 
3.044986690980854e-05 -0.0003803480058294416 -5.943917338202697e-06 
-2.88488380471128e-05 3.083169860912476e-05 3.666359321492209e-05 
-1.309233504120912 0.349973314091272 -0.01174716181573867 
0.00012549613193968 0.0009575457523584898 -0.004893112438284946 
-0.006475763282610212 0.006833459616438491 -0.004448537453704582 
-0.001068909460300209 0.002195642396283125 0.0007126984648608841 
4.24955807946364e-06 5.190113494057344e-05 -0.0002030128599499398 
-1.028074209807335e-05 0.0003452039556132751 0.0003031949658680633 
-5.776089953528817e-06 0.0001089599632717271 -0.001255962335256324 
1.976577010096216e-05 7.806000387947845e-05 -0.0007686105991414272 
-0.001951280048891167 0.000970060064189975 -2.114149533552241e-05 
-4.865626171474562e-05 -0.0001007552404893077 -0.0009948217864612894 
-4.107918964078371e-05 0.0006947909750567397 -0.002160448508650963 
3.770432683788558e-06 0.0002306171684225282 -0.0006893837674236287 
-0.0415617965853683 0.7530229855618514 -0.05443262505364486 
0.0003118450562578104 0.3953816103308698 -2.903244470596563 
-0.02408970538638885 -0.001891447752119325 -0.009953327406758743 
-2.208857001346676e-05 -6.021419693352633e-05 5.636114182903705e-05 
-2.544343866220047e-05 -4.927330069631578e-05 -7.259396062373907e-07 
-1.818263984564369e-05 -1.279896852730686e-05 0.0001685835782520991 
-0.01437418364816921 0.007180345651994735 -0.0001842591079343264 
0.0002378660267704402 0.008120416170886654 -0.2292730488394161 
-2.882334689451923e-05 -0.0005561287272105769 -0.001209707204280062 
-0.002658514826996696 0.002865440076085237 -1.113838070670688e-05 
3.806105169853234e-06 0.001591254755329294 -0.004831320530740947 
-1.842409043392109e-05 -0.0006258089983474567 4.18664427473943e-06 
-0.0001511799788466558 -0.0008136506635804769 7.030676201048732e-05 
-0.0003189563791791881 -0.0004059574309641599 0.0001544440912980938 
-3.484656875326818e-05 -0.0003571165802793682 -0.0004482874075187713 
-2.439985707684631e-05 -0.0002652335885370722 0.001649484596506369 
1.375989389385056e-05 -9.602539214084988e-05 -0.0004075936734173029 
-1.861900687078978e-05 -0.0003027366122756479 -9.532092295553648e-05 
-0.01108517268131847 0.001475721067458149 7.843315418765472e-05 
-1.264054072009026e-05 0.0003889367727806496 -0.001839515014175454 
0 0 0 
1.355486626970529e-05 0.0003180332155874743 -0.0001526804081078778 
7.112755162239653e-06 1.624659205932543e-05 -7.482773925667848e-05 
2.668704206021383e-05 -0.0003132659929558315 0.0005354324648744278 
-0.0004929565828208473 -0.0001892094271883235 3.048465612061963e-05 
-0.0002603126047564468 0.0008064101414650273 -0.0003821687932878553 
-1.901869012225962e-05 -0.0004044008047078851 5.234421297483334e-05 
1.3465459671149e-05 0.0003655669642173533 -0.001418152722012545 
-8.364827266653804e-06 0.000507221575778982 -0.0006665539235996387 
-0.02662882471199476 0.04746955753197909 -0.001592220148949578 
