solver_type L2R_L2LOSS_SVC
nr_class 3
label 2 0 1
nr_feature 24971
bias -1
w
-0.5699378850029878 -0.4424871159528381 0.687426681408136 
-0.08981715521478545 0.2683232397159951 -0.1077161559028501 
-0.01134978610676899 0.02205262622738378 3.398320364486166e-05 
-3.145746991096078e-05 0.0001652038761315384 -4.782384630330504e-05 
-0.01053861609871056 -0.7234743405415351 -0.003976063616875398 
-1.399556035962095e-05 0.0004783338509885107 -0.0006735386170455818 
-0.0003514157526240747 0.0007278052774306379 4.10678281998279e-05 
-1.804436833020305e-05 5.592099255176058e-05 -1.662443767403111e-05 
-0.001442389606212692 0.0217714183932259 -0.02188931693962937 
-0.01041732386162369 0.01844795986996084 -0.01060196700158399 
-0.01550914097629965 0.1146380289052166 -0.04692577750110605 
-1.285161625958602e-05 0.002163785948913883 0.001454201331497709 
-6.640191032616781e-06 -0.0004306134406337666 -1.353372487260263e-05 
1.38372909427161e-05 0.0002651696254040876 -0.0006701652161146113 
-7.948705007473404e-05 0.002286343733390522 -0.005989153304887931 
-0.0001718222808465269 -6.550265978361184e-05 4.404033078732647e-06 
-0.0002249235751829302 0.0006814845839330896 -3.742959251868038e-07 
-0.0001764213434214131 0.0003718615758512002 -9.799119186706698e-06 
3.741195181648635e-07 -1.192586567613607e-05 8.436447781979924e-06 
-1.398266639029301e-05 0.0004368842864256663 -0.0006022885254982875 
-1.437468477454846e-05 1.813490883109384e-05 -0.0001123045512917021 
-0.0001824169237414281 0.0004123894614652019 -0.0001033879925393002 
0 0 0 
-0.01960889196237 0.009545758063172965 -0.0001527203654618691 
-0.0005197584642214181 0.0005215141412135617 0.0001643385327448719 
-0.0007631940341060415 0.009255596619939438 -0.00485057832213378 
3.903748156850378e-05 0.0001883369171676827 -2.003265942507122e-05 
-1.405158937825371e-05 1.776740742169961e-05 -2.18584937859173e-05 
-0.001844695102498019 0.001835813749003479 -4.613383753174442e-05 
-1.134795848965531e-05 -4.580072245918388e-05 0.001736927470198208 
-4.953920105420341e-05 0.0009912358103779562 -0.0009322873957536645 
-0.0004885988508798284 5.286588617105258e-05 -1.062794956042814e-05 
-0.004850638385907622 0.005283431192790026 -0.0004740210079881126 
-0.009708539869556476 0.003759580957171275 -2.159593154255887e-05 
-0.004899159511969944 0.005970529242371726 -0.0008521593035446544 
-0.001450691264935551 0.01059008963125851 -0.01189481182390879 
-0.004204257141433244 0.005380871751365155 -0.0008033726740064997 
-0.003228542588781611 0.003897941543982086 -0.007750389049444538 
-0.00141605005939621 0.002398940826831416 -0.0003460793728290731 
-0.00145843473912908 0.001107938018558318 -7.184971009534022e-06 
-0.001343512227335081 0.002288036858399911 -0.0003152143134134595 
-0.007053516803446781 0.1821564923318209 -0.02229257687131599 
-0.0365407111095702 -0.3072256814384012 0.3964965696296919 
-0.0162229915281112 0.01876180586203877 -0.01393791309501333 
-5.799113409428357e-05 0.0002869305457942831 -0.000136876405889385 
-0.001926725620101417 0.005590678855966517 0.0002227957543570159 
-1.852510573222172e-05 3.019056156338658e-05 -4.165110151938647e-05 
-0.0026469029092826 0.006803495422027034 -0.0006827114028319049 
-0.1613934987505478 0.000915700484169293 -3.243179919208821e-06 
-0.002760460300116131 0.004808605969485816 -0.0006396421662316678 
-0.00143332211053222 0.001672200658463965 -3.452798296816462e-05 
-4.913827751738549e-05 3.652091885600619e-05 1.626528179122163e-05 
-0.001107924985228757 0.00191167444844528 -0.0002265640294611361 
-0.001273340916772733 0.001915307216842328 -0.0008522924429034042 
-0.3118028239781134 0.004450504579774551 3.483758385128449e-06 
-0.0003277623855750858 0.0005287426133463432 -2.489080080220875e-05 
-0.007708602550042419 0.0057113152774736 -0.0006081843653405705 
-0.3942329596937754 0.01277235548759507 -2.446859731244278e-05 
-0.0007040908616065662 0.007480060738147014 -0.01035124109624601 
-0.0008036822492540734 0.002855284589890644 -0.001940052781447932 
-0.004658965201408657 0.003311777941172385 -7.48796255474599e-05 
-0.0007440462879436857 0.0009622782171086046 -0.0001877813349711182 
-2.179275704248441e-05 0.001049460241958713 -0.0002145628221070794 
-6.707391494682926e-05 7.146914143869373e-05 3.714525726132878e-05 
-6.560385409959189e-07 0.0001688936146344072 -0.0002785026034756522 
-8.518651272787113e-06 -4.834780620810661e-05 -0.0002299479994923631 
-8.254240551761407e-05 -0.0002164913251060137 -1.895151179278689e-06 
0 0 0 
-0.001867003821466092 0.0007364977199335709 3.322105388372826e-06 
-0.0001615635870071262 0.0001160827986288072 3.238803274527997e-06 
-0.000362421206854129 0.004991036352159919 -0.003410395213132473 
-9.534149060935189e-06 3.811276746508008e-05 -1.376617338098678e-05 
-1.018636505873052e-05 -1.852183446229341e-05 -1.12886997198195e-05 
0.0001047334629639034 -3.78872436576708e-05 6.582817597154507e-07 
-0.001379341656793178 0.0005501975390033532 -0.0001354658074583776 
-0.001228697845712795 0.002138088181767733 -0.0005913836579137853 
-0.000709287234562233 0.001244607980472113 -9.788808309936017e-05 
-5.793713954248648e-05 0.002153501467289206 -0.001866270426465362 
-0.0004433768413556453 0.002261256885186867 -0.001952173455867479 
1.790205071171452e-05 0.0003754712431112507 -0.001950729770652002 
-0.01219500808182195 0.02398296894047401 -0.01151637654236227 
-0.009017935839857374 0.01357606069355192 -0.001395304188643808 
-0.004202693006232362 0.0211245324780898 -0.02079650920485381 
-0.0001212851651618905 0.0006197630206754636 -0.002513672023968821 
-1.50018936524158e-05 -0.0004287970443896465 -1.854445693384646e-05 
-1.674050924888268e-05 0.0002069398171836052 -0.0003324410887346024 
-7.963726682739363e-06 -1.68189003581327e-05 -1.303061490212394e-05 
-3.830537861007786e-06 -1.477804362166799e-05 -5.959708031083699e-06 
-6.714795858197821e-05 0.0001038912341134117 9.589141284052346e-07 
-0.002443573909949149 0.003437535840937244 -0.0002565372791711897 
-0.00227196626668618 0.001900096543364369 -1.032085801860849e-05 
-0.0007153371193686774 0.00199695498967274 -0.00104480506896594 
-0.0001133551198844233 0.0009193656348912683 -0.001404944304634192 
-0.0004989764756689047 0.0005364791219875525 1.658691186371554e-05 
-0.0001562689899607382 0.0001777828595933893 0.0002272905927564664 
-2.737144308496344e-05 -3.454515517057469e-05 -3.926642778901593e-05 
-1.768304313816844e-05 -3.62872997079629e-05 -2.952133556088981e-05 
-4.167761432088976e-06 4.378679082331869e-05 -4.883699123617958e-05 
-2.79569555807958e-05 0.001533979618159261 -0.001294924484965285 
-0.001338159304503246 0.001073400440850106 2.585291921467873e-05 
0 0 0 
-4.264289808521772e-05 0.002527061356585624 -0.0001211888006635479 
-0.0002948784209080698 0.0003100803148696746 -2.487278154838518e-05 
-0.0001270569159374998 0.0002005611095592483 -3.094567083681617e-05 
-0.0005063681323291343 0.0005057561872877205 -5.694549260869449e-05 
-0.0003284902939397476 0.0006562729697092228 -2.466296159987145e-05 
-1.45434674786557e-06 4.867139518457462e-05 -1.061559544049585e-05 
-0.03664026233527873 0.07480351476253924 -0.01852421291736367 
-0.07603045090344254 0.08701430185070082 -0.001049532357840924 
-0.03390703284469414 0.04177870458611568 0.02734350068271301 
-0.001278974319076568 0.04814996391246112 -1.899839797458434e-05 
-0.0007467631223453453 0.001476925294403803 -6.628568524404595e-05 
-0.0004917489242919914 0.0001412669709928306 4.856269660122374e-05 
-9.86334283176216e-06 0.0001254157404367688 -4.876190709922519e-05 
-8.747271654030949e-05 0.002044114547895061 -0.002799471236575671 
-0.0001239849922989155 0.0002153176754241747 -2.723667163947246e-05 
-0.01411636048000275 0.0554221138438605 0.0006765779369295741 
-0.0006215080044370288 -6.733339224644481e-05 -0.0004440696277849283 
-0.02293656329402013 0.3590306229213068 -0.001379754290217467 
-0.8829916092450024 0.06770055829596121 -0.004277686677508503 
-0.1033397439397795 0.02253398688399816 -0.00847013552824419 
-0.8864183124865408 1.194288294219179 -0.8261346223824523 
-0.0005204645741615534 0.01162888066999413 -0.00921349631684162 
-0.006161012773425355 0.003569268431686779 5.064371682120076e-05 
1.773837851882803e-05 0.002928696208070799 -0.006282592265037992 
-1.052821498919477e-05 -9.023144398963366e-05 -9.718617881101563e-06 
-5.232447977188915e-06 -0.0002065731003402227 7.249858272329951e-05 
-0.0001921839507023482 3.97552450475176e-05 -3.578965535747905e-06 
-0.1034666349207548 0.00801642311997028 0.0006263904320657573 
-0.000342635315030196 2.495994617039254e-06 9.482161644242098e-06 
-0.001181122946409712 0.001646692076523858 -3.701462925839088e-05 
-1.936631730843498e-05 1.612565913649586e-05 1.20148912365021e-06 
-9.684306887856406e-06 6.533026610666406e-06 1.411853485936404e-05 
-1.598408292348113e-05 5.393286147959474e-05 -2.3338689778035e-06 
-0.02259686796046688 0.04184062577731153 -0.2290289567528785 
-0.003717191589836273 0.005918451564292631 -0.001779237291799028 
-0.430935939675762 0.7386190668578786 -1.060454993519899 
-0.004509018023074737 0.005800843172600322 -0.0006710642145023884 
-0.0006828104977800926 0.001011834170060924 5.840549593168508e-05 
-0.001116636024810028 0.0016090113534449 -0.0009689277933632878 
-0.001120067136943731 0.001970209304631081 -0.0002302155402845683 
-0.001501413591287453 0.001731260195617177 -3.458641276330656e-05 
-7.38352843702139e-08 0.002424220919148839 -0.003267550931992999 
-8.5737729391877e-06 -8.977289150599242e-06 -1.64737995638591e-05 
-1.525053742941248e-05 1.6878561335069e-05 -2.30172228676041e-05 
-2.268537435978215e-05 3.246959665707001e-05 -1.953969111156518e-05 
2.402130818483867 -2.581535507939984 3.14105636262318 
2.623412712745034 -2.115392301933491 -0.2944307856264109 
0.3521113531700774 -1.267449067538438 1.733096913284251 
-0.00501225833150601 0.0002064249406379214 -3.884744699185591e-05 
-8.298262966916539e-05 0.0001434143039778301 0.001718352893524682 
-0.005141734435893271 0.008197165105297284 -0.01576820354131285 
-3.317744891495242e-05 0.005207873163545103 -1.050299087514476 
-0.0002413896274825131 0.0003706350469088562 -6.129360219534014e-05 
0 0 0 
-9.519737345863379e-05 0.0001370273675409562 -0.0001401370288483105 
-7.041588092487333e-05 0.0007852479751624642 -0.0008226696396803226 
3.555137989085313e-06 4.246115736225667e-05 -2.546382581453967e-05 
-0.0005469377365754947 0.0002654604004530194 -0.0001306535360829382 
-0.000398910739581755 0.001228118538815794 0.001393539643412143 
-0.001068405681689005 0.001196489676224059 -0.0003935935022945351 
-1.238576889768703e-05 0.001587798938286737 -0.008260175216459987 
-0.001067275686010823 0.005524709577636978 -0.001544051724514688 
-5.41604644082173e-05 0.0001129624716703945 2.063562400147134e-05 
-0.01271620950105721 -1.339914945255724 1.777454703382618 
1.988206611501684 -1.621068256527456 6.96042071695816e-05 
-0.007518469743629637 0.01607359928062955 -0.00833065114863835 
-0.1676178520770626 0.032112116848872 -0.0001455341567362514 
-0.001077436652640371 0.001009465446451268 5.301341213017493e-05 
-0.04391070719421596 0.04899438031341141 -0.2221716938049333 
-1.405692715196235e-06 0.0005232006576637943 -0.00249974774526609 
-0.004296720112109571 0.1072784908602823 -0.0009341159535717219 
6.074900705603315e-06 0.0006328651173233629 -0.0008236817096960348 
-0.001831937450611526 0.0001979538228581431 -4.224196238976863e-05 
-0.000287248918785576 0.0005084086096571918 0.0002089788213770899 
-0.0001719561105601076 0.0002523632323744809 -0.0005910100319411861 
-0.002697850534574914 0.0008073435410418418 -1.077983962238816e-05 
-0.000121566287673876 0.000244874832097762 -6.140782955598795e-06 
-0.0007542574487625449 0.0004181698941000687 1.101550107177515e-05 
-1.745290414238778e-05 0.000538632455937703 -0.0006892485025386692 
-0.0002104373082216965 0.00017061738997988 -3.130351752947455e-06 
-4.974540637769719e-06 -4.779230173055204e-05 -1.323641632242784e-05 
-1.14025696503974e-05 -0.0002377776907768913 0.00128970438780292 
-9.72729835688921e-06 0.1880578074199498 -0.02090649300353664 
-2.341009167485167e-05 4.460424888021394e-05 -3.941867232824034e-05 
-0.0008493342506888672 0.001200426675389468 -7.211009890780175e-05 
-9.418042797785015e-05 1.328539885698087e-05 -6.193469122505229e-06 
-0.001499039284465684 0.002600970064543947 -0.0003540192130605593 
-0.0007460920135489959 0.001088432996781111 -8.666459161284805e-05 
-0.0003615333911669755 0.0002827518764288207 1.703708722332375e-05 
-0.000310880472535412 0.0007196327761810942 -0.0001180970502236644 
-0.003946999405294916 0.003495729593403583 0.0005983987496796537 
-0.007390356726747005 0.00973356489646336 -0.0006100089840510164 
-0.005154770226264645 0.002276090327286178 -0.0003139876463814763 
-0.000569972463380076 0.2139242575444451 -0.03679973695542395 
-0.001652997567172544 0.0009234035936112215 4.319529643012779e-05 
0 0 0 
-0.00216175864346249 0.003216948361208007 -0.0005196328449335522 
-0.0003663136524009626 0.0007241505661537195 -0.000232947958071677 
-0.003847223766480101 0.003634957178866341 -0.00160756848676611 
-0.001091954715207295 0.002947459704208897 -0.0006445895060863846 
-0.0004287627939960374 0.001918947575541702 -0.002043547062218412 
2.232276180140568 -2.030014090953774 -0.4305588572233662 
-7.937214252215467e-06 0.0003156169809100487 -0.0004082695209323525 
-0.0002024087900311844 0.0003951717620365764 -1.595492574765017e-05 
0 0 0 
-0.0009161508052500308 0.001038752453042162 -0.04941368968785333 
-0.0003349662541966037 -0.0002524122822820285 -3.975068131460862e-07 
-0.0002300606973278436 0.001209490656277303 -0.001136219088130584 
-0.0001092697340121819 0.0002470205664860483 -0.0004605857570073786 
-0.0001298570730622434 0.001435218255049612 -0.0010167818071091 
-0.0007250420743642597 0.001196716614159521 -0.0002952642359080155 
-0.01143755915378976 0.02007031022687982 -7.299066887126356e-05 
-0.0003597866089962908 0.0004202426612458537 -0.0001108126638584457 
-0.6872071764700584 0.6627297336124889 -0.06938443721600353 
-0.000222107293037284 0.0002149230945870125 -5.281924028061618e-05 
-4.227391356095777e-05 -9.565735730613598e-05 7.443655914271844e-06 
-0.000325811027615682 0.0007457149286740316 0.0005190849581614883 
-0.0001432431797964247 0.005061115895490077 -0.0001761671830088595 
-1.477983102513565e-05 0.0001933139685010622 3.185218429716209e-05 
-3.839601989778041e-05 0.0001176567905568004 0.0001769323327380465 
-0.05439622657157082 0.05491019714283506 -0.000979654718312808 
-0.02694155563037211 0.0256759051979758 -0.004004102599245318 
-0.005961571711026658 0.02255186549306576 -0.01474752524443829 
-6.53097575714491e-05 0.003039978891697253 -0.0006146221389671858 
-0.02384238405262501 0.007014520676670443 0.0001656215069916955 
1.128364885029055e-06 0.0001205611785252198 -6.206731705525508e-05 
-0.0007564019834754659 0.01208274509483796 -0.007464680022969722 
-0.0004829443552233846 0.9466624800942 -1.347024169009605 
-1.405766695655036e-05 -4.585943707158357e-06 -2.180999045621129e-05 
-6.08208047720126e-05 0.001127757458486461 -0.0002541402402866376 
-0.0005345995875978693 0.000556022801775299 -5.21727761689984e-05 
-1.271250653915893e-05 -0.0001037766672025391 -1.416159467423029e-05 
-0.0006754423816716368 0.09697222536128289 -0.05977352225550774 
-0.0003994264591132705 0.0006738187828282322 -0.0001222738093033458 
-0.0002251487127812498 0.002546179351825453 -0.004078097900758705 
-1.559261344349769e-05 2.671493189385326e-05 -1.937639600094043e-05 
-1.379632702315892e-05 -4.116890452332641e-06 -1.829839798008108e-05 
-1.411569981365276e-05 4.190902111288236e-06 -2.217517711072445e-05 
-0.001442680258437881 0.00441232453547604 -0.002776988887733509 
-0.003246300889266352 0.004850956728374631 -0.0004690752526534894 
-0.00193830346576904 0.002476340180708844 -0.0005639981836287803 
-4.587448576201479e-05 8.306763892099029e-05 7.288961803073356e-06 
-4.611887332992706e-06 0.0001390709183614924 0.0002482326754176708 
-1.460846982669995e-05 -1.117259028745716e-05 -1.818161923376058e-05 
1.560522965977092e-05 0.001015143365894734 -0.0008770666201846682 
-0.009823410468280643 -0.1423989721967237 0.3967495381739286 
-3.53693732685707e-06 0.0001659982688566164 -0.0004586675137436486 
-0.01667083322860768 0.002560437343068273 -0.0001128855061629899 
-0.0001394730879430964 -0.000878299955653684 -0.0001395116575321556 
1.858894145143521 -1.607330458579679 -0.351518228042825 
-0.4305058094099128 0.5824484392588167 -0.07762178699676346 
-0.3059812477316637 0.0462072158833659 -0.0003775351747730304 
-0.1286395787321952 0.05164481070875349 -0.1028504537238539 
-0.0006051759635796489 0.001307966751967683 -2.393870335949764e-05 
-0.0005952776530786124 0.002115916500798121 -0.0008994505016878332 
-0.001260039784082962 0.0008069646836790726 4.94100862875023e-06 
-1.405692715196235e-06 0.0005232006576637943 -0.00249974774526609 
-0.003191345220695704 0.0001519142126354323 2.360021346073639e-06 
7.053276972106119e-06 0.0003754227981517106 -0.0002289489782566967 
-0.0002131095317991962 0.0004076039215927021 -1.028320706042132e-05 
-7.472132267327262e-06 -0.0001061022030242167 -6.254891690694573e-06 
-6.862098566822787e-06 0.001111428540759932 -0.001010323793226972 
-0.001271865318544211 0.004136682063504688 -0.002167121433836825 
-0.001717062037503878 0.01341402362611271 0.0007864567844592435 
-0.0003384262593812128 0.001124041481059908 -0.0007959149384421635 
-0.0204769993988348 0.09063643272418924 -0.3719265295302979 
-0.07528865720851052 0.06528893497061568 -0.004722962030865857 
-0.01407344422378912 0.02841185725186311 -0.01351081622931262 
-0.0001015867775472238 0.00109338133665685 -0.0007401333815947116 
-0.0004438065047276537 0.0005041847120249315 1.666702213351502e-05 
5.671479895695783e-06 0.0007872147538480697 -0.002311334027109229 
-0.5615806243213589 0.3762482322159686 4.578039015647623e-06 
-4.822558894962818e-06 0.0001965143954720966 2.422493298758988e-05 
-0.006969039955084801 0.6390813472427554 -0.4053345382660651 
-0.30744260159876 0.02094454350013501 -0.0006139464736914637 
-0.004365921050371399 0.002965456112467197 -4.479167909648876e-05 
-0.006643729920016862 0.009146581450157518 -4.403606090695687e-05 
-8.696081560435248e-05 0.0003170433167934939 -0.0002378525728501514 
-0.0005921844987970354 0.003373463735625238 -7.121090309236911e-05 
-0.0009588342902834671 0.001524772559802715 -0.0001721205627620377 
-0.005651072047738217 0.1521750249446357 -0.003307372484783919 
-0.006496373224566754 0.00625826220923361 -0.0003521192784520277 
-0.01381004346579686 0.01614153209682659 -0.004152758986376276 
-0.0002594961389145644 0.0008947291951187546 -0.0002392042985226517 
-0.0003037447626779682 -3.105144197844307e-05 -8.726010038408661e-07 
-0.0009180576421059271 0.002338249802498061 -0.0004641746232535068 
-9.696280323466073e-06 1.518338868547003e-05 -2.445830911548134e-05 
-1.643083073136364e-05 1.640771450032883e-05 -2.803025974608771e-05 
-1.293226975036259e-05 1.529839698707619e-05 -2.053524295367723e-05 
-0.001702745125709565 0.000963549071504061 -0.0007882538220643145 
-0.00140828900616739 0.001242192010303223 -0.002414491459755622 
-0.00976754976784508 0.8307747952799155 -0.5110816137992897 
-0.002561898270001976 0.0009381241425488838 6.65193365942842e-06 
-4.822558894962818e-06 0.0001965143954720966 2.422493298758988e-05 
-0.001196770399665834 0.002101581116978265 -0.0008398956014352667 
-0.0005209744857104885 0.00138869243864836 -0.000579381495347862 
-0.001433985658570154 0.001658088448496031 -3.45134141827014e-05 
-4.687542260871146e-06 0.0002149646405063543 -0.001708717191655723 
-0.0009309590283746576 0.004059286213697161 -0.002830244108462935 
-0.001995041559158801 0.002566837143745888 -7.807423279424217e-05 
-0.0004108569502677545 0.0005092106954164372 -0.0001123524716726042 
-0.003549098961080625 0.003820088436785034 -0.001113081761326619 
-0.001818007958315692 0.002784292085025692 -0.0006064637605791359 
-0.002026464353158437 0.007094774169362199 -0.004544868147748765 
-7.920217708655366e-06 0.0001863595974884629 -4.686134504162672e-06 
-7.805323658845438e-06 -2.285179647911407e-05 -7.721485161493304e-06 
0 0 0 
-0.01085176593446085 0.009192796028089867 -0.0001781035093752712 
-0.003444104310334457 0.002928629259328047 -0.0002031162833348631 
-0.6170746008371836 0.7697567564971313 -0.005979409491073023 
-0.004072825674590408 0.2361417892597625 -0.1083488820951913 
-0.0291845424122094 0.02117218973988186 -0.0005560627331122536 
-0.03020530617273316 0.02046432603337968 -0.004351104731970348 
-0.01084170423424889 0.02458571186663664 -0.00903317048818046 
-0.002580291645857162 0.008984245012954166 0.0003452505735709013 
-0.02454550219324281 0.02506310419969214 -0.3719727768416849 
-0.002187635346059775 0.1291770907426873 -0.001897535727932215 
-0.002295504068343187 0.05123664305985658 -0.0462579496617803 
-0.004401855576879865 0.004594191169304356 -0.0009759993943437853 
-4.015267003701472e-05 1.871401253739957e-05 -4.306809757098381e-05 
-0.0005877951567484544 0.000761181970620889 4.03757943851509e-05 
-3.699293435587468e-06 1.396017493358144e-05 -4.302736861286044e-06 
-0.0007141318292848753 0.0008133802183781017 -1.230357706614767e-05 
-5.500135937346399e-05 4.076204140532245e-05 -2.052770569050954e-06 
-0.0002384254264154983 0.001019880404813299 -0.0007422643211284186 
-9.166791672978851e-06 0.0002289185793304708 -0.0002441224137578127 
-0.0001687236262374178 0.0004348801050619945 0.0001570817830011163 
-2.078684519250553e-06 2.806414497913873e-05 -1.50479594666914e-05 
-0.0002292824256345596 0.546800381253375 -1.48341646240334 
-0.01119308055718763 -0.4235994709030777 -0.06237173024176658 
0 0 0 
-0.001535572025962566 1.231645352743229 -0.8291374889261985 
-2.466622373928951 -0.819409693685979 4.070351658799511 
5.915240076814244e-06 0.002531178230997096 -0.0006588965399177172 
-0.000853858058064551 0.002505695165273975 -0.001569128408700693 
-0.0008720788753480531 0.000730438915811215 -1.571933024551511e-05 
-4.229178831472154e-05 0.001304663267813811 -0.001942702285223289 
-0.02694293068928354 0.002670825335747687 -2.009619577672524e-05 
-0.0004673887756297791 0.0003834441747383887 -3.262304697560575e-05 
-0.0008275847045901192 0.0007282108520796479 -2.822403914718032e-05 
-0.0002154043105981762 0.0003979999995848762 0.0002577900360476569 
-0.0007240907026537353 0.0009218426508771029 0.0001352338312349488 
-0.0002490366620120651 0.000695448728173712 -0.0006078736447150885 
-0.00392706095795836 0.003790731407033007 -0.0001065955236288242 
-0.0008677434476138098 0.0001631650422956837 -1.129124906385378e-05 
-0.001660001808764246 0.002973311753245074 -0.0004255604710253836 
-0.001493382815217855 0.006717362303888878 -0.006686475569518698 
-0.002124417422685463 0.02646424353421225 -0.01627810270351097 
-0.0007493423879749459 0.004657970111077124 -0.003206709378404659 
-3.313833273752412e-05 0.0009871209962158563 -0.0002557503655655128 
-0.0004303178745514431 0.000190597014008483 -2.267067655639615e-05 
-1.427288771933308e-05 0.0001544686585061892 -0.0001691938608404542 
-0.0004957763595229477 0.0005443824491935898 -3.275921300862743e-05 
-6.681202614281985e-05 -1.584495557439106e-05 -5.487396333937654e-05 
5.316677034513614e-05 0.0008659771961748997 -0.0006955926699742973 
-0.7158247060100171 0.4975099029159379 -0.003546689914687297 
-0.00831759887936905 0.008690198653518784 -0.004527257225223744 
1.170532627673451 -1.352570183412986 -0.6889904748620592 
-0.001731710572323927 0.006516167222923305 -0.00304384095294929 
-0.001595815513859126 0.003868934410688532 -0.001217053008116336 
-0.002120105279867869 0.002325814381965797 1.51000389806422e-06 
-5.965500554887501e-05 0.0002042436421867792 -0.001067078104604536 
-0.0003002252484364241 0.002796839310642519 -0.001624901645897267 
0 0 0 
-0.008468095207686436 0.1733444912935769 -0.04199767525490943 
-0.02807088757009735 0.5846681651709277 -0.2554718737559423 
-1.443945838678673 1.052896347813684 -0.01406469272262086 
0.1525948893222165 -1.675420876059843 -0.00105522362185922 
-4.0102271017617e-05 0.000419573789676169 -1.456084296657174e-05 
0.111260049595721 -0.290287176311499 -0.03522446664977279 
-0.0007930499976879338 0.0003066137220786855 -1.220638723867675e-05 
-1.235571905584773e-05 9.243854165999504e-05 -1.559937842261845e-05 
-0.0001102576743317819 0.0002745670945874433 -2.207936776895711e-05 
-5.217101078498405e-06 8.512216631488797e-05 -0.001656888875904944 
-7.218076315720799e-05 0.000116741730635946 -1.706805678613921e-05 
0 0 0 
-9.834534675368454e-06 -4.937711406138364e-05 -9.300425968509671e-06 
-1.201002991474753e-05 0.0002279067840286657 -0.0001830084469547406 
-1.934998600073055e-05 1.025177688689476e-05 -2.27255995219384e-05 
-0.0002724156309782073 0.001461505607268522 -0.001064615647299058 
-0.00316606119005918 0.001249165912174103 2.406537402752493e-05 
-0.0002633066661096783 0.0003624525190989697 -2.219572487694221e-05 
-0.001065569412256457 0.0009881143276791043 -8.451308091170259e-05 
-0.0003855841869089629 0.00050672519500978 -3.521491632304397e-06 
-0.0009283809817697042 0.0004554744665816626 -7.938077631260394e-06 
-6.295124031996713e-06 -5.675917821884896e-05 -0.3391494881560124 
-0.0004282460265680991 0.005149185806310644 -0.0009030205217880735 
0 0 0 
-0.0001103539551292401 -0.0006463966008600099 -0.001163265012551511 
-0.0009921265299398247 0.001446631693705136 -0.0003959157259668003 
0 0 0 
-0.008381137010889063 0.003153726000432512 -9.699243012143143e-05 
-0.001030986640223302 0.0004419373710092895 -2.088137269666648e-05 
-0.002572205189777585 0.003067943989551022 -0.0004258637329935392 
-0.6007449856845954 0.1305172825641584 1.131502873085317e-05 
-3.056843010919948e-07 1.458938195914181e-05 4.374888666760484e-05 
-3.326595324995213e-05 0.1350261821034686 -0.02235884078286134 
-0.002882021684404434 0.1641221951234237 -0.005339710046244366 
-0.1597332523856782 0.03906172816605664 2.247468077308843e-05 
2.042883512143949e-05 0.006746304067310444 -0.2663557563868304 
-0.0002285193165270415 0.005059525976964046 -0.01064797110667519 
-2.450788910981925e-05 -9.613020087353574e-05 -2.788869058317841e-05 
-7.149864909488086e-06 0.0004430751666997097 -1.156102473876375e-06 
-1.517343081360228e-05 3.017692718867087e-05 -1.59635688261676e-05 
-4.559985705684905e-05 6.56469465858928e-05 -2.055922122009266e-05 
-1.510333363987936e-05 6.023157998540624e-06 -2.165673581736334e-05 
-0.001933781734815294 0.002874631417367701 -0.0002774140061796582 
-0.002610298488729603 0.001438835736082896 1.768788614028924e-07 
-0.0008642701471621166 0.001706181129831652 -0.0007139100381969913 
-5.901053989569813e-05 -5.87009850071449e-05 -4.30985884720159e-05 
-1.604050226549715e-05 -0.0001976746395953983 0.0003987670085380617 
-0.0002709638038017882 0.0002007044313380331 -5.079982838784879e-05 
-0.0005397963499220927 0.0002031778658397388 -7.830878904318426e-06 
-0.0002702400167551229 0.0003839797734891967 -3.462612369535252e-06 
-0.0001705571842368202 0.0004371235515658262 0.0001557021177926359 
-1.143563000221158e-05 4.212340844702817e-06 -2.183207438588792e-06 
-8.182864768246912e-06 8.053358528146564e-06 8.017223677763099e-05 
-3.198516592702591e-05 3.48349598674334e-05 -1.725093014969708e-05 
-0.03051401263776552 0.02511110000788325 -0.006535035281587271 
-0.008408703009779429 0.006109631927310741 -0.0001362094691230508 
-0.001007203468903884 0.06869600968154282 -0.02217713554417381 
-0.00507680165131214 0.1487067204089208 -0.09228002845031667 
-0.2205277785676674 0.03196274472357216 7.715329411412169e-06 
-7.228222092458419e-05 0.005550650999912246 -0.005471729616017538 
1.46091009147572 -1.424040544430992 0.002004937833988002 
-0.00427674370163776 0.004914395165305084 -2.570236563351127e-05 
0.6141070636644783 0.0839659069376536 -0.6696360971026845 
-0.0001520960401350274 0.0002406223466479371 -4.559651180955078e-07 
3.158110035460643e-06 -4.948065012974412e-05 6.548388664556853e-06 
-0.0001161733632373087 0.0002596175627203147 -0.0001807455842658318 
-3.007253680770648e-05 0.0001200965765859631 -6.325641503504719e-05 
-2.568414867055455e-05 7.016286310340192e-05 -6.113799177904985e-06 
-3.790081956704005e-05 8.78356486957614e-05 1.207165900822e-05 
-0.004977362622933561 0.002512921132340867 2.535641031938546e-05 
-0.002396520969006472 0.001695521247222038 5.91088730227538e-05 
-0.0007961112491815546 0.007126124748270965 -0.003157648957658038 
-3.043484187428664e-05 0.001564533126797776 -0.01285045873588458 
-0.0001157926178042838 0.0004312296101636845 -0.000284635321896394 
-3.059982828174598e-05 1.678270841342909e-05 -0.0001287362651102501 
-3.433207639638466e-05 7.237173067067207e-05 -1.3245159664435e-05 
-6.723286427751243e-05 0.0002054306351433119 -4.083817680701978e-05 
-1.501735265589032e-05 6.572817180790748e-07 -1.992806516125027e-05 
-8.402760677698444e-05 7.857441907895406e-05 -2.808197431038722e-05 
-3.680966151372622e-05 0.0007391997894001057 -0.0006019404878974302 
-0.0003082483676845811 0.0004125225341130948 -0.0002084268729316508 
-0.01423100184595736 0.1355577856137105 -0.009529160794615139 
-0.00888515792121005 0.005306257469133956 8.006534745320789e-06 
-0.006371495305271101 0.006738113531718303 0.0004487707765760698 
-0.0005843411721860205 0.0009291049281507761 -0.0001403642961645166 
-4.788731317343625e-05 6.329870236126138e-05 1.105080279012991e-06 
-9.757726951886638e-05 0.0004893866318182938 -0.0001942033778610703 
-0.00258230669434932 0.003125543110326204 -0.0004285289074908056 
-0.009361890777678104 0.003341266402960046 -9.705643655571187e-05 
-0.0009320511907263777 0.002338213962812362 -0.001222786735594512 
-0.001538768530624123 0.001319633706135976 -2.069025783788997e-05 
-2.826887077504796e-05 -8.313013378623021e-05 5.880710320962773e-06 
-0.000963129189439885 0.001683187114847788 -0.0002210069446094859 
-0.0001347996210244193 0.0004660893057660032 -0.0003466974244638752 
-0.0009448769494512474 0.001268039326351526 -0.0001027068506664567 
-9.894333860898026e-05 0.0002518624655208824 -0.0001278987594112354 
-0.0002598583320938915 0.004104080151423229 -0.002938265767490226 
-0.002994814982402204 0.001156806452856329 6.62824101470373e-06 
1.26277414917836e-05 0.0007305371702700579 -0.0001324182517364179 
-0.004174266635638194 0.002937075615161747 -8.516721422026725e-05 
-0.001714905052330682 0.0005921482825585767 3.907106995811359e-05 
-0.001218956164590263 0.004683946559746925 -0.002999081206690814 
-6.521684662049708e-05 -4.364751274799193e-05 -1.979723697611058e-05 
2.994070435425454e-07 -6.978305693025359e-05 1.341238886172996e-05 
-0.0004934767681490573 8.055985327211179e-05 4.595062318462938e-06 
-0.0002197641024799355 0.009076868157682341 -0.001820941839352654 
-0.0009431589370265866 0.0005587599682039492 0.0001901070769921856 
-3.489219740265644e-05 0.004167284249839636 -0.004653653090525474 
-0.0006245813075952655 0.001446548421132784 -0.0008077241354490729 
-0.0004341839894649985 0.0006551805208773278 -2.127806525026765e-05 
-0.05162984698549934 0.009573075631824617 -0.003666697750952453 
-0.0003221186081071802 0.0009868737357006806 -0.000479058821474839 
-0.001663651854033401 0.00156762591260016 -1.307003913186007e-05 
-0.000417641806044663 0.0003935943428216696 -1.491014937639953e-05 
-0.0006605618631586684 0.006958134785041927 -0.005460717706858252 
-0.006212006765198921 0.002034468701570572 -8.857412973949457e-06 
4.469344282892086e-06 0.001212202068479593 -0.001207414626805695 
-5.864675525698666e-05 0.003654125539275105 -0.001775857584529321 
-0.2375529562600437 0.1888571300494322 0.0005541708194459622 
-5.987478599553191e-05 0.009165721526067585 -0.008265871746607593 
-5.858589698799151e-05 0.0003070554559343784 -0.0002913056905876084 
-6.93573558400268e-05 0.04644837898859005 -5.24791058905915e-05 
-9.404573720856188e-05 0.0001851092507618429 2.817869190851882e-07 
-0.04079357314087189 0.04151430912370573 -0.003864225016322971 
-0.6681456532612814 0.01751145440104244 5.910960007364085e-05 
-0.0144531682954767 0.04035921678741155 -0.02915734456980343 
-1.081281201072069e-05 -7.222509892315452e-05 -7.596883556155964e-05 
-1.198163807942931e-05 5.006267193870274e-05 -1.726711141553214e-05 
-2.93945980926334e-05 4.860608709463276e-05 -3.255831506561107e-05 
-4.495523966458446e-05 0.0002141250455985061 -4.267983218694726e-06 
-3.191834761929059e-05 -6.73592753665421e-05 -3.188814685138924e-05 
-0.0001549533252959144 0.0001260722869238259 -1.855190294533708e-05 
-0.002241200378088281 0.02190489944820334 -0.003698209926503842 
-0.001392940722304022 0.001439489552912396 -4.348863480872582e-05 
-0.0001908224801573915 0.005518041843126801 -0.005053998754232486 
-0.003790758567031134 0.00607342901710977 -0.0003363239334486632 
-0.007479092465054328 0.005280253774406853 5.146332983294411e-07 
-0.0006489458649631274 0.004856521666524006 -0.005916424030559401 
-3.302102932389606e-06 9.9934173588579e-05 -0.000459317180070112 
-1.524040315478074e-05 -4.74485696171483e-06 -2.242263580113189e-05 
4.835072127421623e-06 2.25369632237702e-05 -9.018737741989485e-05 
-0.00135682287938973 0.002541241370531056 -0.0005618582595633429 
-0.003118012477759288 0.001311106802226931 -1.470691979874775e-06 
-0.01415510710104904 0.0159025436895967 4.563413425090286e-05 
-3.795491802258138e-05 0.0001928342869888783 -9.638542725496125e-05 
-3.045237775702246e-05 4.06966769534629e-05 -3.644461386148963e-05 
-2.670439179037419e-05 0.0001095757686701468 -3.096713970732426e-05 
-0.003098291082364278 0.005790090333512238 -0.00155768847235562 
-0.003888802914505318 0.00334222644818584 -9.710531607503084e-05 
-0.001290707498096346 0.006809115385546286 -0.007206259620164733 
-0.0001377441488399923 0.001099818034911638 0.001494618479133543 
-0.0001982140889061561 5.442447630549139e-05 -6.393550978862169e-06 
7.059738797953721e-06 0.0002527796258897596 -0.0001208218796489633 
-1.184022616864493e-05 -7.389946683158884e-05 -4.07612764300962e-05 
-0.000117911086631353 0.002123603652573704 -0.002939920350361031 
-0.0001280201976644483 6.820909879905043e-05 8.879029511063475e-06 
-4.805451707659826e-05 -9.306274496917628e-05 -4.829268981545672e-05 
-2.244102930902985e-05 -0.0003444610259299806 0.0005091626762324164 
-4.661898519218567e-05 5.986360354266713e-05 -8.387337388131388e-05 
-0.05587417438608031 0.2040277558616598 -0.03586175332951842 
-0.7690561611923615 0.4705559354140711 0.0001552439773281561 
-0.0116359315402349 0.0506645995345962 -0.171162837612811 
-0.0001031462648782155 0.0002758105484369649 -0.0007839903555170454 
-0.0003842440149471145 0.000435340367485245 0.003354028914553815 
-0.0002630982909530064 0.002273902202848545 -0.007026286467603861 
-3.761395288118698e-06 1.385666908587241e-05 -0.0001348192227689168 
-6.525937485580375e-05 0.0001054547620138562 0.0001936200551602973 
-6.896230459356617e-07 2.831222810240343e-05 -1.453973478486695e-05 
0.0001154528948779371 0.001654953638391976 -0.007685085202036382 
-0.0001506924944978639 4.853844296765876e-05 -3.367919073351137e-05 
-0.0006879602378757513 0.00133048306014203 -0.0001862198352105528 
-0.001322911153797112 0.001020108432355012 -6.416901951667951e-06 
-5.963069724642194e-05 -0.0005187199898356378 -2.722123407715525e-05 
-0.0001197641096328582 0.000740159333104286 -0.001251982173225223 
-8.353860817347028e-05 0.0003645135279321614 -6.728580740322305e-05 
-4.790928501396269e-05 -0.0001064218096233369 -1.363602566427938e-05 
-5.123710406961766e-06 -6.141885280080003e-05 -0.0001845117629875439 
-0.002525756875647231 0.5973066779055964 -0.0005580397186923737 
-3.475441415702374e-05 6.024367873399999e-05 -4.300448103391646e-06 
-5.502768482674949e-05 0.0001580445131316641 -9.138768965522155e-05 
-4.401815675117654e-05 8.367314820376402e-05 -2.334867340506224e-05 
-0.0003078837891077795 0.0003030091203958801 -8.771773045834036e-06 
-1.481540701004285e-05 -4.826820532030644e-06 -2.171636930748417e-05 
-0.0001740730990646674 0.0009560154128530677 -0.0009220812114118741 
-0.1367283003207828 0.0003779565533986402 -7.256102679186837e-06 
-7.129927706560705e-05 0.0004233646071129696 -0.0002451962505775662 
-0.0002466578093593883 0.003462119630825637 -0.003314615213439505 
-0.001060770928200816 0.001284364233850726 1.874554919041966e-05 
-9.935853428705775e-05 0.0025055958020483 -0.0004389963125895986 
-0.003944230339707892 0.003254958663440638 -0.0007102501534335596 
-0.1533279454877532 0.002940712624659387 -1.203173272113659e-05 
-0.0001962562572431696 0.000367924119639311 -2.381747946500669e-05 
-0.0004927751532734538 0.001300538361169431 -0.0007191267902789648 
-0.000347325675708444 0.0005376918025717737 -0.0001030590381057495 
-4.646969503275774e-05 0.005475533730117988 -0.007649231534809817 
-0.0002133699315235397 0.0004223130901628432 -0.0001409680651854374 
-0.0002200224658812505 0.0004654177791680191 1.233409390105707e-05 
-3.264328156795757e-05 0.000370332630153096 -2.266374870813533e-06 
-0.002625960158621485 0.03377920936626629 0.0001972893167441869 
0.0001000005156414785 -9.197265020754803e-05 0.0001774383852765617 
-0.007543434021853558 0.03266411739997931 -0.007217625359740844 
-2.814780116545885e-05 -1.916214515080985e-05 -3.282551782380484e-05 
-7.967479105999367e-06 -0.0002296064528432423 0.0001483729488691193 
6.941839883051944e-06 -4.825597557668878e-05 -3.74196565847219e-05 
-1.977460267725407e-05 0.0002428693078043932 -0.004699554857159126 
2.780933805407059e-05 -5.310877211369335e-05 -7.764113830415834e-06 
0 0 0 
-0.0002746028398794441 0.0003052517270732798 -0.0001125412872363527 
-0.000135172700519996 0.000268189991255714 -4.526974510858438e-05 
-5.982695984377231e-05 0.0006134323450428615 -0.0006047555056603743 
-9.490773729508686e-06 0.0006298357760838839 -0.0002531578474286392 
-0.00017379297277408 6.594460467761407e-05 2.947060043617927e-06 
0 0 0 
-0.00194061953469245 0.003155577424612547 0.0008870453540679557 
0.0001060964817234295 -0.0007802364843855641 -7.761479610906625e-05 
-0.000495589363454817 0.002756170349438985 -0.001835938011172386 
-4.298430666390153e-05 -8.918952425988823e-05 -9.25586285788859e-05 
-0.000466591795061351 4.991627846164976e-05 -2.599756320443908e-05 
-4.311363711021361e-05 5.944513294201247e-05 1.201313964185985e-05 
-0.0002047749578514525 0.0002583785225960113 -1.912514681481834e-08 
-3.320719257163079e-06 -0.0002157203996831873 -6.767901820241493e-06 
-0.0001294992697485501 2.953273820222375e-05 -2.034247749019905e-05 
-0.01842315714086024 0.1091138584056027 -0.003939855142849651 
-0.5556588628848271 0.6806040217575527 -0.007590185807466772 
-1.590498952159308e-05 0.003828397909373713 -0.004377999200239284 
-0.01895941152894826 0.03102548049050726 -0.0003771007814871269 
-0.03795281864316736 0.1331185879527228 0.0001300891984824834 
-0.02307776473568587 0.02492173979415802 -0.003841184944785384 
-0.0005823144300089224 0.001583481048023568 -4.125841017607824e-05 
-7.426084431798912e-05 0.0009816855998910517 -5.255475435691604e-05 
-0.003193260621622993 0.005188706600507735 2.013685240790739e-05 
-0.0002433597452540897 8.399060920971863e-05 -6.955337961495032e-05 
-0.0001217012974726545 0.0001608727598576397 0.0003100721236427156 
-0.000320658315736045 0.001212274134225479 -0.0005017990728991781 
-2.552553165969605e-05 0.001165396128628399 -0.0001198719304747185 
-0.0005263278418496728 5.191826973325312e-05 -1.00189478336639e-05 
0 0 0 
-0.0001804246304915281 0.0005703714052117181 -0.0004136841083617208 
-0.000417641806044663 0.0003935943428216696 -1.491014937639953e-05 
-0.000417641806044663 0.0003935943428216696 -1.491014937639953e-05 
-1.235789791203162e-05 -0.0001046377193549719 -1.471428979251508e-05 
-1.43946156698498e-05 -2.01415730944127e-06 -2.214909480811509e-05 
-0.001611380183528514 1.548760853262122e-05 1.776370162105295e-07 
-1.273869077107208 1.202543810034412 -0.001673920248353344 
-0.001041361332310374 0.0006001419392116556 8.41401459276708e-06 
-0.008408682537305281 0.03072249490151022 -0.006843507693471921 
7.85297023840795e-06 2.423504328265845e-05 -1.475688969571538e-05 
-8.095579305978311e-06 1.079363432322056e-05 1.009287804129009e-05 
-2.739194674580416e-05 4.367060430027785e-05 -1.43208663036094e-05 
-8.53040464996892e-05 0.001876245976931099 -0.003101933484908378 
-0.0002040684326813015 0.0001879352253622536 1.334446482530507e-05 
0 0 0 
-7.926158069275764e-06 0.0003029806017371952 -0.0003999605620914411 
-0.0002007026004647528 0.0003899765987349476 -1.505274863475695e-05 
0 0 0 
-3.576537953567223e-05 3.026659218478973e-05 -3.611334462862442e-05 
-6.627815545740698e-06 -3.013307991638788e-05 -3.842345615195253e-05 
-2.963895875522465e-05 -1.689691583045214e-05 -1.910124736239461e-05 
-0.3102166102790699 0.02066562544107711 -0.01000653005937185 
-0.0005464801133413516 -0.0002361131571079476 1.880604637463366e-05 
-0.01455917757661994 0.0280205099291056 -0.01135472975700899 
-0.001449135816656868 0.0009173991831719523 -7.952232748840983e-05 
-0.0006989148515685097 0.0007531649232376467 -0.000122050456607606 
-0.001196514328884175 0.002720055711944373 -0.0002120327759693566 
-0.0002999354258050098 0.0003644780395544422 -3.409151393092071e-05 
-0.001554700953600601 0.001167981341302678 2.84175447881197e-05 
-0.0003859275927575631 0.0001599831201297653 -3.737145552403133e-06 
-0.001621635686852174 0.008347914543397882 -0.03131640099243322 
-0.0003673124182189368 6.789338067924199e-05 -0.0001164116980929818 
-0.001417275194786468 0.001875155561758422 -0.002077822430969249 
-0.0002637271264716009 0.0007736518988233377 -0.05502461900509047 
2.132985893052425e-05 -5.330541748829749e-05 -7.332852536351594e-06 
6.589378736075507e-05 -2.33379675691394e-05 -1.865666168387711e-05 
-6.276937765012487e-05 1.263278833604803e-05 -2.279002763479659e-05 
-2.036844569121958e-05 -0.000209885637608821 -1.351107783376806e-05 
-0.0009230298706852067 0.01957259517701592 -0.0002984392600296293 
-2.234481444572755e-05 1.306476928037092e-05 -9.259897179908968e-05 
-7.050010239744792e-05 5.381180448841996e-05 -5.315060602734137e-05 
-2.742821713940854e-05 -1.37529020678131e-06 -4.09490422231833e-05 
-0.005961031096597287 0.005966224285634234 -0.05504626859282317 
-0.001138281799688892 0.000528750799225453 -0.0001692979790274938 
-0.006234384887395433 0.00686148206339573 -0.0004541408476007087 
-0.003823064220122193 0.002347656979353809 -2.282439097137618e-05 
-0.001273501160546839 0.0007236572452622588 1.463738417291418e-06 
-8.09627492877189e-05 0.002563670792055983 -0.00455144121161239 
-0.00273190578476516 0.003482177652565911 -0.000901838012316507 
-0.003134050871209537 0.002201618611986515 -1.788175672166236e-06 
-0.0003830106197558435 0.001158022799170468 -0.0003611147671947385 
-5.974643179602406e-06 1.516244185212889e-07 -8.210435132212445e-07 
-6.917432506873542e-06 0.0001741642963430482 -0.0001519229148025436 
-7.475959755016187e-06 -1.040762324111628e-07 -3.041452808106011e-05 
-0.001370687237773071 0.002178285674885195 -0.0002268085982859377 
-0.0001554002286418886 0.0003290412209267414 -6.771622312267782e-05 
-0.001617111856122714 0.001501162381563668 -0.0003690489218106122 
-0.000763252544719415 0.004672344903376232 -0.001604174413962909 
-0.0003836741460937553 0.0005016615389976648 -3.515658961778512e-06 
-0.000387326418934834 0.0005095641158389094 -3.522118122607186e-06 
-0.006523102103296793 0.001918476727467894 -0.000173856146264545 
-0.001530186815369377 0.0006428376896837496 -5.910069937717471e-06 
-0.001792859087685827 0.002553560934012187 -0.0001064012234045854 
-1.271808796401524e-05 0.001896624636516358 -0.001186633722337527 
-0.0003481696806248981 0.0005454109453334761 -2.363138324863778e-05 
-5.90885127622016e-06 2.814269289690722e-05 3.667620775398714e-05 
-0.0002963314905393806 0.001006932785485584 -0.0006190476521340263 
-0.0004502198815345443 0.00120076911253093 -7.143683976324221e-06 
-0.0001967126485995511 0.0001462207781823017 -6.615575389774082e-05 
-0.0002261803977278701 0.003695888859703655 -0.001093031213717349 
-0.0009248036573535256 0.001461083618299064 6.844618179980057e-05 
-0.0001526986443980634 0.000314866300163392 -0.0001789030219438566 
-0.001959423096600176 0.005008518572526053 -0.001854855565840586 
-0.002100390646532977 0.007107548430949772 -0.00161099377013491 
-0.0007386914228955057 0.002695133575771669 -0.002003003645852355 
-0.008340681456733324 0.01860020814802847 -0.002893541821059789 
-0.005973411222231129 0.005063644669778259 1.092695994866588e-05 
-0.003308375819752884 0.01323643124276687 -0.3723098566775437 
-0.9268122549454391 0.9183910110241741 -0.00227905381639185 
-0.002125061984664763 0.002902997708341056 0.003629694793578914 
1.144139956252267 -0.8368220355377051 0.4334660361845401 
-0.00137272395954032 0.006715894228384777 -0.001891759430533987 
-0.002102051223357571 0.003801070000435169 -0.000328112455947349 
-0.002291251243950164 0.0009505974501884673 5.615220125159622e-05 
-0.01244137553964707 0.01704653033134429 -0.002513451680214322 
-0.008412663857443289 0.01141146110790498 -0.001164258258680091 
-0.003808480189394713 0.02134566432325914 -0.01891728028848298 
-0.0008508530227174179 -0.0008704634090113257 -0.001483332681352754 
-0.001419354297606262 0.0008223296915251801 -0.001550487582011875 
0 0 0 
-5.796176628591525e-06 0.000730073300606114 -0.0001570993843954075 
-4.607217281851303e-05 3.344834457676599e-05 1.728910653869503e-05 
0 0 0 
-0.002501088142784137 0.003728689269263365 -5.930179835884811e-05 
-0.001248412307959859 0.0004327505655879361 3.460857647986066e-05 
-0.0001332876319861819 0.009713674370474245 -0.01014875100313622 
-2.567526668411965e-06 0.005590890599999262 -0.02873656018120633 
-1.259242424483813e-05 3.999640950997029e-06 -2.022079741328346e-05 
8.442492862908627e-06 4.646160685098749e-05 -9.232727518988139e-05 
-7.059523548013037e-05 0.0003149611602370847 -0.0002293690442000954 
-0.0004518225369219994 0.0006455955890913237 -0.0001810996640234803 
-2.362901743722771e-05 -7.187654246425935e-06 -3.065727989819308e-05 
-4.092035076503529e-05 5.362731050188102e-05 -5.023009222340277e-06 
6.713149229692633e-05 1.493217074088093e-05 -1.861352013005424e-05 
3.193367043829883e-05 8.088462455373657e-05 -1.178174892316223e-05 
-4.356267322369482e-05 0.002062461884240381 -0.000419402181536478 
-0.001633900209093084 0.003857346190587574 0.0003019761736133144 
-1.334345599510635e-05 0.0009593064924902532 -0.0007703592379499897 
-3.189312671243834e-05 0.0001673897669521045 -3.582962239666846e-05 
-8.14092316241973e-05 0.0001071606694580907 -6.711188305003814e-05 
-5.362205885044018e-05 5.122198026835734e-05 -2.702188015803105e-05 
-9.087237434048808e-06 -3.328688206245462e-05 -1.185294620513913e-05 
2.321372480749432e-07 -2.541186257962209e-05 0.000977890757272927 
-1.419431698269738e-05 -1.628226016825391e-06 -1.750199046336872e-05 
-0.001243940118661457 0.007186581113472623 -0.002177508322872391 
-0.0009401906507977161 0.001304205566082563 8.627851254628866e-05 
-0.0001533239272568556 0.002950978105130103 -0.0037079423342366 
1.31469318916021 -0.8301175960699647 -0.5593367475205543 
-0.02197411899386368 0.01947844666737537 0.000431597597992438 
2.023455741536277 -1.960874085459194 -0.01781961648965065 
-0.004650840971635353 0.003533956411062375 -2.275456200213119e-05 
-0.0006671895520271427 0.000608107336645705 -1.214611104176678e-06 
-0.003323740816969407 0.004464310429940778 -6.427913389599648e-05 
-0.006714930980251718 0.004035715853601741 -5.336378789545e-05 
-0.003981925074787796 0.006386614124343201 -0.0007492491197043028 
-0.003342072583863799 0.005254966323711207 -0.001988279198883224 
-0.001027044071754672 0.001887228301973813 -0.000229860351844067 
-0.002069017698492838 0.002506154509000309 -7.943109340652282e-05 
-0.000937411310376911 0.003019368500730208 -0.001901542153681382 
-0.0001044016183734959 4.384550491618904e-05 0.0001137850669529813 
-7.218076315720799e-05 0.000116741730635946 -1.706805678613921e-05 
-0.0001089554102233692 0.0002109418340582034 -3.48495969257607e-05 
-2.330383875550004e-05 -4.579674548875092e-05 -1.927175061696118e-05 
-1.052485114254505e-05 -0.0001458352312634548 4.726063128165491e-05 
-0.007803446097174939 0.001856415547331496 -1.842712643237661e-05 
-0.0025290103776105 0.002780008621733328 -0.0003265844329890256 
-0.00313698477799218 0.003789296415773107 0.0001064455313113353 
-0.001538588866296989 0.001893279927876237 -0.000206535895656715 
-0.002200139273415059 0.06886653184812813 -0.0002406552748494546 
-0.0004366084045861855 0.01028557679327093 -0.007338439370459819 
-0.004071715580077384 0.002508198169557055 -0.0006785323648308935 
-0.03256258786280456 0.05941206615192188 -0.04314710912760893 
-0.03331106392963758 0.03314110991262047 -0.002293324979819535 
-0.01272279238333325 0.0349301032197044 -0.02584670389143022 
-0.001865603584713499 0.005476994886168087 -0.002918188056935919 
-0.08281449170772515 0.00102289460393178 0.0006879373307451784 
0.002305988126176102 -0.3635802178449752 0.0003688696650253408 
-0.0161429386769173 0.02814205335950649 -0.005356581226539953 
-0.006208485229716986 0.006055683719179099 -2.817777419334267e-05 
-0.005729487850878151 0.0230026851820472 -0.01878664470021239 
-0.0006252794665551331 0.003114491528388587 -0.003969184616008218 
-4.804094499175415e-05 -5.818471114844191e-06 -0.0001380104300664026 
-0.0003870649297603311 0.001766497137141456 -0.00284272414377818 
-0.0007226706265124148 0.001226181582265265 -0.000119636954935562 
-0.0002400939477426367 -5.63091152990203e-05 8.234107444556593e-07 
-0.00101955482212269 0.001787836306698907 -0.0002233943875514872 
-0.0001999416963930067 0.0003638311408517483 -0.000120147949208299 
-0.0003218977365123532 0.0005738842168721096 0.0004782960401870667 
-1.697333024225204e-05 -4.120713274375341e-05 -2.58232939426379e-05 
2.545016722455278e-05 -0.0003749360583478029 -0.0003969055491460046 
-0.0001229812480874491 -0.0003048437742426634 -0.0001204254284045447 
-0.0004730461508789129 0.0001643476005297749 -0.0002126668145045945 
-2.188401702538246e-05 -7.430485207066814e-05 -0.003001005921861151 
-1.013786379749801e-05 -2.394998828083681e-05 -1.257650828839481e-05 
-1.78497097984223e-05 3.286476219331346e-05 -4.270835764448149e-05 
-0.0001100842035358439 0.001488721365827148 -0.001338947402577153 
-0.0007451332511896156 0.0008062825569685289 -1.536579131075533e-05 
-1.879543228724777e-06 1.752588485723508e-05 -0.0008516924826169728 
-0.0001290316036466673 7.568811071198087e-05 -8.683703169009425e-06 
-9.833166435584397e-06 2.892094813113188e-06 3.198393347297216e-06 
-1.693354893246061e-05 3.722567134577238e-05 -1.305406200768459e-05 
-0.0004028025377028312 0.0009268300107470697 -0.000276219510910295 
-0.0009967776374418119 0.0007940500101148262 -6.01604941893982e-06 
-4.247533373361423e-05 0.001337996515293567 -0.001031552052787111 
-0.000621352450099476 0.001112748779991844 -0.0004838051843073914 
-0.001081141536152032 0.0005061590692029668 1.143780374583311e-05 
-0.0005660541139291031 0.0004088066613645074 5.987937373703045e-05 
-0.0008407503585210032 0.000911718694419662 -0.0001564056734369626 
-0.0004537545523382777 0.001063355539307112 -4.089924725187887e-05 
-0.0002069219862428241 0.000236566795329526 -3.059411499586349e-05 
-2.109013392413375e-05 0.002840988558257535 -0.00108845621608558 
-0.0004083209050007459 0.001199212915803163 -0.0001146356627851224 
-5.903502303937976e-06 0.0001987240362953881 -0.0002894218704423087 
-7.871670981082016e-05 0.0002014218831790817 -1.216914362974059e-05 
-3.809250685202139e-05 -7.875915376664679e-06 -5.615227279718984e-05 
-0.0003623231615014438 0.0002311089055580557 7.956354041669377e-06 
-0.0008023154289376212 0.001131177620897954 -0.000109984462943289 
-0.000519882161441564 0.0004734340516647772 -7.538815933949407e-06 
-0.0001070100548265003 0.001249601141195984 -0.0005293149133266566 
-0.003985201967942166 0.1069160427588432 -0.001742206316742941 
-0.0001170464242066051 -5.279325441277608e-05 1.455256343715951e-05 
-0.0003570529123622368 0.00141151663942134 -0.001134083092948492 
-4.54606510696219e-05 0.0006209355817207851 -0.002355303774013145 
-2.287434784553296e-05 0.0001473449096174992 -9.186614282239231e-06 
0 0 0 
-3.787997929362876e-05 -0.0005185356951834198 -7.842816476455415e-05 
-3.330757768437637e-05 0.0007776605301490424 -0.0006478124631443284 
-4.3838085964773e-05 3.252482338913085e-05 3.666508584077511e-05 
-0.3139869789161073 0.1101576688564757 0.0002890738426394988 
-8.496572045111023e-05 0.001041960714050965 -0.001094587063038059 
-0.001936139456374449 0.00024110811998467 4.148075631087388e-05 
-0.00243068033085217 0.002248186410680335 -2.210100522541129e-05 
-0.0001462977451677129 0.0001282063462471284 -5.360601866038912e-06 
-0.0004433768413556453 0.002261256885186867 -0.001952173455867479 
-0.0002096096227758437 0.003299570147764449 -0.0001640021190041725 
-0.0008631498608012998 0.0007569991038909982 4.040784437421419e-05 
-5.964830542085085e-06 0.0004770134121151364 -0.0003220116295895692 
-4.11057038796799e-05 0.0001462362371609295 1.721337936887027e-05 
9.192557365992722e-05 5.016679045630361e-06 -3.833626832108025e-05 
-5.119366433804981e-05 -0.0001289722121232438 -3.737492231923252e-05 
-0.0007734174902299213 0.0005364092381310593 -5.591558398351494e-05 
-0.000212002514462033 -3.729225977573808e-05 -4.735306436025736e-05 
-5.763117963488981e-05 0.0014781315301551 -0.01014240150114631 
-2.19534598963928e-05 0.0005301508661601114 -0.3863760478634156 
-6.795898697423426e-05 3.692219528454604e-05 -4.610281714791976e-05 
0 0 0 
-0.0001276207295743324 0.003244940389098915 -0.02368306896998011 
-0.003267706775972122 0.004066534308412108 -0.0006580280727156126 
-0.000214085491155199 0.001393049335860707 -0.0006248180170111653 
-0.001577338108053502 0.0102326667933304 -0.008067009729534102 
-0.004367752281918568 0.004045306447971517 -9.328852494743412e-05 
-0.002025362080148687 0.005352922858224182 -0.005309783000994526 
-0.03924169785307852 0.02404769735079129 -0.003244632820487062 
-0.01549441044402365 0.01006960328127597 -0.00162906550771437 
-0.007362372799463097 0.01700542248706551 -0.005321550294856501 
-2.074289537139214e-05 0.0001079807920964325 -3.02231064484288e-05 
-8.705567367770134e-05 0.0001838196251797584 -7.753980448614649e-05 
-6.505739974357343e-05 0.0001163777744431068 -4.738284061580873e-05 
-0.02185021005755201 0.008171478364094811 -8.090167658814946e-05 
-0.0001021374262287136 -5.506656483259966e-05 -3.234133096697669e-05 
-0.0004133515463345542 0.06748643065646616 -0.2132078148394247 
-5.388161704323708e-06 -7.277407230896053e-06 2.473123752879938e-06 
1.657453277362957e-07 0.0002820225700824162 -0.0004508469983716145 
-5.644334903369558e-05 5.023864078824813e-05 -7.517464627024222e-06 
-0.000440855294733436 0.0003348036002860005 -0.0001222926487216309 
-0.0001019109434285118 0.000197893991971628 -6.097053353035185e-05 
-0.0009627975899593758 0.004152455430501779 -0.002450148589732443 
6.663520209953841e-06 0.001110106996847807 -0.0009935438467362835 
-0.0002132409526012675 0.0004570776647561357 8.810620547653509e-05 
1.401453554276939e-05 0.002421149028088713 -0.004227321903443512 
-6.626921872142026e-05 -2.86024773412772e-05 2.975263726935566e-05 
-7.442752465825138e-05 -0.0001584276497113542 0.0008361559730407721 
-4.397295380688858e-05 -0.0004459113158046548 -9.422309980970818e-05 
-0.0001622026976241477 0.0001567548353409504 -1.716897739649798e-05 
-0.0006863531316687951 0.0004428110093553723 6.364599790772454e-05 
-0.0001103790232837114 0.000231288337519834 -6.801850821187554e-05 
-3.201862851318615e-05 0.0008036776064478476 -0.001494292641595022 
-0.001248946105821227 0.0008647938709344486 0.0002330858273104802 
-1.427796896350623e-05 0.0001201592626798095 -0.0001027472887007047 
-0.001602662305457757 0.02210523075688665 -0.01440236582213164 
-0.3842922618003823 0.4606701523124935 -5.204698685875055e-06 
-0.0006289340875595986 0.0123673151481075 -0.0101513531701628 
-0.001346773171815488 0.0006911812476648019 -1.262810719641678e-05 
-2.07683241390333e-05 0.001950784208891237 -0.005515211139746143 
-0.0004159604727506925 0.001152801367102646 -0.0005128394009378288 
-0.0007739518504362652 -0.0001814086032095728 -5.747623264437338e-05 
-3.593813450349456e-05 -0.000374834015416846 0.0005750194525524399 
-0.0006459554243623514 0.001156372364542091 -0.001042089545418339 
-5.995657890801332e-05 4.887893807911608e-05 -7.372778299912524e-06 
-3.320719257163079e-06 -0.0002157203996831873 -6.767901820241493e-06 
-2.373172978998053e-05 7.960447610920365e-05 -4.449708376965578e-05 
-0.004339722000107324 0.006421893391110518 -0.005108410026298072 
-0.001331799194579287 0.006045856337262737 0.0001068178497647626 
-0.002717256010650298 0.005859966509802956 -0.009409388077012295 
-7.405610735159628e-05 7.859387951806817e-05 -4.396211953758634e-05 
-0.000100726293828661 0.1850239424312516 -0.2160225517952894 
-0.001037358206538673 0.0002201404072198782 -5.566105022592814e-05 
-4.250611261442579e-05 -1.551992407101271e-05 -5.171745753392296e-07 
2.193203449109244e-06 9.922123245476127e-05 -1.400932746681822e-05 
-8.036751845079696e-06 5.390227429566006e-05 -4.236136039194937e-05 
-0.0004818843575342739 3.578641041754392e-05 -9.271225780760904e-05 
-3.881020972854734e-05 4.108396120689924e-05 0.001343486919811641 
-0.000164839554268107 0.0005307193151704803 -0.02246555180340105 
-4.792644075157708e-06 2.090386870603286e-05 0.0003570892279910954 
-0.04116286651988799 0.4002696064027567 -0.0004205242816759326 
-0.0001921225270219786 -1.268374730616066e-05 -3.087073823480436e-05 
-0.0637891000503068 0.6406006427796526 -0.03174494578297202 
-0.003558268184119387 0.01347703516087261 -0.007731434560119205 
-1.177621187061853 0.4404914734213435 3.257921810143597 
-1.076944486068151e-05 -0.000222522521054238 0.0001584087517231711 
-1.964143008684249e-05 0.00044704506634666 -0.0003134950341848157 
-6.176463730820285e-05 4.092672732632775e-05 -2.499741475660259e-05 
-0.2255833642681349 0.07632037014057404 -0.3329285183665115 
-0.005497347369582401 0.003161299042954831 0.000528807526809637 
-0.003866608218996039 0.0158604093836566 -0.002943014615340299 
-0.0007836147333869917 0.002869242023664905 -0.0008394708037427457 
-0.002018578869853994 0.00247659700339232 1.523429681490978e-05 
-1.885181447759886e-05 0.001571548639064058 -0.002076994573441269 
-0.000975065262708936 0.002944025886997804 -0.0003901805976330069 
-6.512218298156428e-06 3.765173633431319e-05 1.314766239373212e-05 
-0.0002549235662873708 0.001633801311361178 -0.0006942302817894291 
-5.673439064120289e-06 -6.025165060110298e-05 -4.733010849016591e-06 
-4.830385940455947e-06 -7.410183051289161e-05 -1.30071420113512e-05 
-1.290111954436763e-05 5.502668300045832e-05 -4.034886167373127e-05 
-0.1037384006884156 0.01573090903512851 -0.0006903486731864936 
-0.004756575055195764 0.00374153664038104 4.593923553350972e-05 
-0.003747298879437884 0.007024598006543093 -0.003131987768844579 
-1.405692715196235e-06 0.0005232006576637943 -0.00249974774526609 
1.553978260216501e-06 -2.067355877479342e-05 7.886903831455975e-06 
1.07356935179631e-06 0.0001047697611587301 -0.0001889247810882848 
-0.03265489591444697 0.3856524266159729 -0.07647762079873972 
-0.2094316854208209 0.7721526908398211 -0.0001824612683821869 
-0.005236130825469886 0.05766215847103155 -0.03855741114690591 
-3.406500585704818e-05 4.470515367689978e-05 -8.374918733073008e-06 
-2.727915351626392e-06 -2.242437847990209e-05 -1.013797511519718e-06 
-1.099409061165856e-05 5.709528604676971e-05 -5.576296556415807e-05 
2.250934100405554e-06 2.732958204064147e-05 -2.744891562192813e-06 
2.143865968100778e-06 -3.786676823410429e-05 5.334172730767926e-06 
-7.62569789712106e-06 0.0001999369974663828 -0.000336539661179336 
-0.2614251381137664 0.0007166077375867994 -0.0001459493777256758 
-0.001064517508556351 0.002173662283219582 0.0004135991238839951 
-0.0005998215096154827 0.002425580941073616 -0.009362985105995279 
-0.001170922430816079 0.002165572058969147 -0.0001660532843035306 
-6.824000241511314e-05 0.0001084852076287464 9.636455548826005e-07 
-0.001196668681566265 0.001407218436549367 4.999445101022706e-06 
-0.000682299855903686 0.0004571159559406845 -8.204263622634485e-05 
-0.0004440169835526135 0.001841039592330414 -0.001500731049203169 
-0.0003590956276571485 0.004362226181893359 -0.00896195681438155 
-0.003910204255148519 0.0115391077058147 -0.001433386421424581 
-0.005156413138886188 0.226534071158508 -0.2649561898572483 
-0.1997438928411216 0.2796924516086183 -0.008406575301144067 
-7.017002887373456e-06 0.0001634320818646951 -1.146447492787994e-05 
-9.428874360518353e-06 5.348664966653216e-05 -2.89380450817398e-05 
-1.047448279359723e-05 -1.874963800699627e-05 -1.316419057896237e-05 
-0.0003568851065217501 0.002389558190373046 -0.0002327437968867974 
-0.0008258628470615992 0.002088824475214684 0.0004381134202458314 
-0.0003218997391971587 0.00329178264494803 -0.3096176576341991 
-0.004256811900473331 0.006652857585330794 -0.004161383992422293 
-0.153523393050974 0.004273694076304657 9.305134161719323e-06 
-0.00186805577733842 0.002926149835918285 -0.0004402616489593957 
-5.912503094847384e-06 0.002720790812078488 -0.00355599348829222 
-0.0001499408741655067 0.0001123643972281433 -5.601596119265291e-05 
-9.740877644221688e-06 -1.066965849831094e-05 8.560984317194516e-07 
-1.382475491892323e-05 -0.0001434220771929298 -2.118115906476509e-05 
-0.0003261007575440534 3.349466137239829e-06 -1.197750244580276e-05 
-3.521674729392828e-05 5.110446587643052e-05 -1.605858465410942e-05 
-0.1866109413383559 0.3875140714097196 -0.005090745426543151 
-0.007277874775260665 0.006918282539725837 0.0002373347531197342 
-0.892731963036297 0.7386174823462656 -0.4111268956565007 
-0.09777924541839535 0.08958220058425644 -0.02452452317321657 
-0.04123732203830996 0.1342660134717325 0.001320896414676036 
-0.03141457566350049 0.2604215151794282 -0.05654550757587027 
-9.914412691728104e-05 0.001296929285628674 4.41726721893033e-05 
-8.316702529609057e-05 0.0003019617966903326 -1.187852599290623e-05 
-0.000152777663581074 0.0002893759152074981 1.099375282171469e-05 
-0.7131454868429848 0.5482933565534531 -0.1010388207768446 
-0.0056646806302458 0.001162361068499594 -0.00770977433632349 
0.4783861283636163 -0.08936198623830784 -0.2139630012627321 
-0.008046972478813658 0.009669472571657928 -0.001517558280139273 
-0.01448684849543255 -0.8189516828008735 0.4919873870648866 
-0.0027675821072322 0.007979172181233604 -0.01877077829851604 
-0.006944611575870071 0.00411818490412784 -1.024781470228842e-05 
-0.001518389326607951 0.009047420001418329 -0.005127868719059226 
-0.00335323417011553 0.005957230215177244 -0.003359036910342906 
-0.0003373655333445627 0.006631960265181016 0.0003214805237562457 
-0.0003014721045835626 0.0002635513262299366 -6.708158700237923e-05 
-0.004110639298516813 0.001540081871348171 -0.0008423993151937035 
-0.003217332474525488 0.003334850872201756 -7.068623229983996e-05 
-0.0003114572102146778 0.0005772232465358633 2.582369068423709e-05 
-0.0003494046315227083 0.005693479974762296 -0.005267845683021298 
-0.02374731199409579 0.01512437302431873 -0.001096777157446507 
-0.003944529626638725 0.003421558295431736 0.0001793816391473443 
-0.01792231043921032 0.009682243736998643 -0.002389558452383477 
-0.001875857294169834 0.003686051267962371 -0.000274667007409743 
-0.0008900612969842186 0.0008716916237144107 5.954993940267888e-05 
-0.002828795523703857 0.003995772583679403 -0.001944376724964265 
-0.2507710032793308 0.2348253370352213 -0.01618078205748344 
-0.31233018295391 0.009656957787217943 -3.584632334943311e-05 
-0.0002984368029229077 0.002268527011865802 -0.0013655551757823 
-2.066740831179674e-05 -6.118330587911316e-05 -1.660788942380036e-05 
-1.108621700403755e-05 -1.295079968123906e-05 -3.955513974344353e-05 
-1.806761869683847e-05 1.450302374528243e-05 4.412298161821706e-05 
-0.04401207541997211 0.006913212577787559 5.301154549490599e-05 
-0.0004746786962769378 0.0002775393819484198 5.459598657819713e-05 
-8.916833086651173e-05 0.1350953476974966 -0.02272948584342896 
-9.799460134551353e-05 -4.690865148863393e-05 -0.0001445249970916759 
-0.0001070535341792862 3.714817144974649e-05 -0.0001160784931340733 
-0.0002705268870659965 0.0005990743748092325 -0.0003450597627105461 
-0.0005884000127768028 0.002070868569626448 -0.000892967254315186 
-0.0003538127940948538 0.0001807352456616587 -2.956112961468937e-06 
-0.0006827967549580885 0.001469397270770995 -0.0005560692655791421 
-2.69162589063775e-05 -0.000194841448589579 -6.68564761292286e-05 
-3.70513841634642e-05 0.0003623184341937703 -0.0002737706727499951 
-6.763341670959388e-05 7.00928900030428e-05 -4.429539712163416e-05 
-0.005344049697190341 0.001550727755306986 -3.772616802277593e-05 
-0.001350362567226788 0.001187440961035811 -1.26972424587717e-05 
-0.001850800388521456 0.001242472182857231 -2.552295264247336e-05 
7.891629505373052e-06 -6.824339104575878e-05 -7.821822815125648e-05 
-7.388759547711745e-05 6.779716126676561e-05 0.0003524940390831349 
-7.639671649129722e-05 0.0001964230429055266 -0.0001112502834741301 
-1.173697704251868e-05 0.0001313828722944599 -5.475003899507434e-05 
-2.8794099010612e-05 0.0007683178979986321 -0.0007594969664252031 
-1.659761046187339e-05 9.031246236287223e-05 -0.0001820912947070168 
-0.003324601332330834 0.002389525062488867 -3.265466152189654e-05 
-0.0004816522564656572 0.0005917356780698089 2.969185523830878e-05 
-0.003048720760882973 0.001082123258989832 0.0001071406599663943 
-0.01497804261964873 0.1452906848297119 -0.009597120645352569 
-0.03213676581792544 0.1986635066421452 -0.001374250952750209 
-0.001944607329984598 0.08911599092101033 -0.01795201868561753 
-1.450723477402434e-05 3.362667773178075e-06 -2.004896539217087e-05 
-1.73223871472169e-05 -1.894328460871486e-06 -2.401336236223654e-05 
-4.847756470987674e-05 0.000397964515827931 -1.595793822423357e-05 
-1.12785597385145e-05 -7.955860721858425e-05 0.0002839891606612286 
-1.982025626751526e-05 0.0004606522993293869 -0.0003199698675580402 
-0.0001744913415995321 0.0001759239317721396 -1.763379549640199e-05 
-0.001501413591287453 0.001731260195617177 -3.458641276330656e-05 
-8.643881065907475e-05 1.713523617583836e-05 1.044022447961374e-05 
-7.850058677603561e-05 0.00166845361614219 -0.003068282588996563 
-1.703606061319307e-05 -9.641820317733287e-05 -0.0004408445152337624 
5.8425486352212e-05 -0.0003068514287116436 -1.874426979319118e-06 
0 0 0 
-6.427903278011174e-05 0.0005846531113562685 -0.0003655144725396741 
-0.0004999338008717884 0.0002524623994992715 -7.546467168017566e-06 
-8.338379294188113e-06 3.887490554425252e-05 -9.009211284927455e-05 
-0.001434629035713301 0.05709590668663985 -0.003244694575574767 
-0.0005827172840459245 0.0004338031462350239 1.551192532673967e-05 
-0.001621878879748046 0.001948737648401929 -0.0001138887135753979 
-1.049235640521619e-05 -6.882542563400531e-05 -2.520191061741944e-06 
-2.802484041260893e-05 0.0006050258718615277 -0.0005002640283113584 
-0.000197112747722585 0.0001034215020267705 -1.047525538505705e-05 
-1.068408706319264e-05 0.0001532005244477825 0.0009053274542020995 
-5.512419299652925e-05 0.0005333288591541028 -0.0004929510747659479 
4.682860780300279e-05 -0.0001199348315301324 -2.419493849478279e-05 
-0.0006038921184809466 0.0005941265615317762 -3.5206815193145e-06 
-9.833166435584397e-06 2.892094813113188e-06 3.198393347297216e-06 
-1.399241638330307e-05 0.0004686380176153958 -0.0006655234092490759 
-0.000324704918208738 0.001192612747523625 -0.0002683176828502468 
-0.0001201665667025854 7.824183581802045e-05 7.291963426235567e-07 
3.240217419528409e-05 0.0009788722628501275 -0.001075353741382701 
-0.0004570414717356492 0.0004365532773514062 -1.881982897437162e-05 
-0.0002384578962879402 0.0004927554555056905 1.350862865625622e-05 
-0.0001965843255736173 0.0003196723476641496 -0.0001196137725697315 
-4.28951069935382e-05 7.569453088920518e-05 -3.857788606780509e-05 
-8.292478241452399e-05 0.0002011453087155411 -2.886557288729473e-05 
-6.231577850673175e-05 0.0001386047522169291 -6.825679623076103e-05 
-0.007579622660289615 0.001741838432478261 -0.0003914277823069904 
-0.001005552772299697 0.004861130974250586 -0.002853552652450485 
-0.002911116364626951 0.006322550555216346 -0.006374463135216787 
-0.0006069099253324834 0.0005987509996003992 -3.5230516475603e-06 
-9.833166435584397e-06 2.892094813113188e-06 3.198393347297216e-06 
-6.041547256574031e-05 0.0007478843776384514 -0.0002834642086328262 
-0.002257549872594124 0.01969291994932615 -0.1584618780289986 
-0.0003785886229130713 -6.830904213385798e-05 -0.0002439834274796376 
-0.005614216940396407 0.004729091470501081 -0.01238568950572295 
-0.002783422744782459 0.0008655524092319158 -7.793705553095681e-05 
-0.000240053195244774 0.000284927186235795 -6.462348071466462e-05 
-0.001076722284375795 0.0005971394791800204 -4.69605518710917e-05 
-0.0002531902238374326 0.0003871849074284052 -7.074275645915343e-06 
-1.620956078785123e-05 0.0001217741639503249 -1.784868415822361e-05 
-0.0001370398325389359 0.0005666913474651435 -0.0003628203974793032 
-0.0002053354172924743 0.0002239257993743932 1.331172584031529e-06 
-0.0009544039020551097 0.0006140033040979431 7.182254177289794e-06 
-2.019428391727637e-05 0.0001264865362858759 -7.470841594194552e-05 
-1.140638239028078e-05 6.806019605731769e-05 -5.658614795625669e-05 
-1.62044231474932e-05 8.030125880751075e-06 -2.482967616128631e-05 
-1.341206011427975e-05 1.639780687721492e-05 -2.459821583155172e-05 
-0.0002247115106753101 0.004844863804552938 -0.004632857645814612 
-0.01408500552513878 0.01727223532799411 8.814174069532884e-06 
1.328429453458547e-06 0.0004769965548146757 -0.01181655507793453 
-4.672702878442747e-06 0.0001415143003589271 -0.001175295470773135 
-0.0002865706739085038 0.0009709057241438575 -0.0005307547936689823 
0 0 0 
-3.006539366540735e-06 0.001585730022913509 -0.005547210229962495 
-5.764250391189739e-06 2.950434532402636e-05 -5.916355748983325e-06 
1.680814462949883e-07 0.0003384141985330613 8.975645444653204e-05 
-0.6684393846344167 0.02173702207619461 -0.0001541455363866913 
-0.002613614996319583 0.002209627692188071 -2.311497857961141e-05 
-0.001233260764554274 0.01260007400880464 -0.01721221152951665 
-0.001593772957290678 0.003879876322873106 -0.001255672224525202 
-0.0001464655124722197 -7.741909677066922e-05 -0.0001160806243469247 
-0.00105843961193306 0.004753592179671333 -0.01744230256989504 
-2.167473816855857e-05 0.0002417790767648832 -2.887803506372763e-05 
-3.42143561123166e-05 4.563560666924435e-05 -2.036678320451287e-05 
-7.391499149968215e-05 0.0001617700770114676 -3.321082284045958e-05 
-1.399043119173646e-05 0.0004647772524145363 -0.0006711366719338466 
-0.0002459997776280645 0.0003216619066968955 -4.541664134696175e-05 
1.645825275248797e-05 3.329095602354082e-05 -3.826216818853492e-05 
-9.050846373044119e-05 4.178887716804541e-05 3.928241412687488e-06 
2.205569121460368e-07 -2.46319170229192e-05 0.0002198886249609755 
-0.0008150641451889026 0.0001959380639093565 -9.984140651941569e-06 
-0.001439629140490209 0.001714164830955805 1.469183859272364e-05 
-0.0005370502864430978 0.0002803838787924834 7.968069323829593e-07 
-0.0009962966912394342 0.002080974849294496 -0.001304445895612308 
-1.129239508863038e-05 7.263828984341616e-05 -1.683641905648639e-05 
-6.392436435871774e-05 0.0005995700030165384 -0.0007382838523885234 
-9.923485332209493e-05 5.550244689293594e-05 -7.282925255417426e-06 
2.827515829833957e-05 5.725391294712776e-05 -1.467233605309723e-05 
-0.0001286356171545745 0.0002303133958364441 3.939191702763363e-05 
1.672774172611857e-05 6.786730905147104e-05 1.079152471769702e-05 
-0.0009148179592223864 0.001027786931342115 -0.0003990772254342201 
7.42253230820028e-06 -0.0002914143232481929 4.198537160814772e-05 
-0.0003771244144915128 0.0006725226683432638 -0.0002880287028027644 
-0.001040511946355143 0.004914410453797607 -0.003930348111319883 
-0.002244109566950634 0.001894596032812785 -2.580402976650827e-05 
-0.0009817888162289043 0.001915383626380991 -0.0003525121981091542 
-0.0006927219341615734 0.0008484245050371211 -0.0001031842570553326 
5.463791201214683e-05 -0.000534415970751754 -4.791580343008577e-05 
-0.0007461371956949368 0.001113042323566178 -0.0001820171998704611 
-1.340970227098384e-05 2.515980770804122e-05 -3.480724213622333e-05 
-4.711693066667247e-05 5.61931977756317e-05 -1.717459481278985e-05 
-1.347699123087342e-05 -4.341046057066248e-06 -2.072055183086134e-05 
-6.533506831039625e-05 0.0002810397579993124 -6.947351383018636e-05 
-3.710219529373914e-05 9.345913998284598e-05 -4.610815231326738e-05 
-0.0005077791163543526 0.001379036387866185 -0.0004320967836974856 
-0.001187782016310667 0.267296610929982 -0.02340042347823537 
-0.01678185699875905 0.8296077160510964 -0.2006153099507137 
6.980394661120374e-07 0.005628662502589628 -0.009957929957270127 
-8.103505131877369e-05 0.000403595894375738 -0.000107064773115426 
-2.826887077504793e-05 -8.313013378623025e-05 5.880710320962773e-06 
-5.758080480900135e-05 0.0001496144541277445 -1.559617253749906e-05 
-0.0001439124421153448 -3.988763772922862e-05 -4.580171006836835e-06 
-3.320719257163079e-06 -0.0002157203996831874 -6.767901820241493e-06 
5.722124810418561e-06 2.397253866824956e-05 -2.895930018872284e-05 
-0.01735158761085844 0.0369913439816168 -0.01221129037946834 
-0.02101440026766218 0.025848498981075 -0.002865171814999343 
-0.02591250642730066 0.02199003267855099 -0.3351577446127023 
-3.618422076425373e-05 3.217748931880311e-05 1.718853370929262e-05 
7.730585824628554e-06 4.423789383943924e-05 1.669932511064399e-06 
-1.58883822164502e-05 4.104319760141066e-05 9.599826521280751e-07 
-0.9422507947866062 0.06102445298256788 -0.002700254377376237 
-0.004633524578291874 0.01043762197083486 -0.005702903994829787 
0.9070628541344833 -0.3598951658186287 -0.6463034336630766 
-0.000714372452630485 0.0009141097848038432 -3.503398609240475e-06 
-2.201464493515869e-05 2.658035091725248e-05 3.364973122667415e-05 
-3.011906169979097e-05 0.0006869869769149729 -0.0007096991333819444 
-0.0001290471428287686 0.0003916830237188801 -0.0002315091983816652 
-0.0003043079520917781 0.0007299524907519936 -0.000105933801692895 
-5.966404143757675e-05 0.0005335381516933523 -0.0005288307901043053 
-0.00112118069351134 0.002303473825176267 -0.001134052662403048 
-0.0007877194930068431 0.002364862460470735 -0.00102989744038033 
-0.0004063257552593693 0.00312469660126941 -0.004083161247208418 
-0.001545443745461157 0.008075589955942496 -0.0004271563207941937 
-0.001686297953572139 0.001013054120672182 1.081685711989576e-05 
-0.0007111453859047095 0.0005456477196332942 -2.298988037988985e-05 
1.866993685500722e-05 0.001315365624266252 -0.001181421279359334 
-0.0003825010257209713 0.001101212561467339 -0.0006407848910697071 
-3.593136449428801e-06 0.001875241447703017 -0.003091021953860797 
-0.2318703892530861 0.5402834870084159 -0.009161792939172277 
-0.01015605984074792 0.01159164254882909 -0.01131280879353545 
1.326077114444089 -0.8799232868918723 0.6105992979872333 
-0.1099617094337629 0.008797730887819308 -0.004612376260392548 
-0.003179465624518992 0.005350360590966064 -0.0003586720093795137 
-0.007071763909307655 0.009523455614244466 -0.004464388545001667 
-0.0002674732751022729 0.004249505006607697 -0.0006830178848751756 
-0.001435378529999187 0.001175407939439763 6.101468059692892e-05 
-7.155953216720089e-05 0.001029887750679041 -0.0007404531124823595 
3.532374120003444e-06 -1.456745691100174e-06 3.717927338900049e-06 
2.321372480749432e-07 -2.541186257962209e-05 0.000977890757272927 
-0.0001847323171355668 0.001239116859591337 -0.000204006317019336 
-0.0104528946823769 0.01358667693912745 -0.003416768248727551 
-0.01282552970288887 0.009185378221649686 -0.001436798704187849 
-0.003689932830175975 0.01411889104854186 -0.0109490887181325 
-2.57310946286149e-05 0.000380336101107768 -0.001027847556171733 
-0.0005860052334621819 0.0007376466818633125 2.504331261247339e-05 
-1.616852098741502e-05 1.107229679793317e-05 -4.646136714463432e-05 
1.441755225611665e-05 0.0001989626586071852 -0.0006608531721513278 
6.583463382296397e-06 0.0007014800688895081 -0.0003593023099903066 
3.939591836157133e-05 3.057790110209567e-05 1.367668080005366e-05 
-0.01185112758138171 0.01995680317563527 -0.003719040361717534 
-0.01680219405203499 0.01929079717230444 -0.0006058361448672465 
-0.009581495701856575 0.01961516665543989 -0.004889532219147368 
-0.0002829116978194898 0.001742447761884375 -0.0005951117613523293 
-0.001202239644112665 0.0008290660682558945 2.906958928524663e-05 
-4.87865300595332e-06 0.001138332277224538 -0.001522586241159742 
-0.0003002690171567364 0.001907977252463739 -0.0006813925045002278 
-0.003158492658219908 0.009501324600228366 -1.15515931260495e-05 
-0.0003213520952940271 0.0002792475919241913 -5.081932493886739e-06 
-1.438512336404746e-05 -2.057364807807508e-06 -2.086376618428733e-05 
-5.357755235491471e-06 1.389284326151908e-05 -2.251562818969737e-05 
-1.207314487379753e-05 -8.506673088595923e-05 -1.616078149675391e-05 
3.021848423163866e-05 6.162674575116652e-05 0.0001475925502487217 
-1.785210447628438e-06 -4.576452823186578e-05 0.0001215244593839828 
-9.109571474975735e-05 6.263770856173286e-05 -2.870122583700551e-05 
-0.00104623317198859 0.001938211346251067 -0.0003210282163682063 
-0.002219774908564018 0.0007082846329068313 1.14040867104417e-05 
-0.005943470877985872 0.006012106903438202 1.284925693093645e-05 
-0.001542709730991618 0.001413470240460036 -0.0002026001756280066 
-0.001430598024141666 0.00222259498114376 0.0001683883783206162 
-0.0002896070433180219 0.001171413353216949 3.521430201519794e-05 
-0.000434053746661168 0.002035791677892187 -0.001843246195236762 
-0.002050529930757882 0.002475121326565121 -8.828213331648934e-07 
-0.002866174683609035 0.001762614166170236 -1.829245943201484e-05 
-0.001584434736831092 0.001587622619316561 -1.395096969815592e-05 
5.463472987681694e-05 -0.0002478516705299164 -3.118087649274428e-05 
-0.0009384861575155093 0.003419632693022867 -0.0008318324990285536 
-0.000398456599940516 0.001521751680063428 -0.003773387389699694 
-0.0002459307082803753 0.0003592497730770201 -4.168171881433733e-06 
-0.0001814309106199794 0.001621576161111084 -0.001365019707200249 
-2.333593365601678e-06 -0.0002129981408760833 4.38046363030101e-05 
-2.69342468134067e-07 -3.575675192316484e-05 6.730014237022378e-07 
0 0 0 
-0.0001254276515874858 0.01226381983675983 -0.00912145784386053 
-0.0002111292770026712 4.19406231150442e-05 1.230918804337764e-05 
4.335967466697726e-05 0.00447354895621555 -0.01113771854490403 
-2.295817752039012e-05 0.001117476250064256 -0.0003685812554822501 
3.157672372077533e-05 7.043750766072067e-05 8.561016118418686e-06 
3.751832382364154e-07 4.058264516929063e-05 -2.695207388193155e-05 
-0.02847212689046391 0.03763014490348694 -0.006298603305097115 
-0.03533555374728152 0.5143724710843528 -0.001346115894769263 
-0.006500625267226224 0.01199628139579444 -0.006999185907559977 
-0.611008807892914 0.7854318327051507 -0.00272208205391415 
-0.001663606534784802 0.002134614028627772 3.143935814029782e-05 
-0.002530042543217738 0.550342396906532 -0.3210688980130773 
-0.002560503724842164 0.006431340520614059 -0.001913952664475616 
-0.003002823912485401 0.00558351095461963 -0.0002758264904878522 
-0.001271709969529737 0.004082964759628681 -0.004490012356741556 
-0.0002999215531511134 0.005694264758010612 -0.002797004080469706 
-0.0006510432445999229 0.0002439643124348272 2.900149349938129e-05 
-4.226345647184716e-05 0.001468073901299937 -0.00138992903130401 
-0.2025848291777017 -1.027917945120212 1.482164882050945 
1.619940890126218 -1.26820832990548 0.0003982085790810785 
-0.9171454427510239 0.1146307394065452 -0.2198915517674807 
-0.0002596373206755202 0.004099256706394013 -0.002939450737170934 
-0.003109846579207411 0.001290905563047441 -1.466017979929443e-06 
9.704353418883811e-07 0.002501548093340032 -0.0005876450179410042 
-0.0003078645966046313 0.0007556752555623381 -8.096475901893031e-05 
-2.845751559387407e-05 0.0002459351581335627 -3.250817120938521e-05 
-8.399386577962069e-05 0.0005848269321519752 -0.0003654681937911598 
-0.001999448421874511 0.001854948594941949 8.341116584259728e-06 
-0.0002154184063537556 0.0003711602117859164 4.753453640191542e-05 
-0.001475029614773568 0.001513595927898104 1.118833416963563e-05 
-0.0005915317110924014 0.001842659368837105 -0.00118534532097905 
-0.001499969029705483 0.0007871435151942808 1.063098410715312e-05 
-0.000387326418934834 0.0005095641158389094 -3.522118122607186e-06 
-0.1065878909188504 0.02598398760347778 -0.0005681707655967458 
-0.004821859589802457 0.004629501624005064 -0.0002450265662084098 
-0.001232950519257849 0.002891772830369665 -0.001140387950430504 
-0.003692268730227959 0.01107541378984899 -0.01506274175176639 
-1.389565212082851 0.8880969426312635 -2.348101511638515e-05 
-0.001176355996508343 0.007101089227277101 -0.008904652623325017 
-0.7705607604746919 0.4069401586785094 -0.4970828912885215 
-0.04138685409077368 0.7601752248572059 -0.7434087733806342 
0.3496452047083988 -0.822768439421508 1.37598220526645 
-2.179275704248441e-05 0.001049460241958713 -0.0002145628221070794 
-0.0001864741333133012 0.0001058626200119712 1.688438594013332e-05 
-1.173821326988072e-06 0.0002723783439059716 -0.0002415734848954545 
-2.263714355456515e-05 0.001173406179781616 -0.001767398907659041 
-0.0001623019169852336 0.0003899561681312899 -9.848257936246805e-06 
1.99776078805993e-05 1.285242122338428e-05 -1.038862017371332e-05 
-1.399097277467112e-05 0.0004643077337245555 -0.0006587899493553435 
-0.0003556810401517229 0.000557423388969772 -0.000101891985145516 
-9.476961923475891e-06 3.637580136917516e-05 -1.414097224392824e-05 
-0.005161534989223241 0.01096879446908085 -0.0008238946466296029 
-0.005168852146083191 0.003286995809167994 1.004652806457229e-05 
-0.00257355337173795 0.003185361748625545 -0.001474129225331909 
-0.0140323236294391 0.02970989574756904 -0.5644602024734119 
-0.0007871672527951539 0.007657692640903022 -0.008093304996788158 
-0.00252220926556372 0.0195571274214119 -0.01194981274114081 
-7.508292361623141e-05 0.0009353602522404357 0.0006351243340734997 
-4.788731317343625e-05 6.329870236126138e-05 1.105080279012991e-06 
-2.375096961057378e-08 4.490065608060402e-05 2.108433436802724e-06 
-0.002140382720911894 0.004540253291159475 -0.0002705766707556983 
-0.3406785069963945 0.009499527842564796 -2.819152443083587e-05 
-0.00209329147747834 0.003130074150202288 -0.000308919286973038 
-0.0008949324224941608 0.001064600374573385 4.459906379850639e-05 
-0.0003538127940948538 0.0001807352456616587 -2.956112961468937e-06 
-0.0009113880739889854 0.001359962349459832 -0.0006504654884036175 
-0.0001735668528597852 0.0002800249448831381 -1.140415773292542e-05 
-2.753971238076871e-05 0.0009905446201805106 -0.0006823293003823969 
-0.000394081691713752 0.00128381200521435 -0.0008038696155411791 
-0.0003368918751019344 0.0005269569135156029 -2.920536450400953e-05 
-0.0006105629491981302 0.000598003377473018 -3.521686757879275e-06 
-7.415842802947436e-05 0.0001428381818186291 -0.0001031396510772468 
-0.0002179047395323474 0.0007181586966621775 -0.0003119942158496095 
-0.0009444412698222142 0.0008672283116764215 -3.316702971610308e-05 
-0.001313673721854907 0.000262930976327499 -2.243562659536262e-05 
-2.169123798114726e-05 -0.0001350167525760142 -8.84991824318659e-05 
-0.0001705529123434521 0.001335668967704578 0.0009341585139860841 
-0.0008901333065339059 0.0004433954274888418 -4.168154153281769e-05 
-8.518651272787113e-06 -4.834780620810661e-05 -0.0002299479994923631 
2.921425481695908e-05 -0.0001538111452712779 -9.379988115028553e-07 
0 0 0 
-1.628789639671132e-05 1.30646572983532e-05 -1.530654992472167e-05 
-4.162984778455071e-05 0.0001437135840843246 0.0001467238021548547 
-0.000442020945166312 0.0001141466802558178 -5.680949968187954e-06 
-0.00482446248774519 0.2414255440068222 2.32187053309148e-05 
-0.0001571393965991402 -7.62779679966503e-05 -3.655525400765238e-05 
-0.0004319871598938029 0.2088979074356481 -0.005345158599106267 
-0.03595498043329425 0.0470813270467363 -0.05814117788135011 
-0.1994074184844653 0.20078223092845 -0.0006052599837749175 
-0.06842930933616861 0.07695085268114177 -0.0215970795601502 
-1.564527288071367e-05 7.789359020131052e-07 -1.700605445400616e-05 
-1.210988779594377e-05 -0.0001200798083014702 3.687801140876917e-06 
-5.837636538462047e-05 4.961378783301556e-05 2.208658101100263e-05 
-0.001719671335453977 0.002689745376269415 -0.0002460556236812408 
-0.001237837742664846 0.001133881313411267 2.42464244223301e-05 
-0.0002885530412236501 0.0008852115816191629 -0.001415101886589738 
-0.002358230884304611 0.003304585975308701 -7.182623903009749e-05 
-0.002605204794327074 0.001421214080781367 1.224566208860889e-05 
-0.00249527422942107 0.006944589681364404 -0.003866703107045388 
-5.546646585058001e-05 7.649552809576549e-05 -2.893519192197708e-05 
-5.803104693644873e-05 5.118335662116041e-05 -4.18423931853219e-05 
-5.377850957803429e-05 8.465334116860899e-05 -3.517597570272426e-05 
-0.2933280539718128 0.4239896247201174 -0.4436362557253821 
-0.0188032416684221 0.02004783921538931 -0.001333611130290099 
-0.008946498087205417 0.02511150694665047 -0.006342408689642393 
5.822953176025429e-05 -1.256468749068094e-05 -9.98318553307234e-06 
-9.810626159033732e-07 -2.217518463365992e-05 6.225964963287691e-05 
-0.0004925518167208132 5.557174834068172e-05 2.938306815225004e-05 
-0.2166279915438083 0.01934804492947752 -0.0006195696318067124 
-0.0004756757074922033 0.0004328346957230009 -2.356027474535365e-06 
-0.001091057490625638 0.6975864405417579 -1.142676332769772 
-0.004254704025396057 0.007558321553513816 -0.003553655032107201 
-0.01498244646576042 0.01289068876478415 -0.0001462296767653589 
-0.000982159558144281 0.02275029998783432 -0.01368543270065055 
-0.002894931660003652 0.006126948477424325 -0.0005058629023599719 
-0.0002858465820048091 0.0005042641519140967 6.163275690569134e-05 
-0.003636169871265163 0.002698328034367762 -0.000539157970987002 
-0.002230431592691668 0.007584732202710203 -0.004938573611583737 
-0.04382025188321045 0.006185092613364016 -0.0003218601003248493 
-0.001459321465940233 0.001858121744355838 6.693068262309895e-05 
-0.007160599101105885 0.01623722741272221 -0.001668488715270666 
-0.01201903612180178 0.008931091328601226 0.0002999125727696528 
-0.004409263295331472 0.02678090275683629 -0.002216237151437926 
-0.002638088769696339 0.004261262705446621 -0.0003401198770926094 
-0.000766503127287934 0.0002381259501281552 -2.582914063201654e-06 
-0.001767406077375458 0.005060248714224807 -0.003451096651395747 
-0.0006325051604613069 0.000263023250171864 -2.204186266041639e-05 
-1.18817367714416e-05 0.0001483193446283902 -5.829768521495766e-05 
-6.662722724821388e-05 0.0002269284596159304 -0.00023138053862031 
-0.0004671550645188331 0.003423898660086583 -5.230386941387944e-06 
-1.354765498723043e-05 -1.57661351905386e-05 -2.088058754200629e-05 
-0.0001520484578770945 0.0002641499425664361 -3.163773990896725e-05 
-0.0005385253164170218 0.0005394617795203898 -3.394320391748901e-05 
-0.00187877920184918 0.005112391893078131 1.783181025879868e-05 
-3.250206596561961e-05 0.0003705867071616029 -2.252139487194548e-06 
-0.01344746436805168 0.03939730615475959 -0.007330910530928874 
-0.3254992861002697 0.02097607444064977 -0.0001156003488830376 
-0.001543664174353211 0.01768133041023873 -0.009310546575299722 
-0.2092282169502096 0.5233656022297493 -0.002212281290538696 
-0.04260218956087836 0.02273700735131376 -0.0008769086348524091 
-0.854912276377728 1.10011646377595 -0.01977785448212318 
-0.0001271537429144039 0.0001958244749012064 -5.867582357354902e-05 
-0.0007513637321045181 0.0001724994436769837 -0.0001546603408870961 
-0.00029553321331013 0.0002657343088380778 -0.0001132256419545407 
-1.197914923590401e-05 0.0003837247709534859 -0.0004324283396077715 
-0.0006117548788876238 0.0006042909764615755 -3.525098685832963e-06 
-9.213324896443817e-06 4.664590425550323e-05 -2.048015304973713e-05 
-2.049320157335805e-05 0.0001375627493025721 -7.722427879997701e-05 
-5.74916209047273e-05 2.704329447054969e-05 1.260135779813806e-05 
-1.310161003831539e-05 -1.446526145568969e-05 -1.965650110206325e-05 
-0.000510532930363189 0.0007682977225769746 -5.198284542912787e-05 
-0.001094098729158614 0.0008797800077855799 2.881811038541895e-05 
-0.001007429171995069 0.0007065038455070255 -3.821654345980519e-06 
-0.0009180732697232401 0.0006965794986322794 3.602740885759286e-05 
-0.0002241808439014374 0.002611722178689989 -0.003639665773267747 
-0.0003264432849510266 0.000837310968896783 -0.0002727897951494878 
-0.003092411557655666 0.0002096625377839764 -9.938848031711294e-05 
-7.241182818690409e-05 -0.0004718506937967157 0.0006675575841720182 
-0.0007951015831140034 0.001639786373877822 -0.007616412857280518 
-5.969362079986802e-05 0.001741739861931987 -0.006611873865069977 
-0.0005518795392494618 0.000538289505075142 1.886505236962417e-05 
7.357124181904207e-06 0.0002221160701452652 -0.0009686822295749819 
-0.0002027058274923096 0.00153887820308928 -0.0002808418807956829 
-0.0001216543101954478 0.0003565782468520817 -0.000160191911310453 
-0.002396707441891422 0.0009460700708101386 -0.0002626586021471807 
-0.001628367235143451 0.0009775772688977605 -0.0001046706687737636 
-0.0001431916291669408 -2.818694835494641e-06 -8.240672781695424e-05 
-0.001011506264050839 0.001004512225023041 -2.571562684005824e-06 
-0.0001211388690469065 0.003733719590907237 -0.00114058115699053 
-4.66563877703746e-05 0.0001001370894280233 2.255540602606067e-05 
-2.7849042587947e-07 0.0008047777196655713 -0.0002080237637461157 
-0.001524616030998306 0.001899751198994036 -0.0002462024632206674 
-0.0128030890067343 0.001300484303662528 -0.0001403250003323737 
1.292184679625923 -0.4203603775341096 -0.08777924208896223 
1.475269997161755e-05 -2.19546746032232e-05 -1.948482415911898e-05 
-1.20758755180583e-05 -4.448693408221295e-06 -1.30033328483069e-05 
-0.0003848918919351209 4.981723211124666e-05 2.949251018678398e-05 
-0.0003685734243906688 0.003195610554854937 -0.0006070518991052564 
-8.16022086383412e-05 0.0001577781452012098 -1.082150910222529e-05 
2.521782947562611e-05 0.0007879398996636034 -0.0001969875493942497 
-2.458570680897803e-06 -0.0002184909923222896 -2.919549020927106e-05 
-6.994329021271065e-06 0.0001899654424790844 -0.0001085471531342898 
-3.615973956104223e-05 2.801964158676064e-05 -3.034881925845215e-06 
-0.00592485912967185 0.6397809444503033 -0.04455861731725565 
-0.06100872614010315 0.7242095520190716 0.0001866386200948463 
-7.940505609532927e-05 0.001014062964368694 -0.0009098944173398321 
-6.495098547244722e-05 0.00208214494612561 -0.0009669616053642019 
-0.2406296622359837 0.03278308369648032 0.000150342970537159 
-0.0004413306996075937 0.001763902209610664 -0.0006904377752804167 
-0.0005000757702913524 -0.0002779853598571228 0.0005355608615879107 
-8.237333096887816e-05 0.009765636632129909 -0.009705911467857559 
-0.002294404323039643 0.002706512654752351 7.839955953481439e-05 
-0.001179374885479461 0.003156395540406637 -0.003695098498323815 
-0.0001241240584464534 0.0002993104458319228 -7.836825500689028e-05 
-0.001058109199903154 0.001250613183093776 -0.0005335962108676777 
-0.005279785973182953 0.009551740417927017 -0.00462885000198758 
-0.007062569867843907 0.004429460885738347 -2.761107968558498e-05 
-0.001333700326396452 0.00312673685990459 -0.001686069476785571 
-0.0002070274348082059 0.0009021204826684311 -0.002003489851122075 
-0.008741943740043541 0.3085319295359371 -0.3213238690346831 
-0.000176731999478617 0.0001032890140039932 -3.300576072008789e-05 
-0.01042145475124374 0.004638132011272929 1.872086162279449e-05 
-0.00278199901832661 0.006844878381812533 -2.19220811581066e-05 
-0.0004305734481399127 0.002060855343349914 -0.0003744695862668297 
-1.247057722516394e-05 -0.0001041972450632536 2.372172861514619e-05 
-1.443409659768315e-05 0.0003200071013090539 -0.000493934934564211 
-0.03809636219801465 -1.133575931372743 1.566002868587235 
-0.0152177205227013 0.02693905010100554 -0.007005850183854011 
-0.007889028480366213 0.01031080353454765 -0.000759219140173464 
-0.0328134934371379 0.4778460292941848 -0.4790141095396697 
-0.03320135618798414 0.06559398553831143 -0.03656867478051597 
-0.04527614142676396 0.07928129745785463 -0.009987396418555942 
-0.1278084546623529 0.06275575583013979 -0.03310776361813748 
5.669391777170178e-05 0.0002742394396919194 -1.707773280614369e-05 
-1.519010246196072e-05 2.760088157320461e-06 -1.950990421377401e-05 
-8.827984251767981e-06 -1.335682373598085e-05 -1.298930106708162e-05 
-6.138789542981138e-05 0.0002767573488211962 -6.994283638268552e-05 
-0.0001976011488798494 1.201436582111647e-05 0.0001878814816864001 
-0.000329806338288941 0.0005123578730523524 -0.0001229137481627575 
-6.379743736168532e-05 0.001441412416521591 0.0002303519192505262 
-6.470788687603508e-05 0.0001029357098265151 -5.913777409911516e-06 
-1.753392156555743e-05 3.902673868608129e-05 -0.0001060475453922528 
-7.031768166082457e-08 0.001513749279180674 -0.00177634091671567 
-0.00133232283360159 0.001073251836825523 -3.049491897195665e-05 
0 0 0 
-0.000254163410326786 0.003841026620592924 -0.002919567611888193 
-0.002301716602539617 0.001345644416229127 5.843479112377375e-06 
1.26277414917836e-05 0.0007305371702700579 -0.0001324182517364179 
-7.628199260898688e-05 0.0001475332603925061 7.581417933538819e-05 
-0.0006317569520539997 0.0001465892939965579 9.14240333113832e-05 
-0.001035655537305827 0.0007547998885330165 -5.769319857592583e-05 
-0.3373305620693428 0.4660562225062475 0.006533967351321327 
-0.2565669416897058 0.9028101173648795 -0.1759681302569363 
0.2924889279510712 -0.2374040918634955 -0.6478509625488147 
-0.0001220230156183896 5.225097664941864e-06 0.0002792052810780867 
-5.126601040769744e-05 0.001655606748994108 -0.0007793319881792658 
-0.0003635410469924962 0.0007439298577232403 -0.0003595286835325282 
-0.006041818212380451 0.01142243159879622 -0.5955536845692758 
-0.001893566498150169 0.00371910462652237 -0.00165664904037356 
-0.005887092293722119 0.02791083469648312 -0.31541717272496 
-0.003132442307533207 0.01394812087542877 -0.05632732538288852 
-0.002520424774605287 0.0009455379943536342 -0.0001058576871710277 
-0.000474886296722787 0.004279524637746898 -0.004936159452552652 
-0.02162926140248246 0.03672315191143313 -0.008683087531413017 
-0.02790509075382634 0.03350241974478081 -0.002752988674067471 
-0.01357876193206404 0.04262999337742589 -0.02727240962787286 
-0.000767003329453388 0.001053768882730705 -1.602500282798003e-05 
-4.306290886872757e-05 0.0005493324597953892 4.714558546115612e-05 
-0.0002090722263433904 0.001485445441874154 -0.0009703410042820322 
-0.001152724806537125 0.007478095749627404 -0.0007187357200949189 
-0.3240788618294241 0.005925569916402388 -8.106359040545031e-06 
-0.0001600699909246878 0.0005567150908522027 -2.962531256490425e-07 
-6.427903278011174e-05 0.0005846531113562685 -0.0003655144725396741 
-0.0009283809817697042 0.0004554744665816626 -7.938077631260394e-06 
-8.301080944304042e-06 3.639984162223814e-05 -4.829544687329296e-05 
-0.0009934318069788183 0.001667258598282982 -0.0002083317576197165 
-0.001241268969732517 0.001460642826952307 -3.408887601833414e-05 
-0.0005076295787084371 0.002888504379443901 -0.002751017230756778 
-0.0006280476007064469 0.001263684953298503 -0.0001512947772640785 
-0.001108649413846667 0.00194693184614787 -0.0002295984585191579 
-0.0009228144371979024 0.0004532565063289134 -7.937451142511956e-06 
-0.004802744179755221 0.01049657178700185 -0.004647956439043296 
-0.009402703348766389 0.01020741620159622 -0.0005341248895422407 
-0.002429469814436282 0.008471455336506506 -0.007198935958674439 
-0.007797926652219432 0.007819093524413548 -0.0001970274614027914 
-0.002454402776511108 0.0006762332493633142 2.380788529664589e-06 
-0.006180730760362419 0.01472428723017694 -0.005239870098766562 
-0.00480003510758368 0.02370041148386602 -0.00356490647287126 
-0.003583626816812799 0.003183586992292456 0.0001043674280571357 
-0.001070281194885889 0.0329231212862903 -0.007536503257946655 
-0.0009004478841779676 0.004642453057125571 -0.003805820116289349 
-0.001669536625519942 0.0009443633566594685 9.00383923958816e-06 
-7.082702596229767e-07 0.001512351653368259 -0.0009323591063238452 
-1.54623314688329e-05 5.500938328184578e-05 -0.0001201412356501468 
-1.24616555977427e-05 2.447945751159444e-05 1.678145164143072e-06 
-1.635282145679195e-05 -4.149188507299222e-05 -1.797955792916078e-05 
0.2426810327563051 -0.2541803975549204 -0.02979730529909561 
0.4752224050477449 -0.2747622236846191 -0.3832547803826699 
0.3066246621612264 -0.4791511207765989 0.4378562828103795 
-0.02548647238614562 0.04840255193034335 -0.03012898966273777 
-0.1631641080333184 0.02978024045402231 0.0003004630006989985 
-0.004798153364983685 0.01365977782233389 -0.01465033860305318 
-1.412844729030512e-05 1.261744587074243e-05 -1.98079984626208e-05 
-1.26143786001473e-05 -5.861986695554105e-06 0.0003187244032373102 
-1.42239738935587e-05 3.976382951524486e-06 -1.832369064733568e-05 
-0.007736263571167843 0.06372035798117577 -0.01358859159154945 
-0.0002398499035416354 0.1172016597172266 -0.08051232111763096 
-0.0002200289241086425 0.0026778636260799 -0.004133506942560851 
-1.493666213908136e-05 -5.078698334817183e-05 -1.675047436967916e-05 
-5.6216317787737e-06 -4.100792347287704e-06 0.002324947821225949 
-2.001960987890684e-05 2.236816665419733e-05 -2.393664551373967e-05 
-0.002954620442341521 0.01440836996072142 0.0002201351999879228 
-0.002158030829851937 0.002946382651688802 3.238858645900608e-05 
-0.001375959170759264 0.004421055571851578 -0.01289403050363993 
-1.427998768219336e-05 -3.179361106005628e-06 -2.13971195823909e-05 
-3.145801925951015e-05 3.095424960696335e-05 -2.702251529157931e-05 
-9.317184894998408e-06 0.0002188113944802879 -0.0001187141306422552 
-0.003028279309245338 0.1751711670432008 -1.101168932863239 
-0.0006582655695306264 0.0004485348144599168 -0.003687156227958085 
-0.001872240367020804 0.01613082819514082 -0.0167653974865294 
-1.116327504195076e-05 0.0004974255344235755 -7.072712344372896e-05 
-1.008078709047005e-05 1.445248503287599e-05 4.947051321069974e-06 
-4.826775675439379e-06 9.815574450003428e-06 -5.93831892179541e-06 
-0.0005173195016701434 0.0005748623152156278 1.64648986615396e-05 
1.071032328952184e-05 4.965097152351445e-07 1.651468383209557e-05 
-1.39950505082392e-05 0.0004766853152328635 -0.0006701897103697715 
-0.0006170884497309847 0.001535309428979976 -0.0003199705013952499 
-0.0003461948500964319 0.0007127097677415106 -2.444394315489392e-06 
-0.0002879501216492297 0.0006138583300493474 -0.0001121947351154588 
-0.03351424676341065 0.0555751048801469 -0.01256182250222673 
-0.02189296267672298 0.02843571439565094 0.0002252150963822397 
-0.01230629557320082 0.03455330670164462 -0.0233720403294281 
-1.298731734465202e-05 -5.651387576002358e-06 1.411867172707384e-05 
-1.092491521341909e-05 1.209354604716305e-05 -2.406989151173949e-05 
-1.346743423869191e-05 -4.450180679742078e-06 -2.070206151885504e-05 
-2.810725013412235e-06 0.001038049515864149 -0.004816487602531596 
-1.579884617287814e-05 9.176972929074346e-05 0.0001283486912722328 
-4.679304010225765e-07 0.00643009427964134 -0.0100719910926936 
-2.894061761033824e-07 0.001219071752956474 -0.0003230645269945392 
-0.004992792571944081 0.0006185395743943892 -2.220286504554233e-06 
-1.793326854509694e-06 0.0007993199356621234 -0.0007238553382695095 
-7.616967284479511e-05 0.0001497302502929789 1.227065609156005e-05 
-7.99798257374732e-05 0.0001186573591222654 -4.293250776772079e-05 
-0.004822333699511813 0.000585359640007387 3.246236997295124e-05 
-1.572314182582896e-05 -5.293306432255339e-06 -1.557698987103186e-05 
-3.658405105543484e-05 0.0001062134443367881 -0.0001832156325519798 
-2.381124695394052e-05 1.579626041803079e-05 -2.283542389315743e-05 
-3.267544569583118e-05 0.0005736304516968522 -0.005064946758927949 
