solver_type L2R_L2LOSS_SVC
nr_class 4
label 1 3 2 0
nr_feature 7805
bias -1
w
0.005052987899773354 -0.0001172594096383196 -0.0001231300125810145 -1.094441292415815e-07 
-0.007979717208532766 2.762827772901015e-06 0.01002409073896713 -4.980061377258018e-08 
0.0003408042351286217 -1.681440250441775e-07 -1.642687184096403e-08 -1.660020459086004e-08 
0.003337823151464501 -0.0003250627223190725 7.175802390604302e-06 1.002761617890101e-07 
-0.001510168860436157 -0.0001527190350270512 -0.02306648689511481 0.02790596891318653 
0.002911185058879422 -3.268707676434897e-05 9.319593402197958e-06 -0.0005382968573528868 
0.002917802928541907 0.005592027682800242 -0.008001838016455633 -0.001854142485372261 
0.004144666404931749 0.001418984156981275 -0.003737671505834901 -0.002897915627058624 
-0.02225345437534472 0.03539545406719582 -0.00821294568567049 -0.001173929970344957 
-0.03355802690304284 -0.003861637265837372 0.01823888790919519 0.02410799122851223 
0.001805260132903245 9.658510463475052e-08 -0.0004575702648374974 1.336532132029593e-07 
-0.001171472505253118 -3.775773207713243e-05 -0.00391423575214334 0.008164848689673859 
0.0001725372379882084 -1.681440250441775e-07 -5.509479443778353e-05 -1.660020459086004e-08 
0.001316387799767745 -0.002442473901140305 -2.427426640671255e-05 -2.775911306061262e-06 
0.0003276835576761109 -8.407201252208873e-07 8.356905707139045e-07 -0.0002592306068193308 
-0.02192640029902203 0.002082579681222141 0.0209404309058494 6.154117977176481e-06 
0.0004415405421588075 -1.681440250441775e-07 -0.0003791182922003466 -1.660020459086004e-08 
-0.001853019453880621 -3.362880500883551e-07 0.005497404615201795 -3.320040918172009e-08 
0.01660386831681586 -0.01880531841047594 -0.01078261588341904 -0.0240215152794268 
-5.372964945891606e-07 -1.681440250441775e-07 -1.693237103342137e-07 -1.660020459086004e-08 
0.00322469865223946 -0.0008325076708426473 -0.001394614671828995 1.307020461624505e-06 
0.0001300746090563864 -0.003517440441125186 -0.001047853536668426 0.00421956029851595 
0.007854176276360156 -5.285944078717537e-05 -0.004569092134487869 8.822278762471047e-08 
0.000989939207436965 -8.635479572631174e-05 0.002147951168366668 -8.300102295430025e-08 
0.001805260132903245 9.658510463475052e-08 -0.0004575702648374974 1.336532132029593e-07 
0.01818347316304264 -0.002421057124347803 -0.01075766059455208 -0.004916418983037542 
-0.0001152080684972357 0.004180267299335285 -0.001793754119298072 1.889143386875748e-07 
0.01247849875575929 -0.002625291748607302 -0.01193478673574604 5.392907813559454e-06 
0.001866797982109248 -3.362880500883551e-07 -0.002593415737136963 -3.320040918172009e-08 
0.002009679582518582 -0.0003250627223190725 -0.0002876525259358504 1.002761617890101e-07 
0.01644595362654848 -0.02133266463788837 0.005467560930930915 -0.009990953043420585 
-0.0009265828900650562 -5.044320751325325e-07 0.002748363660180228 -4.980061377258018e-08 
0.00304195207699564 0.0004592458384657189 -0.002827982952361657 0.002505742112272545 
-0.001385381051612999 0.002778879015097186 -0.0003108671937867974 -1.660020459086004e-08 
0.0006510209628772906 -1.681440250441775e-07 -0.0006457734868549685 -1.660020459086004e-08 
-0.01805894306605126 0.004925780597377138 0.002407759002490757 0.008585540445466619 
1.020541808960217e-05 -1.681440250441775e-07 -1.989113884147037e-06 -1.660020459086004e-08 
8.805331450363241e-05 -4.342961390072213e-05 -0.0001265896569588388 -6.640081836344017e-08 
-0.0001051045757127236 -1.265064552244082e-05 0.0001530133641268597 -6.220241741796047e-07 
0.003302366526795819 -0.00174589868380624 -0.00190097581684501 -6.598951813465976e-05 
-0.01670189996496307 -0.005377395607776948 0.01182122541675337 -0.003038882073648125 
-0.005142683578453019 0.004929426100127294 -1.67756250162469e-06 -0.0003997311197812809 
-6.014804048023557e-05 -1.681440250441775e-07 -1.693237103342137e-07 -1.660020459086004e-08 
-0.0367358269646663 -0.003690170957830264 0.03223269508321833 0.00588927035754894 
0.002180941775337938 -1.681440250441775e-07 0.0001159656108282405 -1.660020459086004e-08 
0.0006714487176008131 -1.681440250441775e-07 -0.0006362461959210186 -1.660020459086004e-08 
-0.001385381051612999 0.002778879015097186 -0.0003108671937867974 -1.660020459086004e-08 
0.02700065856276791 -0.01408771591232024 -0.01599820731485979 -0.001203037190700214 
-0.0294143647100297 0.0342488608466187 -0.02357170600547114 -0.01057329475605542 
-0.01014662593985148 0.003044819580804296 0.00914233083466171 -1.644771154938705e-07 
1.01523204728999e-06 -1.681440250441775e-07 -1.693237103342137e-07 -1.660020459086004e-08 
0.001545608698707604 -0.000165565121861704 -0.0003361507170604692 1.486046083037367e-07 
6.573857776861956e-06 1.233247413589944e-05 2.109833366173944e-07 -1.660020459086004e-08 
0.0018980244142635 9.09974780700955e-07 -0.002521789924816391 -1.660020459086004e-08 
-0.002112562689247327 -5.050186647984394e-07 0.001995699645649114 -6.347817507604367e-09 
0.005236117517573437 -3.523962719145024e-05 -0.003046061422991913 5.881519174980698e-08 
3.625494453933209e-05 -2.429274478514787e-05 -1.291237171038617e-05 2.284002934113475e-08 
-0.002905910967335195 0.000833882806003904 0.01585872099260215 -0.01647940969332908 
-0.0184798235339207 0.00888247235385627 0.00902850248791217 -7.825544371497548e-07 
-0.0262673316220879 0.01025028006065533 0.01501385813938106 0.004908656850220686 
0.01888235138736341 -0.002847621223233203 -0.008508274544690013 -0.007522214445141868 
0.006638592777766934 -0.001993221983615508 -0.0003315466073847513 2.738736557475057e-07 
5.546796915419352e-05 -9.326638591610173e-06 -6.757189737723018e-05 -7.412817497867334e-08 
0.005778940363330816 -0.003907934405733561 0.001257834979660555 -0.000594611243126131 
0.02474388542320738 0.0003015756131792231 -0.03292229610286811 -0.00403776849842236 
0.0007966985987423649 -1.681440250441775e-07 -3.979639448377802e-05 -1.660020459086004e-08 
0.003205770802051638 -0.001293764010349604 -0.0001294068244607169 -1.055408637967996e-07 
-0.004505010772808212 1.133883409102612e-06 -0.003884317407845636 0.007675949559154327 
-6.014804048023557e-05 -1.681440250441775e-07 -1.693237103342137e-07 -1.660020459086004e-08 
-0.005663823993444526 -0.0001449598677120706 0.005418009512977716 -0.0003726113277969965 
-0.01248222632780903 0.001536161591372544 0.006206081300228595 0.005338599922565772 
0.001367145675755931 8.446932179182082e-07 -0.0001787120421215202 3.319724817089183e-07 
0.03436562311494274 -0.02942590027648719 -0.03077685440739319 0.02962450921318321 
3.291789278066651e-05 -3.362880500883551e-07 -0.0004072836593997667 -3.320040918172009e-08 
-0.007383188318844494 -1.603662243636606e-05 0.009349221749144284 -0.001029738785961915 
0.001719508255783965 0.001424896044377089 -0.0006436415301933035 -6.433475322013761e-06 
-0.01684957314552821 -0.005879023588113074 0.0220284735060474 -0.002897576022035317 
0.006127834131008765 -8.342757839927794e-05 -0.005923310464014693 -5.488798155016507e-06 
0.002423600738081667 -0.0001799831919244293 -0.002408914977426871 1.453815298332776e-07 
7.473643150879973e-05 -8.138603164297155e-05 -9.917318598072554e-05 -0.001243914600410841 
0.005937694500140241 -0.008089167853928297 0.007046965509702674 -1.564118123848151e-05 
0.008565336481726174 0.01387185368146521 -0.03034248726812499 -0.002284531611546192 
0.0187698620926928 0.009244303334814453 -0.09241493036700428 -0.05523680914057218 
0.0003408042351286217 -1.681440250441775e-07 -1.642687184096403e-08 -1.660020459086004e-08 
-2.533178730738721e-05 -1.681440250441775e-07 -1.693237103342137e-07 -0.0002591642060009674 
-0.002112562689247327 -5.050186647984394e-07 0.001995699645649114 -6.347817507604367e-09 
0.0001065063049208855 5.122189757478797e-05 -0.0001241208760320582 1.707358257163704e-09 
4.63799518292678e-06 -1.681440250441775e-07 -1.693237103342137e-07 -1.660020459086004e-08 
0.02249780855815922 -0.005661278267063051 -0.01446041178245496 -0.002518888385829767 
-0.004843605086315763 -0.0003899017022776517 0.005382609199946306 -2.398015764369669e-06 
0.002911185058879422 -3.268707676434897e-05 9.319593402197958e-06 -0.0005382968573528868 
0.001070380296985669 -0.001355139801338896 -0.0005320468770999779 -0.001786040779178157 
-0.003994136157595832 0.006125706661658329 -6.791054479789869e-05 -1.073285841603935e-07 
-0.02614638873391167 -2.397868279826247e-06 0.02776901118274979 -9.915828067995192e-08 
-0.01787213902212243 0.01414564661537796 0.02042426685634645 -0.0006828079280072518 
0.008507974652074694 -0.0009998710297488707 -0.009162766790304833 -0.0009460519428550709 
-0.001624168802410434 -1.681440250441775e-07 0.002757212097738821 -1.660020459086004e-08 
-0.01969165302176171 -0.0002817635404978164 0.02310196432828754 0.002506429841225202 
0.001627558375222306 -0.0002864207977999914 -5.418273041174463e-05 -2.608857564041724e-08 
0.01616867945076199 -0.009755669376818515 -0.01649610468774285 -0.006208536693373452 
-0.03481743046050603 0.03742312801024941 0.01332854952035077 0.01273846124047074 
0.0006693229728758077 -3.362880500883551e-07 -0.001728915452243679 -3.320040918172009e-08 
-0.00590502645475036 -8.693761338584237e-05 0.007290502710577047 1.405396727700689e-08 
0.01434029358971967 -0.003367346776787376 -0.01209150921442321 -0.0009463413403572137 
0.005149820741317816 2.015197646658578e-05 -0.002839668245231242 -1.008332569277315e-07 
3.170260149684166e-05 0.003090206621717588 -0.001259933220189244 9.722538834691929e-08 
0.004531348178040619 -0.0004585888658698361 -0.003351996502875884 -1.976723046562081e-06 
0.004372088968765479 -5.044320751325325e-07 0.0002299421077723344 -4.980061377258018e-08 
-0.02023246363322022 -0.07847908831986239 0.0471539412595795 -0.03419795670012615 
-0.002813102638255708 -0.003287325601354051 0.01073396323848631 -2.701100795799042e-06 
-0.002694796988903536 -1.717013464179243e-05 0.003796051938033771 -9.335002009471469e-07 
-0.004659167925403446 -3.362880500883551e-07 0.002757487586156398 0.002506494422488386 
-4.286280194480215e-05 -3.362880500883551e-07 -0.00094488275107893 -3.320040918172009e-08 
0.001037596850756336 -0.001745394251731108 -6.219690826330065e-06 -6.593971752088718e-05 
-0.002503624126350579 2.199223625075362e-05 0.006269012873277018 -0.0005183782126157073 
-0.002324523394125293 -0.0004221772904309501 0.002599813864454206 -1.497766627837827e-07 
0.003134908746914931 1.241121311919029e-05 -0.003004749605203412 -3.150350661131337e-07 
-0.0001051045757127236 -1.265064552244082e-05 0.0001530133641268597 -6.220241741796047e-07 
0.0004415405421588075 -1.681440250441775e-07 -0.0003791182922003466 -1.660020459086004e-08 
-3.478249672216264e-05 0.001089164292297848 -0.002829550283049647 0.01218906391248127 
0.0005688822827161745 -0.000394015362160647 -0.0006048575369312712 2.3994965475995e-07 
0.006299204861362462 -0.00338938227821025 -0.006323935990231587 -0.0002970559533259802 
-0.005019359553623321 -7.946424522961393e-07 0.003520240667561666 3.281462736568547e-08 
0.0002352785925269043 -2.492480035546991e-07 -8.397463456274812e-05 9.12118613478635e-08 
-0.004280439642150723 -1.681440250441775e-07 0.004341257792514499 -1.660020459086004e-08 
6.618727592840627e-05 2.966976815901925e-05 -0.0003896432968358296 -1.660020459086004e-08 
-0.01378611569844292 0.01382437143939719 -0.001970007980938797 -0.01188733083784642 
-0.006037852665760225 -9.148716655453415e-06 -0.003274704834236285 0.01061521025470295 
-0.002324523394125293 -0.0004221772904309501 0.002599813864454206 -1.497766627837827e-07 
0.0144374912549458 -0.005287212108264788 -0.003477962642623276 -0.002622002849123266 
-0.003028767467797241 -5.044320751325325e-07 -1.051030084587115e-06 0.002498175421353975 
-0.02952999378795728 0.007731876342290343 0.01924900519205624 0.002043883376886427 
0.001227852828202931 -1.025269354663025e-05 -0.002420847716661262 -1.271997806964802e-07 
0.001094663816001783 -0.001745057963681019 -5.384355843277776e-06 -6.590651711170547e-05 
0.0122616956172123 -0.002441268508624292 -0.007463063940877515 -9.960122754516035e-08 
-0.004979093499858931 0.004513830447480787 -0.0003381811177259124 -0.001097287093926499 
0.003031759120728974 -6.456251813372196e-05 -0.00294985105332544 -2.799193142638522e-06 
0.01164797494198096 -0.000330880981170685 -0.005716643263497617 -5.942047744368262e-06 
0.006699942634835267 -3.921230005638914e-05 -0.00565697289656676 -9.091349156641958e-07 
0.002409385513879873 0.002929995013114229 -0.008239906407641969 -1.640150651825866e-06 
-0.0135646345716808 -0.008705544609005023 0.01416825582956 -0.005018685470897003 
0.001173036587052123 7.142318386218455e-06 -0.0003360701497622559 -1.660020459086004e-08 
0.007010810479429812 -0.001124829187216019 -0.005919926169638493 -7.697543981040517e-06 
-0.03714499000931595 -0.01213958661553641 0.04108306724918048 -0.009005331320297558 
0.005942671780967613 -0.0003369411677660378 -0.001597147609783177 -3.320040918172009e-08 
-0.0036017815557137 0.001330857321346817 -0.0001802233525229717 4.602374659825069e-06 
0.0009974893745613445 -0.003169464742124562 0.007657131288330205 -0.000256131063651037 
8.11149610929029e-05 -3.09523132738456e-05 -5.853483154457989e-05 -0.001885202232958389 
0.0006416571784209166 -1.681440250441775e-07 -0.001728746128533344 -1.660020459086004e-08 
-0.002024802063375013 0.003067516650124969 -1.693237103342137e-07 -1.660020459086004e-08 
0.002707317438979773 -1.681440250441775e-07 -0.001591795563213058 -1.660020459086004e-08 
0.0009248474552429044 -4.06209907712475e-05 2.95997812284679e-05 1.008364745836534e-07 
0.007410828953137068 -0.003358476165095403 -6.939354063742616e-05 -0.0001024693088763106 
0.0426630912821773 -0.01820765939978393 -0.04653097004822247 -0.02091934527560007 
-0.001385381051612999 0.002778879015097186 -0.0003108671937867974 -1.660020459086004e-08 
0.01258624569527083 0.004710685860592396 -0.02853128660585295 -0.009506905131921626 
-0.02692135157056911 0.005083078002976479 0.03026347854089587 -0.004499510023383782 
0.003212642944642065 0.004152356272179905 -0.005907347970917651 0.002506392690654969 
0.002327060140609482 3.003703302550063e-05 -0.001624183484251515 -2.517270266018478e-07 
-0.00303499912299301 -1.681440250441775e-07 2.754884175754743e-07 0.002506511022692976 
0.006220109313759826 0.004077895104880784 -0.01478663221272561 -3.160568108869558e-06 
-0.004616466701343728 -0.0004923297947436433 0.008983987850874281 2.106290034078616e-06 
-7.697913150626505e-05 7.725847162363007e-07 -0.0008074973424688141 -3.320040918172009e-08 
0.008133051438923686 -7.091691165027137e-06 -0.008168333584802618 -2.331844719667153e-07 
0.001790455936154872 -1.830451493814951e-05 -0.004902091163014268 6.854821189126155e-08 
-0.005011086911899403 -0.0002208586522657527 0.000426695599708156 -2.263298301712099e-06 
0.001941327091108455 -0.0001094553699407149 0.002138500927676019 3.307235256711303e-07 
0.001818755963185031 -7.919096384505122e-05 -0.004234257522896165 -1.135556222119415e-06 
0.0002352785925269043 -2.492480035546991e-07 -8.397463456274812e-05 9.12118613478635e-08 
3.787266234061324e-05 -2.77654700685268e-07 1.097928795738274e-05 8.714471498758192e-08 
0.01813893503065946 0.007241242402801595 -0.01166335211995504 -0.005109343114120285 
0.01111476194459929 -0.008247247015694629 -0.009044290162919409 -0.00268407432348914 
0.001472397759977165 -0.0008131293500837533 -0.001824487899948305 1.80707140305016e-06 
0.003877161580024 -7.82791484692511e-07 -0.005570112352450445 2.928670260667236e-07 
0.004316648027218673 -8.407201252208873e-07 7.467337413196584e-05 -8.385401952774808e-06 
-0.001624168802410434 -1.681440250441775e-07 0.002757212097738821 -1.660020459086004e-08 
0.008133051438923686 -7.091691165027137e-06 -0.008168333584802618 -2.331844719667153e-07 
-0.01057427298439889 0.0001079595075655049 0.0043081828165752 -1.601130617290407e-06 
-0.01299618109339596 0.01570482380621561 -0.002340944169075527 -0.004764784164205826 
1.020541808960217e-05 -1.681440250441775e-07 -1.989113884147037e-06 -1.660020459086004e-08 
0.003167658691128531 -5.118609722724906e-05 -0.006496439046713766 -1.674741223778567e-06 
0.02489882050683157 0.009532378914101879 -0.04178301603374308 -0.01175744450798875 
-0.001203569678125977 -7.434595547719796e-08 0.00207184689235463 1.187351723942083e-07 
-5.74169397496046e-05 9.37980695669794e-08 0.0001783663475931014 1.353353769850683e-07 
-0.002024802063375013 0.003067516650124969 -1.693237103342137e-07 -1.660020459086004e-08 
-0.004544921291952246 0.00918916306275078 -0.002088540107399107 1.895959881285474e-07 
0.0001413202414465158 -1.39731740580148e-05 -0.001476895320359836 6.997650607380448e-08 
0.002986144844228674 -0.0005509402212342129 -9.467755036861719e-05 6.192096615319571e-08 
-0.00244754681848565 -8.382843304209921e-06 0.003738981632869123 -2.626784462867812e-06 
3.600125876378453e-05 1.359699179309663e-06 -0.0004455637196325123 1.65536588314874e-08 
-0.01834541929495895 0.004874875930584229 0.0008257650427539149 -0.01730454152681773 
0.002025205843927141 7.265829442951212e-06 -0.00039052143484881 1.197844430973933e-07 
0.001805260132903245 9.658510463475052e-08 -0.0004575702648374974 1.336532132029593e-07 
-0.003002266252622128 0.001329479735532161 -8.271592511050936e-06 4.685375682779381e-06 
3.625494453933209e-05 -2.429274478514787e-05 -1.291237171038617e-05 2.284002934113475e-08 
-5.74169397496046e-05 9.37980695669794e-08 0.0001783663475931014 1.353353769850683e-07 
0.00395459382906934 -0.0006903244913732772 -0.003907083880440654 -4.723773393945467e-05 
0.005183985218147149 -0.0001193538702339766 0.002527925473057099 -5.623348216097041e-06 
-0.01159457043273306 0.007453694617741144 -0.004558537949253838 0.006331797865412727 
-0.00199504250332346 0.003067904187898881 -8.093353503127185e-06 1.523122074093774e-07 
-2.533178730738721e-05 -1.681440250441775e-07 -1.693237103342137e-07 -0.0002591642060009674 
-0.00510112706524497 0.0001716557503912308 0.01084943690313467 -2.762997756714734e-08 
0.0009037140968642616 -3.362880500883551e-07 -3.996571819411224e-05 -3.320040918172009e-08 
-0.009211285962014574 0.00493810779115882 -0.004358657774378735 0.01021512211367463 
-0.0223356817980788 -0.005530032684959419 0.02678498655942064 -0.003305726043550126 
-0.0007211006943058716 -0.0007940824609534966 0.002756566207132446 0.003375920024451417 
-0.003710957911499117 -1.681440250441775e-07 0.003523238710520528 -1.022447908120467e-06 
0.00791697037919928 -0.004386232330757959 -0.003687467205233155 -5.401493836434044e-07 
-0.0158785939836514 0.004328791042510087 0.01508483888780712 -0.004096976321783815 
-1.683109102602948e-05 9.407287412804774e-07 -0.0008073280187584796 -1.660020459086004e-08 
-1.683109102602948e-05 9.407287412804774e-07 -0.0008073280187584796 -1.660020459086004e-08 
0.0006416571784209166 -1.681440250441775e-07 -0.001728746128533344 -1.660020459086004e-08 
0.02445429978955577 -0.07184285973142217 -0.01087306679908838 -0.04704827363821041 
0.0001187415503953432 -1.681440250441775e-07 -0.0001222799398394089 -1.660020459086004e-08 
-0.0007954075333856443 -3.362880500883551e-07 0.0001960380212236553 -3.320040918172009e-08 
0.003116802067118481 -0.00033189076121962 3.196540756826951e-05 1.398534910241655e-07 
0.002369248814889494 -0.001338646483699954 0.002527100831572081 -0.002381561618815708 
4.706859027505938e-05 -6.065451507620854e-05 -7.932475474101213e-05 -2.344930921764216e-06 
0.0001070154981218968 -1.681440250441775e-07 -1.693237103342137e-07 -1.660020459086004e-08 
0.004066525719461843 -3.545845582513568e-06 -0.004084166792401309 -1.165922359833576e-07 
0.005235473249095701 -0.007043136883908677 -0.006100324237538657 -0.001930846853635618 
-0.002014899334369374 0.004272011298601846 -0.001111539861047841 1.938711584596808e-09 
0.002056504664871854 2.268997159261968e-05 -0.00125976389647891 1.138255929377794e-07 
0.0001934779819041429 -8.155417566801575e-05 -0.0002214531258201343 -0.001243931200615432 
-0.0002266134131631374 0.003510543768944854 -1.991974380648667e-05 -1.104992993523565e-06 
8.140739903250956e-06 -3.362880500883551e-07 6.809607685927218e-07 -3.320040918172009e-08 
0.006804101923502164 -0.002284481400615722 -0.001373116629392617 -5.031903334506024e-06 
-0.02086356345811371 -0.004673588522640371 0.01845382808116109 -0.004671620017148257 
0.003317377359026168 -0.002177719026687346 -0.0002049500300554075 -0.0002036073157020679 
-0.001555594847169471 0.002457666314013367 -6.08208355617064e-05 -3.321104392275712e-07 
3.625494453933209e-05 -2.429274478514787e-05 -1.291237171038617e-05 2.284002934113475e-08 
3.02136774058574e-05 -1.681440250441775e-07 -0.0008804558639172804 -1.660020459086004e-08 
-0.003002266252622128 0.001329479735532161 -8.271592511050936e-06 4.685375682779381e-06 
0.01975435363792608 -0.01746951516456945 -0.006088023058747147 0.001296520111468565 
-3.491784962974472e-05 -3.362880500883551e-07 -1.43800056388303e-06 -3.320040918172009e-08 
8.792298175073682e-06 -1.681440250441775e-07 -0.0009444694505555897 -1.660020459086004e-08 
2.41641891238808e-05 2.511771585267477e-07 -4.114165559995215e-05 1.511789977875267e-07 
0.0105027472494148 -0.003778369495007067 -0.005375432313567774 -0.0007042442474210982 
0.04818527937776359 -0.007469464509679905 -0.03037212032535068 -0.01439770208074423 
-0.00620750529342649 -1.681440250441775e-07 0.006329843648637412 -1.660020459086004e-08 
-0.0001051045757127236 -1.265064552244082e-05 0.0001530133641268597 -6.220241741796047e-07 
0.002051025769376074 -0.0002719193018778564 9.67750059741851e-05 6.655287344376619e-08 
3.517435030528506e-05 0.0001188670052823974 -1.188648201543576e-05 2.072159744813619e-07 
0.001430042915241014 -0.002505692081975207 -0.0001264065937794801 -5.914116322798228e-07 
0.00372061903739088 -0.005399217999774443 0.006169165228684831 -0.002400534759043614 
0.001332775997942599 -1.681440250441775e-07 -1.693237103342137e-07 -1.660020459086004e-08 
0.008098916684446053 -0.003720892732667128 0.005960109290605592 -0.001856414832406999 
-0.02166332128376809 0.006170271167863017 0.01740964768584053 -0.0007047807135734235 
-0.001640481993445623 0.0001434221926719519 0.003210691849967827 1.306396012810003e-07 
1.526868104366422e-05 5.265253676842314e-09 -1.123424139680873e-05 1.161908954332594e-07 
0.003776063321998218 -0.0006706194929366682 -0.001358748545784455 6.362493381902494e-08 
-0.006022946700330554 0.006980524372526943 -0.003383153193466315 -0.002007600487944511 
0.002043615936202051 -0.0004068780847707152 -0.001243843990146253 -1.660020459086004e-08 
-0.0007583849454829575 5.721527696846654e-09 0.0002042172985011062 1.218780314556194e-07 
-0.001462179275073955 -0.00260460494389466 0.007857183878676731 -1.005464135833913e-07 
-0.0001148338794992092 1.875961391339588e-07 0.0003567326951862028 2.706707539701366e-07 
-0.001385381051612999 0.002778879015097186 -0.0003108671937867974 -1.660020459086004e-08 
0.007625540762698354 -0.0001966281417994841 -0.007549438825958502 -0.0005318881653986937 
-0.01006071871737823 -4.139201098302346e-05 0.008056103835972517 -0.002893645886222969 
-0.005409168268908843 -6.734107164316997e-05 0.007961679376117423 -1.113588390167216e-06 
0.0008220647261472081 4.64578819550217e-07 -7.279791172983575e-05 -0.0003719877774188169 
-0.01153809351480326 -6.444800898472491e-05 0.01195339204344956 7.290784424162582e-08 
-0.003153142566258875 -1.681440250441775e-07 0.006128530700727481 -1.660020459086004e-08 
0.003358533102637765 -0.001821439230055202 -0.003060952003955037 -0.001550613982856532 
7.728368078243223e-05 1.188787502152995e-06 8.437334987474396e-06 -1.660020459086004e-08 
2.093935099117004e-05 -6.051376180663219e-06 -1.26021778458374e-05 1.53008336720721e-07 
-0.007531756763514552 0.004510827641986279 0.006526856840750384 -0.0004003540509174701 
0.0001070154981218968 -1.681440250441775e-07 -1.693237103342137e-07 -1.660020459086004e-08 
-0.002445543332071079 -1.008864150265065e-06 0.001471367200755829 -8.402002157365663e-06 
0.007047652682549749 -0.001810789459886715 -0.001866186901964467 -0.0005771258180559295 
0.0001732027740503031 2.950162413397509e-05 -0.0003898126205461638 -3.320040918172009e-08 
-6.014804048023557e-05 -1.681440250441775e-07 -1.693237103342137e-07 -1.660020459086004e-08 
-0.002062071202592181 0.003040576435361575 -0.003190011805602949 1.327263753410346e-06 
-0.002667189081766053 -7.025627674531274e-05 0.004245506889070491 -2.046053765156511e-07 
-0.00625834092877039 0.009179290633615896 -0.002090972492027657 -3.776829720273978e-06 
-0.01472043447100023 0.01478428284965785 0.008327225654723026 -9.235525576656424e-06 
-0.0001918407541031831 -1.435834682219968e-05 -1.273765191468558e-05 8.684991005991096e-08 
-0.0009540882024131867 0.004446899186548293 0.00207041960515833 -1.603090920737053e-06 
-0.00449358824545433 -6.560794751108016e-05 0.006183469484425719 -2.462476806805521e-06 
1.513450086147595e-05 -1.681440250441775e-07 -3.520911042895517e-06 -1.660020459086004e-08 
2.766579445489113e-05 -1.681440250441775e-07 -1.693237103342137e-07 -1.660020459086004e-08 
-0.004280439642150723 -1.681440250441775e-07 0.004341257792514499 -1.660020459086004e-08 
0.002734402204470567 5.157948508535761e-05 0.002942392792567875 0.002504492806932828 
-0.003706038907761242 -6.725761001767102e-07 0.01099480923040359 -6.640081836344017e-08 
0.002948277417989392 -5.445060458844498e-05 -2.042252915424274e-05 2.600839105133067e-07 
3.02136774058574e-05 -1.681440250441775e-07 -0.0008804558639172804 -1.660020459086004e-08 
0.005149820741317816 2.015197646658578e-05 -0.002839668245231242 -1.008332569277315e-07 
0.001956027320954557 -9.537584878165265e-06 -0.0008870295218672196 0.003375297504475848 
-0.001192506114686614 9.979307891582205e-05 0.003808021044083027 -2.61777535983428e-06 
3.08107523478953e-06 -1.681440250441775e-07 -6.660112727180774e-07 -1.660020459086004e-08 
-0.001555594847169471 0.002457666314013367 -6.08208355617064e-05 -3.321104392275712e-07 
-0.001624168802410434 -1.681440250441775e-07 0.002757212097738821 -1.660020459086004e-08 
-0.01292097251848006 0.009181326159699969 -0.002597188089213375 0.00898551819380101 
5.546796915419352e-05 -9.326638591610173e-06 -6.757189737723018e-05 -7.412817497867334e-08 
-0.003191240503438249 -5.275501937713943e-05 0.003757128233332194 -8.622092093200775e-06 
0.002599161644150126 -1.511177669054027e-05 -0.001374338811781031 2.861464214969076e-07 
-0.008899893720177238 -0.005094820788939279 0.005381121079988812 0.006601125337430851 
0.006515696777120199 -2.033857649433817e-05 -0.006125172318840666 -1.769110038947641e-07 
-0.0126125702650355 -6.725761001767102e-07 0.02451412280290993 -6.640081836344017e-08 
-6.014804048023557e-05 -1.681440250441775e-07 -1.693237103342137e-07 -1.660020459086004e-08 
-0.006489920028907546 0.009287079234533601 -4.122392309679132e-05 -3.658957078929124e-07 
0.005566084587894366 -0.0002998368249381528 -0.002673428329875059 4.463633386846573e-06 
0.0008220647261472081 4.64578819550217e-07 -7.279791172983575e-05 -0.0003719877774188169 
-0.001568192103715329 -6.725761001767102e-07 -0.0001121716085526124 -6.640081836344017e-08 
-0.1732836233619884 0.1957393871646856 -0.06976346426865669 -0.02837338073267582 
0.0009333989910546242 -1.681440250441775e-07 -0.001296707868568482 -1.660020459086004e-08 
-0.005084786986345679 -1.681440250441775e-07 5.667027927821117e-05 0.004492677710651005 
-6.014804048023557e-05 -1.681440250441775e-07 -1.693237103342137e-07 -1.660020459086004e-08 
0.001627558375222306 -0.0002864207977999914 -5.418273041174463e-05 -2.608857564041724e-08 
-2.533178730738721e-05 -1.681440250441775e-07 -1.693237103342137e-07 -0.0002591642060009674 
3.02136774058574e-05 -1.681440250441775e-07 -0.0008804558639172804 -1.660020459086004e-08 
0.01253963498765972 4.964485247676116e-05 -0.01201899842081365 -1.260140264452535e-06 
0.05469325337774371 -0.02355520130404657 -0.0495920955285105 -0.02745325912570204 
0.001005735088021612 -1.681440250441775e-07 -0.0001522413457245959 -1.660020459086004e-08 
0.006105835615182267 0.004900050419702232 -0.004714994741659212 -7.044813121515373e-07 
-0.004280439642150723 -1.681440250441775e-07 0.004341257792514499 -1.660020459086004e-08 
0.0008157055239418729 -3.362880500883551e-07 -8.283697966599315e-05 -3.320040918172009e-08 
0.007204617599271453 -0.004430711496670256 -0.001794615771415876 -0.00169946027027331 
-0.002936317984068652 -0.002577379641600438 0.007867395143253847 -2.305883688400447e-07 
-0.005142683578453019 0.004929426100127294 -1.67756250162469e-06 -0.0003997311197812809 
0.01258758576145757 -0.0009389845808419689 -0.008683007575599047 -0.0009451388466263578 
1.020541808960217e-05 -1.681440250441775e-07 -1.989113884147037e-06 -1.660020459086004e-08 
-0.003248337604820869 -3.362880500883551e-07 0.005514424195477642 -3.320040918172009e-08 
-0.01357945613168077 0.005849852915909923 0.003865919969854954 0.004488826937032515 
-0.001638882349727447 0.01192842768698129 -0.01167894557554487 -0.004023175708493281 
0.01760949822586458 -0.0102818251417872 -0.0008652718983237528 -0.0005233132076164908 
0.00493267705881058 -0.002938046067490201 -0.002655997184376589 -3.489244196955838e-06 
0.00164671128461876 -0.001094355265636882 -9.616465216903034e-05 -0.0001018375860901804 
-0.0007583849454829575 5.721527696846654e-09 0.0002042172985011062 1.218780314556194e-07 
0.0001650365420246944 -0.0001537459640866836 -0.001381845409969498 -3.646549588236171e-08 
-0.004505010772808212 1.133883409102612e-06 -0.003884317407845636 0.007675949559154327 
-0.002463344508021894 4.00686124442309e-05 0.005386723487908722 8.127795248922286e-08 
-0.007740329030689566 -0.0003266249444291151 0.00649725253441694 -0.004038882195754144 
0.008509705463523358 -0.001898302153225849 0.0126452491900481 -0.00103281040285461 
-0.001111256544159818 -0.002947103750049361 0.004164998733118806 -0.002280228347203777 
0.009883250948470713 -0.0009191093376912748 -0.007595477833866487 -0.001204113793043101 
-0.004802886145576555 -2.707843037367862e-05 0.004780001770864636 -1.250165897070303e-06 
0.0005060438740323256 5.148662651573762e-07 -0.0001556702304261412 1.895347818089454e-07 
0.004552063519676779 0.006274655117119113 -0.01566494809266697 -0.002019508548762531 
-0.003427057753388058 -0.0003502827980936715 0.003143025840193343 -3.00105032873905e-08 
0.00673106846099946 -0.003552515818046478 -0.002710788181369715 -0.002904712536741238 
4.580604313099268e-05 1.579576103052862e-08 -3.370272419042618e-05 3.485726862997785e-07 
-0.02165481469620911 -0.006367997916999199 0.02251915098277808 -0.003291726229030871 
0.004010912294586735 -7.058666078659334e-06 -0.005105916299939517 -1.66180395711044e-06 
0.02309152799237753 -0.002813581624256809 -0.01957121255730847 0.001945964583096902 
-0.004454160194714764 0.008041929638960346 -0.006688319470548993 -0.002381080277719636 
0.01309929372196977 -0.003557166541312285 -0.001878551139022283 -0.0004703267717678561 
-0.005409168268908843 -6.734107164316997e-05 0.007961679376117423 -1.113588390167216e-06 
-0.0004644579977752119 -0.003524557333954147 -4.86487131114608e-05 0.002505487376843854 
0.001009323539259553 -1.681440250441775e-07 -0.0003000440802659786 -1.660020459086004e-08 
0.0005261098608964765 9.410089448947554e-07 -0.0005768049030047342 -1.660020459086004e-08 
3.517435030528506e-05 0.0001188670052823974 -1.188648201543576e-05 2.072159744813619e-07 
0.01071882656499963 -0.002296966620701835 -0.00619830686050813 -0.0006740239430277682 
0.01275944937141995 -0.01382969236824719 -0.008977332518012035 -0.01822528534110331 
0.002005047153521902 -0.0003248945782940282 7.345126100938488e-06 1.1687636637987e-07 
0.0005261098608964765 9.410089448947554e-07 -0.0005768049030047342 -1.660020459086004e-08 
-0.002687690348840472 0.02537258421651757 -0.0195731847301436 -0.006144828412932459 
0.008121952316939319 -5.044320751325325e-07 -0.004775386689639173 -4.980061377258018e-08 
-2.244303302104535e-05 5.643608129074476e-07 -0.0001514897685731349 1.902479861714401e-07 
-0.002770321540786806 -3.362880500883551e-07 0.004650692642500353 -3.320040918172009e-08 
0.00015460269843075 -3.670455823066805e-05 -9.943784817570631e-05 -8.699183245915601e-07 
0.01803666803964106 -0.01419804506088729 -0.009906369494892261 -0.005013372030742465 
-0.008191231562119016 0.002987681430013659 -0.0001529776009014111 0.005881826830626692 
0.004364969986707257 -0.0007341719963181196 -0.0006823466808469577 -8.215161130163524e-07 
0.002726324364179282 -3.362880500883551e-07 -0.001634836148395273 -3.320040918172009e-08 
0.0001959148788218972 -7.85466284893315e-05 -0.0008626028058006045 -1.833947781476113e-06 
-0.008197922945828523 -0.005896306171346923 0.02025988461080634 -0.009795545709975479 
0.002564887897987583 -0.003524052901879013 -4.858555410836776e-05 -9.904454399410977e-07 
-0.0008000399623823242 -1.681440250441775e-07 0.0004910356732604439 -1.660020459086004e-08 
0.004171135174101013 -0.0008276355455298784 -0.00378621695305924 1.72111473877153e-07 
-0.01090536507662523 0.00881061855160227 -0.001054135473840395 5.195733385988892e-07 
-0.002112562689247327 -5.050186647984394e-07 0.001995699645649114 -6.347817507604367e-09 
0.0002766367423332718 7.396251890211764e-07 -0.001368176545531995 -1.660020459086004e-08 
-0.0001904940899073367 -1.452649084724385e-05 -1.29069756250198e-05 7.024970546905089e-08 
0.003670967864698388 -8.926186862328354e-05 -0.002264143796346684 1.611149843595491e-07 
-0.0002576583866615048 0.008282549083743464 -0.006478305624428844 -2.53230015233993e-06 
0.007010810479429812 -0.001124829187216019 -0.005919926169638493 -7.697543981040517e-06 
3.625494453933209e-05 -2.429274478514787e-05 -1.291237171038617e-05 2.284002934113475e-08 
0.03614215812247135 -0.003243234234143391 -0.02176715032789499 -0.009419383141255745 
0.00939274514588085 -0.0006566900003394275 -0.003235902641612242 -0.0002597184397917087 
-0.01170888422784855 -1.527447115715703e-05 0.0106458764241649 -0.002245147841612408 
0.006770370249618157 -0.0002352439439472137 -0.004526080588866451 -0.0005970515370925073 
-0.0004210362833616489 -1.177008175309242e-06 -1.185265972339497e-06 -1.162014321360205e-07 
-0.005059462393342279 -3.580350231118612e-05 0.008053720513662058 -1.280128896664126e-07 
0.008927608508587394 3.065035080620218e-05 -0.006300422770770028 -3.996890549084678e-08 
0.001327267228199132 -0.0003940210836883437 -0.0008090748354323776 1.180716233043306e-07 
-0.0003576274442241361 -0.0003941835061856911 0.002143844770669625 2.233494501690899e-07 
0.006333229886198213 -0.006304781543066258 -0.003693548274258723 -0.001390148573021683 
0.01004810591396836 -0.001711599272740952 -0.0229566229446257 -0.007310802227587297 
-0.002270328417864695 -2.47671621743581e-06 0.003131397119583365 -5.877294252065364e-08 
0.003059489423611819 -0.003354144235508176 0.00308915949276227 -0.01088572125373017 
0.0002393502428536786 -0.0001923717693038665 -0.00302327662271047 -0.0004217981274232641 
0.002707317438979773 -1.681440250441775e-07 -0.001591795563213058 -1.660020459086004e-08 
-0.005156012171568945 -8.407201252208873e-07 0.004763457089180991 -8.300102295430025e-08 
0.01136208627261178 -0.004348180890706752 -0.01177434263224756 -0.007528741343473877 
0.0001323745518568125 5.933953631803849e-05 -0.0007792865936716592 -3.320040918172009e-08 
0.002707317438979773 -1.681440250441775e-07 -0.001591795563213058 -1.660020459086004e-08 
5.546796915419352e-05 -9.326638591610173e-06 -6.757189737723018e-05 -7.412817497867334e-08 
0.002076455297118954 -0.001394992670254931 -1.909386991150579e-05 -0.0002073029173470279 
0.01831645961558268 -0.00079926401924534 -0.01485307115572162 -0.001629963043809202 
0.001083148636569338 -3.362880500883551e-07 0.001165416534525764 -3.320040918172009e-08 
0.02469771612958389 -0.00119108774584785 -0.01759323247134355 -0.007526924616657394 
-0.0001051045757127236 -1.265064552244082e-05 0.0001530133641268597 -6.220241741796047e-07 
0.002374159191417362 -6.725761001767102e-07 0.002756704126607819 -6.640081836344017e-08 
0.0001413202414465158 -1.39731740580148e-05 -0.001476895320359836 6.997650607380448e-08 
0.003877161580024 -7.82791484692511e-07 -0.005570112352450445 2.928670260667236e-07 
0.002129584833284449 -0.00135240377647943 -1.910102798103842e-05 -0.0002073195175516188 
0.00158137649309088 4.364374927074319e-05 -0.000327611086280465 -4.980061377258018e-08 
-0.009945082019015797 -0.004641189190419682 0.0136779984329218 -0.0002318679924774788 
-0.005206562312543577 -1.532113329953999e-05 0.003507333691936646 1.030643328347363e-07 
-0.008507180101995301 0.04111736535370437 -0.01255351092359019 -0.01158784972648311 
0.006152762980652466 -0.005040455831798404 -0.0005080130130345931 0.005873789117849086 
-0.005046710348877733 0.0001524331516383294 0.008497265132730539 1.140393966901401e-07 
4.63799518292678e-06 -1.681440250441775e-07 -1.693237103342137e-07 -1.660020459086004e-08 
-0.0009265097269403105 -1.681440250441775e-07 0.002748702307600897 -1.660020459086004e-08 
-7.651049883424773e-06 1.695987229398017e-06 -3.635099661492068e-05 4.975406801320753e-08 
1.513450086147595e-05 -1.681440250441775e-07 -3.520911042895517e-06 -1.660020459086004e-08 
0.00359696033758442 -4.602531901097963e-05 -0.003123422995330583 -0.001624561671903966 
0.0004323824915337687 2.235368354253133e-05 0.001497278877549577 8.062518375605932e-08 
-0.003002266252622128 0.001329479735532161 -8.271592511050936e-06 4.685375682779381e-06 
0.001094663816001783 -0.001745057963681019 -5.384355843277776e-06 -6.590651711170547e-05 
0.004104702658999279 -0.0001655815380201168 0.00600077733787323 6.976936554508283e-07 
-0.01109847546298202 -9.065683521970849e-06 -0.003259176210558025 0.01510803914435174 
-0.002270328417864695 -2.47671621743581e-06 0.003131397119583365 -5.877294252065364e-08 
1.883462376856368e-05 1.407856165457033e-06 -1.202388512643226e-05 6.92345160676928e-08 
0.002091783853234283 0.0001428878267475891 -2.770316843236536e-05 1.795719736594916e-07 
-0.004280439642150723 -1.681440250441775e-07 0.004341257792514499 -1.660020459086004e-08 
0.001227852828202931 -1.025269354663025e-05 -0.002420847716661262 -1.271997806964802e-07 
-0.002270328417864695 -2.47671621743581e-06 0.003131397119583365 -5.877294252065364e-08 
-6.014804048023557e-05 -1.681440250441775e-07 -1.693237103342137e-07 -1.660020459086004e-08 
-0.01800995367096899 0.0361254271962634 -0.004041273519228364 -2.158026596811809e-07 
-0.03212505157107343 0.008399287393437864 0.03481900189821022 -0.004932156045174689 
4.129302685069566e-05 -1.07814872001986e-06 -0.001002974832221989 3.986865893100407e-09 
0.001680000569599179 -0.001420611360274118 -0.001078189577256921 -0.001853270131288766 
-0.01862756581617085 -0.00195490296222975 0.01805904350383585 5.542960237685148e-06 
0.0004124857243278461 -7.026067924268705e-05 -0.0001410196654290822 -2.101297351358962e-07 
0.001303868736751783 0.001522628058700708 0.004440666191661157 0.001355157519216994 
-0.0001133067065815687 0.001755271884472427 -9.959871903243334e-06 -5.524964967617823e-07 
-0.0001783986987210709 3.094395490671354e-05 0.0001763850425645626 -3.08920606308191e-07 
0.01876750391403124 -8.272421731587543e-05 -0.01234110004898046 -8.719385163138233e-07 
0.003220060657056534 -0.0008323395268176033 -0.001394445348118661 1.323620666215365e-06 
0.0004415405421588075 -1.681440250441775e-07 -0.0003791182922003466 -1.660020459086004e-08 
0.005126568042061572 -0.00040536537830856 -0.003731708407032738 -9.953076718502352e-06 
0.003194903309780419 -5.044320751325325e-07 -0.0001842477931480721 -4.980061377258018e-08 
0.0001413202414465158 -1.39731740580148e-05 -0.001476895320359836 6.997650607380448e-08 
-0.006350382750492737 0.004913295364306309 0.001990765528133038 -0.0004005653026557416 
0.003923472782560562 -0.0001320080942122061 -0.003928481386787414 -0.0005972458524860486 
-0.002377469547365907 -3.362880500883551e-07 -0.001535125283934846 0.004492661110446414 
-0.0001918407541031831 -1.435834682219968e-05 -1.273765191468558e-05 8.684991005991096e-08 
0.0003092053968614999 -7.34091164613361e-05 -0.0001988756963514126 -1.73983664918312e-06 
1.01523204728999e-06 -1.681440250441775e-07 -1.693237103342137e-07 -1.660020459086004e-08 
-0.004280439642150723 -1.681440250441775e-07 0.004341257792514499 -1.660020459086004e-08 
0.001802275213370441 3.950789741230201e-05 -0.004246557305434943 -9.449404522289131e-07 
-0.004280439642150723 -1.681440250441775e-07 0.004341257792514499 -1.660020459086004e-08 
-2.533178730738721e-05 -1.681440250441775e-07 -1.693237103342137e-07 -0.0002591642060009674 
0.0060300838652069 -8.043887860600553e-05 -0.006337598243292279 -2.362710808700913e-06 
0.006867000351638884 -9.264784168517225e-05 -0.006389285717434731 -2.209725956421801e-06 
-0.01239451150201496 0.01551324335907561 -0.01293534077714507 0.01061140467726315 
1.002557686201978e-05 -1.681440250441775e-07 -3.144117991056394e-06 -1.660020459086004e-08 
-0.002014899334369374 0.004272011298601846 -0.001111539861047841 1.938711584596808e-09 
0.008891825676023325 -6.881574888451547e-07 -0.007275578015805514 7.303036349702331e-07 
-0.01493728049957679 0.01354149134244236 -0.001014543353177736 -0.003291861281779496 
-0.009115825435339167 -0.002119912711516264 0.008002859443371773 -0.002893540583501749 
-0.005052409698186909 -0.0002253598598324881 0.01020334798678663 -2.802205273125795e-06 
-2.533178730738721e-05 -1.681440250441775e-07 -1.693237103342137e-07 -0.0002591642060009674 
0.01029964148263563 4.030395293317155e-05 -0.005679336490462484 -2.016665138554631e-07 
0.0001070154981218968 -1.681440250441775e-07 -1.693237103342137e-07 -1.660020459086004e-08 
0.01941914223568336 -0.002077387915528904 -0.02284777710480407 -0.005385560382642954 
-0.01049111928446672 -0.000157564833214701 0.007423568297666752 -9.681747316931088e-06 
0.001935713615086686 -0.001366425835251541 -3.150003247505552e-05 -0.0002071994672323772 
0.001321339632624938 8.288974568876796e-07 -0.0001450093179310939 -1.660020459086004e-08 
0.003913680799252787 -0.0007114987339117955 -0.0007598762195407929 8.821468829610351e-08 
0.009924573030877503 -0.001257453089644813 -0.004933861313978785 -0.0009449329868375423 
0.003235354341987842 -0.0003367730237409937 -5.352046570120085e-06 -1.660020459086004e-08 
1.34666419584626e-06 -1.681440250441775e-07 -1.693237103342137e-07 -1.660020459086004e-08 
9.32581446976926e-08 -3.362880500883551e-07 -3.386474206684274e-07 -3.320040918172009e-08 
0.0008220647261472081 4.64578819550217e-07 -7.279791172983575e-05 -0.0003719877774188169 
0.00668009333251043 -0.00403118831289536 -0.001565178473639706 -3.573412342247476e-06 
0.006013484430568021 -9.260320871686089e-05 -0.006334665108637842 -2.329510399519194e-06 
-1.320493000925251e-05 -2.647248354154941e-05 -6.053721924668645e-05 -2.155840814338709e-07 
-0.0001705574132569563 -3.362880500883551e-07 0.002962996077792132 -3.24208614479321e-07 
-0.00327433054699709 -0.001434800752802327 0.01207153927464795 -0.0002071252021580775 
8.792298175073682e-06 -1.681440250441775e-07 -0.0009444694505555897 -1.660020459086004e-08 
0.00792490304924843 0.00926770689884447 -0.01422926149832946 -6.553524990533873e-07 
0.00743859222830427 -0.002285153976715899 -0.002019947763950196 -5.098304152869465e-06 
-0.001624168802410434 -1.681440250441775e-07 0.002757212097738821 -1.660020459086004e-08 
0.005345031858640795 -0.003294217971172787 -0.01403269075784292 -0.005019135219836419 
-0.004918462818073553 -9.114453758991369e-06 0.003578409363171987 -2.009088548120072e-07 
0.008511680818773881 -0.0009958919235103631 -0.006537980450441048 -4.340852617961294e-05 
-0.004828220668340982 -1.777261694341228e-06 0.004827964836202563 2.985402689747982e-07 
0.004659642408086097 0.01631274637284769 -0.007865918641241542 -0.0002299110907814279 
0.0003408042351286217 -1.681440250441775e-07 -1.642687184096403e-08 -1.660020459086004e-08 
0.005831201761231634 -0.0006087349780698265 -0.002411665992870764 -0.0002503360691260504 
0.0018980244142635 9.09974780700955e-07 -0.002521789924816391 -1.660020459086004e-08 
0.0005394990633075814 3.46722240113199e-07 -0.0005627845661155739 1.729345772180854e-07 
0.008476141743778285 -0.001787194382970868 -0.004492135937573356 -0.0009446554910772486 
0.0004709568098595149 -4.011423158864163e-06 -6.418241676389397e-05 -2.00366705523352e-08 
0.001423312047582487 -0.0006900612070276699 -8.192484661292261e-05 -1.322576899352037e-06 
0.01055656221520153 -0.007297332753679795 -0.00579152906637455 -6.526434250526749e-06 
2.922336214490739e-05 7.395896313395817e-07 -2.41342599383726e-05 -1.660020459086004e-08 
0.0002352785925269043 -2.492480035546991e-07 -8.397463456274812e-05 9.12118613478635e-08 
0.03712842907477269 -0.01374860509732955 -0.0193286936669384 -0.009061803820494799 
0.001129388302944683 -0.004438400176172348 0.004310992806126422 -0.00170027066425005 
6.214614958351051e-05 -7.853511902012278e-05 -4.486162610377422e-05 -5.189025246622189e-07 
0.001627558375222306 -0.0002864207977999914 -5.418273041174463e-05 -2.608857564041724e-08 
0.01203078754878919 -0.003764027521382407 -0.009403379395401486 -0.002265096412352435 
0.01696650821284744 0.002501372564438658 -0.01818746040246897 -0.001986533139286457 
0.006796626323402107 -0.0009184804990535201 -0.002274148235180632 0.008922698097118533 
-0.000705306327348098 0.01693173458729626 -0.01342328657855118 0.002419283087466604 
-0.07060508751698777 0.00447325837828901 0.06757608276244842 -0.001459349424510876 
-0.0002247060251274899 0.002055569991443675 -0.0007372384832323311 -0.001006546346235611 
0.005831201761231634 -0.0006087349780698265 -0.002411665992870764 -0.0002503360691260504 
-6.160195219326732e-05 -0.003571022534397132 0.003887353913736047 -1.326736807912229e-06 
-0.001624168802410434 -1.681440250441775e-07 0.002757212097738821 -1.660020459086004e-08 
-0.005095639816985681 2.067072938706659e-05 0.006559370156559873 -1.660020459086004e-08 
-0.002651084196096682 9.010958966377619e-06 0.003034026758817584 -1.660020459086004e-08 
-0.01362922456879465 0.009614169038910908 -0.0001889427197288621 -8.899596704297478e-07 
-0.0004154310053039352 -2.707843037367862e-05 0.0004385746546398016 -1.250165897070303e-06 
-0.0008000399623823242 -1.681440250441775e-07 0.0004910356732604439 -1.660020459086004e-08 
0.0001413202414465158 -1.39731740580148e-05 -0.001476895320359836 6.997650607380448e-08 
0.0001459582366294426 -1.414131808305897e-05 -0.00147706464407017 5.337630148294441e-08 
-0.008442355976105542 -9.760706419699389e-05 0.008824700812785949 -9.725072504121585e-08 
-6.014804048023557e-05 -1.681440250441775e-07 -1.693237103342137e-07 -1.660020459086004e-08 
-0.0001152080684972357 0.004180267299335285 -0.001793754119298072 1.889143386875748e-07 
-0.003608116258624895 -0.002274440126830168 0.002903462666973616 0.005008111942835546 
1.020541808960217e-05 -1.681440250441775e-07 -1.989113884147037e-06 -1.660020459086004e-08 
-0.008630469148107708 -0.007287893225077688 0.01800648910884738 -0.0007479662706287038 
-0.002463344508021894 4.00686124442309e-05 0.005386723487908722 8.127795248922286e-08 
-0.01388095916006494 -3.606133769863325e-05 -0.000332540438577814 0.01754582569768726 
0.004293191666858219 0.003653875430399398 -0.008878690009886843 -0.0005506315576435333 
0.001173036587052123 7.142318386218455e-06 -0.0003360701497622559 -1.660020459086004e-08 
1.513450086147595e-05 -1.681440250441775e-07 -3.520911042895517e-06 -1.660020459086004e-08 
0.001805260132903245 9.658510463475052e-08 -0.0004575702648374974 1.336532132029593e-07 
-0.006129453005251438 0.006929302474952153 -0.003259032317434259 -0.002007602195302769 
0.01309194090277595 -0.0004668179024343689 -0.01167546542997929 -5.375283329595477e-06 
-0.001146152738376372 -1.681440250441775e-07 0.00189348054476153 -1.660020459086004e-08 
1.526868104366422e-05 5.265253676842314e-09 -1.123424139680873e-05 1.161908954332594e-07 
0.0008340360919053292 -0.0002295686655505022 -0.001293384419091219 -1.579021497673326e-05 
0.001144674342007185 -0.0001035721377850959 -0.000597493037371798 0.002506688737881927 
0.01462170916926663 -0.04199230872213447 -0.007493184439621463 -0.007671927758492736 
-0.001622822138214588 -3.362880500883551e-07 0.002757042774028487 -3.320040918172009e-08 
0.001430042915241014 -0.002505692081975207 -0.0001264065937794801 -5.914116322798228e-07 
0.05837332716352919 -0.02387269245284922 -0.05228754857140693 -0.01941769402452282 
0.01256196788316772 -0.001880080800835352 -0.004839396028907862 -6.884107111751809e-06 
0.0005905586301317127 -2.661574300559585e-06 -0.001458991304438906 1.134705580320971e-07 
0.001669580222088777 2.737915943122658e-06 -0.001894249604976904 6.817797483322643e-08 
0.0001664039074625806 -2.797991577483049e-05 -0.0002027156921316906 -2.223845249360201e-07 
0.004444738968588359 -0.003345519546650477 -0.002534618033961184 -5.844900931226038e-06 
-0.01558987627887251 -0.006921411937044129 0.02686992823688145 -0.001153226051297973 
-0.0009265097269403105 -1.681440250441775e-07 0.002748702307600897 -1.660020459086004e-08 
-0.005290178808658921 0.002460574518226199 0.0006638384050570651 -4.483584171229638e-07 
0.001316387799767745 -0.002442473901140305 -2.427426640671255e-05 -2.775911306061262e-06 
-0.002274946066282449 0.0003496051342004649 0.0001371203763668997 0.003372766737937077 
0.0005060438740323256 5.148662651573762e-07 -0.0001556702304261412 1.895347818089454e-07 
0.008192322338117237 -0.004463004984879152 -0.01070805993188194 -0.006701460499677256 
0.0008830810843176149 -3.362880500883551e-07 -0.0007582365844006931 -3.320040918172009e-08 
3.345518927525569e-05 -1.681440250441775e-07 -0.0004071143356894325 -1.660020459086004e-08 
-0.01328189008192248 -0.008087560788092692 0.01463553167441161 0.01400417250332433 
-0.00303499912299301 -1.681440250441775e-07 2.754884175754743e-07 0.002506511022692976 
-0.006158167588144696 -0.0007134405785140549 0.007880495485477503 -0.0009266549649348139 
-0.0008000399623823242 -1.681440250441775e-07 0.0004910356732604439 -1.660020459086004e-08 
-0.004979093499858931 0.004513830447480787 -0.0003381811177259124 -0.001097287093926499 
0.0001065063049208855 5.122189757478797e-05 -0.0001241208760320582 1.707358257163704e-09 
0.0014796658383469 -4.900381345161842e-07 -0.001041650494114811 5.547385668065489e-08 
2.093935099117004e-05 -6.051376180663219e-06 -1.26021778458374e-05 1.53008336720721e-07 
4.041079677781102e-05 -3.362880500883551e-07 -0.0008825542512454394 -3.320040918172009e-08 
-0.004539967112360939 -0.0004633108187389878 0.005185553293768707 -4.137852413552791e-06 
-0.002066246017649085 0.006853321198812394 0.00183555158873348 -6.911220388775821e-05 
-0.001624168802410434 -1.681440250441775e-07 0.002757212097738821 -1.660020459086004e-08 
0.0009569692799836022 -9.389391782412852e-05 -0.001310297867711697 -5.055253985418181e-07 
-0.01137137882963682 0.00422419358565754 0.01726538401906234 -1.254330235540142e-06 
0.003718732574010335 -0.0006722712984730261 5.155552590086615e-05 -8.188975382228892e-06 
-0.0001331532615355304 0.0002014929719612643 -0.0002859008331538141 -1.035447184815194e-07 
0.004408927630685349 2.196896236434979e-05 -0.003275008525765711 -8.040674704628191e-07 
0.002683328133314789 -5.044320751325325e-07 -0.001592378187446732 -4.980061377258018e-08 
-0.01074587787921329 0.006172521217149564 8.115552550364209e-06 -5.288920282076511e-07 
0.001841924853750984 -0.006065072568404954 0.003112702870753852 -9.244395362951323e-06 
6.214614958351051e-05 -7.853511902012278e-05 -4.486162610377422e-05 -5.189025246622189e-07 
-0.006097369365653218 -6.33692014608874e-05 0.006018080083050753 -4.103988454507275e-06 
-0.001095776169886569 -6.749726587417717e-08 0.005620462238590516 -6.595787149823182e-08 
0.0002607476584340676 -2.931271420374582e-05 0.0002418443114898255 -1.264085018911545e-06 
-0.001489164947225552 -0.001257249899275423 -0.002745876219109014 0.01401473252401859 
-0.006127788847426375 0.003861604079687965 0.005035157795820915 0.004754104094948784 
0.01486451922708913 -0.004283430731366692 -0.01031271072056218 -0.001892658485185737 
0.0008220647261472081 4.64578819550217e-07 -7.279791172983575e-05 -0.0003719877774188169 
0.001474138708994696 -2.722530229422249e-05 -1.021126457712137e-05 1.300419552566533e-07 
0.002136611079047978 -0.001636661055738315 -0.008250080794821297 0.01061514385388459 
4.129302685069566e-05 -1.07814872001986e-06 -0.001002974832221989 3.986865893100407e-09 
0.007712403957829574 -0.005529283498481001 -5.645302412303255e-05 -8.453635525141822e-06 
0.0135788757154086 -0.000973869711865435 -0.007911346370443681 -0.002569471681616864 
-0.005084786986345679 -1.681440250441775e-07 5.667027927821117e-05 0.004492677710651005 
-0.002416428011792826 0.002942961149652391 0.004473598544133183 1.966821516112394e-07 
0.0003408042351286217 -1.681440250441775e-07 -1.642687184096403e-08 -1.660020459086004e-08 
0.006801707135805568 -0.000556092369864917 -0.004920990126159638 -1.288995149165411e-06 
-0.002359715060391452 -5.121576459915797e-06 0.006378759849994968 -1.341460896321674e-07 
0.0007966985987423649 -1.681440250441775e-07 -3.979639448377802e-05 -1.660020459086004e-08 
-0.002659905736177589 9.209425909670043e-07 0.003341363579655709 -1.660020459086004e-08 
0.005266196849592498 -1.605213376706132e-05 -0.003356095409596291 -2.859276542144295e-07 
0.005836471952099029 -0.002420866726422808 -0.006095728484173964 0.01011458362915768 
-0.009451784524304833 0.006342844781127374 0.01313628779769881 -0.002351610406088399 
0.04387401126471998 -0.05819294076648327 0.0005893844414858149 -0.01782755655818728 
-0.009086250784359986 -0.0006440870262470972 0.01629703584998019 -0.004875332445346279 
1.338742858551917e-05 9.830749397602413e-07 -7.877536269874808e-06 -1.660020459086004e-08 
-0.003248337604820869 -3.362880500883551e-07 0.005514424195477642 -3.320040918172009e-08 
0.007046545061336107 -0.004383835585092478 -0.007102349722158488 -5.649727373752582e-06 
0.005414634877959546 -3.362880500883551e-07 -0.003183591126426116 -3.320040918172009e-08 
3.485167258878414e-05 -3.362880500883551e-07 -0.0008806251876276146 -3.320040918172009e-08 
0.006110494945087459 -0.0001191857262089325 -0.0002207768345437984 -5.606748011506177e-06 
0.004173384142195767 -0.001347007988616612 -0.0003587883859759756 -0.0003678366248285306 
0.002618058758786718 -1.761981359572512e-05 -0.001523030711495956 2.940759587490349e-08 
-0.006033171204278477 -0.0007987471367071569 0.01056816107551545 -0.0003742536114530077 
0.009381720347471362 -0.004410528003686469 -0.004123101532935647 -0.001699133796650645 
0.001238394271805071 0.001259180078840645 0.004860129305032774 -0.001456706775498766 
-0.01085839823487229 -0.0002476453044870082 0.01122683562788173 -0.003665860240497223 
-0.002270328417864695 -2.47671621743581e-06 0.003131397119583365 -5.877294252065364e-08 
0.0001518680245080157 -0.002453686917314635 -0.0004170010376697503 -0.001727962382618929 
-0.005409168268908843 -6.734107164316997e-05 0.007961679376117423 -1.113588390167216e-06 
-0.001203389462584934 0.003823241561613505 0.000624949682513622 -0.0005995658606840008 
0.0001545673615648645 2.377575004305991e-06 1.687466997494879e-05 -3.320040918172009e-08 
-0.001146152738376372 -1.681440250441775e-07 0.00189348054476153 -1.660020459086004e-08 
0.0001061619750488744 -0.001138720197441727 -0.001573284338610257 -3.112880802028352e-06 
-0.003710957911499117 -1.681440250441775e-07 0.003523238710520528 -1.022447908120467e-06 
0.01122148359894323 -0.0007125779099711251 -0.0008545076357131562 -0.001689553657933242 
0.001805260132903245 9.658510463475052e-08 -0.0004575702648374974 1.336532132029593e-07 
-0.022784309948093 -0.0004413248053992221 0.01906811468935236 -1.258470297036197e-05 
0.0001141442641406566 -7.357695242559166e-05 -0.001638638186596642 -1.028915958719963e-05 
-4.090195269896152e-05 -4.309332585063376e-05 -2.429876679294726e-06 -3.320040918172009e-08 
-0.01538593934477954 0.009613496462810733 0.005430233864181338 -9.563604887931884e-07 
0.01213833433319069 -0.0003437519079557098 -0.01356152039214733 -0.002109332638020236 
-0.00120790893437376 -1.896938453597441e-06 0.0001226029526171477 -5.364147067931475e-08 
0.004718388315972362 -3.882133632601922e-06 -0.0058149020348188 -1.497926451650775e-07 
-1.683109102602948e-05 9.407287412804774e-07 -0.0008073280187584796 -1.660020459086004e-08 
-0.002651084196096682 9.010958966377619e-06 0.003034026758817584 -1.660020459086004e-08 
0.002654534456398264 -0.0007880421673766874 -0.001618149670864755 2.361432466086612e-07 
0.007290556562702636 -0.007828798592774308 -0.002774158051122507 -1.725200813411884e-05 
0.009000550258966929 -0.001006802902058842 -0.007503868406833095 -7.573329029513445e-06 
-0.0002304161369944714 0.008360534598670571 -0.003587508238596145 3.778286773751495e-07 
0.00484431645013544 -0.003330053330328063 -0.002420464682343457 -6.193463080823053e-06 
-0.005084786986345679 -1.681440250441775e-07 5.667027927821117e-05 0.004492677710651005 
0.0002352785925269043 -2.492480035546991e-07 -8.397463456274812e-05 9.12118613478635e-08 
0.01634476681650208 -0.006267377459824757 -0.01254716263842342 0.01009927365591561 
1.320205499363079e-05 4.943030912946302e-07 -0.0002712755459124044 1.80108342353996e-07 
-0.001568032307421923 -0.01164612272551736 0.01526494112199897 0.007865954931197086 
-0.0005224465034258321 -2.691028634863445e-05 0.0004387439783501358 -1.233565692479444e-06 
0.0007186538332694126 -0.001040914312898152 -0.001794242611912949 -2.78345213392251e-06 
-0.003153142566258875 -1.681440250441775e-07 0.006128530700727481 -1.660020459086004e-08 
0.0009333989910546242 -1.681440250441775e-07 -0.001296707868568482 -1.660020459086004e-08 
0.0001210504010144351 -0.002110286233747369 -2.640021318545734e-05 1.731591995133495e-07 
0.01222988054015286 -0.01445136500998748 0.00213248996548832 -0.002657884747079902 
0.01386640813692309 -0.005520098610447433 -0.008726755080203265 2.529401125941075e-06 
-0.02909048548805678 0.02890228149566463 -0.008081066431368229 -0.0009270479568772592 
-0.0001499990228281469 0.004927625158807523 -0.0006012947253323942 -4.138351400469294e-07 
-0.001557880844912979 -2.949839571173848e-06 -0.0006080067555675395 0.004492843147476332 
-7.651049883424773e-06 1.695987229398017e-06 -3.635099661492068e-05 4.975406801320753e-08 
0.0003408042351286217 -1.681440250441775e-07 -1.642687184096403e-08 -1.660020459086004e-08 
0.0001071804425714843 -7.467720549468242e-05 -3.250989226367034e-05 -3.957239205536057e-07 
-0.0001148338794992092 1.875961391339588e-07 0.0003567326951862028 2.706707539701366e-07 
0.003118776634541042 -7.770699569956645e-07 -0.00536589505394934 4.147450575223429e-07 
0.0004709568098595149 -4.011423158864163e-06 -6.418241676389397e-05 -2.00366705523352e-08 
4.641333698435889e-07 -1.681440250441775e-07 -1.693237103342137e-07 -1.660020459086004e-08 
0.001370323919813468 -0.003294038992659842 -3.016973316987869e-05 -1.187984995100686e-07 
0.00286579072300281 -3.312232205312351e-05 -0.002364629992679782 0.003978231982874901 
0.004087743228392902 -2.285816410319141e-05 -0.003020196416507997 -2.361270404418492e-07 
0.001321339632624938 8.288974568876796e-07 -0.0001450093179310939 -1.660020459086004e-08 
0.005789447241666917 -0.00320003367316154 -0.003172109230233901 -6.062823479542048e-06 
0.0009411143701076171 -9.969920142187962e-07 -0.0003358985382509925 3.64847445391454e-07 
4.070369951625478e-06 -1.681440250441775e-07 3.404803842963609e-07 -1.660020459086004e-08 
8.234709199338847e-05 -1.530600338735022e-05 -0.0001761103154462715 -8.671459283430793e-07 
0.006225257997914319 -0.000314251196173418 -0.002561823811617512 8.062518375605932e-08 
0.01032905076913852 -0.001079230137618966 -0.0133972467473169 -0.0009472040992817811 
0.002504998970289048 -0.001612478495470202 -0.0003856434899766644 3.53114178314602e-06 
1.674143643462136e-06 -1.681440250441775e-07 -0.0002137870911562201 -1.660020459086004e-08 
0.003695213949052114 -0.0007201533822380841 -0.0005656938614947045 -9.745009652954662e-07 
-0.006288910941039338 -0.0002991035849748515 0.0088385304516967 -2.901138019729877e-06 
-0.001571869223324475 -2.23329420839988e-06 0.003335588423492397 -5.351602107340355e-08 
0.009116057642453676 -0.004811896105117969 -0.007044649979297103 0.0006983230956435424 
-0.007160286888235449 -0.004641021046394636 0.009742187176056674 -0.000231851392272888 
2.769455887469822e-06 2.973486607222808e-05 7.535418850932037e-05 -7.079945396091976e-07 
0.001627558375222306 -0.0002864207977999914 -5.418273041174463e-05 -2.608857564041724e-08 
-5.109907207091515e-05 -4.292518182558959e-05 -3.31489351135806e-07 -1.660020459086004e-08 
0.0001725372379882084 -1.681440250441775e-07 -5.509479443778353e-05 -1.660020459086004e-08 
0.00212755436918987 -0.001352067488429341 -1.876238056036996e-05 -0.0002072863171424371 
-0.01389764590410466 -2.522160375662662e-06 0.04123053461401346 -2.490030688629009e-07 
0.003653659266899726 -8.90981538084285e-06 0.0002433052171222802 -3.025278588052896e-07 
1.900692519950817e-05 -1.681440250441775e-07 -4.304058518221513e-05 -1.660020459086004e-08 
0.0004415405421588075 -1.681440250441775e-07 -0.0003791182922003466 -1.660020459086004e-08 
0.0007966985987423649 -1.681440250441775e-07 -3.979639448377802e-05 -1.660020459086004e-08 
-0.005945235365051582 -6.967021879094381e-05 0.003673861041855883 -0.0003732026719348951 
-0.01018565520441054 0.004502301836047226 -0.0196439859030214 -0.006510325727360313 
0.003838984436870943 -0.01122602863114001 -0.006962442985593453 -0.01640324380191945 
-0.01606442217280962 0.01208596681324166 -0.01154517198117799 -0.002694226405976583 
-0.003160793616142299 1.527843204353839e-06 0.006092179704112565 3.315386342234751e-08 
0.002528731429315291 -6.732204028137603e-05 -0.001802946087168233 -3.466576272957624e-06 
-0.0001499990228281469 0.004927625158807523 -0.0006012947253323942 -4.138351400469294e-07 
0.0002095911494508473 -3.546662767143189e-05 -0.0004980840150269811 -1.382652767496683e-07 
0.008195085992898072 -0.003042923373555732 -0.002722531487526145 -2.77920667934981e-06 
0.00181741047042581 -0.005817196445974525 0.005044372685332748 -4.622938889749185e-06 
-0.005409168268908843 -6.734107164316997e-05 0.007961679376117423 -1.113588390167216e-06 
-0.004853810504405366 -0.0003897335582526076 0.005384598313830453 -2.381415559778811e-06 
0.007685109478861312 -0.0004666497584093247 -0.008503668357828724 -5.358683125004619e-06 
0.00351280072983224 -0.0007342955073748522 -0.0006278953957604036 -9.579007607046058e-07 
0.02552075258532494 -0.01887160208932537 -0.007039515519335686 -7.213422253190258e-06 
0.002907446322105258 -0.0001464973196106855 -0.0008930976671772978 1.445147797686893e-07 
-0.01172841658024553 0.0176651246370688 -0.01508310640982008 -0.007384059185752116 
0.008788660277007893 -5.559378491766059e-06 -0.006389564012971235 -1.140101193594759e-06 
0.003220060657056534 -0.0008323395268176033 -0.001394445348118661 1.323620666215365e-06 
6.573857776861956e-06 1.233247413589944e-05 2.109833366173944e-07 -1.660020459086004e-08 
0.005819659036323583 -0.005002727471809273 0.0005094285106592632 -0.000201344807780253 
-0.0105326691288335 0.002717097235892394 0.009187451045034762 -1.030055635725605e-07 
-0.04021580918564722 0.0527032518113028 -0.01741557587898482 -0.008082773179346281 
0.0003372218385294181 2.45723621242328e-07 -0.001436999055209218 1.659809725030786e-07 
-0.0180450700425785 0.005329981560176823 0.01217492437234095 -0.0009669506979415381 
0.008296498142994421 0.004246772615693825 -0.01039679011818123 -0.0002404434110826721 
-0.0007583849454829575 5.721527696846654e-09 0.0002042172985011062 1.218780314556194e-07 
-0.001624168802410434 -1.681440250441775e-07 0.002757212097738821 -1.660020459086004e-08 
-0.006472424349638258 0.01169143874061978 -0.01450955082937661 0.002064101634382708 
-0.002292305476752744 -3.362880500883551e-07 0.003786961089523059 -3.320040918172009e-08 
-0.00558153193865219 -0.001000529846450844 -0.0009021894794241313 0.01401504354003001 
1.183996315751934e-05 -1.681440250441775e-07 -3.9005221746296e-06 -1.660020459086004e-08 
-0.003218123927415013 -5.044320751325325e-07 0.004633968331560362 -4.980061377258018e-08 
0.04091166666878952 -0.02397700047537151 -0.01475705613970375 0.01222640667269024 
0.006710158039880829 -0.0009267314420844826 -0.004941111445254506 -0.0009447633782962307 
-5.165510011987582e-05 -1.681440250441775e-07 -4.133005233401548e-07 -1.660020459086004e-08 
8.999814187681322e-05 -1.700199061674827e-05 -0.000139759318831351 -9.168999963562858e-07 
0.00655861793014201 -0.0009953874914352312 -0.004600659989876145 -4.335872556584035e-05 
0.003031759120728974 -6.456251813372196e-05 -0.00294985105332544 -2.799193142638522e-06 
-0.004459158300248291 -7.737638048784574e-05 0.002019452302919117 -4.84858292723966e-06 
3.02136774058574e-05 -1.681440250441775e-07 -0.0008804558639172804 -1.660020459086004e-08 
0.004066525719461843 -3.545845582513568e-06 -0.004084166792401309 -1.165922359833576e-07 
0.003382366361070345 -0.0003733165448817274 -0.0009266613235962559 -1.116749741727528e-06 
-0.003137290250257843 -5.536859937829648e-06 0.002005062650668322 0.004492659210267428 
0.004125787312288868 3.94256477889133e-05 -0.005236863342336773 -4.64029432077237e-07 
1.526868104366422e-05 5.265253676842314e-09 -1.123424139680873e-05 1.161908954332594e-07 
-0.0001499990228281469 0.004927625158807523 -0.0006012947253323942 -4.138351400469294e-07 
0.004184876791373931 0.004641036216982489 -0.002247273018957195 -4.565239202782067e-07 
-0.01069818729225981 0.008876907016269749 -0.0008321846873789185 -6.094940833184114e-07 
0.000932861694560035 -3.362880500883551e-07 -0.001296877192278817 -3.320040918172009e-08 
0.001300906678165705 -0.001780188303302363 -7.589418855781875e-05 -6.601158197927341e-05 
-0.01774273884269225 0.01300896559106866 0.01683602638736342 0.01167901505699842 
0.001173036587052123 7.142318386218455e-06 -0.0003360701497622559 -1.660020459086004e-08 
0.006288872295164001 -0.005542886494624002 -0.003147368595899517 -7.492352328715822e-06 
-0.01501491892794138 0.01942665733235228 -0.003175538504728848 -6.34602635636968e-06 
0.00164671128461876 -0.001094355265636882 -9.616465216903034e-05 -0.0001018375860901804 
-0.0003382317482348697 -0.008858900910099702 0.01505423351152277 -0.00335102690021342 
0.0005307443959851763 0.01308035860009086 -0.02396905432440188 0.002719985914908741 
-0.001766650492531241 0.001380221080045428 -0.01927020454951308 0.02040068185624556 
0.008371545906280675 -0.004503441136644796 -0.01074958437566223 -0.006701585565110689 
-0.0001133067065815687 0.001755271884472427 -9.959871903243334e-06 -5.524964967617823e-07 
0.02382636512117337 -0.02179082859301262 -0.01168013395879567 -2.628609982795708e-05 
-0.01046578267125332 -0.001780009231587666 0.01132978061465823 -0.0007368187140004912 
0.002054588330146347 -0.001267598077588679 0.004816774609974779 0.01347045611760353 
-3.856841618573072e-05 -0.0008793435862546165 -1.223893519919772e-05 6.762975718118188e-08 
0.01066850015903578 -0.0009955556354602749 -0.005978921704598508 -4.366633397572882e-05 
-0.006264601906774111 1.545169432472601e-06 0.0003354947865227812 0.004492627910037232 
0.003515000399862802 -3.890684323029987e-05 -0.00525057630449596 0.005986329500402723 
3.517435030528506e-05 0.0001188670052823974 -1.188648201543576e-05 2.072159744813619e-07 
0.01471492761821582 -0.009276820868415962 -0.002635775699592909 -0.00170919980770091 
0.00340789157997605 -0.0003369411677660378 -6.044684100790358e-05 -3.320040918172009e-08 
-0.01789334611675274 -2.765499027794192e-05 0.009597117868701264 0.007518723098341843 
0.02308971094826247 -0.004224268265374322 -0.02215467603948166 -0.004603147600815648 
-0.001624168802410434 -1.681440250441775e-07 0.002757212097738821 -1.660020459086004e-08 
4.129302685069566e-05 -1.07814872001986e-06 -0.001002974832221989 3.986865893100407e-09 
0.001376555575009237 -0.003294375280709931 -3.149625167204128e-05 -8.454399838512286e-06 
0.004066525719461843 -3.545845582513568e-06 -0.004084166792401309 -1.165922359833576e-07 
-0.01699748559953269 -0.02477015237223509 0.03315180754257241 -0.0223457592105453 
0.00880378836453485 -0.001028655037883593 -0.006146409937700989 0.01347445560833436 
-0.001385381051612999 0.002778879015097186 -0.0003108671937867974 -1.660020459086004e-08 
0.0006510209628772906 -1.681440250441775e-07 -0.0006457734868549685 -1.660020459086004e-08 
-0.0008000399623823242 -1.681440250441775e-07 0.0004910356732604439 -1.660020459086004e-08 
-0.01048171160909749 0.005131170607585265 -3.785857800201399e-05 -3.245943343766723e-06 
1.338742858551917e-05 9.830749397602413e-07 -7.877536269874808e-06 -1.660020459086004e-08 
-0.01254312169077844 -5.742691061115589e-05 0.01457900609895964 -2.235713978110432e-06 
-0.001041286076547282 0.003060132477663943 -0.0003491995595031756 3.704929628733083e-08 
-0.05060488226302902 0.05292785395430207 -0.01465047412940399 -2.596362762020267e-05 
0.03051248146999497 -0.003946424896616165 -0.02452966226255317 -0.001881577526391556 
0.008262106694015611 -5.028537995049886e-05 -0.0081339324448307 -0.001054754166945853 
0.00120632746941457 -6.725761001767102e-07 -0.003458074881300364 -0.00025921400661474 
1.398872170465387e-07 -5.044320751325325e-07 -5.079711310026412e-07 -4.980061377258018e-08 
-0.00303499912299301 -1.681440250441775e-07 2.754884175754743e-07 0.002506511022692976 
1.540597903111786e-05 -0.0006345222725485061 -0.0004465944147567622 -5.628729969818481e-08 
-0.003002266252622128 0.001329479735532161 -8.271592511050936e-06 4.685375682779381e-06 
0.001332775997942599 -1.681440250441775e-07 -1.693237103342137e-07 -1.660020459086004e-08 
0.0001827426560778106 -3.362880500883551e-07 -5.708390832193054e-05 -3.320040918172009e-08 
1.205769174419358e-05 -0.000634185984498418 -1.902023244432188e-05 -2.308689051646474e-08 
0.001316387799767745 -0.002442473901140305 -2.427426640671255e-05 -2.775911306061262e-06 
0.0002797873222942512 5.714811639769991e-07 -0.00136883705276144 -8.335601339002221e-06 
0.008043886569951848 -0.0029570792717808 -0.005632977506108741 -6.195449413924692e-06 
-0.001052637133882566 0.004173313097285354 -0.007272859997389382 -0.006953085608109784 
0.002831066531055338 -0.0005506039331841245 -3.886375564889212e-05 9.512137533491593e-08 
0.02095781614809024 -0.002253476554108402 -0.008517943486741822 -0.001877589648170637 
-8.482525598128606e-05 -1.452649084724385e-05 -1.29069756250198e-05 7.024970546905089e-08 
0.002013149505310125 -5.343659243627862e-07 5.206080734145757e-06 4.893237237849134e-08 
-0.001252340510238343 -0.001236670876748512 0.005617689778705524 -0.001029788586575687 
0.001171947496784215 -0.001743869176178866 3.052979144196634e-06 -6.592311731629632e-05 
0.006800577181045953 -0.003910563530579868 -0.001658152725988247 -4.78634360448524e-06 
0.003167658691128531 -5.118609722724906e-05 -0.006496439046713766 -1.674741223778567e-06 
1.426748932357914e-05 -3.362880500883551e-07 -1.757906943862564e-06 -3.320040918172009e-08 
0.002327060140609482 3.003703302550063e-05 -0.001624183484251515 -2.517270266018478e-07 
-0.02034235523038944 0.0177471433983653 -0.001353654154925154 -0.0002240899956250908 
-0.02605602421570718 0.0007583907633934015 0.01948200066535481 0.003491904884731524 
0.005537819428414551 -0.002312246526278774 0.00207928327504536 -0.005511690565262514 
-0.003921349062863106 -5.377566285424823e-05 0.004394955568718799 -2.864907541985506e-07 
0.002005047153521902 -0.0003248945782940282 7.345126100938488e-06 1.1687636637987e-07 
0.005786322246418411 -2.315471424938907e-05 -0.006731700651203222 -0.001054577456516508 
0.001094663816001783 -0.001745057963681019 -5.384355843277776e-06 -6.590651711170547e-05 
-0.001624168802410434 -1.681440250441775e-07 0.002757212097738821 -1.660020459086004e-08 
6.04273548117148e-05 -3.362880500883551e-07 -0.001760911727834561 -3.320040918172009e-08 
0.01337574096950066 -0.00916729770359132 -0.005362939097678949 -0.01010006491385833 
2.400937425445045e-05 -4.680529207896214e-07 -4.041432148661503e-05 3.858213521844765e-08 
8.792298175073682e-06 -1.681440250441775e-07 -0.0009444694505555897 -1.660020459086004e-08 
-5.74169397496046e-05 9.37980695669794e-08 0.0001783663475931014 1.353353769850683e-07 
-0.0009265097269403105 -1.681440250441775e-07 0.002748702307600897 -1.660020459086004e-08 
4.632428996679751e-06 -1.681440250441775e-07 -0.0002949976520367888 -1.660020459086004e-08 
-0.04594739482240046 0.03026484609412059 0.01103010203508209 1.336307681816163e-05 
-0.0003922701095443705 -0.0007209811747323986 0.003330636787806969 -0.003895614697797299 
-0.03527657484590698 0.01020305563048729 0.02333082040031819 -0.0001970270352354884 
0.009523880802564026 1.947940036640906e-05 -0.005135580707005171 -1.672340752911718e-07 
3.75825188013261e-05 -2.803706439081854e-05 -0.002350360081087624 -4.088039261045962e-07 
-0.001178058832977182 -1.906707309538986e-05 -1.73256899245375e-05 -9.871416716264614e-07 
-0.01424916013965399 -0.001044646639963001 0.01541105963812807 -0.002811559088880939 
0.006181012451338724 -0.003043851499483696 -0.0003252916223629983 -3.381645233669691e-06 
-0.008582656539053915 0.006676066906792119 -0.0002037123894136644 -0.002693951928370338 
0.01321750023765923 -0.004533710178459674 -0.003486774819908943 -0.006103663221187695 
0.00178848484367414 -1.813637091310534e-05 -0.002376236593468007 8.514841648212155e-08 
1.883462376856368e-05 1.407856165457033e-06 -1.202388512643226e-05 6.92345160676928e-08 
0.01208868118144179 -0.008212724222720281 -0.008190699038826415 -0.0007090018039444785 
1.900692519950817e-05 -1.681440250441775e-07 -4.304058518221513e-05 -1.660020459086004e-08 
-0.006846680553138048 -9.510678389346009e-06 0.005908460479318541 -3.993948964448564e-06 
-0.002478250395276243 -0.009312207259605437 0.02602452177333116 -0.00644417711629152 
-6.154643366334709e-05 -1.59625917959379e-05 9.896254587313446e-05 -8.175826698697296e-07 
-0.0009265097269403105 -1.681440250441775e-07 0.002748702307600897 -1.660020459086004e-08 
0.0009333989910546242 -1.681440250441775e-07 -0.001296707868568482 -1.660020459086004e-08 
-0.009186985722999877 -0.005036357970622876 -0.00920145790757112 0.01831484816955002 
0.01533638064830158 -0.002819701372282013 -0.009588684412650423 -0.001544545813948361 
-0.002629692058771731 7.52798565922827e-07 0.002460907715738429 -3.320040918172009e-08 
-0.007244739759096308 -2.581243983120453e-05 0.007793493246880026 -7.933905392418184e-07 
-0.002025339359869603 0.003067348506099926 -3.386474206684274e-07 -3.320040918172009e-08 
8.792298175073682e-06 -1.681440250441775e-07 -0.0009444694505555897 -1.660020459086004e-08 
-0.00120790893437376 -1.896938453597441e-06 0.0001226029526171477 -5.364147067931475e-08 
0.0002448410947105416 -0.0009611156564683718 -0.0001539759542203448 -2.345311152198527e-06 
-0.02928571201880932 -0.01295790708227954 0.0147638634117506 0.01030488943545893 
0.004927296911739902 -0.0004582788166205402 -0.002289796542873077 2.148276505324467e-06 
0.03179698814520154 -0.003379368491324272 -0.02647366184751149 -0.0001340188922292076 
0.009144085269371825 -0.006714324657048781 -0.002921026724858749 -0.00118937952859375 
0.00902200841289982 -0.0005064256500916362 -0.00654595914390623 -5.853922441917311e-06 
-0.01640608683870987 -8.845496489121172e-05 0.01154699478462379 -8.409868703572147e-06 
0.008021661392038328 -0.004117853495352413 -0.005620567103731295 0.0001265199319300965 
0.01453495962222136 -0.003489482606878683 -0.0112629902708684 -0.0008704930128159744 
-0.006288910941039338 -0.0002991035849748515 0.0088385304516967 -2.901138019729877e-06 
-0.006129453005251438 0.006929302474952153 -0.003259032317434259 -0.002007602195302769 
-0.007122199269963512 -0.004641357334444727 0.009040075188330454 -0.0002318845926820697 
6.431588955081697e-05 4.5697457868166e-05 -2.360835736381402e-05 1.095881302605318e-07 
0.002077444015863025 1.663859541195646e-05 -0.001272366074324748 2.668339296585004e-07 
1.020541808960217e-05 -1.681440250441775e-07 -1.989113884147037e-06 -1.660020459086004e-08 
-0.0009510192837454173 0.0001183625732072648 0.002736477178164792 1.574153607087819e-07 
-0.002324523394125293 -0.0004221772904309501 0.002599813864454206 -1.497766627837827e-07 
-0.0004933486238635969 0.006505597974084806 -0.002123605577785103 -3.289919682110745e-06 
7.728368078243223e-05 1.188787502152995e-06 8.437334987474396e-06 -1.660020459086004e-08 
0.002180941775337938 -1.681440250441775e-07 0.0001159656108282405 -1.660020459086004e-08 
0.005831201761231634 -0.0006087349780698265 -0.002411665992870764 -0.0002503360691260504 
0.01415715043385615 -0.01817744373515505 0.002965802990744934 -0.01283192246096327 
-0.01024967874079031 -0.002550658906996483 0.009785374949555902 5.119306021918234e-06 
-0.002659905736177589 9.209425909670043e-07 0.003341363579655709 -1.660020459086004e-08 
0.00178848484367414 -1.813637091310534e-05 -0.002376236593468007 8.514841648212155e-08 
0.006624734779259937 4.090163514074882e-08 -0.00606456652193756 4.813216395128543e-07 
0.0004225573872854319 -0.001718166699831887 -3.78162849802612e-05 -0.0001916320237851831 
-0.01221805571320168 -0.0001258530288193597 0.01063238827254718 -1.32470095665084e-06 
0.0001481946832967019 -0.002078352556508196 -1.344799811697504e-05 1.219029258112829e-07 
-0.002024802063375013 0.003067516650124969 -1.693237103342137e-07 -1.660020459086004e-08 
-0.008603700129138763 -4.219431832431026e-05 0.005887370850178171 -9.397438031766018e-07 
2.41641891238808e-05 2.511771585267477e-07 -4.114165559995215e-05 1.511789977875267e-07 
0.00212755436918987 -0.001352067488429341 -1.876238056036996e-05 -0.0002072863171424371 
-0.01181505208060136 -0.003231453612767037 0.01529239651282483 -0.005946958506025592 
0.002567922563985973 -0.0001301881144050095 0.001429336971649266 -7.922767753610665e-07 
0.004712364592501675 -0.0003250627223190725 -0.001584450437112119 1.002761617890101e-07 
0.0002282885282813132 -0.0001471539048511833 -0.003277276373193283 -2.057831917439926e-05 
-0.0009265097269403105 -1.681440250441775e-07 0.002748702307600897 -1.660020459086004e-08 
-0.0001152080684972357 0.004180267299335285 -0.001793754119298072 1.889143386875748e-07 
0.0001725372379882084 -1.681440250441775e-07 -5.509479443778353e-05 -1.660020459086004e-08 
5.533158890978225e-05 -3.362880500883551e-07 -3.386474206684274e-07 -3.320040918172009e-08 
-0.003002266252622128 0.001329479735532161 -8.271592511050936e-06 4.685375682779381e-06 
-0.01015618117453464 0.001016882761676401 0.01179035342664591 -0.002589493929581575 
-0.004459158300248291 -7.737638048784574e-05 0.002019452302919117 -4.84858292723966e-06 
-0.0001133067065815687 0.001755271884472427 -9.959871903243334e-06 -5.524964967617823e-07 
0.0006416571784209166 -1.681440250441775e-07 -0.001728746128533344 -1.660020459086004e-08 
5.361412720315721e-05 -0.0001070808261230276 -6.860741989202812e-05 8.546587317347832e-06 
-3.856841618573072e-05 -0.0008793435862546165 -1.223893519919772e-05 6.762975718118188e-08 
0.00359696033758442 -4.602531901097963e-05 -0.003123422995330583 -0.001624561671903966 
-0.00626797159004817 -0.0003051549611555149 0.008825928273850869 -2.748129683009156e-06 
4.129302685069566e-05 -1.07814872001986e-06 -0.001002974832221989 3.986865893100407e-09 
-0.03004227325783427 -0.01546659964876838 0.03397962486349791 -0.002314346140495229 
-2.244303302104535e-05 5.643608129074476e-07 -0.0001514897685731349 1.902479861714401e-07 
0.002911185058879422 -3.268707676434897e-05 9.319593402197958e-06 -0.0005382968573528868 
0.08462574335631778 -0.04878864052776033 -0.06727094846041264 -0.02201245751411037 
-0.02106138313014767 -0.001178937465422938 0.02220055606612407 -0.0001050319667045812 
0.0001187974162512461 -0.0001437134403134691 -0.00212993417992721 -0.0004194033958877272 
3.625494453933209e-05 -2.429274478514787e-05 -1.291237171038617e-05 2.284002934113475e-08 
0.003715581994049355 -0.0006721031544479818 5.221603313031061e-05 1.300257521824652e-07 
-0.01005087615438034 7.730685027432971e-05 0.008044048030246742 -0.003152602876249455 
0.002180941775337938 -1.681440250441775e-07 0.0001159656108282405 -1.660020459086004e-08 
-0.009405628776036189 1.710969317622963e-07 -0.000486356680123378 0.007675965773577103 
-0.01567459320369729 -0.001951515505486342 0.0232384728862959 -0.003017308867606559 
0.004114514657890447 -3.362880500883551e-07 -0.001673259366759156 -3.24208614479321e-07 
-0.001649788481124597 1.018646601048602e-05 0.001778082053176738 -3.320040918172009e-08 
0.01177259304008625 0.004238459556928083 -0.01466228066226919 -0.0002407234091092999 
0.006136292275198978 -0.0004753135511598785 -0.004777778538128611 -6.146242843634645e-06 
0.003137706404242429 -9.50549003791322e-05 -6.393608681868113e-05 1.184182724896618e-07 
-0.006340897987544532 -0.0009839192609913232 0.007368290183692809 1.907442382578695e-06 
0.005724459358104697 6.806030336130109e-06 -0.00209345015668497 -3.408088190701823e-07 
-0.004853810504405366 -0.0003897335582526076 0.005384598313830453 -2.381415559778811e-06 
-0.08887991718961315 0.02595004032024572 0.02159274822703623 0.04392220008718609 
-0.004386588463455425 -1.681440250441775e-07 0.004278388757572991 -1.660020459086004e-08 
-0.01378123783754268 -0.006370724696972783 0.0143130627343028 -0.003290930304252555 
0.0007966985987423649 -1.681440250441775e-07 -3.979639448377802e-05 -1.660020459086004e-08 
-0.009526416549163875 0.01449462893424814 -0.01443675126650474 -0.006281245573467264 
-0.02248801981392998 -0.001067090820034782 0.01210728789072826 0.02265739744537822 
-0.005716346515905039 0.01771801229187985 -0.005591688454508133 -0.004119114167678416 
0.007477805480560274 -0.006875803651542333 0.0001306094136625507 -0.002284929542391781 
-0.0001499990228281469 0.004927625158807523 -0.0006012947253323942 -4.138351400469294e-07 
1.01523204728999e-06 -1.681440250441775e-07 -1.693237103342137e-07 -1.660020459086004e-08 
-0.02055657368922576 -0.006435671042123586 0.02522512478535749 -0.003392613349733579 
-0.01832615912949493 0.002818438365777996 0.01222452262690369 -0.003290740708264427 
-0.005409168268908843 -6.734107164316997e-05 0.007961679376117423 -1.113588390167216e-06 
0.0002268433016109455 -1.768371499747892e-05 -4.153774453911123e-05 -7.64474176151821e-07 
-0.04936931877633299 0.0001126405135688353 0.05599450436813468 -0.008711138053731719 
0.0007440103632701516 -0.0002757655812636638 0.002638858266289592 8.567493470789314e-09 
0.00178848484367414 -1.813637091310534e-05 -0.002376236593468007 8.514841648212155e-08 
-0.001681585742160039 -7.434595547719796e-08 0.002935578445331923 1.187351723942083e-07 
0.001794336655626848 -1.675496850328275e-05 -0.0002486618890044597 -6.441307009797798e-07 
-0.003922695727058952 -5.360751882920404e-05 0.004395124892429133 -2.698905496076902e-07 
3.517435030528506e-05 0.0001188670052823974 -1.188648201543576e-05 2.072159744813619e-07 
-0.005419493102849529 0.007931771289169661 -0.0005734401239071035 -0.001786423275090641 
0.002870587125147129 -0.0001296115368198017 -0.0001086230854520153 -9.02981966465561e-07 
-0.0006168640200664058 0.004521462253881261 -0.00418267557081067 -0.003537608676221622 
-0.008274706772072043 -0.0009655709518186958 0.009358528965163185 -4.272485737767941e-06 
0.006283032183075668 -0.0001193538702339766 -0.0002758716289815817 -5.623348216097041e-06 
8.792298175073682e-06 -1.681440250441775e-07 -0.0009444694505555897 -1.660020459086004e-08 
-0.002295958206747424 0.0008100667355684703 -0.005014023593630523 -2.741925920898202e-06 
-0.02065705946378632 0.01699343557949724 0.00359032058751579 -0.001997302423551679 
-0.002084950103855249 0.003067348506099926 -3.386474206684274e-07 -3.320040918172009e-08 
0.002911185058879422 -3.268707676434897e-05 9.319593402197958e-06 -0.0005382968573528868 
0.001173036587052123 7.142318386218455e-06 -0.0003360701497622559 -1.660020459086004e-08 
-0.006037852665760225 -9.148716655453415e-06 -0.003274704834236285 0.01061521025470295 
-0.002936317984068652 -0.002577379641600438 0.007867395143253847 -2.305883688400447e-07 
0.05076187760710038 -0.04552557185211516 -0.009443009107158487 -0.02488470535680843 
-0.0001044801799489685 0.008251282783419944 -0.007154167382783587 -0.003658692438755442 
0.001757137860845295 1.282907694618621e-07 -0.001583292871454539 -0.0003720209778279986 
-0.002370377977136415 0.009286574802458467 -0.001421753348857652 -7.067045269630932e-07 
0.007201101749792434 0.007387393307873648 -0.00894415434771135 -0.0002528944578540307 
-0.0074879134788531 0.01281286788942985 -0.002058859718707519 -9.363616245162981e-07 
0.0004709568098595149 -4.011423158864163e-06 -6.418241676389397e-05 -2.00366705523352e-08 
-7.434047006529285e-05 -4.463296831143045e-08 0.002694251022514344 1.197844430973933e-07 
-5.372964945891606e-07 -1.681440250441775e-07 -1.693237103342137e-07 -1.660020459086004e-08 
-0.02158075333970599 0.004345533118317686 0.006612827796588163 0.004749220149416284 
-0.0009265097269403105 -1.681440250441775e-07 0.002748702307600897 -1.660020459086004e-08 
-0.002640577614513447 -0.00135530794536394 0.002991191833420549 -0.001787063227086278 
-0.007405532752796241 0.006204650733436544 0.0005553038428076703 -0.0007046110880291496 
-0.009091690048923837 -0.0001759609773265888 0.005138924058055406 -3.003429046322509e-06 
0.0009106302528635304 -4.554591381427298e-05 -0.008108777289153104 0.005126814803156077 
-0.005084786986345679 -1.681440250441775e-07 5.667027927821117e-05 0.004492677710651005 
-0.0008000399623823242 -1.681440250441775e-07 0.0004910356732604439 -1.660020459086004e-08 
-0.00300733332853812 -3.362880500883551e-07 1.061647072412604e-07 0.002506494422488386 
0.001550246693890531 -0.0001657332658867481 -0.0003363200407708034 1.320044037128769e-07 
0.001430042915241014 -0.002505692081975207 -0.0001264065937794801 -5.914116322798228e-07 
-0.005084786986345679 -1.681440250441775e-07 5.667027927821117e-05 0.004492677710651005 
0.002121692908457007 -0.001321291677547672 0.000102527867566409 -0.0002076118379533361 
0.01812009293518116 -0.01493988250608715 -0.01434611074681812 -0.003856889078126808 
0.005713948221808421 -0.001926839944547106 -0.001538495963897092 -0.0008490101215236048 
-0.007970041823009737 0.006616531719395419 -0.01469781661000308 0.02462322199222549 
1.900692519950817e-05 -1.681440250441775e-07 -4.304058518221513e-05 -1.660020459086004e-08 
-0.0294121863596742 0.01922867436587191 -0.0001328807476509966 0.00250478090396589 
2.093935099117004e-05 -6.051376180663219e-06 -1.26021778458374e-05 1.53008336720721e-07 
-0.0009265097269403105 -1.681440250441775e-07 0.002748702307600897 -1.660020459086004e-08 
0.01233767346145795 -0.005378010815935575 -0.0005611134992911446 -9.824466081429559e-06 
0.007025793376366495 -8.043887860600553e-05 -0.006486695471025821 -2.362710808700913e-06 
0.001332775997942599 -1.681440250441775e-07 -1.693237103342137e-07 -1.660020459086004e-08 
0.003877161580024 -7.82791484692511e-07 -0.005570112352450445 2.928670260667236e-07 
1.002557686201978e-05 -1.681440250441775e-07 -3.144117991056394e-06 -1.660020459086004e-08 
0.001094663816001783 -0.001745057963681019 -5.384355843277776e-06 -6.590651711170547e-05 
0.002958008097681583 -0.00010374028181014 -0.0008929355015364966 1.445147797686893e-07 
6.993088403498503e-05 -3.603908906560123e-05 -4.051476568818627e-05 -1.050348923364088e-06 
0.002150874915064915 0.0007304621505970789 -0.003203339657011072 5.345911844344035e-07 
0.008809108333536401 0.00488864163823059 -0.002957219290570738 -2.366129290139908e-06 
-0.008648598838269465 -6.24767245756503e-05 0.008895210645500494 7.814142526732251e-09 
-0.002770762103225998 0.005557758030194372 -0.0006217343875735948 -3.320040918172009e-08 
0.01113405263569298 -0.001944753932393606 -0.007360640660589506 -6.848113798364264e-06 
-0.00796482325418592 1.354353648640776e-05 0.009365739763792477 1.695980046088202e-07 
-0.005056476642487486 -1.843862747789106e-06 0.01354666163344948 -6.07242190438412e-08 
1.01523204728999e-06 -1.681440250441775e-07 -1.693237103342137e-07 -1.660020459086004e-08 
-0.006068983750482119 -0.01081392165894272 0.01436194805266864 -0.002138108752707359 
-0.006545571386356571 -1.515871743107641e-05 0.004527852912614673 -3.890741241500425e-06 
0.007625540762698354 -0.0001966281417994841 -0.007549438825958502 -0.0005318881653986937 
0.0001413202414465158 -1.39731740580148e-05 -0.001476895320359836 6.997650607380448e-08 
-0.0001133067065815687 0.001755271884472427 -9.959871903243334e-06 -5.524964967617823e-07 
0.0007490396105100754 0.01079574393432483 -0.005386646713737496 -6.533977409564274e-05 
-0.008116696883709721 -0.003165060134178125 0.01918015305365352 -0.004706300473186472 
0.002707317438979773 -1.681440250441775e-07 -0.001591795563213058 -1.660020459086004e-08 
0.001005735088021612 -1.681440250441775e-07 -0.0001522413457245959 -1.660020459086004e-08 
0.008741805525470065 -0.0006080167773891117 -0.005198777505082864 -1.258370339634944e-06 
-0.00120790893437376 -1.896938453597441e-06 0.0001226029526171477 -5.364147067931475e-08 
1.002557686201978e-05 -1.681440250441775e-07 -3.144117991056394e-06 -1.660020459086004e-08 
-0.03214787865379744 0.03674697096277976 -0.01952470898188503 0.01906181551877945 
0.0004415405421588075 -1.681440250441775e-07 -0.0003791182922003466 -1.660020459086004e-08 
0.002614041568248945 -0.0009549489508693165 0.0001506067513331409 -3.621763176119494e-06 
4.632428996679751e-06 -1.681440250441775e-07 -0.0002949976520367888 -1.660020459086004e-08 
0.00164671128461876 -0.001094355265636882 -9.616465216903034e-05 -0.0001018375860901804 
0.0009707551230738224 -0.0008795117302796608 -0.0003122830154651762 5.102955259032178e-08 
6.431588955081697e-05 4.5697457868166e-05 -2.360835736381402e-05 1.095881302605318e-07 
0.00030059153212192 1.173112977543717e-05 -0.001380797271249342 5.125627370206655e-08 
-0.02084671065522263 0.006695728772028922 0.01053153187563599 -0.0001875405069049061 
0.0001427612494602175 2.692915278964012e-05 -0.0001370332477424445 2.454738759829849e-08 
-0.002463344508021894 4.00686124442309e-05 0.005386723487908722 8.127795248922286e-08 
-0.0002731224451056325 -0.003296675044670066 0.0005702707078829462 -1.797065315196756e-07 
0.02278396541524922 -0.009664702474873934 -0.02255467629913253 -0.002734624355322349 
-0.007888267473488524 0.002342469451549004 0.0008414389890243374 -1.178099806499265e-06 
-0.0001499990228281469 0.004927625158807523 -0.0006012947253323942 -4.138351400469294e-07 
0.005437282895024979 -0.005113766137248246 -0.007231636074292591 -0.006952719712401892 
0.001332775997942599 -1.681440250441775e-07 -1.693237103342137e-07 -1.660020459086004e-08 
0.0001413202414465158 -1.39731740580148e-05 -0.001476895320359836 6.997650607380448e-08 
-0.009009114048088407 -0.004369939622342517 0.008126436471470858 0.003830444866369593 
0.0003408042351286217 -1.681440250441775e-07 -1.642687184096403e-08 -1.660020459086004e-08 
-0.0001783986987210709 3.094395490671354e-05 0.0001763850425645626 -3.08920606308191e-07 
-0.01092267846749318 -0.00669244631010122 0.02044379601663124 -0.004670727063407315 
0.0006416571784209166 -1.681440250441775e-07 -0.001728746128533344 -1.660020459086004e-08 
2.093935099117004e-05 -6.051376180663219e-06 -1.26021778458374e-05 1.53008336720721e-07 
0.01284568127590907 -0.003584291047048142 -0.007975360254165408 -0.0002080030021435403 
-0.005095639816985681 2.067072938706659e-05 0.006559370156559873 -1.660020459086004e-08 
0.002339097115233601 -0.03172433038977011 0.01727380410017663 -0.01054745968689877 
6.23165519576899e-06 -3.362880500883551e-07 -1.32651850216259e-06 -8.335601339002221e-06 
8.792298175073682e-06 -1.681440250441775e-07 -0.0009444694505555897 -1.660020459086004e-08 
0.003177530593264124 -0.0004524903517368279 -0.0008180769534949886 7.271541889073934e-08 
0.003720219989232282 -0.0006722712984730261 5.204670941997637e-05 1.134255475916052e-07 
0.001674945843694266 -0.001094272232503399 -0.0001369658273846861 -0.0001017030072969838 
8.999814187681322e-05 -1.700199061674827e-05 -0.000139759318831351 -9.168999963562858e-07 
0.03160821803649785 -0.01764015186220781 -0.01232580415528334 -0.006796757082029304 
-0.01009685856534321 0.001112303373868679 0.003900435141400766 0.002569475746636641 
0.0003450744759764167 -3.362880500883551e-07 -0.0001101895888755671 -3.320040918172009e-08 
-3.856841618573072e-05 -0.0008793435862546165 -1.223893519919772e-05 6.762975718118188e-08 
0.001138536248885734 -0.003224003537141749 -0.0009380314229085669 -7.596083947092133e-06 
0.00701932562572742 -0.00682012505536183 -0.0003905609832918214 -0.001387055790525917 
-5.74169397496046e-05 9.37980695669794e-08 0.0001783663475931014 1.353353769850683e-07 
0.01610862961360525 -0.0001011747972215633 -0.01135082302798423 -0.001625142964248176 
-0.0001918407541031831 -1.435834682219968e-05 -1.273765191468558e-05 8.684991005991096e-08 
0.04034101316482921 -0.006941738648367351 -0.03280750205146591 -0.01152173813783603 
0.01188452651977428 -0.002859740336019761 -0.007281503147027283 0.005614787560793531 
3.625494453933209e-05 -2.429274478514787e-05 -1.291237171038617e-05 2.284002934113475e-08 
-0.005966662685715593 0.009177611294676721 -0.001289529884185351 4.541022102517254e-08 
0.001149490398268786 -0.002077177049464088 -0.001269392703757821 1.053027212204228e-07 
-0.004386588463455425 -1.681440250441775e-07 0.004278388757572991 -1.660020459086004e-08 
-5.372964945891606e-07 -1.681440250441775e-07 -1.693237103342137e-07 -1.660020459086004e-08 
0.009227209244304813 -0.006646934929247971 -0.0107911987892825 -0.00670635613251338 
-0.0001152080684972357 0.004180267299335285 -0.001793754119298072 1.889143386875748e-07 
0.006389825859994826 -0.003043019958660366 -0.002264961222688648 -2.91285989255277e-06 
-5.109907207091515e-05 -4.292518182558959e-05 -3.31489351135806e-07 -1.660020459086004e-08 
-0.00574896132535192 -0.004032172377333166 0.01173449594868152 -0.001387152558055757 
-4.48860660420907e-05 1.128721625814895e-06 -0.0003029795371462698 3.804959723428802e-07 
0.0006581865698567992 -6.291279622893776e-05 0.003024022274617286 -0.001886358966683242 
0.005414634877959546 -3.362880500883551e-07 -0.003183591126426116 -3.320040918172009e-08 
-0.000231106219550849 1.065521653632765e-05 0.002099835385962531 3.465606911120647e-08 
-0.0125783299486055 -0.000325733313736632 0.0009856767972568385 0.01347816593394939 
0.0001602354926854799 -0.006446533261651715 0.00188657039689881 -5.55334462456583e-06 
-0.009836925636147105 -1.822890751798274e-05 0.007156818726343973 -4.018177096240143e-07 
0.0009436820790114685 -3.921313460579045e-05 1.757589610203564e-05 1.700709906513462e-07 
0.005112823689800054 -3.546662767143189e-05 -0.001488567941920686 -4.292734820472688e-07 
0.001761178475477998 -0.001915927745867479 -0.0002077682421294903 -6.288471792580605e-06 
0.0001481946832967019 -0.002078352556508196 -1.344799811697504e-05 1.219029258112829e-07 
0.00940876219859634 -0.007224556548236091 -0.007096758480044304 -0.006100904474674526 
0.003154673505961521 -0.001778432613906144 -0.001651759782495723 -0.000192602695461736 
-0.007608934252347118 -0.0003507315686688658 0.01380890589940093 -4.871170266261385e-06 
-0.002463344508021894 4.00686124442309e-05 0.005386723487908722 8.127795248922286e-08 
-0.04234560376069436 0.02340289135314221 0.01264903783072986 0.01949478381295544 
0.00359696033758442 -4.602531901097963e-05 -0.003123422995330583 -0.001624561671903966 
0.002005047153521902 -0.0003248945782940282 7.345126100938488e-06 1.1687636637987e-07 
0.01320428318646611 -0.01610583176029426 -0.005366668740993855 -0.004973224659877123 
5.546796915419352e-05 -9.326638591610173e-06 -6.757189737723018e-05 -7.412817497867334e-08 
0.01402162095885962 -0.002249658374432037 -0.01183985233927699 -1.539508796208103e-05 
0.001766112533602595 -0.001745226107706064 -0.0006416305517642962 -6.592311731629632e-05 
0.005149820741317816 2.015197646658578e-05 -0.002839668245231242 -1.008332569277315e-07 
1.002557686201978e-05 -1.681440250441775e-07 -3.144117991056394e-06 -1.660020459086004e-08 
0.0006816084702572434 -3.362880500883551e-07 -3.285374368192807e-08 -3.320040918172009e-08 
-2.533178730738721e-05 -1.681440250441775e-07 -1.693237103342137e-07 -0.0002591642060009674 
-0.006288910941039338 -0.0002991035849748515 0.0088385304516967 -2.901138019729877e-06 
3.345518927525569e-05 -1.681440250441775e-07 -0.0004071143356894325 -1.660020459086004e-08 
-0.00558153193865219 -0.001000529846450844 -0.0009021894794241313 0.01401504354003001 
0.0003442707835080441 0.0005750339228881605 -0.0001161845235740529 6.553600418508823e-07 
0.001474138708994696 -2.722530229422249e-05 -1.021126457712137e-05 1.300419552566533e-07 
-0.001389027857193711 -0.0002783695754519103 0.0004657212880602774 -1.560734028042081e-05 
-0.0001463553165291612 0.0002009986688699697 -1.462528724140963e-05 -2.836530608355153e-07 
-2.99343630743781e-05 -3.362880500883551e-07 -0.0008806251876276146 -3.320040918172009e-08 
-0.006371178478512204 0.009286911090508552 -0.0001635038629362002 -3.824959124837726e-07 
0.02160095690245821 -0.01031625233019997 -0.01514763096192374 -1.244347482276267e-05 
0.005288722753906265 -0.001209884131479388 -0.003071142543993293 1.257219847851923e-06 
-0.002659905736177589 9.209425909670043e-07 0.003341363579655709 -1.660020459086004e-08 
0.003031759120728974 -6.456251813372196e-05 -0.00294985105332544 -2.799193142638522e-06 
-0.004505010772808212 1.133883409102612e-06 -0.003884317407845636 0.007675949559154327 
0.0006902612706776913 0.007886526146712031 -0.002181460066429509 -0.000371870474448056 
0.004123068856247132 -5.044320751325325e-07 -0.001382331560607331 -3.408088190701823e-07 
0.004054976883936454 4.055427055684232e-07 -0.002406406938221827 -6.640081836344017e-08 
0.00695381920844401 -0.002199801037179893 -0.003214436679446765 -1.326898435455731e-06 
0.003913680799252787 -0.0007114987339117955 -0.0007598762195407929 8.821468829610351e-08 
0.009295514517417136 -0.001606905413674165 -0.006116382013895207 -0.0006727013661284163 
0.00528661544888365 -0.002584145324157512 -0.003447250345133948 -0.0008881478634808206 
6.23165519576899e-06 -3.362880500883551e-07 -1.32651850216259e-06 -8.335601339002221e-06 
0.01703985886823863 -0.01313088190524742 -0.005373505169944731 0.000727618225005648 
-0.0288104319393857 0.03103643392723384 -0.0002256829912257739 -0.0035227508999857 
-0.02062717773369263 -0.00188239721837317 0.01801207586573095 0.007431256742945883 
-0.03569773412042225 -1.452939923668828e-05 0.04462039409191362 -1.04777074879403e-06 
0.005701670731476519 -0.001859441510439564 -0.003731532044053308 -6.730977249696461e-06 
0.000997714880605441 4.552931384312179e-05 -0.001320316225932296 9.298792566967172e-08 
0.001327267228199132 -0.0003940210836883437 -0.0008090748354323776 1.180716233043306e-07 
-0.00580538645155807 -0.07876176387757362 0.02572329968674503 -0.01596555247230605 
2.68070636015786e-05 -5.354041306151378e-05 -3.430370994601406e-05 4.273293658673916e-06 
-0.0001133067065815687 0.001755271884472427 -9.959871903243334e-06 -5.524964967617823e-07 
1.513450086147595e-05 -1.681440250441775e-07 -3.520911042895517e-06 -1.660020459086004e-08 
0.004447069791404291 1.651805536357734e-06 -0.005689353336487755 -4.980061377258018e-08 
0.0007966985987423649 -1.681440250441775e-07 -3.979639448377802e-05 -1.660020459086004e-08 
-0.005168041900628248 0.004271843154576804 0.005016990839679642 -1.466149300626325e-08 
0.003198105833549242 0.0032935560552519 -0.004076592227394717 -0.0003874877073736665 
0.00564737872484646 0.00642891258453056 -0.03166697851824308 -0.006088222610520448 
-0.03641643529806664 4.91963900201605e-05 0.04273248143887437 0.003993287946639875 
0.0001725372379882084 -1.681440250441775e-07 -5.509479443778353e-05 -1.660020459086004e-08 
0.004066525719461843 -3.545845582513568e-06 -0.004084166792401309 -1.165922359833576e-07 
0.0001065063049208855 5.122189757478797e-05 -0.0001241208760320582 1.707358257163704e-09 
0.001094663816001783 -0.001745057963681019 -5.384355843277776e-06 -6.590651711170547e-05 
0.005004113898548447 -0.003604976266943432 0.002597433685336074 -4.380859761363794e-05 
