solver_type L2R_L2LOSS_SVC
nr_class 4
label 1 3 2 0
nr_feature 8806
bias -1
w
0.004090479952388645 -0.0004402823872974833 -0.001434798537900223 -3.827630571999004e-08 
-0.007805772478823901 1.933610613679289e-06 0.009651617343636143 -1.586024940489515e-07 
0.006908553443290084 -0.001675948487556728 -0.00261345520728359 1.681818197510165e-06 
0.00385105806389872 -0.000924658011195164 -1.267713476972039e-05 5.283280784483648e-07 
-0.02466640365561788 0.005972091641913371 -0.0147698808902749 0.03360220086051052 
0.003847479148928543 -0.0007493379594077957 -0.0005384100748019676 -0.0002754180412266071 
0.01436747555061537 0.004113225641854727 -0.008334698551996917 -0.001989723974136216 
-0.004579619555674602 -1.293750446179181e-08 0.003599317836605172 5.187306055543326e-07 
0.01129187181823776 -0.00183237294714281 -0.01037046582040445 -0.002644661714861428 
-0.007358875694340843 0.0236319873203674 -0.00959541014086278 -0.001317472944630029 
-0.04551530749620782 0.001939053012428686 0.02866065935458458 0.01742656126722555 
0.00135206873332086 1.504630862715528e-07 -0.0001063571608292473 6.454561803065775e-07 
0.0005378027466226735 0.002328257275984977 -0.007549326241496022 0.009647240398502295 
-0.002703970957320828 0.001490170666571751 -0.002985473148890595 -0.0002868621255777823 
9.189807695577052e-06 -1.011584356755789e-07 -2.831250574305153e-07 -5.286749801631712e-08 
0.000899574629973458 -0.002349490494497052 9.020221026672297e-05 -3.317214335241885e-06 
-4.49177357071298e-05 0.002392357235510469 -0.001492439065463545 -2.899059088976103e-05 
-0.01540679699605139 0.0007922803351830788 0.0170854354072697 -8.352777571582792e-06 
0.0004032921130777383 -1.011584356755789e-07 -0.0004131122680598935 -5.286749801631712e-08 
-0.001373214015177654 -2.023168713511579e-07 0.004853333774742151 -1.057349960326342e-07 
0.01478533491505894 -0.01757781851798948 -0.01337984828106581 -0.02192060530531492 
-8.665821132543736e-05 -1.011584356755789e-07 -2.378755439330349e-07 -5.286749801631712e-08 
0.002450826218714944 -0.000151942974287183 -0.001819615807265868 1.499706469473532e-06 
-0.0002646310327866836 -0.0022065853321321 -0.001004829672755466 0.00376323164586487 
0.001395956127229269 -8.080374264146749e-07 0.002998383263183071 1.261234153418246e-06 
0.00295356384458011 -8.187114143031988e-05 0.001809513056924565 -2.643374900815856e-07 
0.00135206873332086 1.504630862715528e-07 -0.0001063571608292473 6.454561803065775e-07 
0.01876065496043219 -0.002794810599212569 -0.01344118502024085 -0.004963490144665086 
-0.0001997842826936416 0.003742880588753261 -0.001561460118991763 -5.286749801631712e-08 
0.01510751298089022 -0.003595950623716922 -0.007776335501187325 -0.001341786475219364 
0.003902038867550424 -2.023168713511579e-07 -0.004310712165191134 -1.057349960326342e-07 
0.002649288917183539 -0.000924658011195164 -0.0006371339194710466 5.283280784483648e-07 
-0.001631223993215695 0.002396906530008368 -7.875804599123909e-05 -6.916796903202557e-08 
0.01821170267795911 -0.02045804778632349 0.00121900730789695 -0.01065936288669959 
-5.813017069295908e-05 -1.011584356755789e-07 -0.0009351562573895144 -5.286749801631712e-08 
-0.0007794319006732113 -3.03475307026737e-07 0.002426191136283209 -1.586024940489515e-07 
0.00901930664999981 -0.002612320293478613 -0.009458582081460509 0.002373969898863434 
0.008583117985711519 0.001760847922514205 -0.002808742969806898 1.497502576553039e-06 
0.001374708369337494 -1.011584356755789e-07 -0.001147276169369253 -5.286749801631712e-08 
-0.014242447449318 0.005053350906650339 -0.0004333648550938419 0.007520405534990783 
0.0002405385104606695 -1.011584356755789e-07 -5.130654426389809e-06 -5.286749801631712e-08 
0.0008641424910733169 -2.543252369411251e-05 -0.0002237855004010545 -2.114699920652685e-07 
-6.218634146222844e-05 2.44673779598964e-05 0.0001103453877402478 -1.235710304344217e-06 
0.004848202386511084 -0.001574453135954457 -0.002163558092387062 3.01455274870645e-06 
0.005929781250154987 -0.009397081109986173 -0.0003745471970124372 -0.002452386918987002 
-0.00466179653272921 0.005080968215858254 -1.616500211059634e-06 -6.511181179597279e-06 
2.950434020546264e-05 -1.011584356755789e-07 0.0001407636974506708 -5.286749801631712e-08 
-0.0469228554627462 -0.01217364437713332 0.04818797319601746 0.001980849812084276 
0.003051242489744784 -1.011584356755789e-07 -8.253480129698518e-07 -5.286749801631712e-08 
0.001163557223755096 6.742364208173856e-06 -5.32977605424956e-05 3.229612940611885e-07 
0.002186916006496527 -1.011584356755789e-07 -0.001834024638197064 -5.286749801631712e-08 
-0.00077740869249167 0.002736695691113592 -0.0006753181338567987 -5.286749801631712e-08 
0.0377668659636518 -0.01850761989887856 -0.01819617022027836 -0.00235397175713505 
-0.01205518504812108 0.02988414086968686 -0.03747551074724293 -0.008265784373105656 
-0.0006709899788848321 0.002893984140205211 0.0016500248655163 -2.352042560021418e-06 
-0.0009745858759528309 -1.38161370895509e-05 0.000271045441426555 -3.486928734329367e-07 
-0.005334319753160515 -4.316680983814144e-05 0.006386485313667509 -3.004159702445139e-06 
0.001062088424391673 -0.0003724512696836378 -0.000370032624342349 7.052349482602533e-07 
-0.0001604687332704095 -9.415164676569865e-06 -1.649991910041173e-05 5.928920738849755e-08 
-0.006359955452310989 0.003495302210152294 -0.0004651610573645269 2.358452862450583e-07 
-0.004579619555674602 -1.293750446179181e-08 0.003599317836605172 5.187306055543326e-07 
0.004113493834992687 -0.003052702332495376 -0.0003350049118260291 -1.194897582276053e-06 
0.0008062044570768071 6.331163488894749e-07 -0.001680842571512058 -5.286749801631712e-08 
-0.001628899761315895 -4.987083045799198e-07 0.001567192390168984 1.242118400817072e-07 
9.189807695577052e-06 -1.011584356755789e-07 -2.831250574305153e-07 -5.286749801631712e-08 
0.002324836961458345 -4.865522782164409e-07 -0.0008341051372390211 5.249482743590436e-07 
3.046199060007728e-05 -1.297058267794879e-05 -1.738352808147122e-05 2.341268811149177e-07 
0.02099525896609558 -0.005586728867529439 0.0003563282306936273 -0.01884490539573453 
-0.01745162698770439 0.008415474136380018 0.009868076380039644 -1.706798608462478e-06 
-0.007846270443516075 0.01331039131589369 -0.001911514016524028 0.001326167904928724 
-0.0001919046528354084 -6.350957779511718e-05 0.0014841668325108 -0.0006745311868170222 
0.03408803167121164 -0.01149143651351991 -0.02138161906503288 -0.0120362573922042 
0.0065865164792532 -4.078058087530275e-05 -0.0006378149311912761 2.619397994698255e-06 
8.206472276115589e-05 -5.242946482250841e-06 -7.621654466033169e-05 1.952132650437923e-07 
0.007868864718042065 -0.005336107142958891 0.00173761484023706 -2.267737595599204e-05 
0.01905956093526653 0.00581641244149377 -0.02556331408359518 -0.004166952104495952 
0.002105790508100386 -1.011584356755789e-07 -6.435185030627452e-05 -5.286749801631712e-08 
0.003360453649813914 -0.0003339175159782811 -0.0004884635623623952 8.783407894526338e-08 
-0.007495353659759159 -1.011584356755789e-07 -0.001956499539404131 0.007612709220381485 
2.950434020546264e-05 -1.011584356755789e-07 0.0001407636974506708 -5.286749801631712e-08 
-0.002108624278685703 -0.0004396556587636167 0.004422232237757274 -0.0001997234118211187 
-0.003915911129803056 0.002355416385144307 -0.0004449495679712506 0.004058111895017988 
0.001526718364874088 8.658248050856989e-07 -0.0006013094985957429 1.695948090140553e-06 
0.03389609440529327 -0.02641785100442052 -0.04061546328627794 0.03472929448681464 
-0.0001322078520573592 -4.569415763209753e-05 -0.0005680151622660551 -3.901385453921398e-06 
-0.008715277293890071 4.324445998423931e-06 0.01099686970514703 -0.0004624291623809978 
-0.004470594095179097 0.001896897630776135 0.00271587402304317 -0.0009213749822120162 
0.0008238656642202476 1.080667775538419e-05 -9.110809652465033e-05 -5.286749801631712e-08 
-0.01433379721131495 -0.00586013566904476 0.02166771390586766 -0.003166240418735722 
0.01313467611908865 -0.0001127056934474826 -0.0110972675600586 -2.466909694280922e-06 
0.001679668599533681 -0.0004003509489864078 -0.001337109338716216 1.376468622276924e-06 
9.00998676138486e-05 -6.726625626523417e-05 -0.0001332552312625585 -0.001644024288637632 
0.01385966642736022 -0.00854276179850251 0.004361392349731451 -5.28723583125718e-05 
0.01560590390731645 0.002940907598028237 -0.02596237594532343 -0.007155273272677318 
0.02878646391963116 0.01109285561672602 -0.1003509549148358 -0.0546092117054727 
3.783517802883016e-05 -1.011584356755789e-07 -1.304593623971529e-06 -5.286749801631712e-08 
0.0002140219388004981 -1.011584356755789e-07 -2.378755439330349e-07 -1.987924586662819e-05 
-0.001628899761315895 -4.987083045799198e-07 0.001567192390168984 1.242118400817072e-07 
0.0001385398147083371 -4.840597491414028e-07 -0.0002985176590948275 1.579665446467961e-07 
-8.797005206755113e-05 -1.011584356755789e-07 -2.378755439330349e-07 -5.286749801631712e-08 
0.0171511513134838 0.002834122614748319 -0.01832649190376979 -0.004577506679735148 
-0.007153859079086134 -0.000339160696520091 0.007120636937681815 -8.938508417060522e-06 
0.003847479148928543 -0.0007493379594077957 -0.0005384100748019676 -0.0002754180412266071 
0.0004907895339502994 -1.011584356755789e-07 -0.0005756242050429059 -5.286749801631712e-08 
0.000265565180058371 -0.0008868797114462216 -4.736608733501329e-05 -0.00153185026640623 
-0.01137923828569909 0.005749096633855844 0.0057857529695253 -2.537353040856742e-06 
-0.02613964912531985 -1.071178308036249e-05 0.02932097585726472 -5.762584362658683e-07 
-0.004779065634865686 0.01277948710551872 0.01331044796544627 -0.0008151579681070201 
0.007330133382136179 -0.0005730026659972918 -0.007712025487767466 -0.001351108847787388 
-0.001961466692149298 -1.011584356755789e-07 0.00245144496820826 -5.286749801631712e-08 
-0.01433562651154316 -7.435961596164696e-05 0.02372911790417172 0.002947749980730426 
0.000136845827615048 -0.003987365286278264 -6.670038050714086e-05 -4.031420773115689e-06 
0.0003333994105699116 -5.296233307614999e-05 1.176518293125869e-05 5.487389513516192e-08 
0.0008879317714015594 -0.006369416171256124 -0.01201403091254011 -0.0159717901907704 
0.0004907895339502994 -1.011584356755789e-07 -0.0005756242050429059 -5.286749801631712e-08 
-0.01876380682280735 0.03612018768898821 0.0024675591179835 0.005777220058859122 
0.0006457562844500188 -2.023168713511579e-07 -0.001283266365458354 -1.057349960326342e-07 
0.01394835239286212 0.0005821594437924568 -0.0059615884719871 -0.003265809097735624 
0.02252794167775437 -0.007516154286156369 -0.01529294118297903 -0.0006600565222851844 
0.004899813649667303 3.24890343486051e-05 -0.002420335655796958 1.21723436144475e-07 
5.844706549802309e-05 0.002894190055329518 -0.001735835549976866 5.207947726948271e-07 
0.00482981638576722 -3.557036143196623e-05 -0.002778284496934538 -4.606922861024361e-06 
0.006343023489950235 -3.03475307026737e-07 -6.781350452329512e-06 -1.586024940489515e-07 
0.0007797819100451637 2.911089340368406e-06 -0.0004450673339103475 3.220094433071329e-07 
-0.01681313500789582 -0.09134588867896611 0.05561405172173161 -0.03323997582780894 
-0.002605676033404862 -0.002489956706806928 0.008858687646298612 -2.918419476654809e-05 
0.007200193788181444 -0.0008528214294976998 -0.005955198223644746 1.922894414974585e-05 
-0.003051141443915674 -0.001332273669733483 0.002643823490646231 1.488515848721055e-05 
-0.002052704464886857 1.742832025826545e-05 0.003452282626913842 -5.286749801631712e-08 
-0.005485004509842548 -2.023168713511579e-07 0.002576804378377617 0.002946483670235369 
-0.007365545160842413 0.003492188803940575 -0.001568887878507823 -1.918991530947088e-07 
-0.001631223993215695 0.002396906530008368 -7.875804599123909e-05 -6.916796903202557e-08 
0.002050042590015077 -0.001584956338402815 0.0001331729316838268 3.226022740771724e-06 
-0.0009796424067949829 7.480593278437893e-05 0.005362227313204956 -9.449969179606232e-05 
-0.0003859673680424212 -0.0003609035112912261 0.002001487694217023 -5.845078889331781e-08 
0.004442055997627411 -5.59200887064778e-06 -0.004181130778173487 8.400543409214449e-06 
-6.218634146222844e-05 2.44673779598964e-05 0.0001103453877402478 -1.235710304344217e-06 
0.003698768801573582 -0.0001613858042025091 -0.001426290019628531 -1.057349960326342e-07 
0.00852806943535693 -0.01191860892992364 -0.004793825289335241 0.007477137410847105 
0.0008762063502514179 2.355388549020853e-05 -0.0005392836618299474 6.341379073574512e-07 
0.01412142065864494 -0.003979938448642444 -0.0133642187038956 -0.000633928523573282 
-0.005103939777355535 -1.609692680647262e-07 0.002819557124378576 2.73510620344688e-07 
4.147847436489747e-05 -4.556454397727749e-08 -0.0001239762792186991 4.938677521170432e-07 
0.002064652091455065 -1.011584356755789e-07 -0.001968970629155747 -5.286749801631712e-08 
-0.004264563006217545 -1.011584356755789e-07 0.004401976277434641 -5.286749801631712e-08 
0.0001558465006225831 -1.011584356755789e-07 -0.001171496292897104 -5.286749801631712e-08 
-0.02700593622652549 0.01916040927426617 0.008818468098723655 -0.01137263337092794 
-0.008936705417525229 -2.022238331744308e-06 -0.004599569238980562 0.01182048827327292 
-0.0003859673680424212 -0.0003609035112912261 0.002001487694217023 -5.845078889331781e-08 
-0.01326162589309567 0.01233886847963782 0.0001570508899985949 -0.003513689827224857 
-0.003005998182724047 -4.046337427023158e-07 -0.0004517917675182686 0.002896772214696729 
-0.03016521301962487 0.009229366825105658 0.01846968920526742 0.00233317954599141 
0.001042802818404824 -5.547590079773066e-06 -0.00273144141081477 2.979038897407894e-08 
0.002007876156902145 -0.001584754021531464 -6.888655562944277e-06 3.331757736804355e-06 
0.01043334752814654 -0.0004110633757208566 -0.004726069955023397 -3.17204988097903e-07 
-0.003580384960096221 0.001659239094845036 -0.0001845066198043603 -1.867042792067583e-05 
0.005759122730127967 -6.31324986268977e-05 -0.005471842523768818 -6.29457640128159e-07 
0.009209428220922555 -0.001174790564572834 -0.002410553821874724 -0.001363882796328476 
0.008254112318461113 -5.825596461876275e-05 -0.006546684438668344 -6.271174983024147e-06 
0.0002082133938326023 -2.867517052135942e-05 -3.058179391019256e-05 1.151109837925855e-06 
0.004290114493077833 0.002786370864974839 -0.01012104317832856 -0.0003588384272272286 
-0.02671607395881535 -1.752803795086222e-05 0.02595369468757214 -0.00486626944281945 
-0.008383359845972441 2.935693575684803e-05 0.007064093057798575 -5.969979052735683e-08 
0.0007698146053108459 -0.0003121540782101786 -5.518648363924647e-05 -5.286749801631712e-08 
0.006407098972066052 -0.001412649674890474 -0.005404221330907644 -2.333959891512796e-05 
-0.0346046953025326 -0.008770835367485155 0.03709151338633957 -0.006448621710361313 
0.0105279740153315 -3.91686568668339e-05 -0.004666231997107018 -2.080011002855182e-07 
-0.006347356716399164 0.0010495822945076 0.0005469534586394744 1.221549400073253e-06 
-0.0036696550703248 -0.003591187703492435 0.0159093472058906 -0.0009125646827436884 
0.0003179891418505586 -7.152634344557616e-05 -0.000114289909886859 -0.002029515916040531 
0.0006281432155120418 -1.011584356755789e-07 -0.001282979024236319 -5.286749801631712e-08 
-0.002350385076577431 0.002894138650152656 -4.493016227587293e-08 -5.286749801631712e-08 
0.002343177516706661 -1.011584356755789e-07 -0.0007211985195448358 -5.286749801631712e-08 
-0.01565561066105088 -0.0001161883907519477 0.01905758677437636 -1.525149729466143e-05 
0.004849711030710552 -0.0009587528189629235 -0.002741711132678184 -1.068694261326147e-05 
0.04667967346124984 -0.0173235247595268 -0.05114522663249618 -0.02146846371841471 
-0.00077740869249167 0.002736695691113592 -0.0006753181338567987 -5.286749801631712e-08 
0.01582634680568961 0.008482032300428884 -0.03299432293973954 -0.01181925522438985 
-0.005271533892582904 0.0004244797481043758 0.01702298685227614 -0.005465138870375936 
0.004844028235378208 0.003740307744474056 -0.006748712530455492 0.002945815255187816 
0.001979042627580049 1.161846146178912e-05 -0.0007426029823834327 -4.679203000533099e-07 
0.0001041066969163011 -1.433758526067971e-05 -1.529089695509628e-05 5.755549189629274e-07 
-0.007241713849952326 5.628703228839575e-06 0.003359920327039043 0.002820459316496852 
0.0101051742402478 0.003726605354013117 -0.01000792049365399 -0.001206434448064107 
-0.001041601594012114 -0.0005188653939266235 0.005549331993373433 1.767907196217913e-05 
7.389336152351113e-05 5.546409588639078e-07 0.000102214716833724 -1.057349960326342e-07 
0.008392299121217816 -4.879582690044629e-06 -0.007471552600195943 6.752363507169708e-07 
0.001357114719893195 0.0001222352534926581 -0.00647900137885302 -1.702091982676755e-07 
-0.004870879649955541 -0.0001373018164348778 0.001901071294577848 -5.458941317333356e-06 
0.001789355867576183 -0.0004440653307044284 0.00173247333170851 -8.839515836259562e-05 
0.0002686811916737474 -4.798258447299483e-05 -0.002426526847816272 -2.819558908041202e-06 
4.147847436489747e-05 -4.556454397727749e-08 -0.0001239762792186991 4.938677521170432e-07 
2.528720102696748e-05 5.506116878832377e-06 -1.203605338913492e-05 4.705793242821006e-07 
0.005526672280712968 0.01245684765476139 -0.009642483918767847 -0.005194852259530891 
0.009096941832032778 -0.01105095677370274 -0.003354737669848355 -0.002855617517141199 
0.001548672175234354 -0.001062699193130988 -0.0001115358855232281 -0.0004462994816921418 
0.00253663417825693 -2.536976256900354e-07 -0.004288706177035658 1.075475618871063e-05 
0.0004907895339502994 -1.011584356755789e-07 -0.0005756242050429059 -5.286749801631712e-08 
0.006417432280221957 -5.057921783778944e-07 -6.694204650789528e-05 -4.987005803268883e-05 
-0.001961466692149298 -1.011584356755789e-07 0.00245144496820826 -5.286749801631712e-08 
0.008953352693296685 -3.793899487527054e-06 -0.007753175307311228 1.977259450113657e-07 
-0.01273220742656809 8.359350205485256e-05 0.004220348688869075 -2.882613333466149e-06 
-0.006866187963665086 0.01073162542812267 -0.005855367471452994 -0.00532896611662413 
0.0002405385104606695 -1.011584356755789e-07 -5.130654426389809e-06 -5.286749801631712e-08 
-0.005779173438900158 -2.6185161181816e-05 0.006661041610562489 -5.47453848079821e-06 
0.005152479261470722 -8.137617370071745e-06 -0.004223230187331113 -0.0006031907902830454 
0.002487175438970003 0.0153303240993414 -0.02467835427124083 -0.01138464025523675 
-0.002386244960024412 -1.533633638348743e-05 0.00250104797963711 -1.907368989044975e-06 
-0.0001239128969078796 1.586210033789441e-07 0.0001917156407455254 6.582443810268269e-07 
-0.001949171751905662 -2.76322741791018e-05 0.00054209088285311 -6.973857468658734e-07 
-0.002350385076577431 0.002894138650152656 -4.493016227587293e-08 -5.286749801631712e-08 
-0.006170835235972746 0.00929758690187712 -0.001373560944448916 -5.286749801631712e-08 
0.0001415525558599448 -1.223963848012059e-05 -0.000917591844295633 4.140385140527853e-07 
0.005118400767285621 -0.00156300744763879 -0.001082669751418676 6.125432820091289e-06 
-0.0002325732942304205 -5.388951875077623e-06 0.0007957177755122443 -6.473053924157554e-06 
-0.0003835211413836561 0.002428849567365727 -0.001394284741246339 -5.583447918655171e-06 
-8.924762212639645e-05 -0.0004419286469106122 -0.001672653390951636 5.714585248484361e-06 
-0.02631249357596183 0.004610599713337661 0.009956082219530538 -0.01540892070995201 
0.0008654096047981355 -0.0003119852908586697 -0.0001205819840648593 6.045617006637632e-07 
0.00135206873332086 1.504630862715528e-07 -0.0001063571608292473 6.454561803065775e-07 
-0.003160553559477109 0.001048779273411809 0.0001558903654204714 1.390384809013718e-06 
3.046199060007728e-05 -1.297058267794879e-05 -1.738352808147122e-05 2.341268811149177e-07 
-0.0001239128969078796 1.586210033789441e-07 0.0001917156407455254 6.582443810268269e-07 
0.004106536827896095 3.395444435377338e-05 -0.005939307933713079 6.215797908499412e-06 
0.004149971419494657 -6.37386321959904e-05 0.001965433816798258 -1.037833332122498e-05 
-0.004536573805216615 0.003260854059211667 -0.006160229114235537 0.007160166724925897 
-0.002274854999443699 0.002894471785580828 -1.445988804101173e-05 7.33679531932727e-07 
0.0002140219388004981 -1.011584356755789e-07 -2.378755439330349e-07 -1.987924586662819e-05 
-0.01312151363595479 0.006056178877534658 0.01082150832650692 6.932504184578253e-07 
0.002064652091455065 -1.011584356755789e-07 -0.001968970629155747 -5.286749801631712e-08 
0.005408482011997819 -0.0001614869626381847 -0.001077767477418845 -1.586024940489515e-07 
-0.01366780970798889 0.004759368330840059 -0.00432360902777952 0.01181465351051593 
-0.02982144245428603 0.005193103124405806 0.01595985327148037 -0.003072934214513783 
0.004205664137110089 -0.005004128133631416 -0.005656720965744462 0.001275009144506479 
-0.002986965572669131 -1.011584356755789e-07 0.003959983199792854 1.176078009694296e-05 
-0.004105408929773713 3.485664051653089e-05 0.006904565253827684 -1.057349960326342e-07 
0.008681611427983543 -0.004996241736334674 -0.0019723091792557 -0.0004552383817823021 
0.003319400870548499 3.793298019622273e-05 -0.002020314293731825 -5.286749801631712e-08 
-0.007580193934293144 0.01149181489781815 0.004376337030134935 -0.005797103248022165 
4.438902131804847e-05 6.557993945394876e-07 -3.854898061694675e-05 -5.286749801631712e-08 
4.438902131804847e-05 6.557993945394876e-07 -3.854898061694675e-05 -5.286749801631712e-08 
0.0006281432155120418 -1.011584356755789e-07 -0.001282979024236319 -5.286749801631712e-08 
0.01984260639435003 -0.0695879596855588 0.004109560297651382 -0.05023372633852444 
0.0004438468097905998 -2.023168713511579e-07 -0.001147439753910617 -1.057349960326342e-07 
-0.001421830270182657 -3.03475307026737e-07 -0.0004039035068985337 -1.586024940489515e-07 
-3.571918427729637e-06 -1.011584356755789e-07 -0.000295683531924096 -5.286749801631712e-08 
0.004164545501661563 -0.0009192019819999909 -6.548420631624658e-05 3.972542872695295e-07 
0.002014021413461859 -0.002658816765304578 0.002687879133497586 -0.0021415994893346 
-0.0002244214288315488 -4.342732810070328e-07 0.0001126490828461149 1.910041622822422e-07 
0.0002568403039401636 -3.090950011882532e-05 -0.0001723114039320374 -1.644706587889498e-05 
7.2148154015874e-06 -1.011584356755789e-07 -2.378755439330349e-07 -5.286749801631712e-08 
0.004476676346648343 -1.896949743763527e-06 -0.003876587653655614 9.886297250568286e-08 
0.02196709962323273 -0.0156325041894057 -0.007548778621454256 -0.002189022679970547 
-0.001821637156568629 0.004101641892889019 -0.0005738221367163285 1.569281206861785e-07 
0.0004457073596336457 -6.627435563106212e-05 -0.0002561522117776259 -3.033540615412116e-05 
0.002408832142075456 5.14051768620906e-08 -0.001735790619814591 5.736622707111451e-07 
0.0005920768480974075 -6.73674147009098e-05 -0.0003455387277836607 -0.001644077156135648 
-0.0002729028192807832 0.001513151154933943 -0.0001548414404987836 -2.583579583287156e-06 
2.824459957246377e-07 -2.023168713511579e-07 -1.321997444526811e-06 -1.057349960326342e-07 
-0.01115452809677723 1.718958499354545e-05 0.009703682750609061 -0.0003782316637095984 
0.01119054867342584 -0.002024750301711165 -0.006080727235130512 4.921677348172046e-06 
-0.01989869381214804 -0.005283784287579779 0.01803461075645899 -0.004437863497521078 
-0.003726886108660116 -0.004957674065377096 0.007122432244089901 -0.00505985038959022 
-0.0005190332261039862 0.0008579364594750468 -8.514150778014927e-05 -0.0003507306957585166 
3.046199060007728e-05 -1.297058267794879e-05 -1.738352808147122e-05 2.341268811149177e-07 
0.007200193788181444 -0.0008528214294976998 -0.005955198223644746 1.922894414974585e-05 
2.734367031303491e-05 -1.011584356755789e-07 4.595456085077042e-05 -5.286749801631712e-08 
-0.003160553559477109 0.001048779273411809 0.0001558903654204714 1.390384809013718e-06 
0.01556676760867712 -0.01603343168635795 -0.005705733813479995 0.0003533008865810274 
5.065750372420606e-05 -2.023168713511579e-07 -3.021224889578331e-06 -1.057349960326342e-07 
3.076623988879296e-05 -1.011584356755789e-07 -0.001548587280413215 -5.286749801631712e-08 
5.575771339865715e-05 2.474464523508491e-07 -5.198210460134392e-05 7.126880506957303e-07 
0.01269444949061064 -0.00459102934260658 -0.005120585580828486 -0.000334899540392635 
0.06007275393299594 -0.01533487179634383 -0.03670431999436963 -0.0165356097364046 
-0.003715402120700436 -0.0001717414191627067 0.005251162418171242 -3.428160463174128e-06 
-6.218634146222844e-05 2.44673779598964e-05 0.0001103453877402478 -1.235710304344217e-06 
0.002179299190532701 -0.0002470693492855465 -3.325532449592518e-05 5.089637351793499e-07 
0.000609376656364005 4.989935527832041e-07 -4.250986351067304e-05 -5.286749801631712e-08 
0.001204156343750445 -0.001761353367481952 -0.0001452537766703486 -1.331397089840923e-06 
-0.002091299314958248 -7.820900909000991e-08 0.004249540969041603 4.738117418796805e-07 
0.01886174112695255 -0.01021397361765653 -0.0005844262047194617 -0.004324263264848503 
0.001233649181357883 -1.011584356755789e-07 -2.378755439330349e-07 -5.286749801631712e-08 
0.002425239001222565 -5.623835341024917e-05 -0.0002149548945230139 -6.410722971942266e-08 
-0.003820229623613546 0.001737333632605486 0.0127053686033991 -0.001691383213390547 
-0.01987134578481678 0.00586299439318486 0.01339264808557874 -4.252627379991916e-06 
-0.001814728537214529 8.221922412446801e-08 0.002580894980860368 6.554535266319446e-07 
5.229015697081335e-05 9.370420186314254e-08 -3.675717495645977e-05 5.829385293856231e-07 
0.0002645833743086372 2.330803344020223e-05 -0.0004010109752575465 3.672409806289171e-07 
-3.571918427729637e-06 -1.011584356755789e-07 -0.000295683531924096 -5.286749801631712e-08 
-0.004959408885286071 0.005052057200724464 -0.003938194835902519 -0.0006830046678576838 
9.189807695577052e-06 -1.011584356755789e-07 -2.831250574305153e-07 -5.286749801631712e-08 
0.00173889125469109 -6.851056262014271e-05 -0.0007876783258372322 -5.286749801631712e-08 
-0.0001328296735599029 1.001016471547437e-05 0.0001771183663671647 6.088014932638347e-07 
-0.0005403558409782982 -0.002441979461807557 0.005930878846049939 3.049537802620954e-07 
-0.0002478257938157592 3.172420067578883e-07 0.0003834312814910507 1.316488762053654e-06 
-0.00077740869249167 0.002736695691113592 -0.0006753181338567987 -5.286749801631712e-08 
0.006840877302027135 -0.0001134232621787119 -0.00510325809265245 -3.784604561124827e-05 
-0.00801720896772687 -8.45365091754198e-05 0.007681739331032529 -0.003103778966909646 
-0.003806055743736928 -3.341418926911319e-05 0.007280543814365103 -2.559003929552406e-06 
0.001070969984505646 6.492281554357375e-06 -0.0001238963714572086 -0.0001980620926938983 
-0.01798165859332989 -0.0001254678871204785 0.01915394187501125 -0.0002057202513071031 
-0.004512313149337244 -1.011584356755789e-07 0.006118273125213422 -5.286749801631712e-08 
0.005125957395452041 -0.00328513470203935 -0.0007950101662283436 -0.0002748531107676783 
8.611871766138148e-05 -1.011584356755789e-07 -4.91644101149794e-06 -5.286749801631712e-08 
5.76157330934909e-05 -1.30307840906192e-05 -1.56696464074231e-05 -8.828942336656297e-05 
-0.01044321584369537 0.004585947617584078 0.007200009396463104 -7.341302399142231e-06 
7.2148154015874e-06 -1.011584356755789e-07 -2.378755439330349e-07 -5.286749801631712e-08 
-0.004618524274918957 -6.069506140534739e-07 0.0006614889879273224 -4.992292553070516e-05 
0.009055857763528333 -0.001118197943947431 -0.005189398454957236 -0.00101835411642798 
0.0001630613160241706 -2.023168713511579e-07 -0.001171734168441037 -1.057349960326342e-07 
2.950434020546264e-05 -1.011584356755789e-07 0.0001407636974506708 -5.286749801631712e-08 
-0.005508040786647262 0.005243140508977112 0.005198175548485376 -1.881544287485839e-05 
-0.00458435638710932 -0.0003651123908900703 0.007854117832066011 3.746060935934014e-06 
-0.005889856924611235 0.005532897274501882 -0.003995922158471606 -1.150160369012061e-05 
-0.007447527003517368 0.01434051740924934 -0.005425011408917027 -0.0005736116415779709 
0.0008658533085097809 2.064629250088029e-06 -6.078877392857625e-05 4.25731631955579e-07 
-0.0005402640315016686 0.005135866595841981 0.001358144075884377 -3.844652617612338e-06 
-0.002769388288825339 -3.289945119155134e-05 0.003111797361920085 -1.657006335700959e-05 
-0.008839570633361217 -1.920486424813782e-05 0.005881286508033838 -2.527599138338613e-06 
5.00377020705974e-05 -1.011584356755789e-07 -9.113482123193206e-06 -5.286749801631712e-08 
1.761306893797697e-05 -1.011584356755789e-07 -2.873412220357352e-07 -5.286749801631712e-08 
-0.004264563006217545 -1.011584356755789e-07 0.004401976277434641 -5.286749801631712e-08 
0.005868801949313049 0.0006284264157012088 -0.001386983079340091 0.002950853912803687 
-0.002339819661748769 -6.668009403668834e-05 0.009478918991188643 -3.105534895858598e-05 
-6.602455920607095e-05 -0.000488352060357511 -2.894486240402728e-05 1.278343524011863e-06 
2.734367031303491e-05 -1.011584356755789e-07 4.595456085077042e-05 -5.286749801631712e-08 
0.004899813649667303 3.24890343486051e-05 -0.002420335655796958 1.21723436144475e-07 
0.001808868774056203 -1.512739973035089e-05 -0.001647112671532092 0.002537954813948834 
0.01233835190524848 -0.003231681462489446 -8.888256716168249e-05 -0.001199513200297549 
1.266209290746835e-05 -1.011584356755789e-07 -7.021102038995877e-07 -5.286749801631712e-08 
0.0001588535018883347 -1.773673187157629e-05 -0.0001194457622105203 -4.175285114173309e-06 
-0.0007626839127192225 0.000878629925225162 0.0003327595320262125 -0.0003651602016314487 
-0.008383359845972441 2.935693575684803e-05 0.007064093057798575 -5.969979052735683e-08 
-0.001961466692149298 -1.011584356755789e-07 0.00245144496820826 -5.286749801631712e-08 
-0.01321811139348955 0.00930243598045824 -0.00257784656951994 0.008636359043257829 
8.206472276115589e-05 -5.242946482250841e-06 -7.621654466033169e-05 1.952132650437923e-07 
-0.002655250788814945 -3.024811328855072e-05 0.003476083361750949 -4.382426229742092e-05 
0.0005694707478920965 -1.377916029793637e-05 -0.001069059097514323 1.516272148446538e-06 
0.01175173362252725 -0.0113507831486813 -0.003844389314591988 0.004491920833667559 
0.003572774712526167 9.61850824602909e-05 2.369724294453857e-05 -2.79438738914685e-06 
-0.01804925259734898 -4.046337427023158e-07 0.02447309250085369 -2.114699920652685e-07 
2.950434020546264e-05 -1.011584356755789e-07 0.0001407636974506708 -5.286749801631712e-08 
-0.005106849109197681 0.0103114822263147 -0.001324136176163586 -3.148711852102232e-07 
0.004372021219055908 0.0007156705770062252 -0.002170671103143534 1.10814640184476e-06 
0.001070969984505646 6.492281554357375e-06 -0.0001238963714572086 -0.0001980620926938983 
-0.002838395072645993 -5.057921783778944e-07 0.0003403565486701735 -2.643374900815856e-07 
-0.2422131131498373 0.2410033856488462 -0.08389505124924641 -0.03190726717892261 
0.000136845827615048 -0.003987365286278264 -6.670038050714086e-05 -4.031420773115689e-06 
0.001998012250149487 -2.023168713511579e-07 -0.002221965705951297 -1.057349960326342e-07 
-0.004999698153910233 -1.011584356755789e-07 -1.487528592688093e-06 0.004318377227269544 
2.950434020546264e-05 -1.011584356755789e-07 0.0001407636974506708 -5.286749801631712e-08 
-0.001757899904388337 -5.304054208524001e-05 0.00426130615197286 5.286856370148426e-07 
0.0002140219388004981 -1.011584356755789e-07 -2.378755439330349e-07 -1.987924586662819e-05 
0.0002355570641456373 -2.877632895703499e-05 1.537276694057786e-05 1.098242339909537e-06 
0.01776822399050964 -2.236803548259112e-05 -0.01672452311269395 3.36021736368578e-05 
0.07814114929677203 -0.03363542795682369 -0.06475284767750204 -0.0240793918364956 
0.0005858664591669526 -1.011584356755789e-07 -0.0002478455089718287 -5.286749801631712e-08 
0.008361878126375139 0.00516405619502622 -0.006237741825854522 -1.453900157105775e-06 
-0.004264563006217545 -1.011584356755789e-07 0.004401976277434641 -5.286749801631712e-08 
0.002153474166009486 -2.023168713511579e-07 -6.496991332169954e-05 -1.057349960326342e-07 
-0.002575865749695629 -0.004747223918288876 0.009435757505445397 -0.001692884079490952 
-0.0005073435613752627 -0.002197803431628802 0.005945351277251951 -3.342179817438361e-07 
-0.00466179653272921 0.005080968215858254 -1.616500211059634e-06 -6.511181179597279e-06 
0.01335955209589953 -0.000531548524629018 -0.01031288707873547 -0.001348585498319559 
0.0002405385104606695 -1.011584356755789e-07 -5.130654426389809e-06 -5.286749801631712e-08 
-0.003922933384298596 -2.023168713511579e-07 0.00490288993641652 -1.057349960326342e-07 
-0.003501995186727144 0.002537482648656423 -0.00815435472522527 0.001783759262447398 
-0.005406708467366302 0.009101237394218333 -0.009866457045022628 -0.003191005943187358 
0.001618396086070914 1.261884301623161e-07 -0.0009190098305375408 6.347234315473693e-07 
0.02693445839991751 -0.01736975164763115 -0.005477436998742031 -0.001289898316912593 
0.004822940865900975 -0.00276313984529411 -0.002818630938592155 -1.332346195153126e-05 
0.0004777875751954614 -0.0009159338450401109 -0.0001501205542297622 -9.827848249286017e-06 
-0.0001328296735599029 1.001016471547437e-05 0.0001771183663671647 6.088014932638347e-07 
0.0004521756817210932 -0.0001021654310815276 -0.0002954354118520119 -2.085259748093623e-05 
-3.571918427729637e-06 -1.011584356755789e-07 -0.000295683531924096 -5.286749801631712e-08 
-0.007495353659759159 -1.011584356755789e-07 -0.001956499539404131 0.007612709220381485 
-0.003398778502088016 -1.10437639947142e-06 0.005854703141798303 -6.6782076730932e-08 
-0.008940153016597705 -0.0002342815321868524 0.006957105413996248 -0.003560565916815834 
0.00493907336006872 -0.0009642952968353886 0.01450779724105292 -0.0004590353250875639 
-0.001031594246031865 -0.002450718298841378 0.003736975822162852 -0.002538789492768986 
0.009451526480301384 -0.0005239034114115868 -0.007457617060733546 -0.001368274269742008 
-0.01032589414178105 -3.568790949490896e-05 0.01107952870149246 -8.741774910798743e-06 
2.920117601000821e-05 4.026647154737479e-07 -2.580063005860572e-05 -5.286749801631712e-08 
0.009874195612304289 0.004440125730041506 -0.01567875377958128 -0.002069125365826372 
0.0001511323293089957 -2.246130170446741e-05 -6.503190549061037e-05 -1.077037386303936e-06 
-0.001789267843745602 -0.0004445031363959631 0.002338758819805347 -5.334911073159736e-07 
0.00883519078839636 -0.00592295262907271 -0.002186686520048589 -0.002286529483449865 
0.00015687047091244 2.811126055894288e-07 -0.0001102715248693793 1.74881558815687e-06 
-0.01365469530605044 -0.00611857442043764 0.0188814629647534 -0.003030174387371145 
0.003867987188586643 -3.717284265134442e-05 -0.003656154553150748 8.469647290351018e-06 
0.04632655299027542 0.003469419476495446 -0.04345289430020952 -0.001618504673189877 
-0.005120292971816309 0.006316269564052016 -0.006720687887750206 -0.002137984280084678 
0.01215541496870801 -0.00210259245462758 -0.002693292937159637 -0.001484698860221385 
-0.003918266458152704 -3.363132590961669e-05 0.007336868355788162 -2.463501848411282e-06 
-0.01272130601603004 -0.003899464519986263 0.01283109633741203 0.002400929710890895 
0.001938996936416049 -1.575594311023637e-05 -0.000307336220196083 -5.286749801631712e-08 
5.389091045532079e-05 6.618165216608464e-07 -5.360156518596954e-05 -5.286749801631712e-08 
0.000609376656364005 4.989935527832041e-07 -4.250986351067304e-05 -5.286749801631712e-08 
0.01344350959741659 -0.003989134270447865 -0.004932755231564696 -0.00061623444551338 
0.03003915552150918 -0.02026223740859482 -0.01839050305077451 -0.02089433663496888 
0.005824599038673559 -0.0008868410092037692 -0.001976429011534555 6.238301595894853e-07 
5.389091045532079e-05 6.618165216608464e-07 -5.360156518596954e-05 -5.286749801631712e-08 
-0.0001122107144157744 -2.171366405035164e-07 5.632454142305747e-05 9.550208114112108e-08 
-0.001464878787450145 3.342102411980542e-05 0.002811357167429019 -3.975019353189272e-08 
-0.007010231759947472 0.02485307265217115 -0.01740628830265132 -0.002591849711973111 
0.007029532550119985 -3.03475307026737e-07 -0.002163595558634508 -1.586024940489515e-07 
5.711290655744562e-05 4.214101526554161e-07 -0.000595156124034276 -5.286749801631712e-08 
-0.004394373182801578 -2.023168713511579e-07 0.004868307809976262 -1.057349960326342e-07 
0.0003341825316445393 -2.002284377160607e-05 -0.0001773639761817646 -1.979695967977473e-06 
0.01838492573587412 -0.01339328988290877 -0.01011130616645488 -0.004390590235345127 
-0.01033927137231262 0.00286110243281771 -0.0005228540299538283 0.006702091740168168 
-0.0004125860692972083 0.005117176797500731 -0.001134438055797191 -2.037948897786736e-06 
0.007241339177060891 -0.0001126790236918494 -0.001151726371606289 -2.339494554714798e-07 
0.001970125453573465 -1.011584356755789e-07 -0.001021817403260942 -5.286749801631712e-08 
0.007100742536258499 -0.0001493191105525366 -0.00218803320375588 -5.545158940797773e-06 
0.01532333742607227 -0.006582858185440488 0.005376274011187737 -0.008101343147261872 
0.002371349099276686 -0.003903091298699081 -5.320402768458597e-05 -2.533828455843398e-06 
-0.001462900112520937 -1.011584356755789e-07 0.0002210742784041556 -5.286749801631712e-08 
0.003495422168334246 -0.0001491021427170271 -0.002301232855224574 9.665478990469781e-07 
-0.01709469206592562 0.005465029051917428 0.003776753116092873 -3.689150487428377e-06 
-0.001628899761315895 -4.987083045799198e-07 0.001567192390168984 1.242118400817072e-07 
-0.007467462466522855 0.003051181512755731 -3.779074488434769e-05 5.556234073535563e-06 
-0.0001919046528354084 -6.350957779511718e-05 0.0014841668325108 -0.0006745311868170222 
3.56797869319445e-05 5.299544220147296e-07 -0.001686020633326605 -5.286749801631712e-08 
4.478981473548666e-05 -8.843206940971732e-06 3.008144705214098e-05 4.25731631955579e-07 
0.004078492836052786 -0.0004311346003865607 -0.00196834196794191 3.498703183505641e-07 
-0.0001509743818304589 0.0008846584762436564 -0.006206595425936184 -6.710377920614972e-06 
0.006407098972066052 -0.001412649674890474 -0.005404221330907644 -2.333959891512796e-05 
0.0002010364181358272 -2.83643816291396e-05 -0.000124914030957888 -2.278618990940568e-06 
0.05324518340868092 -0.005853961303846287 -0.03398793086150848 -0.009493984927626375 
0.007983469943440782 3.798464940579625e-06 -0.002439628142656325 -0.0001093491836055269 
-0.001464878787450145 3.342102411980542e-05 0.002811357167429019 -3.975019353189272e-08 
0.0006444239694420504 -0.005710733602007712 0.002850461436290143 -0.001109050351485012 
0.007203931192330396 -0.000505920541270266 -0.006021404252538211 -1.057121719219435e-05 
-0.0003902412954633792 -6.053524079507194e-06 0.000328912387704115 4.967504383696041e-06 
0.0002065303814382384 -7.081090497290518e-07 0.0009853458821546934 -3.700724861142203e-07 
0.001199650030630816 -0.0001807547448568405 0.00701736889233289 7.902698396349086e-08 
0.006285610659311107 -6.489061351137312e-05 -0.002630715722981697 4.191261666081627e-06 
0.00100903602381132 1.354372077473416e-05 -0.0007164020281971118 2.533641409361622e-08 
0.0006498723073674125 2.196521063610933e-05 0.001766209795472613 5.188045188993301e-07 
0.003632887944058811 -0.004692514491767196 -0.004765582097143402 -0.000531206529553577 
-0.002577012482985763 0.009987489062734257 -0.02998323352405385 -0.006496421826798444 
-0.001513114296382752 -9.94975536363001e-07 0.001642054382926061 -6.149873905730797e-08 
-0.002848681400875645 -0.0003718456718092707 0.006068928952727458 -0.01164669529963339 
0.0005161195095456715 -0.0001339864722509242 -0.001876846927506082 -0.0009915111682679454 
0.002343177516706661 -1.011584356755789e-07 -0.0007211985195448358 -5.286749801631712e-08 
-0.002095118627941353 3.742718801784487e-05 0.002517835642794147 -3.172049880979029e-07 
0.01461385624677974 -0.004367024643279879 -0.008331918806373267 -0.007357409385708067 
0.0003116930012451662 -2.023168713511579e-07 -0.002342992585794208 -1.057349960326342e-07 
0.002343177516706661 -1.011584356755789e-07 -0.0007211985195448358 -5.286749801631712e-08 
8.206472276115589e-05 -5.242946482250841e-06 -7.621654466033169e-05 1.952132650437923e-07 
-0.01254351099614381 -0.002690258512226519 0.0172790848752867 -0.0005740018876542444 
0.01874521661910176 -0.001316436343755467 -0.014909857345241 -0.00108309064423431 
0.0003817108245573643 -2.023168713511579e-07 0.001730246448663426 -1.057349960326342e-07 
0.03432321755590199 -0.006598805693035325 -0.01592539952619897 -0.007355170203015005 
9.189807695577052e-06 -1.011584356755789e-07 -2.831250574305153e-07 -5.286749801631712e-08 
0.0007797819100451637 2.911089340368406e-06 -0.0004450673339103475 3.220094433071329e-07 
-6.218634146222844e-05 2.44673779598964e-05 0.0001103453877402478 -1.235710304344217e-06 
0.001739480851924351 -4.046337427023158e-07 0.002450731341576462 -2.114699920652685e-07 
0.0001415525558599448 -1.223963848012059e-05 -0.000917591844295633 4.140385140527853e-07 
0.00253663417825693 -2.536976256900354e-07 -0.004288706177035658 1.075475618871063e-05 
0.001834156439511994 -0.0006211218054122943 -9.630418131836601e-05 -0.0005548927123863419 
0.004352524622996048 -4.046337427023158e-07 -0.002171986952670464 -2.114699920652685e-07 
-0.007599450203244072 -0.004136232149138222 0.009190146329086976 -0.0004201168927933332 
-0.005149922185133553 -9.004176209036454e-06 0.002849638571430716 6.992422523002676e-07 
-0.007139737362356157 0.003492391120811925 -2.009372345417953e-05 -8.616415706207456e-08 
-0.006485820124287898 0.04833372094781809 -0.033871690196495 -0.009667646286611485 
0.002998550315848487 -0.002828743821473688 -0.005078429725688383 0.00667463892440982 
-0.004874557046519212 -6.130159919686458e-06 0.0077640914675335 5.49718530599311e-07 
-8.797005206755113e-05 -1.011584356755789e-07 -2.378755439330349e-07 -5.286749801631712e-08 
9.189807695577052e-06 -1.011584356755789e-07 -2.831250574305153e-07 -5.286749801631712e-08 
-0.000686607007588827 -1.011584356755789e-07 0.002426666887371076 -5.286749801631712e-08 
4.949827471594278e-05 -2.132466760393892e-07 -3.368349716843906e-05 3.365245079683079e-07 
5.00377020705974e-05 -1.011584356755789e-07 -9.113482123193206e-06 -5.286749801631712e-08 
0.00396821785181566 -0.003081311175111621 0.001050602268404231 -7.880639311151282e-06 
0.004292246607703844 -3.577645811857901e-05 -0.004799826290586431 -0.001059610206294154 
0.0004327510717353316 -2.520701301646462e-07 0.0004197329409256419 4.15059776662193e-07 
-0.003160553559477109 0.001048779273411809 0.0001558903654204714 1.390384809013718e-06 
0.002007876156902145 -0.001584754021531464 -6.888655562944277e-06 3.331757736804355e-06 
-0.004000239839637945 -0.00146639636743626 0.006259453761687009 3.658960721638965e-06 
-0.01242764706090027 -1.725173906747909e-05 -0.005738405142350611 0.0159384261902898 
-0.001513114296382752 -9.94975536363001e-07 0.001642054382926061 -6.149873905730797e-08 
0.00315004525713736 1.982146454186366e-05 -0.001986392267257116 4.496590142420617e-07 
0.002233278445601625 0.00240365445798387 -0.001264679884590483 -3.893594710181291e-06 
-0.004264563006217545 -1.011584356755789e-07 0.004401976277434641 -5.286749801631712e-08 
0.001042802818404824 -5.547590079773066e-06 -0.00273144141081477 2.979038897407894e-08 
-0.001513114296382752 -9.94975536363001e-07 0.001642054382926061 -6.149873905730797e-08 
2.950434020546264e-05 -1.011584356755789e-07 0.0001407636974506708 -5.286749801631712e-08 
-0.01010631300239171 0.03557704398447669 -0.008779135740138383 -6.872774742121236e-07 
-0.0381992045043976 0.00917617058746286 0.03370686556444212 -0.00373917786623164 
4.331197020429354e-05 -4.837395618112121e-07 -4.062472261208406e-05 1.613372146971712e-07 
0.0002463027298604362 -0.000105294953227216 -0.001688492907057932 -0.001218221882735288 
-0.01785556030084743 -0.003472831512742594 0.0145597107495275 -6.054682072633735e-06 
0.002771781473563104 -0.0008863992759488684 -0.0006968836597301564 -1.334328517319007e-06 
0.01460992332739919 -0.003485386247401374 -0.01009197879998814 0.001200782422031604 
-0.0001364514096403916 0.0007565755774669716 -7.74207202493918e-05 -1.291789791643578e-06 
-0.0002631589995371684 2.268788352515826e-05 0.0002310183283086157 -6.1158749671078e-07 
0.02399913218675493 -4.76105774059482e-05 -0.01132631508505462 -0.0007457476020580054 
0.002538796270782495 -0.0001518418158515074 -0.001819377931721935 1.55257396748985e-06 
0.0004032921130777383 -1.011584356755789e-07 -0.0004131122680598935 -5.286749801631712e-08 
-0.007194260643425082 0.01098295713499161 -0.002297846759265607 -4.316319426906776e-05 
-4.842532772567522e-05 -9.536280872081803e-06 0.0004618690600767532 -2.228580576291743e-06 
0.00490226937409328 -1.595825998158753e-05 -0.0003083994437529857 -1.586024940489515e-07 
0.0001415525558599448 -1.223963848012059e-05 -0.000917591844295633 4.140385140527853e-07 
-0.007196501720661032 0.005072919557435571 0.002516246244938822 -8.159373392960143e-06 
0.004785584050258878 -7.498715309213243e-05 -0.005342880343283068 -1.051834969417805e-05 
0.005665584043441951 -5.6122367537442e-05 -0.009088633583512435 0.003468500256751561 
4.198764428953334e-05 -8.742048505296158e-06 3.031932259607401e-05 4.785991299718965e-07 
-0.007436352064518155 1.145972332903031e-05 0.006469121833739376 -0.0002521544424730656 
0.0006683650632890786 -4.004568754321215e-05 -0.0003547279523635292 -3.959391935954946e-06 
8.916348811905845e-06 -1.011584356755789e-07 -2.378755439330349e-07 -5.286749801631712e-08 
-0.004264563006217545 -1.011584356755789e-07 0.004401976277434641 -5.286749801631712e-08 
0.01309651221236155 -0.004502660064037402 -0.01161970917765484 -0.002251848343844359 
-0.004264563006217545 -1.011584356755789e-07 0.004401976277434641 -5.286749801631712e-08 
0.0002140219388004981 -1.011584356755789e-07 -2.378755439330349e-07 -1.987924586662819e-05 
0.00937333729851853 -3.769003550670862e-05 -0.01060470570742779 -0.00160299934954924 
0.00257027001796445 -1.789851013263008e-05 -0.004357737616308878 -4.44695287092059e-06 
-0.01519602235387822 0.01781047925795657 -0.01748986196922361 0.01180980191822932 
2.754378048124334e-05 -1.011584356755789e-07 -1.9107876376025e-06 -5.286749801631712e-08 
-0.005751248808372909 0.003823641072336277 0.004179256823763424 -2.135178168555696e-06 
0.006980732007019244 8.518172670291775e-07 -0.01129072325043874 4.454830345431989e-06 
-0.01074115488028866 0.00497771728453511 -0.000553519859413082 -5.601128376202747e-05 
-0.009349786700862138 -0.003306857724080931 0.01038972609068779 -0.003098847729841366 
-0.006813926117943326 -0.008314985050978165 0.01599629107196615 -0.0003007719273660425 
0.0002140219388004981 -1.011584356755789e-07 -2.378755439330349e-07 -1.987924586662819e-05 
0.009799627299334606 6.497806869721021e-05 -0.004840671311593915 2.434468722889499e-07 
-0.004572404740273016 -1.140959401373708e-07 0.003599079961061237 4.658631075380154e-07 
0.01824775506374172 -0.009250725459383982 -0.01949118980152128 -0.003826790253596066 
-0.002910331407483401 -5.008646408073523e-05 0.001926477603199244 -2.1914386904018e-05 
-0.003805672900668993 -0.001008581130803709 0.006374128616026532 -0.0005587289383933546 
0.001369847893961648 5.84712199496269e-07 -0.0004910379737263636 -5.286749801631712e-08 
0.003319400870548499 3.793298019622273e-05 -0.002020314293731825 -5.286749801631712e-08 
0.007722367985412332 -0.0006069914289447209 -0.002084814682253287 -3.212496882824885e-07 
0.01058070448500435 -0.0005252223983956482 -0.005482607640256697 -0.00134839502387538 
0.003472259478167637 -1.011584356755789e-07 -0.0001304993769497754 -5.286749801631712e-08 
2.802170445953245e-06 -1.011584356755789e-07 -2.378755439330349e-07 -5.286749801631712e-08 
-2.20849195261953e-05 -2.023168713511579e-07 -4.757510878660699e-07 -1.057349960326342e-07 
0.001070969984505646 6.492281554357375e-06 -0.0001238963714572086 -0.0001980620926938983 
0.01187783606396136 -0.0039316422790547 -0.01202270758643037 -0.001237401690736547 
0.006456865245312849 -0.004846697297803304 -0.001741502708523856 -1.00872746016768e-05 
0.002471872848031208 -1.79661390484634e-05 -0.004292104240339331 -5.051514571584354e-06 
0.0004907895339502994 -1.011584356755789e-07 -0.0005756242050429059 -5.286749801631712e-08 
0.001250126735415288 -0.0004557393103045833 -0.0009997246527782134 2.66715849291445e-06 
-0.0008492764700859393 -2.023168713511579e-07 0.00309422903434684 -2.525379456102994e-07 
0.002775169450484629 -0.001830936639395715 0.005733501573828585 -0.0005902992333033696 
0.001678497568329288 2.151219707509277e-05 -0.001730803473462517 -1.586024940489515e-07 
0.03134855561838728 0.007084566218643505 -0.03463357791684297 -0.002679349051977422 
0.01257468051267982 -0.002025256093889542 -0.007525673299956515 4.657339858090459e-06 
-0.001961466692149298 -1.011584356755789e-07 0.00245144496820826 -5.286749801631712e-08 
0.006216725646949259 -0.00371683771827515 -0.01580650348373138 -0.004403270843319868 
-0.006785602799362004 -4.744285067631724e-06 0.004296819502381428 -2.412206148168603e-07 
0.01392349165458092 -0.002482323966075922 -0.00674176652156595 -0.00295499068415392 
0.000136845827615048 -0.003987365286278264 -6.670038050714086e-05 -4.031420773115689e-06 
-0.007221138844441031 1.761062949714559e-05 0.007133716635670179 -5.343937713039491e-07 
0.001143287147066018 0.01623533300995756 -0.008780963712446485 -1.587244630614484e-05 
-0.003607339277048337 -1.107758150554641e-07 0.003542948916223366 4.398911841984967e-07 
3.783517802883016e-05 -1.011584356755789e-07 -1.304593623971529e-06 -5.286749801631712e-08 
0.008035568438855752 -5.600876713656485e-05 -0.004822203931175443 -0.0003130439464779535 
0.0008062044570768071 6.331163488894749e-07 -0.001680842571512058 -5.286749801631712e-08 
0.007063728883374836 -0.003041695306895869 -0.00315281277100207 -1.406367574341322e-06 
-0.004164486154895395 -8.165745343192949e-06 0.002915163150520759 -7.217722228092145e-07 
0.008736745397478896 -0.001787149730224454 -0.00515631232902011 -0.001336814341962547 
0.0007797819100451637 2.911089340368406e-06 -0.0004450673339103475 3.220094433071329e-07 
0.001031363648253458 -2.159474843983134e-06 -0.0001058720153824303 -3.002929485236164e-07 
0.01046945612612319 -0.001890383867211306 -0.006223621760514239 -6.527925974130043e-06 
0.009715274449173202 -0.006830568429468538 -0.004720807326330966 -1.711443685751683e-05 
3.736493026624157e-05 5.350652083151215e-07 -0.0008905977963977984 -5.286749801631712e-08 
4.147847436489747e-05 -4.556454397727749e-08 -0.0001239762792186991 4.938677521170432e-07 
0.04513831359886384 -0.01516839041299708 -0.02113331892196688 -0.008866736747077884 
0.002368840639365635 -0.004220085862763586 0.004269208401887601 -0.001569218019080916 
0.0001191724564935584 -3.264656363293031e-05 -6.212500464489312e-05 2.484888400566161e-06 
0.0003333994105699116 -5.296233307614999e-05 1.176518293125869e-05 5.487389513516192e-08 
0.00993434637549586 -0.003174927758932996 -0.008430827541728419 -0.001432548274335576 
0.02456783459169564 0.002347278681707799 -0.02540344893272407 -0.001318775967724116 
0.006183001233424603 0.004450104701239747 -0.003520731781899204 0.01001465125896189 
0.0009247783278681671 0.01515949354039397 -0.01676151895033846 0.002383831378014358 
-0.06854736061401268 0.002301685457434797 0.07443068955726097 -0.004596822432189128 
0.01713353977864449 -0.005813955738410442 -0.01472688721778292 -0.003141506936282748 
0.008035568438855752 -5.600876713656485e-05 -0.004822203931175443 -0.0003130439464779535 
0.0003523047287195011 -0.004234686812442425 0.004216378744455103 3.141894793310303e-06 
-0.001961466692149298 -1.011584356755789e-07 0.00245144496820826 -5.286749801631712e-08 
-0.004147382072319275 7.383882525673752e-05 0.006344779011745547 -5.463546506677331e-05 
-0.002880366568146001 -6.111220708135346e-06 0.003842372697356102 -5.286749801631712e-08 
-0.01453653344090751 0.009016242515762782 -0.0002881210781258059 -2.0232001553697e-06 
-0.0002749428812617588 -9.502748313092984e-06 1.627293795139568e-05 -3.267236430000542e-06 
-0.001462900112520937 -1.011584356755789e-07 0.0002210742784041556 -5.286749801631712e-08 
-0.0007737624368470355 0.002422796043286219 -0.001065372353542224 -6.159435349591285e-07 
3.984897951881596e-05 -3.03475307026737e-07 -0.0006579766872039212 -1.586024940489515e-07 
0.002425239001222565 -5.623835341024917e-05 -0.0002149548945230139 -6.410722971942266e-08 
0.0001415525558599448 -1.223963848012059e-05 -0.000917591844295633 4.140385140527853e-07 
5.358250379239374e-05 -1.234079691579616e-05 -0.0009178297198395659 3.611710160364682e-07 
-0.005230885381270999 -5.255932873422223e-05 0.006674568509306862 2.846787486642989e-07 
-0.003577834936842875 -2.119342507310429e-07 0.003683712613674037 3.870236861821799e-07 
-3.571918427729637e-06 -1.011584356755789e-07 -0.000295683531924096 -5.286749801631712e-08 
-0.0001997842826936416 0.003742880588753261 -0.001561460118991763 -5.286749801631712e-08 
-5.813017069295908e-05 -1.011584356755789e-07 -0.0009351562573895144 -5.286749801631712e-08 
-0.0004051533051006083 -0.002019785839582057 -0.001558238127947136 0.005898766934435522 
0.0002405385104606695 -1.011584356755789e-07 -5.130654426389809e-06 -5.286749801631712e-08 
-0.008489011132822665 -0.007273473668641908 0.01759462076860187 -6.853527175307105e-05 
-0.003398778502088016 -1.10437639947142e-06 0.005854703141798303 -6.6782076730932e-08 
-0.01557701289492827 2.621670783403071e-05 0.0005059339749039432 0.02062548151386803 
0.009726064121790973 0.003446881638841509 -0.01193657265960904 -0.0003382524690897657 
0.0007698146053108459 -0.0003121540782101786 -5.518648363924647e-05 -5.286749801631712e-08 
5.00377020705974e-05 -1.011584356755789e-07 -9.113482123193206e-06 -5.286749801631712e-08 
0.00135206873332086 1.504630862715528e-07 -0.0001063571608292473 6.454561803065775e-07 
-0.00509794869999441 0.005052541260473604 -0.003639677176807693 -0.0006831626344023304 
0.008605700110342262 -0.001746222046153954 -0.001589102104568147 -2.412588507673697e-05 
-0.002423716682956702 -2.023168713511579e-07 0.002416579716710572 -1.057349960326342e-07 
-0.006273897944874748 -2.346270272700295e-07 0.01274862290712481 1.421435225639041e-06 
5.229015697081335e-05 9.370420186314254e-08 -3.675717495645977e-05 5.829385293856231e-07 
0.001219331949403358 1.159885385491276e-05 -0.001968543539799433 2.049121358004909e-06 
0.0009523241699563997 -0.0004203290272941006 -0.0006445104711543707 0.002946377935239336 
-0.0001919046528354084 -6.350957779511718e-05 0.0014841668325108 -0.0006745311868170222 
0.02040131275506822 -0.04113813822902446 -0.01071045706947396 -0.006449743133389992 
0.00010598756975172 -3.03475307026737e-07 0.0004822364635085823 -1.586024940489515e-07 
0.001204156343750445 -0.001761353367481952 -0.0001452537766703486 -1.331397089840923e-06 
0.03839033399943728 -0.007866940281604966 -0.05102356868147672 -0.01920389186920481 
0.0008419324859522114 0.002613193101980454 -0.004710618262681321 -3.955745938756736e-05 
0.002055243454201433 -9.967335580784957e-06 -0.002238008696942742 -0.001109836372153006 
0.002101290527588817 1.902261389401432e-05 -0.002494757314350672 -9.485025841599646e-08 
0.0004628333868731276 2.030579145982228e-06 -0.0004252771713207817 4.483505606141442e-07 
0.0002461941682834679 -1.572883944675254e-05 -0.0002286496339809954 5.856397951313771e-07 
-0.02089697489044414 0.01573105384260191 -0.001726716110979879 -0.001356446955155501 
-0.01377204229563125 -0.01066991309418133 0.02462897155656792 -0.001147007540895553 
-0.000686607007588827 -1.011584356755789e-07 0.002426666887371076 -5.286749801631712e-08 
-0.004272429422905048 0.0008586080751694459 0.0005654294185129824 -0.0003504672409163282 
-0.007863064611962586 0.006936302640534308 -0.001069874262908436 -2.771786427454294e-05 
-0.01233063347602391 -0.001541008628634057 0.00734981230261072 0.003387802171706202 
2.920117601000821e-05 4.026647154737479e-07 -2.580063005860572e-05 -5.286749801631712e-08 
0.008141674588768757 -0.003722708357630741 -0.01084813667163203 -0.007025104152788042 
0.0008065842261554767 -2.023168713511579e-07 -0.000826224536119787 -1.057349960326342e-07 
3.251611669682923e-05 -1.011584356755789e-07 -0.000731928503437039 -5.286749801631712e-08 
-0.01686622220035671 -0.005544952780088565 0.01689491524812061 0.01419101948867438 
-0.003523537817693252 -1.011584356755789e-07 0.0001253594101693553 0.002946536537733385 
-0.007245978808113325 -2.960049308536707e-05 0.01131539208631412 -0.0006248495477124994 
-0.001462900112520937 -1.011584356755789e-07 0.0002210742784041556 -5.286749801631712e-08 
-0.008923621062068642 0.001616173443442571 0.006202216569407079 -2.162172012510464e-05 
0.0001385398147083371 -4.840597491414028e-07 -0.0002985176590948275 1.579665446467961e-07 
0.00112306097734981 2.422132650936954e-05 -0.000161887098075825 -1.609805184966165e-05 
0.007705793930800313 -0.005234053747887632 -0.003647203916371385 -0.0003667423715197348 
6.032951565324566e-05 -2.023168713511579e-07 4.170392960174692e-05 -1.057349960326342e-07 
-0.007386486257445877 -0.0003779360042853831 0.006948299735692315 -1.273993238143254e-05 
3.909899102710757e-05 1.104662923907297e-09 -2.840365348196254e-05 5.084728123995158e-07 
0.005643519298540272 0.007649664074827472 0.000110340176089152 -8.794387363524079e-06 
-0.001961466692149298 -1.011584356755789e-07 0.00245144496820826 -5.286749801631712e-08 
0.0004974532054110767 -4.676329863388446e-05 -0.001000393101307991 2.686302151652538e-06 
-0.008503173381808128 0.00686957999327271 0.01184828024273304 7.331588734116929e-06 
-0.01602970830591726 -0.0001291969542073976 0.01916016956763433 -8.85387661328647e-06 
0.001968360934707622 2.224411761377444e-05 7.034138521811413e-05 -4.902700956991305e-05 
0.0004907895339502994 -1.011584356755789e-07 -0.0005756242050429059 -5.286749801631712e-08 
-0.0002665084445245835 0.0001153509611545391 -3.591876262862546e-05 -6.689826842739884e-07 
0.004494405823387263 -5.212551711224443e-06 -0.002635412690270638 -1.706357847013609e-06 
-0.006623687027690324 -0.004021303006245484 0.00579535899400304 -6.658252082983585e-06 
0.002104216547269587 -3.03475307026737e-07 -0.0007216927354072984 -1.586024940489515e-07 
-0.01025678481238681 0.00450779078374794 -7.745365009874736e-05 -1.247197350231672e-06 
0.0106284123209095 -0.006436055066954899 -0.009173877388450512 -0.001499491101951366 
0.0001191724564935584 -3.264656363293031e-05 -6.212500464489312e-05 2.484888400566161e-06 
-0.009407543606349681 -3.285427102764282e-05 0.007723441777307327 -1.068192041592677e-05 
-0.001003058844127404 2.338717779679564e-07 0.005692942599693176 -7.033485436398976e-08 
0.0004045389554498478 4.050462035579898e-05 0.0005000556892252378 2.291292907625111e-06 
-0.006213407496770794 -5.085336347400705e-05 0.01139064729643311 -0.001085815127200174 
0.009695405895303259 -0.002700397348856649 -0.01316082395445248 0.01210588205312898 
-0.01328372271690645 0.003468359364795199 0.009144307367732531 0.00587379382050259 
0.01504144470257002 -0.003399299067644358 -0.01303871550240395 -0.002700107262086002 
0.001070969984505646 6.492281554357375e-06 -0.0001238963714572086 -0.0001980620926938983 
-3.301227960303548e-05 -0.0002441760301787555 -1.447243120201364e-05 6.391717620059316e-07 
-0.001981140398760869 -0.0002760644888123152 -0.007750282542329489 0.01182027680328085 
4.331197020429354e-05 -4.837395618112121e-07 -4.062472261208406e-05 1.613372146971712e-07 
0.007417142381893928 -0.003945247950931021 -0.001366261957701737 -4.880301126476362e-05 
0.01595207790703179 -0.000555542827319054 -0.01013919522564105 -0.002408136303960713 
0.001970125453573465 -1.011584356755789e-07 -0.001021817403260942 -5.286749801631712e-08 
-0.004999698153910233 -1.011584356755789e-07 -1.487528592688093e-06 0.004318377227269544 
-0.01889248708691002 0.0004772371621640688 0.02280774427276694 -1.852358989438927e-05 
3.783517802883016e-05 -1.011584356755789e-07 -1.304593623971529e-06 -5.286749801631712e-08 
0.001937126654129907 0.00346582993375086 -0.005776288724029422 2.244717534724759e-06 
-0.003118670007036866 -6.359337548150168e-05 0.01089493826874414 -0.0005389501954344753 
0.002105790508100386 -1.011584356755789e-07 -6.435185030627452e-05 -5.286749801631712e-08 
-0.002601924159607968 6.445368712264293e-07 0.003217205781212048 -5.286749801631712e-08 
0.007877985593396801 -0.000325551549628584 -0.005711449088657128 8.254774064778107e-06 
0.006417717363892264 -0.0020121313146588 -0.008038040891972053 0.01093090640660905 
-0.02336784922185745 0.01220459952491392 0.01614321987467317 -0.00334257726908462 
0.00767544301612424 -0.06465639934652211 0.04452280529922954 -0.03214202955356326 
-0.01187272861707672 -0.0001957333352240252 0.01924616095123288 -0.003053025923159745 
-4.168389266384644e-05 6.814954021863695e-07 -2.612780526322477e-05 -5.286749801631712e-08 
-0.003922933384298596 -2.023168713511579e-07 0.00490288993641652 -1.057349960326342e-07 
0.001203939180901727 -0.0004319263775112624 -0.0002687437864328311 -7.452327595665918e-07 
0.003539422913013466 -0.004427956510678036 -0.005309399347460013 -0.0004540274585224583 
-3.571918427729637e-06 -1.011584356755789e-07 -0.000295683531924096 -5.286749801631712e-08 
0.004686355033413322 -2.023168713511579e-07 -0.001442397039089672 -1.057349960326342e-07 
-6.062638175451628e-05 -2.023168713511579e-07 4.571668530683738e-05 -1.057349960326342e-07 
0.004778448256390529 -6.37386321959904e-05 -0.001396389327962332 -1.037833332122498e-05 
0.005001103258348812 -0.0003541381268474453 -0.000789919790168576 -0.0002018013038825151 
0.001162418480729172 -2.432761391082204e-07 -0.0004170525686195105 2.624741371795218e-07 
-0.003495876143957024 -0.0002056253014276662 0.01226952040913891 -0.0002089128317433422 
0.0101018425660103 -0.004184674035994903 -0.003133484049146585 -0.00158289660506153 
0.004740194008642197 0.0007680676904603224 0.001474268502857795 -0.0008504099494985873 
-0.00966441031737574 -0.0003200113805924942 0.01014492038659104 -0.003360155082172466 
-0.001513114296382752 -9.94975536363001e-07 0.001642054382926061 -6.149873905730797e-08 
0.0001837624552134323 -0.001438167278874243 -0.0007347812185075047 -0.00181879938073902 
-0.003806055743736928 -3.341418926911319e-05 0.007280543814365103 -2.559003929552406e-06 
-0.001346709821461347 0.002815823393183189 -0.0006647325582840513 -0.0002708033080501844 
0.000172237435322763 -2.023168713511579e-07 -9.83288202299588e-06 -1.057349960326342e-07 
-0.002432906490652281 -1.011584356755789e-07 0.002416862841768001 -5.286749801631712e-08 
0.0002560712385151427 -0.001965225493523282 -0.002130321223242622 -0.0001026752580432882 
-0.002986965572669131 -1.011584356755789e-07 0.003959983199792854 1.176078009694296e-05 
-0.005779173438900158 -2.6185161181816e-05 0.006661041610562489 -5.47453848079821e-06 
0.012636656444999 -6.018361592257523e-05 -0.000245509859146289 -0.001818173016453994 
-0.003991167368651559 -4.291518831619429e-05 0.006280366028382192 -2.305836024122245e-06 
-0.002091299314958248 -7.820900909000991e-08 0.004249540969041603 4.738117418796805e-07 
0.01264755088625906 -0.003229643457606335 -0.004108639676484512 -0.00118878456984224 
-0.02232132328357927 -3.0018580964995e-05 0.0211719658731186 -3.979172114441039e-05 
0.0005679242772593604 -0.0004268764410235263 -0.001079129094002466 -2.98078669893449e-05 
-8.592566499137028e-05 -2.523020682276135e-05 -5.491326276196165e-06 -1.057349960326342e-07 
-0.01638837845695364 0.009015837882020079 0.004776782566505647 -2.23467014743497e-06 
0.002262577904357443 -0.0002059018390083599 -0.001872545045959993 -0.01174164329928943 
-0.0003900955110689139 -8.363150767702048e-07 0.0001397212002636625 -4.727626775337262e-08 
0.005345358072621054 -2.099266615114685e-06 -0.005164697332318324 -6.872023526951845e-09 
4.438902131804847e-05 6.557993945394876e-07 -3.854898061694675e-05 -5.286749801631712e-08 
0.0009955095465279823 -0.002638510167583078 0.002489428631144715 -5.056839870679162e-06 
0.002018072047622641 2.708744154946831e-05 -0.001432804056394224 5.067282818723244e-08 
0.01115008020888745 -0.01027739166502051 -0.002880040272213664 -5.347181672241006e-05 
0.009542190425105684 -0.001412656473516069 -0.008062630031787662 -2.365680390322586e-05 
0.0008238656642202476 1.080667775538419e-05 -9.110809652465033e-05 -5.286749801631712e-08 
-0.0003995685653872831 0.007485761177506522 -0.003122920237983527 -1.057349960326342e-07 
0.006074846948262458 -0.003330073059603006 -0.001993763103754355 -1.8611400809187e-05 
-0.004999698153910233 -1.011584356755789e-07 -1.487528592688093e-06 0.004318377227269544 
4.147847436489747e-05 -4.556454397727749e-08 -0.0001239762792186991 4.938677521170432e-07 
0.01664696815803724 0.003925702045765356 -0.0227861860778746 0.01107706645747612 
4.203041018455011e-05 3.726670650701003e-07 -1.215347518779564e-05 -5.286749801631712e-08 
0.003234901349480618 -0.002617831240270891 0.003179510371229794 0.00461462591959168 
-0.0002821576966633463 -9.401589877417396e-06 1.651081349532874e-05 -3.214368931984224e-06 
0.003021377095233885 -0.001594408657022507 -0.002956381087244236 -0.0003076499088884131 
-0.004512313149337244 -1.011584356755789e-07 0.006118273125213422 -5.286749801631712e-08 
0.001951019433775212 -1.011584356755789e-07 -0.002155356082595567 -5.286749801631712e-08 
0.0001850584645965225 -0.002808917450219941 -8.241078635397605e-05 4.70815850837797e-07 
0.02053871606167353 -0.014292512550285 -0.0008147483165763102 -0.001758820246306767 
0.000813216737213076 -0.000132550920587972 -0.0004554971165913269 -6.168775793304134e-05 
-0.004783951661736011 0.009857998182461466 -0.01312623199039964 -0.001337872167539252 
-0.02769361125111265 0.02758781548847414 -0.003982574855208373 -0.001422191255531776 
-0.0001890675862927986 0.005166325563998399 -0.0009256510048227982 -8.912201055852686e-07 
-0.01155338907484486 3.473319874335784e-06 0.006530228437674692 0.004299891354458095 
4.949827471594278e-05 -2.132466760393892e-07 -3.368349716843906e-05 3.365245079683079e-07 
3.783517802883016e-05 -1.011584356755789e-07 -1.304593623971529e-06 -5.286749801631712e-08 
-0.004348518298200499 0.005694895140615872 -0.0001723865849430439 3.607351921638622e-06 
0.0001816074159802824 -2.023168713511579e-07 5.006251972254724e-05 -1.057349960326342e-07 
-0.002408094369497664 -0.002440905490733767 0.004536770561625649 -2.991901063287921e-05 
0.002403804504697026 9.756467089784324e-06 -0.004111587810668493 1.136355768197445e-05 
0.001031363648253458 -2.159474843983134e-06 -0.0001058720153824303 -3.002929485236164e-07 
-6.166681758947287e-06 -1.011584356755789e-07 -2.378755439330349e-07 -5.286749801631712e-08 
0.001851609066011219 -0.002875480219878017 -3.55679183544205e-05 2.321784070246019e-08 
0.0006749119894624455 0.001464951511492787 -0.002780049002505155 0.004268892603991554 
-0.002091299314958248 -7.820900909000991e-08 0.004249540969041603 4.738117418796805e-07 
0.005040575503187069 -1.309399611137862e-05 -0.00368639310159594 8.466244056843369e-06 
-0.00112990938089543 -1.839290888429762e-06 0.000175886427856452 4.176864758216501e-07 
0.001369847893961648 5.84712199496269e-07 -0.0004910379737263636 -5.286749801631712e-08 
0.003099218602832573 -0.003329367554239353 -0.001208783099314397 -1.74372166770007e-05 
0.0001659138974595899 -1.822581759091099e-07 -0.0004959051168747962 1.975471008468173e-06 
1.412229978623188e-07 -1.011584356755789e-07 -6.609987222634054e-07 -5.286749801631712e-08 
0.0002966167053044408 -8.756933805262523e-06 -0.0003533901028613457 -1.652644198597737e-06 
0.007832111054018313 -1.50911694489067e-07 -0.004021646079359934 4.679272746785102e-07 
0.007645483231497798 -0.0006210853042430384 -0.01016687051491046 -0.001353472801381047 
0.00214857257643546 -0.002750010017989361 0.002682700671216826 -0.0008928633008743651 
-0.02985426286111558 -0.004348914011277966 0.02639971306280667 -0.008287607012396135 
0.00422095439503182 -0.0009482999635051386 -7.383400785776107e-05 -3.387939182184105e-06 
-0.005516393969126627 -5.863208220798838e-05 0.00756752855058604 -5.441273187526393e-06 
-0.000927613641581274 -9.932381111771387e-07 0.001644646046715752 -4.623754236331662e-08 
0.000406608368606538 -6.6275460293986e-05 -0.0002277485582956634 -3.084387896652067e-05 
0.008497045985512229 -0.0058385020309728 -0.008413376046558618 0.0009625463062328155 
-0.003310668269238812 -0.004136130990702545 0.005447391297120492 -0.0004200640252953168 
0.001722845355385782 -2.30633667020541e-05 -8.316440304928276e-05 -1.652209291445293e-06 
0.0003333994105699116 -5.296233307614999e-05 1.176518293125869e-05 5.487389513516192e-08 
-0.0001189115103315809 -2.512904838708574e-05 -1.240695027172682e-06 -5.286749801631712e-08 
-8.682573099918082e-05 -1.011584356755789e-07 -9.540459930311271e-05 -5.286749801631712e-08 
0.001816323741888182 -0.0006209194885409431 -9.582843023049997e-05 -0.0005547869773903096 
-0.01029910511383241 -1.517376535133683e-06 0.03640000331056614 -7.930124702447574e-07 
0.004177150099737145 -0.0006376044694030871 -0.0007803827837887255 8.254774064778107e-06 
4.768365790909845e-05 -1.011584356755789e-07 -6.180630154251074e-07 -5.286749801631712e-08 
0.0004032921130777383 -1.011584356755789e-07 -0.0004131122680598935 -5.286749801631712e-08 
0.002105790508100386 -1.011584356755789e-07 -6.435185030627452e-05 -5.286749801631712e-08 
0.0008238656642202476 1.080667775538419e-05 -9.110809652465033e-05 -5.286749801631712e-08 
-0.003093617763266707 -3.997490018980325e-05 0.002740624528239268 -0.0002001741954594978 
-0.009792328826693187 0.007953199839438079 -0.01917477569423274 -0.0164499861136501 
0.005897420543838812 -0.02547860709107939 0.005206968086337307 -0.02259294309349999 
-0.007836171465091043 0.009191939852037135 -0.01678440270288588 -0.003075454963150005 
-0.004462814874621301 -3.144051117149678e-07 0.006084589628044983 2.83657009951991e-07 
-0.03308827758537452 -0.0006349380784709951 0.03364106841536706 -5.709346184375973e-05 
0.0006347980779274498 0.005177132241753783 -0.001016759101347449 -9.440876036015861e-07 
0.0002034939834491753 -1.142499811668512e-05 -0.0002418303721698907 -1.23274611738639e-09 
0.01310238323799244 -0.003433530315468101 -0.004831189880655926 5.559841850255937e-06 
-0.0003274449553013337 -0.005870653580326384 0.006626538449105077 -1.231433587948638e-06 
-0.003806055743736928 -3.341418926911319e-05 0.007280543814365103 -2.559003929552406e-06 
-0.007854670554251628 -0.0003375720216659918 0.007246941022176719 -8.823175028602406e-06 
0.01151457017506402 -0.001237563729705848 -0.01097597181542319 -0.001133318816490281 
0.003228050907589704 -0.0009481988050694629 -9.539862688927505e-05 -3.335071684167784e-06 
0.006578687803679297 -0.01965203552840554 0.00537697755884006 -9.41349854271098e-05 
0.002920123723724672 -0.0004564670703079216 -0.00185529008525314 -3.172049880979029e-07 
-0.01427222845337336 0.01783288989716343 -0.01445351630035205 -0.00597488007409727 
0.0097041652780175 -2.217797560103642e-05 -0.006511304156098017 7.003680357930265e-06 
0.00962796303445638 -0.0001699548381389466 -0.008128565265383957 -0.001596289526014133 
-0.0002152460936678136 -1.509715735130459e-06 -1.503345788838944e-06 -5.286749801631712e-08 
0.006757889033582828 -0.004788745795475476 -0.0004338392420037548 2.292735553934363e-06 
-0.01115452809677723 1.718958499354545e-05 0.009703682750609061 -0.0003782316637095984 
-0.009631322688929304 0.0028414574013858 0.008239062893153666 -7.76172277223384e-08 
-0.03696313801277103 0.04838820153823132 -0.02184150674064881 -0.008511101744109819 
0.0002208319696480889 3.127290830386986e-07 -0.002057985241360581 9.015395686896614e-07 
-0.02086568262247316 0.007263978395997989 0.01199800562613289 -0.0003500218892771127 
-0.0002848233184135315 -0.003064176077148645 0.0002876945326865098 -1.80234467920545e-05 
0.01651539505326195 0.002780721789054392 -0.01295731033936924 5.112453144191713e-06 
-0.0001328296735599029 1.001016471547437e-05 0.0001771183663671647 6.088014932638347e-07 
-0.001961466692149298 -1.011584356755789e-07 0.00245144496820826 -5.286749801631712e-08 
0.007648178197706827 -0.005221022963797012 -0.003631534269963962 -0.0002784529481531719 
-0.01781837834724703 0.01336496577186336 -0.007003984347504773 -0.0003270219528557366 
-7.143836855459274e-06 -2.023168713511579e-07 -0.0005913670638481919 -1.057349960326342e-07 
0.002064652091455065 -1.011584356755789e-07 -0.001968970629155747 -5.286749801631712e-08 
-0.004865812981304562 -2.023168713511579e-07 0.004833725683536002 -1.057349960326342e-07 
0.0002940626195565407 -0.001699958490677726 -0.003909851243439559 0.01420804110624905 
3.161729000683785e-05 -1.011584356755789e-07 -5.024300664035113e-06 -5.286749801631712e-08 
-0.003895589713985559 -3.03475307026737e-07 0.004948844497267293 -1.586024940489515e-07 
0.04268824698377304 -0.02091988665751315 -0.01573766847906211 0.01252471229865516 
0.008737464009626834 -0.0005379246771847541 -0.006220178116896155 -0.001435943988814363 
-0.000256574038375051 -1.011584356755789e-07 -2.068746404270765e-07 -5.286749801631712e-08 
0.0002471184305884982 -8.543687129223128e-06 -0.0003197066056929067 -1.989168706566046e-06 
0.00979936654656844 -0.002482020490768895 -0.003299938013458191 -0.002954832081659871 
0.005655016033211664 -4.879491336621795e-05 -0.005456551626813717 -1.205012559091084e-06 
-0.001822039387899808 -2.134000545801838e-05 0.00026028857958959 -1.108028113499508e-05 
2.734367031303491e-05 -1.011584356755789e-07 4.595456085077042e-05 -5.286749801631712e-08 
0.002157840559164368 -1.093448049429015e-07 -0.0002848881001608343 -4.473753193342248e-07 
-0.002013132025160378 0.006036587601656858 2.537124712406741e-05 -2.120269305673353e-06 
-0.002129754880230289 -3.032409830909842e-06 0.002395469099221501 0.004319301360481104 
0.004045748228558107 4.176721043756601e-05 -0.003815450992950119 1.15694977039481e-05 
5.229015697081335e-05 9.370420186314254e-08 -3.675717495645977e-05 5.829385293856231e-07 
-0.0001890675862927986 0.005166325563998399 -0.0009256510048227982 -8.912201055852686e-07 
0.00102263055353363 0.005146683096606378 0.001176272825992642 -9.289639019983159e-07 
-0.01318195372363572 0.007393650080939043 0.001600313351427864 -0.0001272961704674518 
0.001864361222449774 -2.023168713511579e-07 -0.002155593958139501 -1.057349960326342e-07 
-0.0001919046528354084 -6.350957779511718e-05 0.0014841668325108 -0.0006745311868170222 
0.00218523280893418 -0.001595976702776797 -8.644513646647597e-05 3.436259986719603e-06 
-0.04170097807634639 0.01977784097297559 0.0317527058630061 0.01307880060438341 
0.008417992803017669 -0.00553317704200719 -0.003686720753603209 -0.0002785058156511882 
0.00830101043371922 -0.008602363396241514 -0.002998413146890073 -3.898674648363186e-05 
-0.01563470856109031 0.02002500948198246 -0.002143856559904064 -1.252902070759e-05 
0.0004777875751954614 -0.0009159338450401109 -0.0001501205542297622 -9.827848249286017e-06 
0.01549831531914222 -0.006549606540644137 0.002052894667711072 -0.002285844270187161 
-0.01226520423401583 0.02119102909256595 -0.02961646454172287 0.003739032867647419 
-0.003314061760576999 0.000628753430394313 -0.02238812795125111 0.02153154767409566 
0.008217094443165214 -0.004256768204473562 -0.01088739979784741 -0.007025107821442556 
-0.0001364514096403916 0.0007565755774669716 -7.74207202493918e-05 -1.291789791643578e-06 
0.02750613572384194 -0.01765162847407987 -0.01116245745676049 -3.160032718441416e-05 
-0.01084555443693734 -0.001754515080469027 0.01183231795922781 -3.640015879339031e-05 
0.003201261894739581 -0.002703047420684797 0.003387120221601059 0.01392733207270411 
-0.008839570633361217 -1.920486424813782e-05 0.005881286508033838 -2.527599138338613e-06 
7.730126947713191e-06 -0.0006372893493415691 -1.542231308480401e-05 4.026722846400909e-07 
0.01647947751019885 -0.002500862824528943 -0.007971958640047204 -0.003238359320612137 
-0.007343826601926421 1.109281917727816e-06 0.002338277351941421 0.004318218624775495 
0.0006805753799942052 -3.729964377094115e-05 -0.003310066486993876 0.005793953188297798 
0.000609376656364005 4.989935527832041e-07 -4.250986351067304e-05 -5.286749801631712e-08 
0.01994070707583872 -0.009261341159246273 -0.002275463133797854 -0.002252341064864286 
0.003489540444084757 -1.453990213203084e-05 -0.0002411948732079845 4.698199229302938e-07 
-0.02063483921106627 -2.586316244655507e-05 0.0113251970277639 0.008836039025526887 
0.0256987682206369 -0.009016794233658384 -0.02461319070756314 -0.00382166660307624 
-0.001961466692149298 -1.011584356755789e-07 0.00245144496820826 -5.286749801631712e-08 
0.004153798878607161 -2.041841072338113e-05 -0.004516642116497566 -0.002219511407091315 
0.001878359167030125 -0.002875682536749368 -3.709489099913845e-05 -4.96882376979374e-05 
0.0002736916552300961 -0.007974730572556528 -0.0001334007610142817 -8.062841546231379e-06 
0.004476676346648343 -1.896949743763527e-06 -0.003876587653655614 9.886297250568286e-08 
0.002055243454201433 -9.967335580784957e-06 -0.002238008696942742 -0.001109836372153006 
-0.02970915795068252 -0.007411084508351811 0.03542519388562355 -0.02154751123421931 
0.005315448661067078 0.001140874856329679 -0.003260026410671474 0.01415390398191452 
-0.00077740869249167 0.002736695691113592 -0.0006753181338567987 -5.286749801631712e-08 
0.001374708369337494 -1.011584356755789e-07 -0.001147276169369253 -5.286749801631712e-08 
-0.0106010273581648 -0.006348508983870123 0.01413015237580735 -0.005767912972151742 
-0.001462900112520937 -1.011584356755789e-07 0.0002210742784041556 -5.286749801631712e-08 
-0.006412053821034782 0.002864693696723862 -0.0006971292897245527 -0.0007821705597562771 
-0.004164486154895395 -8.165745343192949e-06 0.002915163150520759 -7.217722228092145e-07 
-4.168389266384644e-05 6.814954021863695e-07 -2.612780526322477e-05 -5.286749801631712e-08 
-0.01025990295388044 -1.616940656601128e-05 0.01189362653723484 -5.295881910528334e-06 
0.001752771828199816 0.002573292583426155 -0.001929455901481013 1.536576001001365e-06 
-0.06246764441713015 0.06097125242767357 -0.01260516852482599 -0.0003647040845499772 
0.02907857640764009 -0.004339982044360089 -0.02130262586131383 -0.001391060354460179 
0.009363053278556839 -1.82799154535397e-05 -0.008866306281826416 -0.000868066203121898 
0.007648178197706827 -0.005221022963797012 -0.003631534269963962 -0.0002784529481531719 
0.001252833322476638 -4.035290797784083e-07 -0.00259480645213896 -1.952937554827765e-05 
-3.312737928929294e-05 -3.03475307026737e-07 -7.136266317991039e-07 -1.586024940489515e-07 
-0.003523537817693252 -1.011584356755789e-07 0.0001253594101693553 0.002946536537733385 
0.0002636125549653575 -0.001135717272801404 -0.0003066196412888483 -4.218909137245651e-06 
-0.003160553559477109 0.001048779273411809 0.0001558903654204714 1.390384809013718e-06 
0.001233649181357883 -1.011584356755789e-07 -2.378755439330349e-07 -5.286749801631712e-08 
-6.99056277889121e-05 -0.0004557495101882258 -0.000133523172114767 6.112218153527934e-06 
7.862172165988341e-05 -0.001117778224058477 -2.489998781196906e-05 6.211097296029398e-08 
0.000899574629973458 -0.002349490494497052 9.020221026672297e-05 -3.317214335241885e-06 
0.002431659602950978 6.008075461247461e-06 -0.001808437590163988 -4.895337624511269e-05 
-0.0001408198108376262 -0.00285164901984063 0.00027702909760205 -1.680354325316506e-05 
0.00861674233715558 0.005540991732985228 -0.01189360802152906 -0.007341063782002776 
0.003889226764518489 -0.001121721711141406 -4.904768770306676e-05 -4.595384602108411e-08 
0.01533364862922571 -0.002105639712276219 -0.003698869348876781 -0.001389349892862217 
4.920245969112077e-05 -8.843206940971732e-06 3.008144705214098e-05 4.25731631955579e-07 
0.003558068219117152 -2.321131653275187e-07 -0.001254954600204109 3.299550231961494e-07 
0.007200193788181444 -0.0008528214294976998 -0.005955198223644746 1.922894414974585e-05 
4.60756608213788e-05 -0.0001410937730302613 -8.856155476061252e-05 4.215913391124125e-07 
0.007648178197706827 -0.005221022963797012 -0.003631534269963962 -0.0002784529481531719 
0.01187783606396136 -0.0039316422790547 -0.01202270758643037 -0.001237401690736547 
-0.000244106501507227 -4.685798358317801e-06 0.0001941152069868887 -2.000942929346227e-07 
-0.003498603529816797 -0.0002012072418620044 0.008633834727635329 -0.0004625877648750468 
0.002093994874563527 -0.00158485517996714 -1.18050965744422e-05 3.278890238788043e-06 
0.001298319669993919 -0.002134949227223957 -2.325986906151461e-05 -1.392011312547193e-05 
0.002774034893548509 -1.864001688869695e-05 -0.002788649178458302 -0.0002832747010066559 
-0.03380266427652687 -0.0001696885998360942 0.02931029687255092 -1.313415654933949e-05 
0.0008238656642202476 1.080667775538419e-05 -9.110809652465033e-05 -5.286749801631712e-08 
0.005152479261470722 -8.137617370071745e-06 -0.004223230187331113 -0.0006031907902830454 
3.31270683380731e-05 -2.023168713511579e-07 -4.911629971286889e-06 -1.057349960326342e-07 
0.001979042627580049 1.161846146178912e-05 -0.0007426029823834327 -4.679203000533099e-07 
-0.02045493176036885 0.01771605725590426 -0.001978429828557855 -1.331330722064096e-05 
-0.05727084684162265 0.002150441721166479 0.04799478751282769 0.005455943777776875 
0.01654030243324166 -0.003324697821426078 -0.007929863857823178 -0.004632229388130314 
-0.004127363713479307 -3.004579641719959e-05 0.004628862959028585 5.887193241218955e-06 
0.002617408882540835 -0.0009245568527594884 -1.243925922578735e-05 5.811955764646818e-07 
0.006341539611279898 -1.208940817412207e-05 -0.008334065162744007 -0.0008483053206049894 
0.002007876156902145 -0.001584754021531464 -6.888655562944277e-06 3.331757736804355e-06 
-0.001961466692149298 -1.011584356755789e-07 0.00245144496820826 -5.286749801631712e-08 
5.468734062606982e-05 -2.023168713511579e-07 9.190912170154083e-05 -1.057349960326342e-07 
0.0007797819100451637 2.911089340368406e-06 -0.0004450673339103475 3.220094433071329e-07 
0.01264755088625906 -0.003229643457606335 -0.004108639676484512 -0.00118878456984224 
0.01231809680497403 -0.008435674187117211 -0.0008933791401690813 -0.009120492781059126 
5.714028538159092e-05 -6.704544700491367e-08 -4.443011559752485e-05 2.916839613255134e-07 
3.076623988879296e-05 -1.011584356755789e-07 -0.001548587280413215 -5.286749801631712e-08 
-0.0001239128969078796 1.586210033789441e-07 0.0001917156407455254 6.582443810268269e-07 
0.003781245099258936 -0.0003330260649295401 0.0002347212680224286 -3.481027961190442e-06 
-0.003607339277048337 -1.107758150554641e-07 0.003542948916223366 4.398911841984967e-07 
-0.0003069904229867108 -5.32223653892922e-05 0.0002659198317819599 -0.001468425648590605 
3.188003464270362e-05 -1.011584356755789e-07 -0.0006246946602452591 -5.286749801631712e-08 
-0.04549656203553419 0.02531604440548767 0.01256584363885109 0.002346186861267495 
-0.0003650818293120363 -0.000115956443672104 0.002220763677757583 -0.00326272381886362 
-0.0339656136085578 0.01020539193623005 0.02824019378811672 -0.001504621763882575 
0.01128764317257399 3.208440060590281e-05 -0.005139841745607226 -8.974655592079335e-08 
8.231759728860637e-05 -2.139292797511739e-05 -0.001954351010212889 -5.403058234382053e-07 
-0.0004969938816586094 0.002419368406724057 -0.001433506449224912 -7.672760390990902e-06 
-0.01242077021856805 -0.0002060039107300925 0.007473662011736557 -0.00214092604155901 
0.01013144447649418 -0.00335804095064003 -0.003578024788755067 -1.364363537640166e-05 
-0.00440954844801718 0.006941710638991002 -0.0008933108857247964 -0.004086880086382258 
-0.005926175064532311 1.676829123765153e-06 0.007134648469718148 -1.063471076414111e-07 
0.01641766832207486 0.0008370466765361196 -0.009200532904539604 -0.007403293390687737 
0.002882813369305491 -6.427284669045225e-06 -0.003719641195696473 -9.653899261762631e-08 
-5.714489899536613e-05 -1.789437901385557e-05 -2.240251494834931e-05 4.070244311172585e-07 
0.02569606578385053 -0.0152403211064754 -0.0136500209349565 -0.0007154872161351565 
4.768365790909845e-05 -1.011584356755789e-07 -6.180630154251074e-07 -5.286749801631712e-08 
-0.007426708574583717 -8.36951028290768e-06 0.00520051200589287 -3.107665573071095e-06 
0.009247835519751727 -0.01174924691660494 0.02172362209011993 -0.0064786349100539 
-0.003696512161053424 -7.087479897068964e-05 0.003554992680266118 7.461889348958242e-07 
-0.0001017986972795381 -7.947499987007431e-06 0.00010099990338188 -1.595324715346549e-06 
-0.000686607007588827 -1.011584356755789e-07 0.002426666887371076 -5.286749801631712e-08 
0.0004602729647048217 -1.487516418423624e-06 -0.0001211734300685157 -6.246589044180371e-08 
-0.003718176032259077 5.729861664515157e-06 0.003234560916869688 -0.0001260772212365328 
0.001951019433775212 -1.011584356755789e-07 -0.002155356082595567 -5.286749801631712e-08 
-0.005215853897277935 -0.006076188770873658 -0.01649350941673904 0.01703614678366935 
0.0188639259521995 -0.002541182877412453 -0.01181289430209355 -0.001321318471038723 
0.0001994544042535767 -1.809663845314611e-05 0.0004745111636045152 -0.0002833804360026885 
-0.006910038190086696 -4.823430159845146e-06 0.0084690306786687 -1.464647748312453e-06 
-0.00243704328790287 0.00289403749171698 -2.828057062089077e-07 -1.057349960326342e-07 
3.076623988879296e-05 -1.011584356755789e-07 -0.001548587280413215 -5.286749801631712e-08 
-0.004579619555674602 -1.293750446179181e-08 0.003599317836605172 5.187306055543326e-07 
-0.0003900955110689139 -8.363150767702048e-07 0.0001397212002636625 -4.727626775337262e-08 
0.0006708211247599128 -6.071561944148356e-05 -0.0002857436133278011 -5.801130028021514e-06 
-0.02075308265008148 -0.02144899089475086 0.02032152002336496 0.006530501652028784 
0.004921630726270331 -0.0004765890474867178 -0.003252385591382903 1.765749795747904e-05 
0.01112398319809884 -0.006525828095014915 -0.02312963708651232 0.01773411318811084 
0.01188220929134575 -0.008428568546763618 -0.001329564880536269 -4.515710922390924e-05 
0.00649086121153461 -0.0001983279795340205 -0.004586906626549521 -3.547961045327223e-05 
-0.01239144748409112 -3.508651700312079e-05 0.01072587338059513 -9.528033944742437e-06 
0.006505770400427837 -0.002121574522391107 -0.005542058071269425 0.001527531838308254 
0.01479882867048192 0.002886009480984243 -0.01738204755969519 -5.073875002145239e-05 
-0.005563386785500902 -5.85309237723129e-05 0.007634138173941769 -5.388405689510074e-06 
-0.00509794869999441 0.005052541260473604 -0.003639677176807693 -0.0006831626344023304 
-0.006450118291079215 -1.055246809013637e-05 0.00537294918446195 -3.842125975014966e-06 
-0.005216397571472743 -0.004136232149138222 0.005112585536699136 -0.0004201168927933332 
0.00182464405266532 -1.511586671504666e-05 -0.0001841643064311628 -5.68845760987468e-08 
0.002466447875168947 -1.297937891375712e-05 -0.001751460266222013 -8.771576109585185e-05 
0.0002405385104606695 -1.011584356755789e-07 -5.130654426389809e-06 -5.286749801631712e-08 
-5.389269277830632e-05 1.955182457564672e-07 0.002524682845767141 -2.114699920652685e-07 
-0.0003859673680424212 -0.0003609035112912261 0.002001487694217023 -5.845078889331781e-08 
0.02041625634733796 -0.004322700184794133 -0.01316216830608768 -0.000320719294078059 
0.0001408960780587855 -8.006607377114987e-06 -1.991301432307074e-05 5.928920738849755e-08 
0.003051242489744784 -1.011584356755789e-07 -8.253480129698518e-07 -5.286749801631712e-08 
0.001970125453573465 -1.011584356755789e-07 -0.001021817403260942 -5.286749801631712e-08 
0.008035568438855752 -5.600876713656485e-05 -0.004822203931175443 -0.0003130439464779535 
0.02746872244277251 -0.01321856776303843 -0.02709188365571982 -0.02069125468471408 
-0.01081849930166463 -0.001788971983465406 0.006766947035769906 -1.287538719764268e-05 
-0.006450118291079215 -1.055246809013637e-05 0.00537294918446195 -3.842125975014966e-06 
-0.0001766851583854031 -5.559381653902273e-05 0.003002250886689035 -1.169747277357399e-07 
0.001970125453573465 -1.011584356755789e-07 -0.001021817403260942 -5.286749801631712e-08 
0.002882813369305491 -6.427284669045225e-06 -0.003719641195696473 -9.653899261762631e-08 
0.004712537020457195 -3.896633999548272e-05 -0.003814534100612407 -1.02266104252884e-07 
0.004973631219714931 1.19947407161801e-06 -0.01179972044543867 3.236085788644423e-06 
0.001789198771133948 -0.002248728837709258 -0.0001202531248509827 -0.001490491047482154 
-0.009639379218227256 -9.964372157062619e-05 0.008713921504770065 -0.001106508416784872 
0.001790024160851975 -0.002775720901889906 -0.001233716211754468 5.86045284650005e-07 
-0.002350385076577431 0.002894138650152656 -4.493016227587293e-08 -5.286749801631712e-08 
-0.005471400269847703 -2.522471685531482e-05 0.005051047840321708 -2.217253122467914e-06 
-0.0007112845693686552 0.004857946581183803 -0.002840551587094022 -1.045420778661461e-05 
0.001816323741888182 -0.0006209194885409431 -9.582843023049997e-05 -0.0005547869773903096 
-0.007122611965610794 -0.00272947405686241 0.01057193341752035 -0.006184009578999772 
0.004837336619363549 -9.671694159027441e-05 0.001227242020563541 -1.1854562920292e-06 
-0.003878984234113723 -0.000943862875443302 0.005147648729263215 -1.999271059890245e-06 
0.001135848554518721 -0.0008537528820470525 -0.002158258188004932 -5.961573397868981e-05 
-0.000686607007588827 -1.011584356755789e-07 0.002426666887371076 -5.286749801631712e-08 
0.0008238656642202476 1.080667775538419e-05 -9.110809652465033e-05 -5.286749801631712e-08 
-0.0001997842826936416 0.003742880588753261 -0.001561460118991763 -5.286749801631712e-08 
-8.682573099918082e-05 -1.011584356755789e-07 -9.540459930311271e-05 -5.286749801631712e-08 
3.522613787595393e-05 -2.023168713511579e-07 -5.746824440714704e-07 -1.057349960326342e-07 
-0.003160553559477109 0.001048779273411809 0.0001558903654204714 1.390384809013718e-06 
-0.01948641773580568 -0.00247112329629578 0.01864785021450088 -0.002695458097021474 
0.003236792172141827 2.523768603246321e-07 -0.001838019661075082 1.269446863094739e-06 
-0.001822039387899808 -2.134000545801838e-05 0.00026028857958959 -1.108028113499508e-05 
-0.0001364514096403916 0.0007565755774669716 -7.74207202493918e-05 -1.291789791643578e-06 
0.0006281432155120418 -1.011584356755789e-07 -0.001282979024236319 -5.286749801631712e-08 
0.000135405287091383 -5.32234679756922e-05 6.944728034426029e-05 -7.548355539091625e-06 
7.730126947713191e-06 -0.0006372893493415691 -1.542231308480401e-05 4.026722846400909e-07 
0.004292246607703844 -3.577645811857901e-05 -0.004799826290586431 -0.001059610206294154 
-0.005505771052407412 -7.156170786293206e-05 0.007618468527534347 -9.367782905607308e-05 
4.331197020429354e-05 -4.837395618112121e-07 -4.062472261208406e-05 1.613372146971712e-07 
-0.01699358038796604 -0.01555474109009078 0.03420111877861328 -0.00266938646654803 
5.711290655744562e-05 4.214101526554161e-07 -0.000595156124034276 -5.286749801631712e-08 
0.003847479148928543 -0.0007493379594077957 -0.0005384100748019676 -0.0002754180412266071 
0.004113493834992687 -0.003052702332495376 -0.0003350049118260291 -1.194897582276053e-06 
-0.004164486154895395 -8.165745343192949e-06 0.002915163150520759 -7.217722228092145e-07 
0.08836524584903017 -0.04369915331750086 -0.08860332090815166 -0.02081701560431239 
-0.02009388439678691 -0.01355361545371166 0.03868353330901347 -0.01070097386799449 
0.0004094930658796628 -0.0001013649395256174 -0.0002391751709111291 -0.0009749054998950013 
3.046199060007728e-05 -1.297058267794879e-05 -1.738352808147122e-05 2.341268811149177e-07 
0.002137769178197613 -0.000520883894830047 -0.0003852096031538256 2.442422126596708e-06 
-0.0002244214288315488 -4.342732810070328e-07 0.0001126490828461149 1.910041622822422e-07 
-0.02423041153196551 -0.0001014031795245787 -0.01172790865081436 0.02783703325540502 
-0.007193810372562365 -8.413867405831208e-05 0.007638991591977924 -0.00312371108027429 
0.003051242489744784 -1.011584356755789e-07 -8.253480129698518e-07 -5.286749801631712e-08 
-5.813017069295908e-05 -1.011584356755789e-07 -0.0009351562573895144 -5.286749801631712e-08 
-0.01209731645663114 -3.63286139415884e-07 0.0006507740884533426 0.007612929863503814 
0.006581563907621313 -0.01899560950615294 0.008424098171517964 -0.00765945596693688 
0.00344716657077431 -2.023168713511579e-07 -0.001932441903333063 -2.525379456102994e-07 
-0.002327485557572055 -6.212379143810923e-06 0.002810999710991124 -1.057349960326342e-07 
0.01838684451929791 0.002758285975219195 -0.01579010514992657 -9.877929287032468e-05 
0.003884524695290781 -0.0001755389375731868 -0.003634689778696068 -3.603833045196666e-05 
0.000249933805651053 -0.001022513065636008 -7.333864304580041e-05 1.221807371482667e-06 
-0.009477164455026141 -0.0005149864471050166 0.006499695684968057 -0.0009203272316279361 
0.004758967682055939 -0.0003277501940327206 -0.001883576497663361 -2.818151315682103e-06 
-0.007854670554251628 -0.0003375720216659918 0.007246941022176719 -8.823175028602406e-06 
-0.1053849226329028 0.02962141649583374 0.02762115680774611 0.04541564857822253 
-0.002693919656081883 -3.03475307026737e-07 0.003310367093082613 -1.586024940489515e-07 
-0.01389272806125317 -0.006118000729431543 0.01422177914984304 -0.003155430883036027 
0.002105790508100386 -1.011584356755789e-07 -6.435185030627452e-05 -5.286749801631712e-08 
0.01917739892099429 0.002150099349070107 -0.0347481631232653 -0.006121283169565206 
-0.03012905584566383 0.0004860411418610107 0.009731401566470909 0.02526154520373152 
-0.02347747310590298 0.0288849794424499 -0.00794944660015532 -0.003769850421363227 
-0.00568535242654345 -0.004545458744273334 0.003011616904873938 -0.002559259095550369 
0.009236006454621594 0.005088392884007432 -0.008554719206047608 -1.095752314091036e-06 
8.916348811905845e-06 -1.011584356755789e-07 -2.378755439330349e-07 -5.286749801631712e-08 
-0.06400180020750422 0.02136226389463396 0.03424157460770928 -0.001704977057524048 
-0.01113228989405477 -0.0001239222055265508 0.01081874582422008 -0.005689915714811781 
-0.003806055743736928 -3.341418926911319e-05 0.007280543814365103 -2.559003929552406e-06 
0.0005108219083131063 -1.530345293782438e-05 -0.0002620883400509552 -1.000294416066162e-06 
-0.05019857155033512 0.001768229162736614 0.05456645881096461 -0.009288288335587151 
-0.0002315313177879081 -5.330167095452456e-05 0.002390663338564511 3.564761914328732e-07 
0.002882813369305491 -6.427284669045225e-06 -0.003719641195696473 -9.653899261762631e-08 
-0.002085379589057176 5.74625677033652e-08 0.002643160608953787 6.053768830105098e-07 
0.0004383084295630769 -8.206112426205341e-06 -0.0004504976065441324 -6.743103092058858e-07 
-0.00413016588392526 -2.9944637981524e-05 0.004629100834572518 5.940060739235283e-06 
0.000609376656364005 4.989935527832041e-07 -4.250986351067304e-05 -5.286749801631712e-08 
-0.0009823106408092305 0.008460855038202819 -0.001482969417546492 -0.001532033801498769 
0.003947776767680895 -0.0001029087437087887 -0.0002050888325510412 -2.172350610446039e-06 
-0.003328676375795631 0.004884166056071576 -0.00291429483492344 -0.003834165340440947 
-0.009294699173176357 -0.0006832376164805905 0.01045217471159325 -1.813004074443293e-06 
0.004749752696084308 -6.37386321959904e-05 -0.0005566376698759299 -1.037833332122498e-05 
3.076623988879296e-05 -1.011584356755789e-07 -0.001548587280413215 -5.286749801631712e-08 
-0.005684176267006558 0.0009346988755995197 -0.005954782279347789 -5.165685141215277e-06 
-0.02545009592959255 0.01040750270525867 0.02025238885840786 -0.004973217706862353 
-0.001157323512616873 0.002900779855925155 8.742100674589922e-05 2.172262980285538e-07 
0.003847479148928543 -0.0007493379594077957 -0.0005384100748019676 -0.0002754180412266071 
0.0007698146053108459 -0.0003121540782101786 -5.518648363924647e-05 -5.286749801631712e-08 
-0.008936705417525229 -2.022238331744308e-06 -0.004599569238980562 0.01182048827327292 
-0.0005073435613752627 -0.002197803431628802 0.005945351277251951 -3.342179817438361e-07 
0.04722854621134485 -0.05582117081241576 -0.003072948799788055 -0.0251350696965775 
-0.004385980120365851 0.007504919503788711 0.002501854600674696 -0.005350781848453484 
0.003035058083989428 6.289964683006224e-06 -0.002360389399685955 -0.0001981678276899309 
0.001207038793397116 0.009344630099300819 -0.002613092881230121 -1.0038350579375e-06 
0.008217993467595202 0.0007756873760309416 -0.01101703417418036 -0.0003196994505034332 
-0.005642456140577784 0.01232374597568972 -0.0003691400427199504 1.208384670256917e-05 
0.001031363648253458 -2.159474843983134e-06 -0.0001058720153824303 -3.002929485236164e-07 
-0.000591012008101538 6.762891583331494e-08 0.002361271386945463 6.045617006637632e-07 
-8.665821132543736e-05 -1.011584356755789e-07 -2.378755439330349e-07 -5.286749801631712e-08 
-0.01995704461556457 0.002387565842317555 0.01281445753033446 0.003754483514761819 
-0.000686607007588827 -1.011584356755789e-07 0.002426666887371076 -5.286749801631712e-08 
-0.006328739669659101 -0.0008870916456969527 0.007455566028681208 -0.001519649595125088 
-0.006774353185879615 0.00589361347420173 -0.0002398399013042624 -4.128083350884124e-06 
0.00145299879713653 -1.537578875241006e-05 -0.00108536627017602 -0.0002011519983033572 
-0.006504238485623854 -0.0001042280857148067 0.00663002439039166 -0.0005952143368386307 
0.01340259113211607 -0.0008762074848027655 -0.0120123955953608 8.923745567854905e-06 
-0.001532202070474794 -3.534485382574835e-05 -0.01148910087208043 0.006444728309294843 
-0.004999698153910233 -1.011584356755789e-07 -1.487528592688093e-06 0.004318377227269544 
-0.001002627147816115 -1.588674854099203e-06 9.990084833564014e-05 -1.153333884581211e-07 
-0.00272614283871011 2.708772469017247e-06 -0.0003199952649630277 0.002946805679678676 
0.000974118372324122 -0.0003725524281193134 -0.0003702704998862821 6.523674502439372e-07 
0.001204156343750445 -0.001761353367481952 -0.0001452537766703486 -1.331397089840923e-06 
-0.004999698153910233 -1.011584356755789e-07 -1.487528592688093e-06 0.004318377227269544 
0.0005377823503245744 -2.023168713511579e-07 -0.0006422338283986347 -1.057349960326342e-07 
0.001466339011351833 -0.0005983327634514605 3.97852987750031e-05 -0.0005554514323850365 
0.009165827868401723 -0.01159303237556646 -0.006880700132973983 -0.004028457905174022 
0.01267613523522856 -0.002571330212069342 -0.0003024350725411596 -0.001954078934858044 
0.002194011480247072 0.001217674275694062 -0.01777264352996087 0.02540836230751443 
8.632261985361126e-05 -3.598653967687943e-05 -9.462885888251077e-05 -3.316427112412405e-06 
4.768365790909845e-05 -1.011584356755789e-07 -6.180630154251074e-07 -5.286749801631712e-08 
-0.03238133910992067 0.01803268734839691 -2.607787749611872e-05 0.002942648739916695 
-0.002261220054390483 -1.124317915179859e-05 0.003576029907087358 -8.883566165840288e-05 
-0.0002500348235283675 -6.361073623079276e-05 0.0005490105751212857 -0.0006745840543150386 
-0.000686607007588827 -1.011584356755789e-07 0.002426666887371076 -5.286749801631712e-08 
0.000136845827615048 -0.003987365286278264 -6.670038050714086e-05 -4.031420773115689e-06 
0.01630439890309522 -0.005851187753447018 -0.001182795622611496 -3.291879351132046e-05 
0.002064652091455065 -1.011584356755789e-07 -0.001968970629155747 -5.286749801631712e-08 
0.002415441851686741 -0.0004275670211621801 -0.002917664064973942 -6.709484460885392e-06 
0.001233649181357883 -1.011584356755789e-07 -2.378755439330349e-07 -5.286749801631712e-08 
0.00253663417825693 -2.536976256900354e-07 -0.004288706177035658 1.075475618871063e-05 
2.754378048124334e-05 -1.011584356755789e-07 -1.9107876376025e-06 -5.286749801631712e-08 
0.002007876156902145 -0.001584754021531464 -6.888655562944277e-06 3.331757736804355e-06 
0.006018415652320883 -0.001292074517739355 -0.003730940201321218 1.956952204728389e-05 
-0.00562227033820059 -5.450089943661653e-05 0.006582258377100187 -8.075898880123581e-06 
0.007404915707462638 4.169585434689916e-05 -0.005327277479058282 1.437248325665582e-06 
0.001677891442706517 -4.711680051730157e-05 -0.001401357777651911 -1.054850219722473e-06 
0.009314412651897004 0.004836063884069232 0.001038584870287072 -9.748545251613747e-06 
-0.0007279786942014412 -0.0005292605317885815 0.005687412572235344 9.553615360337297e-07 
