solver_type L2R_L2LOSS_SVC
nr_class 3
label 1 0 2
nr_feature 24973
bias -1
w
-0.1696071557989919 0.6394835493198636 -1.032971442221128 
-0.06486370023383972 0.3392673905224835 -0.3160322980998498 
-7.38876315754116e-05 0.001479885942612109 -0.0007333545738641733 
-6.44325120822976e-05 6.206477656050708e-05 -5.733018174663607e-05 
-0.00315325000678936 0.002461129892606518 0.0006035929748154282 
-0.003749699810415602 0.003765860540640382 0.0001461099817243853 
-9.531612354313028e-05 0.003377944177245472 -0.1545300754918986 
-0.0005172117067708925 0.0006104646295197893 0.0009872539449612694 
-0.983331001782669 0.01797827942341271 -0.001105307441121636 
-0.1959503642559692 0.450073327794509 -0.2724862253638947 
-0.005210662783888939 0.005558504476593906 0.0007867047582655957 
-0.001152494743671235 0.006121283945216218 -0.0001881466079874098 
-6.653911476804592e-06 -4.700234720482147e-05 6.428405771855688e-06 
-0.03518542511666917 0.2284328313891753 -8.373036857991933e-06 
-0.0001624126737266693 0.0002078290577402923 0.0001540230898635411 
8.502917664462474e-06 -0.0001867293569356026 -2.439110364156162e-05 
9.080450527742665e-06 -5.629988866775884e-05 0.0003749301079906214 
-1.358366576594488e-05 0.0001663228391300427 -0.000223363889792868 
1.899334440138783e-05 -0.00069927134674831 -0.0002449138165849086 
-0.002901504795093784 0.002566011938632054 0.0001473544942300599 
-0.0006223228931362675 0.0009017672518447651 -6.065312786534229e-05 
-0.00446777208747708 0.002929598576473531 -2.023212953671664e-05 
0 0 0 
-0.0004886790821562546 0.003957425696826755 -0.002139640708129299 
0.0001341008043875861 0.001500314269455703 -0.001741632529376382 
-0.01162686249175327 0.009352610298203692 8.944574429960364e-06 
-7.605611764421481e-05 0.0001800073792514995 -0.0003415304716200836 
0.0001033143413025993 0.0007971045501860508 0.0003597978073932514 
-8.03336872840059e-05 0.0006549779595068604 -0.0006480172082332771 
4.796887631515392e-05 -7.67450517650153e-05 0.0001689495201065484 
-0.0007102829412882846 -0.0001934875182514384 -2.385675507563602e-05 
8.824768053651324e-06 -0.0003845355027789212 -0.0003540300210525008 
-8.932068713614325e-05 0.002296099226218702 -0.002188522462443916 
-5.865398768268295e-05 0.001034695785533681 -0.0006178387356538772 
4.587489679380038e-07 0.002015838553297969 -0.001902348688952639 
-0.2564744734993104 0.06930719103425628 -0.006162322896244543 
-0.001362994546456338 0.0467878394969269 -0.0288089238641305 
-0.001019853691884207 0.2207764259104402 -0.464987368147456 
-0.002751725660753376 0.00756133241758001 -0.005295765216457361 
6.885452751159673e-05 0.007542399381678039 -0.008240849101527363 
-0.02459036644567853 0.01011995617158495 -0.0008792458738028482 
-0.009094098842453161 0.005426551856989242 -0.0003162024233233076 
-0.007613061467729157 0.02400954351879272 -0.004289166880425507 
-0.003338942759520224 0.009873846057495785 0.001833444325292539 
-5.085519678037957e-05 -0.0001713031584991104 -0.0002313230757034364 
-5.220321819604828e-05 0.0005159040798554145 -0.0003089480205138014 
-3.488486619041577e-05 0.5514412380883298 -0.2678593230864503 
0.0001456305119616331 0.006334506553716459 -0.003497278264984559 
-3.650583297615732e-06 0.001479455899981118 -0.003426775877027284 
-3.311447604644047e-05 0.006171155430558927 -0.004317481203198104 
1.478243225737169e-06 0.001725062832562864 -0.002286453345360286 
1.905688949098275e-05 -0.0002409334704384018 5.446364667581346e-05 
-1.128801464739783e-05 0.002373683359607297 -0.001083354369962804 
-0.005307760406500955 0.0002226019272553169 8.580117945541318e-06 
1.8887933757565e-06 0.0001337123553076471 -0.0001833458288959514 
2.259722760113015e-07 0.0002365431588670075 -0.0004342785393909523 
2.692540124627816e-05 0.005963223786987157 -0.002740743137695633 
1.141029169038177e-05 0.002048981338377376 -0.003062229776246074 
-0.006937537127895942 0.006733070037805661 -0.003681638206057297 
-2.865980803886454e-05 0.000552763275206012 0.0001179638863388152 
-2.959927984856801e-05 0.0004602185426585954 -0.0003347697690488375 
-0.001167552213472093 0.0004092809572688468 0.0002871686424844477 
-0.004964175125891661 0.003646625854788636 -8.31818021764673e-05 
3.219972376270065e-05 0.002786754766638669 -0.003524112699568539 
-0.02072015229205602 0.003251200186780771 2.894379580746527e-05 
-1.305448022639042e-05 -0.001115215088806712 0.0002328208211870458 
-6.247150509664671e-06 -3.618060394501514e-05 -9.390168495410642e-06 
0 0 0 
1.611653749543689e-07 0.001445845624515219 -0.002623544304718185 
1.473384040803571e-05 7.533807973787101e-05 -0.0001583641498552588 
-0.000227521475189153 0.0004209538132077382 -1.378330383131386e-05 
-2.089490946761873e-05 -8.234446323041449e-05 8.105766063052771e-05 
-1.31771362293673e-05 -5.373626185637209e-05 -1.59516062779497e-05 
8.843351391354092e-06 -0.0002110902239899487 3.513328073458744e-05 
-0.0003056163520368604 -0.0004481256520101473 0.0005318007580599204 
-2.735404466702011e-05 0.0008509537816083203 -0.001146115000807831 
-0.0004878525524733797 -0.0005029194847268836 0.0002279938373342623 
-0.00979107542228713 0.00680711546783279 -0.0001207034604755106 
-0.001235543189589188 0.007242187641280631 -0.00260404510396334 
-0.0001868238954007112 0.003611665978517805 -0.002924783197516509 
-0.1009828435377203 0.03248143662003508 -0.003653008353577254 
-0.005580122168908934 0.6144851953690319 -0.02730822026087832 
-0.02089789950933853 0.02930589674127915 -0.02152185214207892 
-0.004135177507145387 0.004975034627206912 0.0002732823688464728 
-5.689948330686075e-06 0.0003254406698667757 -0.0005343664625312246 
-0.0003368571015302962 0.0002581836124966493 -7.885888297092445e-06 
-1.808869130768219e-05 -0.0002172787678941639 0.0001760130076582879 
2.063749869400212e-05 -0.0003992412554660803 0.0003380601066305095 
5.579797646308462e-06 -0.0003807159329422946 0.0001067775543856924 
-9.68327546066188e-06 0.003666726022622017 -0.002827616025974703 
1.161027878220353e-05 0.001708094905237552 -0.001001936758082307 
-0.00637120928001148 0.003709141215531148 -0.0005860032978294398 
-0.008697893252668773 -0.0007062164493774862 -0.0001532668751738598 
1.310518850857385e-05 0.002907931698460515 -0.002397788030804623 
-2.026664930557707e-05 8.580392504789278e-05 -7.114632366596587e-05 
-4.533720370836138e-05 -0.0003256575231575436 0.0001610914913040307 
2.339404989314804e-05 -0.0001871395238683143 0.0001577700036705416 
-5.500450084284217e-05 -0.0001353817510651718 5.725333328190963e-05 
9.902791247299031e-05 0.0007525373198440701 -0.0001188645559088041 
1.077961999688559e-05 0.002248287801374171 -0.002029893672834312 
0 0 0 
-0.001235805815078746 0.004436532153317643 0.0006937173608789268 
-2.049203719751756e-05 0.000239231547082785 -0.0008603501166918368 
-0.0006938296717489074 -0.001615322256858277 0.0006033809956857902 
-2.272623618935574e-05 0.0002617787637137839 0.0004257235343552647 
-1.124238093026681e-05 0.0003760101351608582 0.0005948764183115542 
-1.679157670375203e-05 -1.755484694708387e-05 0.0002610667723285295 
-0.0617234316936899 0.4558621313553393 -0.1665446596818962 
-0.0001239361005938931 0.5890483940429939 -1.107395382609537 
-0.2429453941723402 0.09310153871947546 -0.02220805633437872 
-0.0007135439366494704 7.206603906325386e-05 0.001114627373090103 
-0.01649136356440308 0.0120719218892971 -0.0005468121045836229 
-1.130275874880462e-05 0.0006468627315721734 -0.0003500306260082955 
-2.249331602914843e-05 0.001969313761446341 -0.001935366571631945 
1.187813062617856e-05 0.0008774775749566308 7.077763953717249e-05 
-2.222032716727416e-05 0.002888293239652199 0.0001361089788472204 
-0.0006194542127647733 0.3343806433908396 -0.4912272878117198 
-0.0009933141624133748 0.008879106453908808 -0.005330383897652865 
-0.006903856339948447 0.04005039051542236 -0.07267458151866293 
-0.002316750960118295 0.03130633739239889 -0.2334786604922454 
-0.08166493315545864 0.7745635164756517 -0.01714297884316661 
-0.07220731391385432 0.08369627534206389 -0.6550367132715399 
-1.105779967646846 0.04391245483280638 -0.0003031900622891564 
0.0003964485784636447 1.029457660409175 -0.891271952326573 
-0.03517258436425712 0.01055371323790427 0.001588072399767097 
-1.599564818427488e-05 -0.0002784298501521699 0.0001070246876343869 
-1.436445560132446e-05 -0.0001191264898134368 0.0001161332550377762 
6.462793804672253e-06 6.039704386848024e-05 -0.0001123732091493618 
-0.002978353106438044 0.008655584316721504 -0.0003510916581814075 
3.929099784158846e-05 -0.000138103106693205 -0.0001791520615719876 
-0.02382665108870379 0.002822968361525163 -0.0004706027262314651 
-4.69118654076977e-05 0.0001169438015579354 -3.355738275723852e-05 
7.907777125651086e-05 0.0006823203168047434 0.000179438412179513 
-8.150048829957332e-05 0.001716709170498154 -0.0006557773975876157 
-0.032696917515758 0.2405826455299999 -0.6153988182742646 
-0.02970767065280874 0.2300176001770284 -0.120835314244373 
-0.7827084430687743 0.9717582682590389 -0.5479447620115396 
-0.00270766301520329 0.3152611254195884 -0.3303399290695014 
7.603077358721279e-05 0.001052202433740515 -0.001176751903268122 
-0.0002861101788777968 0.006680710650092272 -0.007284215086805883 
-1.131771003550461e-05 0.002449188886568841 -0.001079449524327817 
1.47656310041619e-06 0.001752088459193756 -0.002443735986833861 
-0.0007486043786006894 0.0006991887514991095 -6.807247440546276e-05 
0.0001184267984488924 -9.527734649105802e-05 4.390008705862988e-05 
-2.518161230752388e-05 -0.000229348159222832 1.237617274942788e-05 
-2.049633966119111e-05 -0.0001342178215088449 0.000338104674631837 
-0.5284265275686783 1.01677247455432 -0.5738755928488836 
-0.1560636974629339 1.800998987683748 -1.24570657909192 
-0.09522085369168246 1.455074962085044 -1.492877993053519 
-3.786085096140089e-05 0.001339065396181579 -0.002379840186370715 
-0.001349633051128302 0.00124255358599023 0.001028041162925625 
-0.0006160019426814629 0.009512907229130861 -0.002151860909784007 
-0.0006916127396636798 0.0007533334050017543 0.0003805119454295634 
-0.006588501320701154 0.01304708066227963 -0.002684465660111487 
0 0 0 
-8.715503520875396e-05 2.144416799625792e-05 0.001587433982209225 
-4.923382383602624e-05 0.0006228005415761721 -0.0003535835289639313 
-2.024286407122207e-05 -0.0001091624373805754 -1.109085073443366e-05 
-0.0001988476480618205 0.0001118412918398778 -0.0001812630616637472 
-0.0004041832049825905 0.001284956473823544 -0.0003130056590557381 
-5.096956234537052e-05 0.004599631354689346 -0.003410740134988532 
0.0001807924010427092 0.0007637752601208536 0.000267591146984935 
-1.8011533409398e-06 0.001171004349517443 -0.001411928557030343 
-2.178932354437027e-05 -9.633215663986541e-05 -7.642154420846278e-05 
-0.03222398302946486 0.1308623571910308 -0.01476668110786958 
-0.001278352931729516 0.03685612663771683 -0.02986336897107903 
-0.1570199696035509 0.230649588852625 -0.05736765367270035 
-0.009146019499427354 0.01255678385803716 -0.02201402045092557 
4.172139990936741e-05 0.002247877229468667 -0.001863833038329571 
-0.02952712023632613 0.07751976668076903 -0.01077769956869709 
-0.003965813370467804 0.004483706352691786 -4.401609658463208e-05 
9.105170799782161e-06 0.006898914780822012 -0.1322432630541304 
-0.0005868730853753279 0.0001188397455376291 5.034980891794675e-05 
-0.0001518634584491132 -0.0008622650935116598 0.0002332275406275014 
-0.0003777442259406642 0.003030195467641174 0.001198343577522207 
0.0009336146522868221 0.0001498988601404808 0.001736212535164246 
-1.748936566763509e-05 0.01136316705470804 -0.009041816657834576 
7.955453780194928e-06 0.0001407997089407176 -0.0002902160218808224 
6.790811991552296e-05 0.003546207203052858 -0.002842971368823968 
-3.225913588592836e-05 0.0008268828069739675 -0.001404244490087315 
4.601000486022606e-06 -0.0002027628086164615 0.0001582950801248221 
-1.698574784006844e-06 0.001116981458733025 -0.0009110393521418675 
4.991735604865949e-05 -4.739814216653155e-05 0.0001094404228171725 
-0.0007712930515970005 3.123228715230178e-05 -6.545743475981488e-05 
-5.50597691145611e-05 0.003591295917401681 6.649189158266448e-05 
-0.0003928162390125161 0.007991165865805488 -0.003533241401244769 
-1.751845143330073e-05 0.001016366321301571 -0.0007580710619486922 
-0.0003773912638704151 0.009925376297267426 -0.005175024412031188 
-0.0001010000493467073 0.001622693289056641 -0.0006534708034123281 
6.633656275698618e-06 0.0001003937375484661 -0.0002256440419855224 
-0.0002489529355293417 0.0001293779544522715 -0.0001012097532698743 
-0.0008334267899835981 0.01003461939789818 0.004953580464737808 
-0.0009324388169283482 0.0006780453874103283 0.003816992666076476 
-0.001004158922645035 -0.007304671892217267 0.00312017927814278 
0.0005872728430827539 0.004249969999117361 -0.004234908209798148 
6.078308336050835e-06 -0.004628408129342776 0.005765763356845039 
0 0 0 
-0.004721637167089569 0.06658653541186944 -0.01283370166443322 
-0.00012411069027905 0.008547590018499104 -0.005369006664645594 
-2.009283538508281 1.268089098754646 0.0006070168667618953 
-4.191378980649344e-05 0.008635729402623232 -0.004985029651934299 
-0.009074452679968086 0.01503700789613004 -0.002011292814119961 
-0.02113229425527092 0.2294667195690339 -5.878206506262215e-05 
-0.001863320523588843 -0.0009215449351318947 4.474856136319268e-05 
5.926278878389717e-05 0.001024534382412668 3.595626471360901e-05 
0 0 0 
-0.003224810085756433 0.06271051863616006 -0.2026907147545 
9.703845674954914e-05 0.0003315714667866112 -0.0003957352985122686 
-0.0004398354064098482 0.01474358510281794 -0.007093589380121032 
-0.0002996553884859709 -0.0003265137125096532 0.0004020031738587522 
-0.0001280586505641311 -0.0005969374276432806 0.000385785742632134 
-9.453574034549213e-05 -1.227706339345012e-05 -0.000128423703335338 
-0.0001523786885517986 0.008512015793739865 -0.003190567320719164 
-0.0003543214581601299 0.002445272336473123 -0.005844421720647038 
-0.001344334170313845 0.01268158168054928 -0.006661785989442025 
-0.0001304352649768059 0.002168825986257202 -0.0006512234686504837 
-0.0002005476411212511 0.0007405144548657091 -0.0003776462738950583 
-0.004649299295881028 0.002544524385363739 6.373496999568497e-05 
-0.002820288475095623 0.005917736518956768 -0.002925898555404067 
-1.509296135203021e-05 0.001871178246518757 -0.0007778012761105646 
-0.0001544823569944366 0.00170908415333249 -0.000624889470483807 
-0.001426544144603198 0.006873525621271649 -0.01017218139820603 
-0.04655792491038941 0.01647885743701134 0.003465062979179459 
-0.02878865215688968 0.02778856509176202 0.0002867637906890711 
-0.01237031204085787 0.01003116374262615 -0.0002478356350570554 
8.306657052619686e-05 0.005307309303827301 -0.006316860153706034 
-0.0002269173035415984 -0.0001655207484316289 -0.001540364131238069 
-2.434134884539448e-05 2.091110994784474e-05 -4.479731615580405e-06 
1.518017492199619e-05 0.0002587030663337392 -3.073142079582778e-05 
-2.314695420472468e-05 -8.666402729920915e-05 1.728361027361379e-05 
-0.0009381981386071636 0.0006352462052644441 5.399339820127552e-05 
-0.008467559482525087 0.007248598960394622 -0.000760807453733707 
-3.381901613143442e-05 0.0002730773598408495 0.0002987042696127254 
-0.01701764376822277 0.009760847605037148 0.002397911315367293 
-0.000117351676779393 0.002087680878995509 -0.001575875847046049 
-0.006014405175120377 0.009756024555794059 -0.003243030622029298 
-1.757289445462233e-05 -1.492011828921204e-05 0.001396027053914603 
-2.086475338062205e-05 -6.969772481398744e-05 3.312943634804146e-05 
-2.604012109252492e-05 -0.0003648288153879584 0.0001550476757521757 
-7.719139078940816e-05 0.004870622954800691 -0.001935156968698072 
-2.084234278370804e-05 0.005883038472216146 -0.004896022186384769 
-5.375634080924436e-05 0.008242647133828801 -0.007125793475850361 
-2.004961341838362e-05 4.236703524972508e-05 4.909057113861716e-05 
-8.100846584533535e-05 0.0001902262070267266 4.404767174027973e-05 
9.774054463710779e-05 -7.819311965864609e-06 8.159162352012293e-05 
-0.00138887695041587 0.0002324711167695252 5.891172019559205e-05 
-1.364226332490688e-05 0.001546721932241143 -0.0005282926686238081 
1.217819502555351e-05 -3.234330475907973e-05 5.504564227914301e-05 
-0.0001546722600569131 0.01118261608498376 -0.030366702519957 
-0.0004621273413261919 0.006315917554857809 -0.002416031444586215 
-0.003521329956204276 0.01078264189715098 -0.00848350911877287 
1.393348387868818 -1.982806845402903 1.626799589570679 
-0.01054672446787955 -1.400694108465897 1.158503815288267 
-0.0898589978903642 -0.7690266263921931 1.040899424881052 
-0.0006953646138522805 0.1130436628489059 -0.01515133668891182 
-0.0001347848402578222 0.007534954824043979 -0.006419872336483961 
-0.008030541156067758 0.005053925482410387 -0.0009301325802994863 
-0.003965813370467804 0.004483706352691786 -4.401609658463208e-05 
8.515442605999437e-06 0.0005175692097071592 -0.0004936348362763731 
0.0002531959528266982 0.006794374226561798 -0.005189624732796108 
0.0002582243176681696 0.0002871756601692489 4.723617237477709e-06 
-3.44996477227364e-06 3.598781575665706e-05 -0.0001033437598055941 
-0.0002593942565423646 0.0001597584975731907 8.66090989424371e-05 
-0.4456783685893332 0.4763176214168747 -0.0152520957004596 
0.0001853396226896651 0.1830604869332484 -0.3431217808547837 
-0.006303875949916166 0.009847420043349923 -0.002170358307935786 
-0.2218314238220901 0.359291155957395 -0.1315287229545633 
-0.007001355731156032 0.2802632043042509 -0.06684857025960161 
-0.01751786419375355 0.9346830696982265 -0.04017495346188587 
-2.673764862341612e-05 0.004568264457920811 0.0008608446105228337 
2.086396442919288e-05 0.1800613496109085 -0.02844852845865321 
1.846546413843941e-05 1.916297105544678e-05 4.429770874250352e-06 
-0.0002492919157585228 0.002094618899338633 -0.001529323195066827 
-1.237117966737065e-05 0.001319951244409237 -0.001035222885969647 
-0.003133235823362229 0.002587080996553258 -0.0003073995340183497 
-0.008090319993362887 0.02091123898195057 -0.01337761192230835 
-3.721765396956626e-05 0.004016790216045812 -0.005608124188124676 
-8.80187758203571e-05 0.001321277175680864 -0.00156291279432373 
-0.009397611981386699 0.007958406162210342 0.002852355095116451 
-0.001661039851136815 0.005701520178145121 -0.003520828518709064 
-0.0004811749232076068 0.01038524368482998 1.48699051669258e-05 
-0.002025298950850983 0.169229963535816 -0.01482251466917459 
7.616334501866385e-05 0.004997420697100541 -0.007806949574789566 
-0.004056083163551519 0.4509780951553507 -0.3161887207749916 
3.891937940037206e-05 0.001797005434245212 -0.001076054365055851 
1.65029074349312e-06 -0.0003636311448160811 -7.687530956975839e-05 
8.417421600810225e-06 0.003408774170393944 -0.001844259453982364 
-3.166153809775545e-05 -7.277230075042877e-06 1.021972102705589e-05 
-1.75412498576862e-05 -3.510096308216343e-06 -7.051169949463796e-06 
-4.253482098540166e-05 -3.739636259567887e-05 6.898410330219058e-05 
-0.003026019670110095 0.2322471827578286 -0.05015464657917786 
-0.2897713769237525 0.09076039942305385 0.006169213504779105 
-0.002223712210433447 0.490809799586168 -0.05424923402950341 
-6.350065183255417e-05 0.00899147480533101 -0.01173969020646382 
-1.237117966737065e-05 0.001319951244409237 -0.001035222885969647 
-0.002314058905023157 0.2085996401126259 -0.09299146212500994 
-0.000117523255929615 0.0009061061634098973 -0.0005477109222171941 
1.479954426821069e-06 0.001711368319809198 -0.002197567280285557 
0.0004782564524617761 -0.0004579522775350843 0.000278456390149648 
-0.006083342627136043 0.003597809520274236 0.001684852834282671 
3.296247919029342e-05 0.003270421245697285 -0.002636870472515378 
-0.0006733760859222061 -0.0008822307687944981 0.001031291006927153 
-0.001982807520989767 0.003828796770079517 -0.004507342818538429 
2.855785208968646e-05 0.003721509943484555 -0.005622611414854561 
-0.0005226842105053752 0.01160743773862592 -0.005730543863304927 
-0.01221524149157795 0.004593119124066809 -0.0001613504568174965 
-3.24301014334266e-06 4.938812180370687e-05 0.001314732443719904 
0 0 0 
-0.0001936716153912332 0.001089036782069102 -0.001203857096788912 
-0.0001385758666675522 0.0006254411496950861 -0.001137894487436157 
-0.0001147071719070917 -0.001598356013335176 0.0006111485916886301 
-0.03540278387871845 0.0235959815446681 -0.007129867100292177 
-0.0002102151296133687 0.02107336880116997 -0.0145730533470848 
-0.05157580514034535 0.01176915706416302 -0.0009843905171197619 
-0.03598180778068107 0.07231535262915305 -0.05023873183883798 
0.0001051386380429534 0.03011299834824324 -0.02214133079591574 
-0.02779381565992861 0.05362412331310776 -0.0227910294822961 
-0.004005958148664044 0.004242610905644659 -0.001051147941463936 
-0.004260767653074953 0.007129482836855845 -0.003680552847612084 
-0.003957397292705187 0.006949129959887153 -0.003120463810360461 
-8.906573080670353e-05 0.0007813466888133483 -0.0005911028184565764 
6.765130851454726e-05 0.001348885572149238 -0.001687419286614081 
-4.076464196891599e-06 8.903676118065187e-06 7.934225532573676e-05 
4.299321145265896e-05 0.0008354995383654379 -0.001800726719137484 
1.573621832664751e-05 -6.424772166893493e-06 -0.0001735474510874602 
-0.003576733696056341 0.004220722801384016 -2.805358956727575e-05 
-0.002438262969255214 0.00250449258272882 3.396587229651473e-05 
-1.597690753912799e-06 -5.928053811592812e-06 -0.0001223392386024093 
-6.411309849055778e-05 -2.141225021383562e-06 1.046144640624808e-05 
-0.008370733957794207 0.02559813857020062 -0.00245676788097881 
-1.967450910972195 1.195876346309998 -0.327779014464686 
0 0 0 
-0.004872999331792411 0.006316956552447647 -0.0003942906420565754 
-0.0004192853953033584 0.00680847582639641 -0.004249335624375115 
-0.002126290910077542 0.2149694458571067 -0.03256929346469953 
-0.002641484123586086 0.003148854793911115 -0.0003978004316019805 
3.996520234427093e-05 0.002907974200182994 -0.001883171304479676 
-6.197396658264826e-05 -5.329931241785576e-06 0.001160660458744266 
-8.656628602119956e-05 -0.0001021255135550215 0.0003195880896392124 
-2.281200798788498e-05 0.0001471476349150307 0.001383941612907187 
-4.681529089455227e-05 -6.435939871574056e-05 -7.239809992558097e-05 
-0.008592555115094628 0.008211133712918164 0.000510086187771019 
-2.502654390017562e-05 0.009073288617050382 -0.006910141477848518 
-0.001054938488980674 0.002009082940481891 -0.003775888540054487 
1.10648060799485e-05 0.0047412392860471 -0.003267143676812373 
-2.554009246047893e-06 -0.0005703649696875258 -0.0001509875373557361 
-1.758891637578382e-05 0.005498076746204222 -0.004056999060187883 
-0.01951612389738498 0.009188116307475652 -0.001155617469973798 
-2.168362250806267e-05 0.006122317521736385 -0.004013447555881335 
-0.001418843354738572 0.001338846485859598 0.0002099010613649226 
-0.002194810156641678 0.0004887698475146485 -3.228038037998413e-05 
4.156921138218986e-05 0.003295587548517044 -0.003521694723005347 
0.0005037974393568349 -0.0002666735053548113 0.0002018668178454809 
-0.003840170634465963 0.000377103537931324 3.057784688509844e-05 
-6.314745601871993e-05 4.559351938086719e-05 0.000687857788663309 
-0.0009062802161676965 2.858480339197256e-05 0.0008279995447252338 
2.028062228917844 -2.529990911661304 1.900362136877253 
0.1512522499431294 -2.940511941653734 2.886243690791422 
-0.206052419718538 -1.271606282189207 1.862538027070825 
-0.04329046775839338 0.1654588128052511 0.0007944673962183603 
-0.008772693481063271 0.01165025265854236 -0.007982276139599221 
-1.580106647157761e-05 0.002397624189864549 0.002359960376223599 
-0.01426242640551103 0.003590717398284441 -0.0003754557433605872 
-0.01305280430340465 0.01338277508126496 -0.001521074809793462 
0 0 0 
-0.04203403712799871 0.1433280534348549 -0.02031250294032821 
0.0008699212057781141 0.06578293909264643 -0.1461719321801042 
-0.02822200721759858 0.03866219989735075 -0.01009667331578741 
-4.007819635509549e-05 7.741773268979001e-05 0.0003658915271705966 
-1.708611775493129e-05 -9.894268600030497e-05 0.0001705972273488648 
-6.872824020301855e-05 0.0003529620408386266 0.001234381997089922 
-0.006884347628413474 0.00359244740780559 -0.0006625842606013908 
-3.449118765501505e-05 0.001120575250856416 -0.0005522922466644569 
-6.627952517216165e-05 0.003286878803971358 -0.00160807557610964 
-6.138194991130933e-05 0.001885909417553664 0.001344895363578668 
-1.610487318490441e-05 0.001218293636935342 -0.0006209735798231164 
0 0 0 
8.899218776198118e-05 0.001120644127220927 -6.290540431781173e-05 
0.0002045488736729901 0.0006034943360232931 -0.000254706437521614 
-4.619162233570744e-05 -3.584912563422263e-07 -6.936369272670218e-05 
-0.0004125017225879991 0.02163176918175496 -0.1070819021911039 
8.802034079979646e-06 0.004906823503571872 -0.006767817669636317 
8.810630023134449e-06 0.1745833038910908 -0.02791985933050375 
-0.0002606346707956612 0.001275966792529506 -0.000172802358976331 
4.23671820266864e-06 -0.0004296648476374279 0.0005972791962239959 
1.772207711407075e-06 0.0003890840436304039 -1.018054214973023e-05 
-0.005564324648862776 0.001533828580877473 -7.384585240282078e-05 
8.108019050321178e-06 0.0008225690949694168 -0.0006720744516502171 
0 0 0 
0.01560937168496291 -0.007545699043187455 0.0003753918316484113 
-0.001988147483325954 0.001590850211442031 -0.0009048607152475974 
0 0 0 
-3.282405012518313e-05 0.0003684176889337026 0.001049047048067022 
-3.140678907336302e-05 -6.47811347343483e-05 0.0001997917090111002 
2.214258472292967e-07 0.001006801656771633 -0.0009666420553041707 
5.413299189760013e-06 0.01251536846504655 -0.003760023815510992 
2.794357366383169e-05 0.000121899932383934 -0.000203126053242337 
-0.07670949487048133 0.01608857604574849 -0.0006341200773721489 
-1.492153456824793e-05 0.003283177036750331 -0.003215508222068623 
6.712313103182363e-06 0.001343730150451606 -0.002797353883542907 
-0.002173670098611573 0.000875912331572686 -0.0001607401078970549 
-0.00161518334368371 0.002769884159275466 0.0003952252642756377 
-2.359896533617232e-05 0.001013662102323517 -0.0008113294966417967 
-1.227918539312196e-05 -0.0001523684267211834 0.0004472518423644257 
-9.862525301754821e-06 -1.209577865304924e-05 -7.816673339911005e-06 
-4.331742439039605e-05 6.276724465823684e-05 -3.159015018296691e-05 
-2.596341672389205e-05 -3.312221759863901e-05 2.034077715907899e-05 
-0.003140447771577346 0.005544169592336168 -0.00199201584405546 
-1.522234913611903e-05 0.002204974618594131 0.0005559245719016088 
-0.001172911324315606 0.003925724572346407 -0.0001878021516500807 
-8.92802589143418e-05 0.0002231345316316837 -0.0001639804653387226 
-9.345285371777236e-05 -9.445018257377685e-05 -2.252095202821815e-05 
-7.541072544405212e-05 -3.422517213947118e-05 6.858588433713397e-05 
-0.001109058566997003 0.0005334489271307429 3.901324620981813e-05 
-3.369003692559128e-06 0.0005391986171330552 -0.0006477291054200153 
-1.620976288443484e-06 -1.05413721018442e-05 -0.00012242415716033 
-6.542243922209138e-05 0.001108016458235055 -0.001517080389356541 
-0.0005280219710228441 0.001187785593955354 -3.624055047177087e-05 
-9.133710031944684e-05 0.0003202515171466656 -0.0002435044783246249 
0.0005629249504281101 0.002815692868829088 -0.002731404154604491 
-4.207866849241768e-05 -0.0006469482701487322 5.906604949565235e-05 
-0.0001334016269529997 0.001668417754178385 -0.0003954723937789908 
-0.01358479533197607 0.01122070015835077 -0.004452755552101708 
-0.0002061899212319263 0.01267679822692711 -0.004231409590215331 
-0.01314481417694513 0.01450228594564993 -0.0008295016072338362 
-0.008354585860678594 0.01565456870338681 -0.01012248639853451 
-6.600440782532741e-05 0.01040014230650048 -0.01506423299693158 
-0.05043723991037711 0.2724965314657432 -0.006631338256557807 
0.0001043971107328146 0.002822105551092896 -0.002297736103554864 
1.312022945464601e-05 0.0004701675662014519 -0.0007740378492375548 
-0.0003874786305794769 0.0006310141741951665 0.0006724565247830435 
2.938762333223965e-05 6.160920407574574e-06 -7.348228167454579e-05 
-1.562888244732183e-05 4.899175464749338e-05 -8.104168777281162e-05 
-1.772385413554735e-05 -7.672741331564408e-05 0.0002958762548214213 
-2.15227040919632e-05 0.003873640519201689 -0.00182747699566476 
5.755025006756702e-05 0.002347982316139711 -0.002906667152206084 
-0.004385586588410662 0.004918027241033779 0.0006554655555834428 
-0.001140425707883303 0.001261801262158468 -0.0002628756347868159 
-0.0002850557060396581 0.009217589838533199 -0.007489770875379591 
-6.824262539150422e-05 -0.0009273545302964885 -5.069232621607476e-05 
-1.559831894202259e-05 -0.0001622871850280063 -2.871649262566543e-05 
-0.0001231919321114854 0.0003928237756622649 7.019286331344805e-05 
-2.438858132702347e-05 -5.464841610757703e-05 3.725004689820573e-05 
2.487485789796117e-05 0.001450610629233831 -0.0001944237719028863 
-0.001781374463007648 0.002606662676216041 -0.0005450022563416774 
-0.0004808103048572108 0.001345355648598946 -0.0003650396475334388 
-0.007316444487541697 0.4091806867011664 -0.5296604952571915 
4.594586871608314e-05 0.09660368384737002 -0.3836772067748228 
-0.0008077529978327886 0.04382023921421741 -0.0220662582082615 
-0.0008958568833133356 0.00352871483529023 -0.0006524432677910677 
-1.721306648019919e-05 0.0009347377772893322 -0.0007888752570855286 
-0.001761916567747857 0.0003056924874377309 -2.930090537315902e-05 
1.611480266069884e-07 0.001025885133873173 -0.0009576326440023439 
-3.282742551854757e-05 0.0003827388065186206 0.00095342965394265 
-9.571920657277295e-06 0.001056115130568796 -0.0006095516884745717 
-2.821739358550168e-07 0.001351147701504208 -0.002198907406846435 
9.152446360896065e-06 2.219424912611272e-06 5.758986692510032e-06 
-1.12183018137015e-05 0.002168716207670186 -0.001522800454514322 
-0.0002061531810056671 -0.0001523021629428437 0.001242101369244968 
-4.822674350631802e-05 -0.00010419801320746 0.001207995312911672 
-5.035828034098206e-05 -5.078944619707444e-05 0.0001722352683626721 
-0.0128420651058711 0.01466860488975732 -0.0009321705132487573 
-6.329971528810557e-05 0.01019182657056119 -0.01549240494809393 
-0.0204612054979566 0.00671537717349694 -0.0002389661849043424 
-0.001964584723248653 0.1193410843063007 -0.00385889367616472 
5.712204145458644e-05 0.02188324760748207 -0.2076674823464777 
-0.003536277503712982 0.005838821241714255 -0.001110253803289442 
-2.561140431428008e-05 0.001737736641740939 -0.003066791442659247 
0.0001809078984376416 -0.001430358964401358 0.0002281068710177786 
-1.546168518716863e-05 0.001449745427960674 -0.0001674970933818292 
-0.03775125360850616 0.1047456174760336 -0.001008260971246674 
0.0003399263184199932 0.02621649936177801 -0.02159982176615033 
-0.01024375780369125 0.005595154447139101 -0.0009054982247371903 
-0.002706221906192796 0.001989868042814834 4.221666199219617e-05 
-2.90076906846555e-05 0.001724252497561668 -0.0009776580158810237 
-1.393251162816086e-05 6.607933229102118e-05 -0.0001127877388434752 
-0.0001288053090168916 0.0002584719393683652 0.0005817613663994622 
-5.702616949913212e-06 0.000334057711710962 -0.0005118186367415839 
1.300015013806425e-05 0.0004861789493891123 -4.436908806096665e-05 
-0.002629524194831192 0.004307791737336338 1.7161944491136e-05 
-3.651007009380915e-05 0.001097652673102485 -0.002527547775335584 
-0.0002560879761251522 0.0007898708441752561 -0.002369637280454836 
-0.05127642970231958 0.106406803038272 -0.001113195018860796 
8.245875016239697e-05 0.02437965032151937 -0.02141385890432765 
-0.005261643450949625 0.004203417317889272 0.000771557534253913 
-0.001513123121773203 5.42178425618789e-05 -1.425983777453692e-05 
-0.0006882240089095721 0.0001239421597668328 0.000369351610356794 
-0.0003109431869608376 0.0002835867438416271 0.0002367327896730478 
-3.866533439234436e-05 0.05023177954137401 -0.03572740288177588 
0.0001385296211355569 0.002933167580616935 -0.006899914967923298 
-0.04835706988460765 1.087521329388675 -0.9452978289879143 
-8.72392530123394e-06 -2.922729926334528e-05 7.643881778693119e-06 
-0.006340698021337013 0.001452740158195531 7.01623568130368e-05 
-2.646154154977478e-05 -4.519420941661717e-06 0.0001853647251500726 
-0.0001269238397586422 0.002448201530055079 -0.001641052767219776 
-8.053493708334379e-05 0.0006957958562638755 0.0003377013449175459 
-0.0001530853584840259 0.8723407059731884 -0.7879139789009609 
4.176611643019453 -3.486507672119159 -0.01598524315248058 
5.911630185501761e-05 0.008549506857837699 -0.009883794926496639 
-0.02155187346144164 0.02668262096912313 -0.005335970383719385 
8.086044347312925e-05 0.4886646390098673 -0.08025396197935815 
5.735999890747748e-05 0.1858989002037912 -0.4993114294120961 
-0.162145868891601 0.04090807030829466 -0.005166311651530551 
-0.005980134095328388 0.004602933040326062 8.124658655353816e-05 
-7.772348862239806e-05 0.001587982897870278 -0.0002547685419099933 
-6.321402901917562e-05 3.500661343546525e-05 3.263772128829035e-05 
-0.002452478236562615 0.237029013241045 -0.09871975431657672 
1.856669330428607e-06 0.01049629529784732 -0.008222722448681039 
-2.027659426635473e-05 0.00640394780582661 -0.003152407128779758 
-5.708301719282863e-05 -0.0001925790007538318 0.0001148228388802544 
-5.216111273182897e-05 -0.0003363746062018033 0.0001447353277170064 
-4.294093189627112e-05 -0.0006652799221502546 4.098442034161477e-05 
-0.03086736281078633 -1.004656688653879 0.8875053864430653 
-2.185930593061141 -0.2618335924090711 3.037943176749368 
0.9934488788509036 -1.335462572856366 1.11752786253105 
-0.0004667123031888175 0.2997625514242686 -0.01062301431242493 
-9.516397234777039e-07 0.005830451192258867 -0.00384263296727061 
-0.0001065497446129914 0.005070449392465565 -0.003900169747628068 
-0.001697016010475186 0.001741925332811811 1.141647249997009e-05 
-0.0008661811671023709 0.001182925082450026 -0.0002412311349426508 
3.045190932636632e-05 0.0004819898538451268 0.00106731138725251 
-5.183971593467639e-05 1.272239970845625e-05 -0.001017396120324345 
3.249991775518438e-05 -0.0003938525156725934 0.0004432416093373021 
-0.0001009000316193228 -0.0002839443845800213 0.000653280590953332 
-0.3511366987184435 -1.862652314392542 3.859380586211199 
-0.008273758811563796 -1.169381697459607 1.177801475753466 
-0.1441968447568525 -1.582974428890332 1.87325209080424 
-0.003924495716106884 0.00364670946753566 1.103038846710713e-05 
-9.16068957905277e-05 0.0005462281886291101 0.0002881982691651509 
-0.004357609471139032 0.01159909878370204 -0.004246036159811874 
-0.0008897604703930851 0.0004786310057808905 7.072661425580044e-05 
-7.846039121580576e-06 0.0001699883090263483 -0.0001387631333691108 
-7.506444410250745e-05 9.599398388853973e-05 1.320411187437681e-05 
-0.0006744564914093305 -0.003064043465638587 -0.0003677604122092273 
-4.311215662249696e-05 -0.0008046569073876903 -0.008904307305423013 
-0.0001418025267036019 2.84476322268897e-05 0.002445961411431118 
-0.002876858494626555 0.009136846901098967 -0.003606120493567714 
-1.766220955137248e-05 -4.207899172565121e-05 -3.815672999557718e-05 
-0.007359662998325639 0.002566240893570767 0.0001775674560533255 
1.205588992190243 -1.610682424253616 0.01548215291154373 
-1.183031996452169e-05 -0.0002133739541643565 -3.473626604998279e-05 
-9.660466538501657e-05 0.0001126466895305586 0.0001485301630020855 
-0.0187824874266329 0.2223028323876807 -0.000532150160885637 
-2.400775942618539e-05 0.004141911384965819 -0.00303173959606984 
-0.001043758757235275 0.0005570056359563357 0.0001559853393747873 
-2.509848465121479e-05 9.006171871756858e-05 -5.260469078374465e-05 
-8.417059322987976e-05 0.005044966622567038 -0.003870304137474771 
-2.74978209040139e-05 -6.460566787784494e-05 6.219656895836345e-05 
-0.003600352003345821 0.0002673372606586584 -7.928042226160684e-05 
1.707677675307255e-05 0.0001414633374668829 -0.000125696951757299 
-0.0002675966814352519 0.0001634521106133631 -2.54885549105494e-05 
-0.02382575365580876 0.006312949629855919 1.892891694351243e-05 
4.239988976453355e-05 0.003857683949190946 -0.002144207551275885 
-9.288314394511135e-06 0.002675356267012296 -0.003716295708423519 
-0.01934122988062532 0.00123383440762383 -0.0001263304588129301 
-8.353274660037619e-05 0.0005534408860354695 -0.000260607528515771 
-0.001075725084613827 0.000466982898045538 -7.844260146798489e-05 
-0.001716023804438343 0.002844698990576564 -0.0002709676040918597 
-5.369809686501182e-07 0.004181580577143609 -0.001273784688314202 
-8.594573174988614e-05 0.0004876423206078096 -0.0002416854511527471 
-0.001346141369894475 0.000266471850205135 0.0001131673150039464 
5.917930160539421e-05 0.0008010471914838916 -0.001860461990331242 
-5.678115347618221e-07 -0.0001018396133750683 7.446855180275431e-05 
-0.001027515900996963 0.01106797044977577 -0.2747032137537533 
0.000208018766995379 0.02262395016634034 -0.01466119773888692 
-0.007307054224126575 0.004887751874394015 0.0007032553244623657 
-3.966671666509817e-05 -0.0001877091326196557 7.353613878896705e-05 
1.472609398608831e-05 -0.0002187174758760064 0.0004670855535852036 
-3.934241904457354e-05 -3.739235340267052e-05 3.458328046607728e-05 
0.0002509424092487366 0.000528502995814813 0.0001399910918347826 
-1.691969641836546e-06 4.21494475519493e-05 -0.0003762642226760547 
0 0 0 
-0.005260161562439769 0.003367449306715477 0.000418262034889408 
-0.001008733584674481 0.02067281674464169 -0.003159057881865132 
-0.0001358472548762989 0.0004826383120885818 -0.0001022657820883641 
1.04599938951141e-05 -0.0004653742433955328 7.73674479291245e-06 
5.127743383013101e-06 -0.000193381605180987 0.0002811675884083677 
0 0 0 
0.000299718486799779 0.06624921569879784 -0.03981645828169457 
-6.621518659963436e-05 -0.0004753300967098325 -2.032960243920814e-05 
-0.002725779577003461 0.03274079282231144 -0.5675874305246819 
-2.267673435774658e-05 7.997196888240108e-05 -6.946797819268257e-05 
0.0006718936728258363 0.0003169047886125874 -2.030087622648931e-05 
-5.130789990064728e-08 0.0001497510703569292 -0.0002743582327300535 
-1.094462326148576e-05 0.002331165363052999 -0.003650538573828839 
-3.328005872722303e-06 -2.350842426075157e-05 3.216123019395689e-06 
-0.003255469474001506 0.001685650776782098 0.0006078744906097294 
7.910965240372763e-06 0.001387350003669155 -0.003100206215839985 
-5.064137480015023e-06 0.000238216108138026 -0.0004062229219584371 
-0.003594531443246703 0.00335539744686545 -6.41046122142089e-05 
-0.02125185814194638 -0.1431533775292094 -0.1355410238799988 
0.001842229096199627 -1.746795027055815 1.442881270305817 
-0.7059721904347419 -0.7124603266968729 2.027070976033173 
5.215034997073462e-05 0.0006422056199436322 -0.004563610609688535 
-7.3580594111999e-06 0.001294868579782543 -0.001089846132782643 
6.995316420442526e-05 0.001460245039023891 -0.001323154513896812 
-9.553205120037458e-05 -0.0003550328748991786 9.118758825312512e-05 
-0.0001262430636866454 -0.001123169903982626 -0.001576777876439079 
-0.001497852720842044 0.0004894648704842644 0.001124348863653587 
-0.01371083575982966 0.00178515131987057 0.00053964282279626 
1.271671912767161e-05 0.0001999849521255365 -0.000317821754398965 
0 0 0 
-0.0002423018040968876 0.000463819471042985 -0.0002410242421621752 
1.300015013806425e-05 0.0004861789493891123 -4.436908806096665e-05 
1.300015013806425e-05 0.0004861789493891123 -4.436908806096665e-05 
-1.11699964674446e-05 -0.0001139026972810764 0.0001149862850600618 
-2.570204083498062e-05 -9.848945900689194e-05 4.020035309485585e-05 
3.069935618379755e-06 -8.994031651242548e-05 -8.474651963659744e-05 
-3.668316083262731e-05 0.0200888820583411 -0.02126294350698336 
-2.944600199399988e-05 -0.000711781922336724 0.001695443224173068 
-0.01513035871618991 0.1146578645377789 -0.01492061456099772 
-1.633474611053685e-05 6.635584644988354e-05 2.937259740592958e-05 
1.447691993727448e-05 -0.001631448261572372 -0.000102598684621237 
-1.787534522500645e-05 -5.924026966053893e-06 -9.616031573746543e-06 
-0.0003059744534597792 -1.657203277796098e-05 -4.336973136021448e-05 
2.181709560085651e-05 0.0003802084651454769 -0.0003976429229051542 
0 0 0 
-0.001756294402387545 -0.00110993896529549 4.964129713189475e-05 
6.018692871908479e-05 0.0009678061254077328 -0.00125078830232413 
0 0 0 
-8.240354083377527e-05 0.000378486944606122 0.0004955148159274961 
-5.011495565062108e-05 0.01155742979818134 -0.01371839436594477 
4.93363086978218e-07 0.0005431380115891518 -0.0002311561870366904 
-0.0002976884242076502 0.007565248897775165 -0.007769373108703408 
3.218442647611842e-05 0.0001462820822965969 0.0003849770227352696 
-0.00331682353511469 0.03760824794358485 -0.02207581356415094 
-9.905133089723695e-05 -4.864699876803669e-05 -0.002829410365084067 
-0.00168810833674813 -0.0003155367157213474 0.0009720305904893238 
-0.002523857456624604 0.02391586651096191 -0.0133053774073063 
-0.0009215230696890558 0.003454667547939141 0.0001639348400473613 
8.200193694646842e-06 0.002612219033284632 -0.00612549287888438 
-1.101264530625494e-05 0.0007181234048712594 -0.0005909560930948472 
-0.005297543024341676 0.03793266696664026 -0.2152872740154301 
-0.0001262361513654375 0.002887470327686585 -0.004007534534386092 
-0.0006945564739407731 0.03085453554401385 -0.01955071786109673 
-0.0003672544912606279 0.0002646720555180332 0.0009405197405925023 
-1.440765907424707e-06 -0.0002005209033822065 1.530448006899207e-05 
-1.422695110626945e-05 -0.0001613793054964354 0.0007196559111241424 
-3.033939610059285e-05 0.0002907216248643959 -0.0004839462574680257 
-1.599721404886787e-05 -0.0001309256138310237 9.232959774840527e-05 
-0.001077620275738866 0.0008078052825723605 0.001014015984645188 
-5.624372541408984e-05 -3.265614249938553e-05 1.239959316038439e-05 
-7.04143057430127e-05 8.716044913076193e-05 -3.137867084538435e-07 
-4.822384207282639e-05 -0.002092648483467218 0.0006859314169930608 
-0.002305034020969041 0.03882058042820982 -0.3571653604649472 
-0.0001488387155828208 0.00258237087593085 -0.002915423523221754 
-0.0004499362020568994 1.26432564480951 -2.216084372655781 
-0.00256228290450665 0.002349064430945952 -0.001202711846861551 
0.0001634661839735872 0.01556609385215466 -0.01136457092832031 
-0.003649089797177795 0.001727235117834802 -0.0001040650534528271 
-0.01062857388434678 0.01136027479320469 -0.001124002836250096 
1.009914550264923e-05 0.002329247563559256 -0.001444514006524655 
-0.005815512044082469 0.000580440073919757 -0.0009056634874104611 
7.580345717512227e-06 -1.233060059572052e-05 8.493106334559445e-05 
-4.608694751644233e-05 9.98709467576946e-05 -2.718386129925296e-05 
-5.527927127722722e-06 -0.0001075177822360492 0.0003753999392928201 
-0.005347899167606288 0.003277538023947413 0.00169595490856257 
-5.696991391210027e-06 0.001258276104954752 0.0004842389569568433 
-0.006071918984003713 0.006595217921806176 -0.003186297644325739 
5.266770647748178e-05 0.0005656396177761721 -7.281857984391818e-05 
4.241546899090665e-06 -0.0004593371267279426 0.0006325734471375132 
4.236076083019193e-06 -0.0004289105750277081 0.0005985050818826348 
-6.684803988110013e-05 -0.0001004108791688524 8.429273902808469e-05 
-1.448753852070722e-05 -0.0004748478226042586 -1.900711988538661e-05 
-5.010699842156507e-05 -0.0006615080003050512 0.0001198794464813037 
-0.00180626438696504 0.001837532955034537 4.772102221574863e-05 
-2.692647690722493e-05 0.0005422435190174793 -0.0001090213007557692 
-0.004032621010398487 0.0004845305321668888 6.456629486334353e-05 
-0.00305698746891232 0.001522437654232249 0.0009372353500611663 
1.748148124677298e-05 -0.0003096477768532394 0.0008354266843928802 
-0.003256142046218747 0.001319346343461331 0.0001432922129327679 
-0.01696459162286054 0.5772317622816658 -0.3049665837300396 
2.364442071982231 0.1738815318605645 -1.556659135723608 
-0.00698708549602741 0.006547447681653086 -0.0003367931198109383 
-0.000683164147672478 0.0137686674291256 -0.008537378182430779 
-0.0001446101634197502 0.009075239656397029 -0.005763651608041914 
-0.003420533384855819 0.01249243375529493 0.001247429946108891 
-0.1725499626372007 0.07467812435470235 -0.009602675196296604 
-5.645500327725255e-05 0.01601769403469409 -0.01182319016176823 
-0.01741397394093361 0.02258665791924354 -0.01085695214685736 
-0.01101806762726076 0.01971451570618664 -0.008508509442544211 
0.0006745535491859497 0.01821322530127687 -0.005355344404683472 
-0.01055916040598989 0.02276018531096682 -0.001767304325442455 
-0.00329299031701645 0.002201753689290562 0.0009657649652681872 
-0.01104373693968042 0.01183953453747288 -0.001802938023653208 
-0.003537978886355641 0.007803835435339379 0.003656710713293761 
-3.264722416597344e-05 0.03006002920936857 -0.01829102786633105 
-7.255370557338038e-05 0.0214645269259631 -0.01109140950446596 
-0.008863876051726104 0.01071260708851633 -0.007048934546626076 
0.004570575664762353 0.008086914028120824 0.007234513451626233 
-0.00217390431741058 0.01406179099855774 -0.005317498637833625 
0 0 0 
6.746543622019563e-05 -0.000820702346636497 -5.179104365607292e-05 
2.267838413757457e-05 4.877199440919972e-05 0.0002030561837881018 
0 0 0 
-0.01798426462223545 -1.665280959162276 2.03207454491801 
-0.004412905591453567 -1.794929071364218 1.701910879725102 
1.897869233311487 -1.682249713235332 -0.07388637901523915 
-0.0002482023118460482 0.003743377019821644 -0.0007681130230291662 
-1.450236654484869e-05 -0.0002679489525888062 -6.476819309164985e-05 
-0.0001211233995514924 1.548704744658491e-05 -0.000219231679962758 
-6.455455387457144e-05 0.0001173815195670552 -6.762500978652923e-05 
-0.0006718968795099693 0.001040496408193726 -0.000426901072749508 
-3.315186676311475e-05 -0.000968213699014727 -3.057585338784611e-05 
-9.57396953456287e-05 0.0001956668945401237 -0.001761418448237771 
-1.41839404265492e-05 -0.0003219460002262013 0.0007889831689378602 
5.340674877280344e-05 0.0007007411914652435 -3.455614731775168e-05 
-0.008511262499767044 0.006984656684894556 -0.0001657932293734349 
3.762641013267052e-05 0.004267662317659733 -0.00390095927713208 
-0.0001372021859363731 0.08753890117193126 -0.07289282417249006 
-0.000381796179329283 0.0004780906992161226 -0.0001385868100782804 
-0.0003400646271393074 -6.39477531063896e-05 -9.754701896899119e-05 
-0.0001566785027412405 8.154721237748631e-05 -1.787755424991786e-05 
-1.314866058943787e-05 -0.0001155000203680318 2.9153510450023e-05 
2.637021468436466e-05 -4.421188571668673e-05 3.474856385540943e-05 
-2.151903921376473e-05 -7.133965707727516e-05 0.0001836561692698712 
-0.0266420220572592 0.04389202004910309 -0.004179417664499038 
5.275451113061561e-05 0.007267249730831728 -0.005753839652206112 
-0.0234306176970176 0.04193864259435569 -0.005316060962541117 
-0.5930097176136222 -0.1958554245269275 -0.01112199359606237 
0.0004501984157635397 0.305546329608524 -0.3572344343591877 
1.061149599167766 -0.1050185149256104 -0.4300180701471434 
-1.074789820538218e-05 0.3272331663339031 -0.4718997762544405 
6.613812554473106e-06 0.0003372713827099671 -0.0002545680542967148 
-0.00071947133093563 0.006506982970042127 0.002949051639045323 
-0.0005891721249841623 0.08107528901518088 -0.5389092580269828 
0.0001002535084420051 0.004143407911980742 -0.002071854902123307 
-0.0005072310584291361 0.4484559245808291 -0.03128178213552706 
-1.129586194610528e-05 0.002077237715432228 -0.0005105322937128074 
1.945622419818425e-05 0.002835830084915297 -0.005450178952854495 
-0.03494593547564873 0.002165694457160586 0.0005381626049795576 
-3.563740962658771e-05 0.002126085401093417 -0.00264453097465885 
-1.610487318490441e-05 0.001218293636935342 -0.0006209735798231164 
-7.078117097988579e-05 0.000438640422622282 -0.001696368624470081 
5.689187832717643e-05 -2.24326732225472e-05 1.219781815443346e-05 
3.212954264203185e-05 -5.068352502838812e-05 0.0003198249393674575 
-1.364207084368223e-05 2.219373900009903e-05 -0.0001638611308770578 
-0.0004242328392846283 0.3261479123974928 -0.07575697341655889 
6.502810471313667e-05 0.004771091332427216 -0.004155786635282517 
0.001086537820989217 0.05399296930883896 -0.004937659884053289 
-0.0005197150182764797 0.0003947962632669266 -0.001969790614778175 
-0.2114912227955637 -5.209748412390123e-05 0.00116690664217016 
-0.004948929177373307 0.01595718631507596 -0.0006017467032022927 
-0.2256711233895422 0.972624697373208 -0.8180750136551097 
-0.001568625985457208 1.146690287624482 -0.9868081179268088 
-1.219317572327444 0.1671692796355396 -0.2164013107379159 
-5.247052499335077e-05 7.691466080019424e-06 -7.343139911601768e-05 
-0.07627508085564878 0.01736118457576327 -0.01553652215760226 
-0.0002194703714414308 0.0005777599664050375 -0.0001123534435421716 
-0.002919323401455494 0.02833039446962608 -0.02328785486357845 
-7.350621048494634e-05 0.002586406513044244 -0.001226305548589186 
-0.02620414939246433 0.02596219338647672 -0.00370956607134375 
-0.006611564078281955 0.5687060977900801 -0.7359161384827887 
-0.0001514613452630648 0.003344180901339977 -0.0007760096405755047 
-0.002550462091633841 0.01336590655153143 -0.1110027380545572 
-4.118681974452859e-05 0.002312382643729408 -0.001074111297214795 
3.27573138551423e-06 0.0004420625867640494 -0.0005093758211573665 
-6.747802059383442e-06 0.002188967572375279 -0.001973413912121349 
-0.0001611654060544545 0.0001300717720986127 -0.0001682194082714297 
-9.577018163940128e-06 0.001443359959822969 -0.0003288637836026937 
-3.394067855554135e-05 -0.0003252525313318712 0.0001444043982889722 
-0.001486624551231238 0.006174472111280728 -0.006751512594250772 
-3.924893388510549e-05 -0.0003995228033423203 0.001013955439701825 
-0.0004003327043368713 -0.001523300013985211 -0.009702217743031543 
-2.79981121208057e-05 -1.327990292695908e-05 -9.303483213074909e-05 
-1.114070152169174e-05 -0.0002431254310561064 -1.554584380571076e-05 
0.0001193513352580529 0.0001993427084817992 3.498013054072276e-05 
-0.004050823716657031 0.003166319016036564 0.0001633680065179108 
4.579139056255176e-05 0.002262949569927136 -0.001460279036313793 
-6.031973776757427e-05 0.0005663385157635771 2.832181814557899e-05 
-0.002468629047438383 0.007408496086020823 -0.00348651214227273 
1.399433317372463e-05 3.897960624192497e-05 -7.181765494343417e-05 
-0.002662095155132552 0.0007718261219928964 -3.921679591822239e-05 
-0.00124176681412719 0.009853330926205633 -0.005609426121169319 
-8.420440289902737e-05 0.01248890738769886 -0.1466292233010783 
-0.008397516199476618 0.008364277917631783 -0.0004435926707691118 
-5.204453204173735e-05 0.003537982820163717 -0.002023721253676935 
1.665714394522242e-06 0.001046302854736776 -0.001500076546179222 
6.657981268141916e-05 0.002017648688841664 -0.00145759208251761 
-0.0002348300251306512 0.001999717984207808 -0.0009194325422412014 
-0.0006572383515544239 0.003824581393440794 -0.001445993315604638 
-5.785388778273035e-05 -1.39246077293439e-06 0.003315036633366878 
-0.004203076608061971 0.01022712026876858 1.450770222548484e-05 
1.279460079264666e-05 0.001174890768346634 -0.001056393614021214 
-0.0009626859403714246 0.003446683283507733 -0.0002585438153539197 
-6.062793498038826e-05 0.002650687474701507 -0.004200600581444776 
7.384645440287236e-06 -0.0004109236352864272 0.0001692803638155869 
-1.349028657281743e-05 -0.001230296684918193 0.000979682164894684 
-0.0008575349835277514 0.006460549776068089 -0.004533171790261195 
-4.65610351682053e-05 0.002469223259009826 -0.003507623090157975 
-0.007829046142639767 0.003994003688454192 -0.0008992161771390061 
-7.860077712851841e-05 0.0003890243649925717 -0.001468462455938548 
2.114745550169907e-05 5.522178705100465e-05 -0.0005652293048039631 
-0.001123938078942013 0.0005045317603961454 0.0006629229300508455 
0.0003908772497664362 -0.0006797166129590172 0.001118730890528668 
-7.774539549188857e-05 -0.003074480555810403 0.001289541533180462 
0 0 0 
0.0002191959450384279 -0.001717648155013958 0.0006443169968743711 
-0.01110675589861008 0.001268199567978202 -0.001571405197456506 
-0.0001237427946328778 -0.003910287750775602 0.004584392277283507 
0.000204958802062342 0.007275198818350392 -0.006481695611951362 
-0.0008671527498076712 0.001629762462386851 -0.0002457420628473893 
8.382104426926594e-05 0.01027194798212048 -0.001036426215690284 
-5.907116790725523e-06 0.01874479853127335 -0.01147112711946148 
2.677912067549792e-05 0.006420352332982614 -0.004149617686655141 
-0.001235543189589188 0.007242187641280631 -0.00260404510396334 
-0.008586689379981628 0.006139627739645907 0.0003310297589271384 
4.646583128751664e-05 0.003105659887102216 -0.003469189131361577 
-0.0002265512287550267 0.0002691586161069546 -0.0005806792715387191 
-7.528795504759339e-05 0.002171941776135354 -0.006615804401069294 
-0.0001004032237031264 -9.168843844270772e-05 0.000136692901624437 
-0.0003262203692651792 -0.0002106516635082495 1.483194042082571e-05 
-2.12682138590745e-05 0.0004015369531674779 -0.0003616581453308578 
0.0001410258719138995 0.0007374135150120888 -0.000918237079918472 
-4.815117359890413e-05 -4.772849252476501e-05 -1.379112249601689e-05 
-0.009802017127204285 0.002397453927446615 0.0002108184941742024 
-3.33290161559407e-05 0.0001489477879781016 -0.0006256210031401133 
0 0 0 
-0.000944680394684152 0.001800194670436963 0.0002296962045632633 
-0.00289651391911684 0.01086596626044971 -0.003954525048577723 
-0.001144146501562519 0.00114065514125177 -0.0005158007853812719 
-0.02140107610243635 0.1651492157407582 -0.001134624607526313 
-0.0001395207307828651 0.04593834433363133 -0.07091142432772768 
-0.002022983275496537 0.008571415633043094 -0.004255796413367804 
-0.006984746810786435 0.004776672344260977 0.005440312546864274 
-0.0003951092818595108 0.003784898044039426 -0.004648306716586907 
-0.00150293424710792 0.001422516193223366 0.0008324136396434727 
-4.396766865427049e-05 -0.003524944951875907 0.002346949510085702 
-0.0001495233223464847 0.002239222978786156 0.0008648629520865877 
-5.811316461932553e-05 -7.943598375705093e-05 0.0001767928359145136 
-0.0002034157743882898 -0.0002829048689136478 -4.003742615127786e-05 
-0.0001403704346995339 -0.001443760749683137 0.000315458292648388 
-0.0006406263387846559 0.01978228126224359 -0.04371640769023116 
2.486707463851823e-05 -7.790617799945901e-05 4.090862467277401e-05 
-0.0007462465436364852 0.0001660329321929117 -1.743855718608488e-05 
-8.263097895936251e-07 7.743573682084473e-05 -0.0001091882778661523 
-0.0004578574654045312 0.005618246183732508 -0.002000622170912685 
-0.001306247191637825 0.001947156479524246 -0.0007584578841513229 
-0.00187520529929056 0.007659811109700438 -0.005632990634420466 
-0.004145473784898055 0.003249124901401578 0.0001075452431982151 
2.062137300984201e-05 0.001872813697064931 -0.001056447048386019 
-0.001106524614161123 0.0006953233752853064 -2.488463794015316e-05 
-8.901525426516426e-05 -3.651348272948786e-05 -0.000915519469098526 
-5.436707165014522e-05 -0.001084447576674955 0.0008394863359913744 
-0.0001253299999641606 -0.0004188542399683572 0.0004347821288185723 
-0.0003060965006681959 0.0008178165313942126 -0.0004342730619127832 
6.746320167447306e-05 0.003431695976853888 -0.002944788803242982 
-9.545981744141523e-05 0.0002920399072095491 -0.0001018231012261706 
-0.04241062986055524 0.6761895967314668 -0.003021327441595738 
5.562701928370673e-05 0.009935167135167899 -0.01010325355641151 
-0.01866528506375426 0.01407201676064813 -0.0004745089207596299 
-0.1925809786556969 0.8006182086634377 -0.01342040664177947 
0.002434291021091363 0.7752353866767429 -0.8584598281696222 
-0.07186738598815215 0.04743060101842585 -0.0002285678131865496 
-2.087760909782389e-05 0.001566287239824084 -0.00190136210020695 
-2.019889246826367e-05 0.0001017014596218692 -0.000110883782957663 
-0.001456159699754489 0.001376066118755623 -0.00011868618210866 
-5.582939482285849e-05 0.001505998961156507 -0.1373220027189242 
0.0001601846899549014 -0.0004572878698681532 0.0005297642276198658 
-0.0002952292450847902 -0.0006453137035512963 -0.002361630094933176 
-9.149726214104229e-05 0.0002632556698039067 0.0001563868878886222 
-3.328005872722303e-06 -2.350842426075157e-05 3.216123019395689e-06 
-0.0002755471800523065 -9.758271836228482e-05 -7.783666636849929e-06 
-0.007848342074601602 0.09984656670941344 -0.1761152225469716 
-0.003226860255990012 0.006657912607644431 -0.002744869780199156 
-9.772166341090417e-05 0.001740773958473761 -0.001825398434513091 
-0.0001206912760985648 -0.000391860098361243 0.001770898254643516 
-0.0001267556921881622 -0.0007041144039190041 3.059121353053458e-05 
-0.0001917246351481374 0.00646037758296682 -0.001355600713786912 
-0.03879832148138061 0.002250503137941473 -0.0001061019517625826 
7.83985259385661e-06 0.002350682961294558 -0.002222140733135208 
-0.001184811986107335 0.003218443471356523 -3.924065148387067e-05 
-0.0002158411196272078 0.0008692188163607092 -0.0003773963435287049 
-0.0002589418916158768 0.001042677388437113 0.0007623338347532473 
-0.0002820658444054331 0.001531989163182906 -0.003150351441830992 
-0.0004067073778889225 -1.676765099334142e-05 0.0001069705587183291 
-0.0003367284029128341 0.0002966848450442215 -8.511996413521197e-05 
-3.433082796802761e-05 0.0001211650072320321 -0.0002006246485681614 
-0.08347898082155017 0.3299261609374827 -0.02587843282173612 
-0.0008971124356044129 0.4969804525836105 -0.301190703513151 
-0.0376391356142199 0.04596782216186015 -0.1311787185713434 
-0.001240753945409281 0.0007894911799532328 -6.511909424139207e-05 
-0.0001556220865569918 0.0008860565091491 -0.0003514925648070459 
-4.173580630471709e-05 0.001046515093872069 0.001444603506316597 
-0.003549039206056895 0.07430490802487803 -0.006568702490475663 
0.0004211020575185932 0.6713736708301797 -1.147378136687121 
-0.0216703567912078 0.01723027463925256 -0.003232231438311816 
-0.0009106086111982036 0.002789088353092061 -5.902186520613921e-05 
2.439647951653517e-05 0.0007918114469095103 -0.001170123515441842 
-0.007255101152041764 0.002873599004496922 0.0001497606766780058 
-0.0008539365038523816 0.01060134934908288 -0.02673671033723072 
3.455113496461003e-05 0.0006385823538802228 0.000190234506456535 
-0.3233121958998766 0.1148296006943578 -0.0002451810133124217 
2.842128199659599e-05 0.004214839559721633 -0.005211808613969734 
-2.392817849312869e-06 0.002564140319677605 0.0001424898980766128 
-4.932905073245783e-05 -0.0006422869926635004 -0.0001190998379055089 
-0.03439019095920509 0.0270700813915671 -0.004874836788755431 
5.192485439423119e-05 0.002487684986515205 -0.001560830570362022 
-1.800663178766925 1.246008894047323 -0.0001094769375089546 
-0.003965813370467804 0.004483706352691786 -4.401609658463208e-05 
1.487738471625379e-05 0.002208835213519114 -0.001707656575285675 
-8.572998095903027e-05 0.0001046102245849181 -4.777082041044266e-06 
-0.3357742104631087 0.2477870276239185 -0.04426062479340282 
0.0009078273454440479 0.1264793958154339 -0.1013711085187217 
-0.1479592754710029 0.5981469473440852 -0.158606059831108 
-0.0001461566149070702 0.0002376851964895309 -9.336426803883663e-05 
3.799959449468877e-06 5.43189742877868e-05 -8.590775985697124e-05 
0.0001021382725997156 8.496269823177991e-05 -1.484185458201635e-05 
-6.833728291372316e-06 0.0003713463793790459 -0.000322790663463868 
1.092843560289299e-05 5.140617983599848e-05 -7.816856816297117e-05 
-0.0010514415923979 -0.0001073365988590915 2.16932195228441e-05 
-0.0002819741041632046 0.00194493395202287 -0.0001314698766377019 
-0.000461792471906994 0.0103957194779109 -0.00812092696465316 
-0.001010825453097644 0.001131018298782548 0.0005528990132093372 
6.319384439017404e-06 0.002189174301936261 -0.003468138275311007 
5.584852913702079e-06 -0.000381256885709241 0.0001061939585924788 
5.963902490087643e-05 0.003703612042535234 -0.003310543377459652 
-0.0001159765548684547 0.003159046712794748 -0.0001133609150587491 
-0.0009704583565866946 0.0008838877213133598 0.0004913890400958426 
-0.00773612399944189 0.0175547825301132 -0.009246666503087661 
-0.0009221296078606976 3.068601736367659e-06 0.0007873861727179216 
-0.001101502249517982 0.005411279367388982 -0.01126771879970442 
-0.001361266802027793 0.007040665893180372 -0.008264295170051851 
3.730864525545236e-05 -8.184271738541659e-05 8.091613015408356e-05 
-3.63808918767865e-05 4.415584082048718e-05 -8.901828193418505e-06 
-1.181061085324043e-05 -0.0001960075430934404 -2.488009450091692e-05 
-0.004562638262145147 0.002754457848760723 0.002324382149579332 
-1.38575444233644e-05 0.0003068452727558234 -0.0008048831354837295 
0.0001143665215404749 0.0007335402638488826 -0.0007311952377150437 
-0.02365817834890964 0.008708871179324496 -0.003054892378728244 
-0.0002655355089800893 0.01012168702167939 -0.00892563610430853 
-0.007806623381445979 0.002473782821130514 -0.0001855513052061318 
-8.93713378815763e-06 1.983403221944048e-05 4.258588088666502e-06 
-0.00103837849701492 0.0004500779295198527 3.933259181308811e-06 
-1.413269221514819e-05 -7.901904266040266e-05 2.460104814470251e-05 
-5.386245856878606e-05 1.186785364679484e-05 3.698127139920236e-05 
-6.755649815862942e-05 5.676702246315403e-05 7.052930240936151e-05 
-8.458494169893563e-06 -2.623189460797456e-05 -6.358131429027833e-05 
-0.02561512481227197 0.09966351570025274 -0.02224709112149062 
0.0003652018215291102 0.03893606411464837 -0.03063754565002168 
-0.1248970808018107 0.03581375417326342 -0.006407617765315416 
2.360932955679906 -1.80022907910802 0.5290126129174221 
0.04006647593483888 -0.8375643388089753 0.8019360761355609 
1.195031728285126 -1.63518720261818 1.276807745511489 
-1.959250506950522e-05 3.277008970235406e-05 0.0005218261318286535 
-2.192800456775988e-05 -0.0001357028673296187 0.0002501282852389273 
-1.545651446861079e-05 0.0001372087983343939 0.001363132892353443 
-0.05294719835614999 0.2893968117811071 -0.2857887879543872 
-0.01522601999109345 0.02151739315995845 -0.003034179295023967 
-0.4810755383247645 -0.2414256769097525 0.5090698663293087 
-0.01145002261406633 0.01038560947414714 -0.002783272684470899 
0.0005202014158028397 0.02309903954297839 -0.01981614606768038 
-0.001811973226649229 0.008016510920762622 -0.0009530803323110136 
-7.697161734300529e-05 0.00387456780364442 -0.004764648299963177 
-4.332470103485231e-05 -3.538518646187999e-05 -0.0006981380420698291 
-0.005739178744484132 0.004039791107044314 -0.0008176719981054312 
-0.0326296131350139 0.02711374128800413 -0.000777475636023239 
-6.1615787696471e-05 0.004238236891568044 -0.002452097142463658 
-0.008968555965664883 0.007216326783779514 -1.095388385744419e-05 
-1.761796484596258e-05 0.0035521865425297 -0.003138340770931809 
-1.690321140018862e-05 0.000326485664465407 0.002459678126406566 
-0.004523387292118742 0.002088773021163325 0.0002854964996514416 
-0.05094287174585929 0.04474914986805936 -0.02262545309711365 
0.0001927537503856261 0.01038010581965909 -0.007777116088372896 
-0.2863546599614369 0.05503072661888335 -0.009888271217701335 
-0.01105072126476948 0.006704898298163864 0.0005563161199091803 
9.552860847176272e-05 0.0005897649233835329 -0.000887282972236859 
-0.005551559865741004 0.002779147963478261 -0.0001497667941633198 
-0.0005765560667209858 0.0004149450768768792 0.000177230134814704 
-5.755271802382181e-05 0.0007475382700210133 -0.0009757960884570376 
0.0001741165403572474 2.53323312421967e-05 0.0008826815360110326 
-4.227468201990421e-05 0.0003359918123892906 -0.0002087943206499601 
-7.902894412611606e-05 0.0002018664000157875 1.394590207093031e-05 
-0.0003357257987502873 0.0004979457595964629 -3.25541911433649e-05 
9.938999517117026e-05 0.01297333474308752 -0.005536945251714764 
4.935579537131091e-05 -0.001203671940384969 0.001110327404613963 
-0.07794678920288051 0.02275183290626511 -0.0007054796958058045 
-0.0001572393353548582 -0.003314903792636917 8.62737666182399e-05 
-0.0001709520841101195 -0.00136514209463969 0.003248423816532312 
-9.638601324502996e-05 0.0008333436619807217 -0.002556569958552155 
-0.0001323831040600552 0.007229205461327748 -0.006224367538678996 
-2.340263375093659e-05 0.001627729170938048 -0.0008993620770027154 
-0.03628426495340758 0.00391313792769179 0.0005609203895138214 
-9.52351186896972e-05 0.0004022680296942898 8.395419612713022e-05 
-0.0001378530044568701 0.0006729306000864464 -0.0004718452051305969 
-8.502687417475443e-05 -0.0002929549461714228 0.0008750627985196645 
-0.0005466213854032238 0.005322955782584278 -0.004177575487557716 
1.473960596480168e-05 0.006341169013250944 -0.01021592262176869 
-0.001132246262215638 0.002665934411912463 -0.003829598620441813 
-8.555583583254065e-05 0.001409852401713059 -0.005416533080341742 
0.0001535156728221471 -4.694739288139862e-05 3.695743339591982e-05 
0.0001002392074159977 0.000909739124241355 -0.001992436762197965 
-9.273457710768596e-05 0.0005637957984655564 -0.000144181483944181 
-0.0009964207972871612 0.003784441890678728 -0.001364056420043422 
-0.0002960366468918248 1.06406536366706e-05 -1.383360938319769e-05 
-0.002569285835857993 0.4919681098487597 -0.6842955427333859 
-1.46825473785889e-05 0.002283698052014643 -0.0009359974239188008 
7.121697790461889e-05 0.02041776745553503 -0.01342944494043513 
-0.0453953941986166 0.2390939560127545 -0.4053913544135708 
0.0003740916978643169 1.029131083716355 -1.355843090711263 
-0.006823725739711677 0.4859516682125053 -0.5599035112210327 
-2.210060935104807e-05 -0.0003623841802734175 3.181762968345076e-05 
-2.771001778203493e-05 -2.310910575887019e-06 0.0001671698172743355 
-1.448332328553016e-05 4.369370978857419e-05 -7.271773536760653e-05 
-0.0002610250660294691 0.002213720212912808 -0.001453627750265495 
-0.0008194979457228946 0.00148572001636594 -0.0005686341766795615 
-2.577155214454616e-05 0.002062064382429308 -0.00156191860211299 
1.47656310041619e-06 0.001752088459193756 -0.002443735986833861 
1.247619132105245e-05 -0.0004613311864512088 0.0002381398295614375 
-0.0003175453850977371 0.0008355624784555215 5.702861993265292e-05 
-2.610655050068996e-05 -0.002221773511373993 0.0004652220845164704 
-6.656128992987231e-06 -0.001285557095246693 0.0009367653301760675 
0 0 0 
-6.157486388162402e-05 0.000592790022166249 -0.0002429243124163502 
2.137023402988589e-06 5.195214189809379e-05 -0.0001595449849827958 
-1.197080279033203e-05 -7.560667695015657e-05 0.0001527390915521505 
5.414375946611037e-05 0.001678705852093193 -0.00216498501425464 
1.087409237236803e-05 -0.0003416568281775525 0.0004511789511411104 
2.056657699637268e-06 0.001147059040774999 -0.003097394771162124 
4.619478222768812e-06 0.001571875844111485 -0.0004506832439340291 
-0.001166859909775777 0.001895491077507302 -0.001001133895430527 
-2.73797702392244e-05 0.001655033967615582 -0.0001907026991945712 
-0.0004768993369698923 1.140911254462355e-05 0.0001170097054944642 
-0.0002802902008660863 0.0003999068266168227 -7.180862622357071e-05 
-1.101925984700196e-05 -0.0003680284078161106 9.554782458045453e-05 
5.603582101088846e-05 0.0007885804095644116 -0.001638440300427879 
1.399433317372463e-05 3.897960624192497e-05 -7.181765494343417e-05 
-0.00365667484856352 0.003587462893299078 0.0001481238431579453 
-9.493104711245665e-06 0.0007304684159549227 -0.0002557675493647351 
6.259182256012875e-07 -4.391859297465976e-05 0.0003163032984027661 
-0.0015800740425341 0.0008127492542549593 1.028384335779338e-05 
-0.2961829885372081 0.01327735077911588 -0.00306428378531184 
3.515576025022063e-05 0.000129737750203784 -0.001119927688922029 
-0.0009882787311803157 0.0002058364667506497 -0.0001507664873900365 
-5.411596117438708e-05 -0.00141748485840807 0.002991524226714299 
-4.83852770254728e-05 -0.0006217891597776959 0.001126938206471356 
-5.737356120340862e-05 -0.0007556340102854902 -0.0002674676760513419 
-0.01943389695900161 0.01348269706084464 -0.002848423632418876 
-0.01553131099146559 0.472290500735679 -0.3234985851464698 
-0.001856996866912318 0.009767298504939091 -0.004565012562579553 
5.597092875520789e-05 0.0008423261046997449 -0.001675886185402217 
1.399433317372463e-05 3.897960624192497e-05 -7.181765494343417e-05 
-0.0002985008152598497 0.0004997713086935912 0.0009826121677858281 
-0.00207864630690976 0.02729612416365706 -0.01602378919708814 
-0.002352644250231025 0.009694906232870944 -0.009282027436518752 
-0.01421860227679204 0.005876929485030987 -0.001230016937642137 
-0.00140271645008646 0.01337360741187654 -0.1941393458289923 
-1.927958340970243e-05 -0.0002392237347122119 -0.0001115563156028692 
7.564598357170111e-05 0.003854910084237765 -0.001811683797407047 
-0.0003046920508257259 0.01251753581981292 -0.007450510925563804 
-3.570849456974375e-05 0.0005069942316092983 -0.0001889592677050808 
-0.001495426668057065 0.01406250915205873 -0.0081904251062385 
2.814154216053316e-05 0.0002303728421077613 -0.0002125227742724564 
6.859004619516966e-06 0.0008435578475834827 -0.00141991521194608 
-6.972241018079519e-05 5.20279802766716e-05 0.0001973779791828853 
-9.667126088472753e-05 0.0002946388452789661 2.744030911664828e-05 
-2.8415773211222e-05 -3.692642039547085e-05 -7.719742000925791e-07 
-2.825314408667151e-05 -4.665855711039278e-05 -1.712836604766211e-05 
-0.00559433169818517 0.007742133101546606 -0.0005026294099873181 
-0.0001299963046927843 0.004273603015045852 -0.00312572678224905 
-0.1679487330809815 0.02705710130138073 -0.0008222336395165519 
-4.523803660238684e-05 -0.00065606972469508 0.0002898021256897749 
-9.468670573610975e-05 0.000769348617349711 9.296533791769811e-05 
0 0 0 
-0.0005811884531136855 0.0009643488583704723 4.570673044532253e-05 
2.582786130320191e-05 -6.295071777335793e-05 0.0003339655133217822 
-0.0001517029353846721 0.0002470189500094991 0.0001710642498248926 
-1.15760589862324e-05 0.01022936737550504 -0.01032098696905926 
-3.311578430369812e-05 0.003364067630439844 -0.001829194602895591 
-0.0217014499588894 0.008275333203431694 -5.16338261416652e-05 
-0.003685861183303677 0.0285816681089234 -0.01876393107818157 
-0.0001822145887613384 0.01230422632302174 -0.005437076747413738 
-0.01413796433885247 0.01455582524761842 -0.006002942368705533 
-4.550257298381547e-05 -0.0002587093950251479 0.0001412724496021625 
-3.317149789337438e-05 -0.0001478422288002635 0.00026178294222143 
-4.146554927941347e-05 -0.0001747261535520587 5.087724029716133e-05 
-0.003741139971143534 0.003677930609209836 0.000149603930146663 
-0.0001305986669199389 0.0009214672503585785 -0.0001398813873877469 
-0.001020370909251846 0.0008393537282043107 0.0001365348110095894 
1.480324212289809e-05 0.0004974336007746204 -0.0005397945037620011 
2.120441694043096e-05 -0.0001782986822026525 0.001416901407348132 
-0.0005798245405026985 0.000566316385631236 4.103481962782824e-05 
1.175445953770296e-09 0.005326524159639094 -0.005808427719071663 
-1.947209674843664e-05 0.0001931942788713124 0.000392676201993219 
-0.002994488430558961 0.1876213734467433 -0.06229839039049842 
2.962392089656414e-05 -2.959684815343998e-05 1.769791283229607e-05 
-2.956971764302353e-05 0.0003798496275095182 -0.0001527771442025891 
9.12189231195527e-07 0.0001059798102173607 -0.0001490727524298603 
1.920904827717165e-06 -3.479595354208795e-05 0.001133243379639361 
-1.411559709787131e-06 -0.0001319916570411577 -0.000117753313677413 
2.342139633899774e-05 -0.0001474568815589288 -9.956209773174915e-05 
-0.003029258112304843 0.3198169949644347 -0.3508096924416849 
8.104878906046503e-07 0.00267096134417224 -0.003445882343274277 
-0.0004631441843085868 0.004550363682979992 -0.00439385260658317 
-0.007343301128590224 0.004539069786491444 -0.001208006315633578 
1.436388514825949e-05 0.001919291853747334 -0.006383431855555746 
5.143569722828037e-05 0.00030335113009548 -0.0008018998995511237 
-0.001291369113396807 0.002375673095971774 -0.0001638494411908732 
-3.489687513283179e-05 0.0001888757923414063 -0.0004323181918604755 
-0.0006470113426875577 0.001259700794202719 -0.0007028925292811787 
1.320593222378342e-05 -4.421635113155622e-05 4.779790901994844e-05 
-2.168181031895122e-05 -1.498310529294568e-05 -1.67125049858692e-05 
-2.537056242701189e-05 -8.724503542185274e-05 8.572095005145782e-05 
-9.654338585012656e-05 1.254387972850107e-05 0.001253014202887425 
-9.677814158783767e-05 0.0001395335750345502 -0.0001237295781954705 
-0.003556615680516714 0.002596888182289663 0.0001718416556868533 
-0.003680327845624458 0.003929391823971356 0.0007427331958255899 
4.281865108130181e-05 0.004401129483378274 -0.002605706030873483 
-0.0002140074834930404 8.98360733589099e-05 4.853435747268062e-05 
-2.237207659238863e-06 0.0002753763665864123 -0.0002669463817731559 
9.152446360896065e-06 2.219424912611298e-06 5.75898669251003e-06 
1.69617295222322e-06 0.0001830753943842865 -0.000171146688798113 
-0.0002125570333242608 0.0004353815744861808 -0.0004748010852635513 
-3.328005872722303e-06 -2.350842426075157e-05 3.216123019395689e-06 
-0.0002112676027260722 -9.790711905490384e-05 3.846460831855321e-05 
-0.008733908518791526 0.4406963879332909 -0.3905592394873457 
-0.0007558736083709081 0.04745220254440013 -0.167053891394713 
-0.02332611650114744 0.3736822935536731 -0.08052606091482395 
-0.0006471495276131295 0.000571162506840635 -0.0001170982546277715 
1.293848150655088e-05 0.0001415222523015694 -0.0002959007130891975 
-8.196990381471832e-06 7.658541408755746e-05 -3.592812120165907e-05 
-0.007686979292633765 -1.65385042093646 1.618501419983755 
-0.01735685240101334 -1.981255207207026 2.223768672902631 
-1.547702248053468 -0.01668796567255288 0.2636524923359024 
-0.0005602187054163369 0.01399949327517859 -0.009718830591062849 
4.482213103517624e-05 0.006178623707897387 -0.004571893605403082 
-0.01076247962501358 0.0145724097573923 -0.00079837901937246 
-0.01094876942918 0.02956001506092445 0.0001527847823752159 
0.0001032800269219112 0.006738208428578064 -0.007286900664611547 
-0.0001225317055061288 0.0004745046162200202 -0.0001058373822979219 
-0.002102176244906466 0.007790584342660837 -0.006510248487287477 
0.0002964004378208223 0.008514850713190671 -0.009575654398352307 
-0.003564156510474565 0.01024756557185205 -0.0009037465311289792 
-0.007752139801540076 0.008873492132498016 0.0001074317972056812 
2.00062237828628e-05 0.005763797205801387 -0.007298672329648529 
-0.02352282543662404 0.02904206221516727 -0.01036247009419719 
-0.001524881237199591 0.001070348764379864 1.045691895639541e-05 
3.181429580457272e-06 0.0006592708169049865 -0.000233005800617267 
0.0005735819389478294 0.000110107946093664 1.011420282697362e-05 
-0.01088347595635667 0.3871644851072419 -0.3649000389210379 
-0.02685966653369037 0.2525579379732047 -0.05966552342578846 
0.8010324168856805 -0.08260027735676705 -0.0116519819068171 
-0.005569681331185459 0.006354298953520136 0.0009526294693379809 
-0.001167717505714586 0.01150100959701009 -0.007635729680538038 
-0.0004524781635512979 0.0008153592525878179 -0.003833003905257049 
-0.000480061563071602 -7.207458497188009e-05 0.00016118749636995 
1.119272834044819e-06 -0.000691162273921844 -0.001072531798756527 
-7.551951077824706e-05 -0.0001436264146203376 2.570588263693197e-05 
1.387494419594243e-05 9.794674721927284e-05 -0.0001777905989259818 
2.637021468436466e-05 -4.421188571668673e-05 3.474856385540943e-05 
-0.001043797799118446 0.0008740937891797893 8.01351443847299e-05 
-0.01521950805337705 0.05916719200140435 -0.04964150725985347 
0.001759680035414856 0.005734381415738902 -0.004951407557278661 
-0.007584850809278464 0.02932294386731251 -0.005402414946130536 
-0.00388152041859965 0.003018296420004121 0.0001065270381370912 
-0.0001302665511270405 0.0007628339333386092 -0.0007832427273456673 
-0.0003694418435815836 -0.0002906876644967785 4.201545274132889e-05 
0.00110129428108057 0.00127800382785405 0.001221817922688251 
-0.0009916288856110101 0.002101361849154576 -0.001741250930203331 
-3.590044657555769e-05 0.0009532100098195221 -0.0002825032100925552 
-0.002283637585210128 0.03389578286794127 -0.01935638930004464 
0.0001884630427702512 0.027986285512098 -0.0266014754472519 
-0.001188567971267786 0.0588497569053994 -0.04159874744885505 
-0.003512037066512696 0.003685814966181025 0.0004615754105192332 
2.156794164478663e-07 0.001092691619433066 -0.001286792385578227 
-0.004796283434782432 0.0004323211394098553 -3.049243964655963e-06 
-0.0006798065052627613 0.00438124368709621 -0.004382756061119438 
4.676502267595908e-05 0.002089428562696707 -0.001916135521223279 
-0.1181142830285 0.0008164266860309884 8.739020430562631e-06 
-2.222864100341606e-05 -4.487052804700585e-05 8.034423218029229e-05 
-3.292780754433834e-05 -9.088064285241647e-05 0.0001841071445588085 
-1.460145257533312e-05 4.364543826482454e-05 -7.23674395750495e-05 
-3.077022849348866e-05 -0.0002280139883155612 1.49182382114275e-05 
0.0004865433947975251 -0.000920009969655056 3.666142021194797e-05 
-2.496844910703044e-05 -0.0008929516735910497 -6.246966578721028e-05 
9.123312162127892e-06 0.003388621771200797 -0.001817353099732207 
1.589093113326811e-06 0.001770403016035057 -0.003909848333871271 
4.701485131205689e-05 0.005538597899454092 -0.00335622579454265 
-0.02232596724513835 0.005841506247230363 -0.0002755711465399003 
-0.0001865189998141557 0.008729673674315052 -0.01228216669997799 
-6.49283760492901e-05 0.001212948247301653 -0.0001770243341860134 
-0.001238399484223234 0.006678405128944715 -0.001963864717346673 
-9.696878169498448e-07 0.009435640793291811 -0.01152933355457723 
-0.0006984150543752261 0.004127158365251864 -0.003067799778538367 
-0.000662069477192914 0.01805696125612362 -0.1311792962813177 
-4.326877714200309e-05 0.0008121675138600914 -0.0002842438534427297 
-0.01258153873163864 0.01771958097047354 -0.002117072178118918 
-0.001796310946439665 0.02019921766635744 -0.012380863910587 
-4.035376506272541e-06 0.008860601252634525 -0.006054213655540109 
-0.003749102910890386 0.004123415703115462 -0.001149759329297543 
-1.117375933331476e-05 -0.0009259048326474298 6.959416811387338e-05 
3.848246737627708e-05 -0.0005729759802538239 0.0002061857184232042 
0 0 0 
-0.003560211346278108 0.00571634865320505 0.0003435719757760973 
4.39005605295593e-06 0.0004290136330808778 -9.99268786337248e-05 
-0.009004678506394468 0.006764066224918361 -0.001558565567591215 
-0.0004016977001394462 0.0004025124268861856 4.599891553483913e-05 
2.160615746597096e-06 0.0001941194503746299 -0.0002819654351818597 
-7.567690869164508e-05 -2.722356329686906e-05 -0.0005232048655695957 
-1.290872093926666 0.8441081796008585 -0.004709161233537873 
7.429589101948371e-05 0.0613274881509859 -0.1958695606668436 
-0.03509375518661352 0.02071577204234142 -0.01044203997921972 
-0.00599362479041322 0.01164940153715876 -0.002232900068813358 
-0.0001706607974766139 0.003266071802740882 -0.003823382527925939 
-0.02380999287695738 0.01113280881649628 -0.007530901259219553 
1.212784618054661 -1.439230233205403 -0.004912787072947705 
-0.01859106995917766 -0.4419930019870889 1.628775337780093 
-0.001533400758609562 0.006595546723335161 -0.003086678543161511 
-0.009520680796313467 0.03026696882567805 0.0004074875975762841 
5.130273726940571e-05 0.0006596143701631012 -0.002249123117570254 
-0.002678402792306921 0.001520370200088543 -8.387641085396233e-06 
-0.2869248870288898 0.6181216971446984 -0.4599573672140639 
-0.004851362191832983 0.129704355358751 -0.3997059168106878 
-0.5106059658694518 0.4838476157041437 -0.697658094771624 
-0.1946223895064933 -1.614113160575609 1.950553951353127 
0.003024417656493501 -1.836776137762182 1.454514013387979 
-0.1352106887743924 -1.670785618597673 1.948990365506297 
-5.433471807348273e-05 -0.0002806032099566902 0.001018292166320917 
-3.297397028596759e-05 -0.0001785159244050154 7.926134952306972e-05 
-4.803892769705014e-05 -0.0003147339170447883 0.00071155848793486 
-4.646442455247864e-06 0.0168592005443477 -0.1656555273462411 
4.09425159603743e-06 0.001448057564445005 -0.0001771716038094349 
-0.0002212036970098776 1.231796028332783 -0.870827001169423 
-0.001924258724163446 0.0008775288044831731 -5.345077184109344e-05 
3.398548884430502e-06 0.001439805099401001 -0.002155417273054836 
4.236076083019193e-06 -0.0004289105750277081 0.0005985050818826348 
-0.02008443322059887 0.01060282588861614 -0.0004706364137098767 
-0.0005495456452600377 0.004684354930571922 -0.003239639062015062 
-0.002126049187536581 0.0102245579688783 -0.006903709961534601 
-0.02121155809869185 0.02576736019402869 -0.002826263793988708 
-0.0001186839049320843 0.01146889393237012 -0.009824557915566258 
-0.002951560018140677 0.05528236167331724 -0.1573624864284805 
-0.02212859048668918 0.2987166130756271 -0.4073757160303711 
-0.7561696482084739 0.3195267822101625 0.1010262442934352 
-1.76142422455106 0.3583779166997759 -0.4437010748779663 
-0.004964175125891661 0.003646625854788636 -8.31818021764673e-05 
1.556991312823419e-05 0.0007192301836432959 -0.0002041382066641657 
-0.0002145027880492005 0.0002408670421995306 -3.902394145175714e-05 
-0.01422157001822954 0.004254176324296873 3.702272386568418e-05 
-1.35913394717436e-05 0.0001817263497577665 -0.0002356226186642384 
8.281737136417745e-07 3.682852529772073e-05 9.016913529831466e-06 
-0.003590218483400839 0.0034465461434598 0.00014951126838773 
9.073529620621479e-06 0.0008718732730265611 -0.0005953227876995952 
-8.032900425946024e-05 0.0004846125382114783 0.0007167717357120188 
-0.3913441733009219 0.05097663417457544 0.002520117987468999 
4.252093760961956e-06 0.007898698652027143 -0.009340345854625185 
0.0008786327066720077 0.003638077545817671 -0.0002664380567794402 
-0.03842226692705972 0.7604651591060264 -1.210905036803436 
-0.0003553692570889189 0.01414958740517579 -0.01273052816637133 
-0.01568725906999952 0.2744616458178064 -0.1517084667238462 
-0.001727182600164017 0.004943998391962004 -0.001174429038084365 
-1.721306648019919e-05 0.0009347377772893322 -0.0007888752570855286 
-0.0002158944007135385 0.0004683381698081123 -6.418341921755522e-05 
-6.818605063140535e-05 0.05724333133463614 -0.09668847689464725 
-8.588862474111437e-05 0.009435581119350611 -0.02268868910267433 
-0.2365483395805857 0.05992005048487481 -0.001338732095358275 
-2.496225095095364e-05 0.1962167988559982 -0.6819305325217727 
-2.340263375093659e-05 0.001627729170938048 -0.0008993620770027154 
-0.5443866061698529 1.05120157361168 -0.2733500489911749 
2.346301720154114e-05 0.001143706627238958 -0.001332237025538864 
-8.006387910318844e-06 9.511213485563937e-05 -0.0002044728429589395 
-0.001884810343011006 0.0008282094289990999 0.001143661471681625 
2.089019036738243e-05 0.0006086341894200143 -0.0003708599329050869 
5.620159518500741e-05 0.0008147598939019924 -0.001706189279518562 
-0.0009323893932735245 0.0006101171990689274 0.0007070861120741269 
-6.388548194829407e-05 -0.0005020045646293568 0.0003367788931727478 
-0.008460440622595435 0.005198210813480542 -0.0001255841874974056 
-3.49026746387735e-05 -7.802686642355135e-05 -1.344435223324421e-05 
-0.0001577603157768385 0.003170222728085429 -0.001435881220818298 
-0.0001767342256021203 0.01821466214781903 -0.01354469165215089 
-0.0001565102499047447 0.00327831782121491 -0.002843907499742384 
-1.305448022639042e-05 -0.001115215088806712 0.0002328208211870458 
-3.328913044953369e-06 -0.0006436386167899158 0.0004692137684115892 
0 0 0 
-2.145293373737689e-05 0.0003627854803515712 -0.0001154217239666502 
-0.0002019051378434139 0.0009705971596010673 0.0001156624684413667 
-2.475367800256938e-05 0.0001579742995025586 -0.0003722686111732277 
-0.00426840474611146 0.02213493473550054 -0.2148622865130302 
-0.0007535235381889772 0.015494611104757 -0.002400919599321492 
-0.001264947885450555 0.01513951136866751 -0.07676727311589943 
-0.01130978638985496 0.08849376993218648 -0.2171226810792888 
-0.0005235321352829958 0.01589679759105901 -0.01707952152420264 
-0.06516426146986661 0.9941290030108983 -0.01601959950274607 
-0.0005102983545657784 0.001450813766028458 -0.0001478441074983758 
-0.0005742864556560858 0.0004186503242014297 6.59427892495346e-05 
-1.240765419958622e-05 0.0004656143653685527 -0.000505359002536041 
-0.005818617848693106 0.004354444765583833 -0.0001731621355403204 
1.692758623351163e-05 0.004046552481595783 -0.002858473382703486 
-0.002475722088013782 0.001734538028360284 -0.0001977674691457867 
-2.124132279000782e-05 0.004670521333299267 -0.003606002414657417 
-9.156524224815529e-08 0.00531827069550543 -0.006916312168795271 
-0.0006216277395511694 0.001491592690113388 -0.0005112200507737295 
-0.002007065626266789 -0.0003687947137000541 0.0008553614626774379 
-0.0001379979761891627 0.0009848693809188559 -0.0005342014749853609 
-4.170389510338523e-05 0.003854999938121524 -0.003783788723040987 
-0.001551621502952023 0.0009728340498781385 -0.001687861506582091 
-0.0004490157887303913 0.01813447127559585 -0.05737520459341795 
-0.0007669695847488782 -9.469984193213817e-05 0.006237425924532663 
-1.24252063320208e-05 0.0001055315682310219 -0.0002205095539730458 
0.000234090083495231 1.117389239980746e-05 1.628791191398349e-05 
1.485221475901631e-05 0.001478448938246995 -0.0002008107197015201 
-6.025615506068295e-05 0.004793995678403625 -0.002697199963790376 
1.859823632750891e-05 0.002891533887849955 -0.001990414782644463 
-0.1058897744110659 0.009693298855596198 -0.003549639231447731 
-0.009816416628184983 0.009519039157084807 -0.0008485885010888209 
-0.0004339734661554687 0.003036860650943842 -0.00395788172440044 
-0.009288810854336117 0.002089469519473263 0.001562504258831683 
-0.004616120873389564 0.03596387698991097 -1.289255260225864 
0.0001333481417096127 0.02586199229010241 -0.00947763999972942 
-0.007059525350988966 0.4585121316574839 -1.507567566484028 
-0.01116702095957951 0.01219970944485699 -0.003983829189736833 
-3.592974243529709e-05 0.005423397004521489 -0.006355844745316933 
-0.0001778603928890456 0.002817316636616373 -0.002375769371876593 
-0.6022816278577658 0.06781774898156735 0.001830956834286772 
9.105434040482707e-05 0.01655910922016108 -0.01663857242779538 
-0.003710196678798178 0.004495693771195556 -0.0009682617995555712 
-6.996273849418321e-05 0.01273777258588166 -0.01460763376000881 
-3.221640728227209e-05 0.0009729837468602683 0.0002782482156536589 
-0.001586551445346992 0.01438691475162483 -0.006798033633361991 
2.707613095420096e-05 0.001744378554238918 -0.001563815978289292 
1.494085503340379e-05 0.0003860531923832505 -0.0002056803798950795 
-3.448011830579885e-05 -0.0003648139442452261 0.001651744497381061 
4.228672359919048e-06 -1.855816105759178e-05 -8.660304796982943e-05 
-2.408575655575834e-05 -0.0001380396097731545 6.916849583457098e-05 
-0.0001681455137162182 0.0002160866600334322 -9.502816666092628e-05 
-0.0006211415255110175 -0.0002478867128436194 0.0001564069779978391 
-1.071021834468494e-05 0.0006757177651662531 -0.000895925079667426 
-5.55586332725758e-07 -9.378770282961792e-05 7.196301797889625e-05 
0.001111011078155222 0.03443422717029274 -0.001376637735417535 
0.0002762111202526444 0.005518618069039278 -0.007445052173106531 
0.001586752554554115 -0.0002659185303339678 -0.001836870831988641 
-0.06573820595143957 0.269748626909228 -0.5306779244431316 
-0.002731111371528231 0.412674614335462 -0.6326101568323037 
-0.02768942525973599 0.04788343133552714 -0.02059423198842792 
-0.0002764753758942594 0.02240587712023447 -0.02145793804887565 
-6.656397653667607e-05 0.0007697066343490303 0.003083176520047357 
-0.0001835630000434282 0.009494907772039936 -0.0087622260336945 
-0.0006056967592811837 0.0004801282226132283 -5.670361669367115e-07 
5.59053983953639e-05 0.0008934224657017902 -0.001741320093527382 
-1.637704626162006e-05 -3.106533904452176e-06 -2.866606841340614e-06 
-7.227073633458922e-05 6.091630792126172e-05 0.0001938905756119897 
-4.735908669912285e-05 0.0003102507841148969 -0.00019082593483687 
-2.253872730166824e-05 -0.0003483496707841854 0.000229150300287016 
1.966263872084454e-05 0.01086298873242244 -0.005342643190713309 
1.102525540249162e-05 0.5989053398608442 -0.9070604305486641 
-1.305196507178877e-05 0.001101383736173398 -0.00110431559932255 
-7.994705531170145e-05 0.002729932550548754 -0.001433371555839042 
-0.004365388191097243 0.007062974965619443 -0.001930632445993463 
-0.0002746954624090818 0.002847477171271848 -0.001717264140784172 
-0.0002084267072852041 0.009546228410660645 -0.007385671765730548 
0.0003542200492019843 0.002576513607424617 -0.001720841370772564 
-0.004075503449773702 0.00478838805511436 -0.001772621789250396 
-0.007080510190610473 0.002993267752069896 -5.636303727504665e-05 
-1.266156589987282e-05 0.002341642090756057 -0.001143035423494485 
-0.0008499114545825335 0.0009977228655785879 7.783803881902105e-06 
-0.005001249458027993 0.00361567592066634 0.0007753803908436285 
-0.0005860053291201123 0.002194209977039176 -0.002468948907989951 
-3.750861301188295e-05 0.001905034828866023 -0.0003295510037985368 
-0.000157925656879692 0.001014318584753177 0.0009914654899210885 
-6.895062152522077e-05 0.0003360403741072751 0.0002791271316591933 
-0.0002866178423221922 0.00102055765085021 0.001822895786203172 
-0.01907368998736376 0.217774986749928 -0.0008433102827026904 
4.016016450569681e-05 0.004586183720126991 -0.003344250892436775 
0.0002430537044023833 0.006358567905506479 -0.0042281049590919 
-0.000385522633116054 0.002392763946190248 0.0001282659282247678 
-0.000154701360903882 -0.001218818472897121 0.0004396557612549026 
-0.01246037120423553 0.3889178755635336 -0.005055267090410468 
-2.140663318789481e-05 0.0002061806135761103 3.155125809797377e-05 
-1.962533409425875e-05 -2.821506605413938e-05 -5.978350879763804e-06 
1.488418018282486e-05 0.001319970784954179 5.071539956157556e-05 
-0.001251314222033193 0.003442016034137927 0.0001058263921195971 
1.688156073825502e-05 0.0001645334804112211 -0.0003478867769218758 
0.0003223111947355631 0.00603869799450135 -0.004491931904581505 
0.0001417178410612339 -5.46537183262582e-05 6.824187574668158e-05 
-4.809381488871565e-05 0.0001051479605723092 -2.913166903614523e-05 
5.645681859168789e-06 2.840716034266747e-05 -8.70108216887653e-05 
-0.09930242278008093 0.00490573645379946 8.50980110756974e-05 
-4.163111872720825e-06 0.01426956479892286 -0.01412048670221196 
-0.0001573760695733612 -0.000120029379520949 0.0002100749082411061 
-0.01383823526195271 0.3497222150688379 -0.015784274365631 
-0.000323642740417646 0.4269205407104519 -0.02680914319939148 
-0.005232967167912952 0.01335052911572123 -0.006487022728806871 
0.0006162054531536444 0.006541950523286459 -0.001544386409678407 
-0.1707870229724871 0.3196501073652725 -0.001950439055498193 
-0.005824778177936689 0.007462851552377338 -0.002187721272297597 
-0.0004457250233504237 0.0103147617422876 -0.008152151656538389 
-0.0001039419397345787 0.003883592557183644 -0.00230528925757365 
-0.01960811834007964 0.01260253819557221 -0.0008542399319546792 
-0.07752378778253367 0.3749451094094365 -0.2603562614004614 
-0.0001076888183182646 0.02821024578726248 -0.01794320711884173 
-0.00983624122827411 0.08594338557664438 -0.02042229036780311 
-0.0003862651003520608 0.0006077383085079669 0.001560493903655301 
7.681360859570015e-05 -1.633644415678904e-05 -0.001191585163786499 
-0.00133435308038665 0.0003104079327073267 2.905438014766402e-06 
-0.02105769140458608 0.02471204532021661 -0.003448079142725579 
-0.0001321514477654146 0.009687398574949015 -0.007000699164208136 
-0.008913711548315988 0.0111075096422785 -0.00431281149014954 
3.504733736474943e-06 -0.0002295990452108419 0.0001633490119877396 
0.0002828014732560125 -7.158137603548678e-05 4.178650750427658e-05 
-0.008911578967305748 0.001917319797903902 0.001280465477632349 
-0.0008097064652368513 0.01157642062968061 -0.004570556772045288 
1.103949214804411e-05 0.01129776178310745 -0.01023561673085395 
-0.0001321515595230586 0.111823256972945 -0.09923579565861131 
-0.05786352485446127 -0.03139186751205405 0.5228127037545349 
-0.02171868445992799 -0.1876513182066203 0.3521264761846133 
-0.5866154291998977 -1.813730676520366 2.588976915765068 
-4.733788025981324e-05 2.361384442695898e-05 2.584862519742766e-05 
-9.174398687974916e-05 -0.0004193798351720069 8.332751342581332e-05 
-1.823844598571224e-05 -0.0001367329707100122 0.0001057324886042779 
-1.838565835241623e-05 0.001334651551142671 -0.0008631371476668285 
4.982085651146274e-05 0.00396396498988528 -0.004946623638885225 
-0.0001314719422421909 -0.000734185883780369 0.002315191183454246 
-0.003159056501250339 0.01292175537878654 -0.0002902239661754504 
1.727794896638714e-05 0.001059499806273167 -0.001978133728283755 
-0.0006542566149899483 0.0003660075599385481 0.0004483142973356541 
-0.0002532858364428864 0.0001442049691024462 -3.311401044104854e-05 
1.68313395966002e-06 0.0008980245930611281 -0.001877113089661601 
0 0 0 
-1.744266666238658 -0.09280187526446024 2.496610468013983 
0.001993466862703313 -0.6191191506112829 0.07499581379589527 
2.221008346107873 -2.768265729230298 0.0216527809445813 
-6.492045787514917e-05 -0.0001848570848775727 1.328862315351341e-05 
-3.625291170848799e-05 0.0001786797601380363 0.0006475389195160268 
-9.928353328889903e-05 -0.0004339012854711172 0.000440238928335525 
-0.3630704767355945 0.3639373018155958 -0.05252765742379457 
-0.5256190869062002 0.6710323477421207 -0.3749375464956028 
-0.7394607645716201 0.3435797837116072 -0.05384015414604501 
-0.003633672607108088 0.0003255548697729143 -0.0001056053396380536 
8.448562142099312e-05 0.0008921336630918746 -6.555367063182784e-05 
-0.002241097183239038 0.0005723880905613072 -0.0001521255515752641 
-0.04655123542886045 0.60952264796439 -0.4246270351534474 
-0.001161982471778904 0.005304077485083463 -0.002514728631720206 
-0.001005953974667742 0.02899325469535472 -0.4775439485983948 
-0.03320334146968013 0.04180035925747082 -0.005011944307259504 
-0.0001047267921568366 0.00825866225999094 -0.01044605239530627 
-0.04452192192004859 0.04210018766443315 -0.003468133379898185 
-0.0007452431792136346 1.3321717222968 -1.590868269228129 
-0.0002267639612216404 0.364666760880874 -0.04741982098892824 
-0.3310213843192079 1.222258841285063 -1.071080538265695 
-0.0002393864698947072 0.006095968071362074 -0.008349849964370413 
-1.590512701627781e-05 0.0007249859525353781 -9.502216520881736e-05 
-0.007571945148045801 0.006604551812636394 -0.000268617910342653 
-0.0002904152342950575 0.0009237275417479853 0.00110944454303929 
1.860363064095968e-05 0.00032846450725793 -0.004335763659503234 
9.086816327201643e-06 -0.0001932778174070642 0.0005930155153552131 
-6.157486388162402e-05 0.000592790022166249 -0.0002429243124163502 
1.772207711407075e-06 0.0003890840436304039 -1.018054214973023e-05 
-8.352523846904547e-06 -0.0001066440017555849 0.0001689903776929075 
-1.076602405377824e-05 0.002125037519632748 -0.001560753915662538 
1.504451544006077e-06 0.001609854308292504 -0.001940018142720378 
-0.004504053582167326 0.0002559491374239084 -1.515145878481192e-05 
-0.005619153715280534 0.001895014730911758 -0.0001259393503149652 
-1.131133192473292e-05 0.002392001493667938 -0.001015398569748005 
1.772849829830292e-06 0.0003887619404893086 -1.143614661725896e-05 
-0.005749766011212475 0.01103535322869126 -0.01036031490659618 
-0.0001842299319426653 0.009076455904977673 -0.009668605333598961 
-0.2794369636990897 0.009722203748283819 0.00037638848716794 
9.553929590039649e-07 0.007270056689929916 -0.007688231451792192 
2.159823851646536e-05 1.470390784369541e-05 -2.486096904936916e-05 
5.762025000792382e-05 0.007933180724135175 -0.00520306919588785 
-0.04834278589048337 0.05512945229571592 -0.002138905701105892 
0.0002258069517141379 0.01174506121651964 -0.007556975152941357 
0.003217873501704095 0.2757960749121433 -0.06976067733981117 
-0.001146469282869972 0.002361915681558815 -0.0006856288533585677 
0.0001245417472782676 0.001075598394421762 0.0007525650457787513 
0.0001802935770988513 0.005697438412718768 -0.003362829553783069 
-0.0005875332548319991 0.0005975194709272698 -0.0001350798986570704 
-0.0001175729784725432 0.0002657730050256368 -0.0001659608024940229 
-3.822085206427017e-05 0.0006108164327784512 8.988007142594621e-05 
-0.07970312339830016 -0.5616306858985979 0.6813336170284643 
0.5592972871890802 -0.7222826647079086 1.231102329626127 
0.8221530951387981 -1.442358821756507 0.7725447218620548 
3.175770725296223 -2.338576981678608 -0.0932007284570841 
9.289385452282799e-05 0.02053002370437588 -0.02836869791343886 
-0.01400803188845913 0.2122324193439044 -0.03381206164439062 
-2.449871111969077e-05 -0.0005381033181913606 7.041395007980382e-05 
-2.151088077910173e-05 -0.0001608530620881939 6.84811993681505e-05 
-2.085948116777069e-05 -0.0004557317230997435 5.374240918482605e-05 
-0.008066794719984978 0.004856551103181209 -0.0003893701621952781 
-0.0001902386622588715 0.001669932044222363 -0.001787526326410326 
-0.002930572352023693 0.248436044428959 -0.1265263448903073 
-4.003714692645834e-05 0.001229058700281495 -0.002112271453369273 
4.684753193177486e-05 0.0003671900980121744 -0.0001138688150107188 
-5.763319348649372e-05 0.001368004204994038 -0.001028693841095223 
-0.004227733802919482 0.009920582867187446 -0.007820098941367724 
-2.521808684100816e-05 0.001944844554643163 0.0009957712120306069 
-0.000377087269850091 0.002596194573925163 -0.0008745308032731466 
-2.490660439959834e-05 -9.731781766024408e-05 3.459875262626296e-05 
-1.66989730888263e-05 -0.0008175764266622334 0.001791882149080162 
-2.159172132547004e-05 -2.592114285181862e-06 -1.491442310912675e-06 
-0.03310643447721411 0.1142813887673962 -0.0167400196654615 
-0.0003615982162581389 0.0156954359602738 -0.01045505439085562 
-0.01437006444097215 0.0166809569392318 -0.002190699644658694 
-0.004455050927171939 0.01880530827430018 -0.001545192161164188 
1.598667949613278e-05 0.0004760719390836108 0.0001946752526980541 
-0.001058413579408108 0.00317560472352438 -0.0002249118060050647 
1.247607650984501e-05 0.003515059944446796 -0.003112836655184851 
3.044256850109287e-05 0.0004603064075022225 -0.001026077205972273 
-0.003722767488436872 0.003747145555339171 0.0001460256021455237 
8.513355088698413e-06 0.001911704840557798 -0.001018020940358408 
4.211680254634409e-05 0.0004445025594095899 -0.0004915359049754618 
-0.0001215608940321361 0.003048002563692402 -0.0003949455371323404 
-0.1463170567513528 0.3929581817261355 -0.1964296580575203 
0.0005777863892687856 0.1945175855084932 -0.06938671959439123 
-0.1194745482318321 0.09419450292755258 -0.01156749726379003 
-2.616856534860064e-05 -5.043668180335342e-05 4.500069989492879e-05 
-2.792736608247637e-05 -4.417587227132037e-05 -1.213524643402268e-05 
-2.535090778010982e-05 -8.74155998050454e-05 8.582595430210182e-05 
-0.00765535305143335 0.008629164993847497 -8.778551105086803e-05 
5.317705753932197e-05 0.003934832585670314 -0.002377368696794148 
-6.309236690867812e-05 0.0003591270046693538 0.0001875298004780029 
-0.006575074031055715 0.004697393096449939 -0.0001418259012243242 
4.965945870742316e-05 0.005476192387802533 -0.005712241210906827 
-0.0001345213600584295 -0.0001103677058609406 0.0003780940273253419 
-4.941622046773339e-05 -6.653847885206005e-05 9.711187825180498e-05 
-0.0001313949105585548 0.0001367810007633417 0.0002444230677612458 
-8.208675862394039e-05 -0.0008113859981467958 0.001062225663112832 
-3.971011484567751e-05 0.0002992719119547227 0.0005600489780595917 
-2.982716522436128e-05 0.0005428048814686185 -0.0002266970495613205 
-6.457510035135011e-05 -0.0001331163573922175 0.000204394989279215 
-0.001041375811359338 0.0007961380425098881 0.0007559506950220041 
-1.007147249226252e-05 0.0001984238884002991 -0.0001782873696765253 
0 0 0 
1.463242389876496e-05 -2.492181961087452e-05 0.0001323481523262196 
-4.587211900426334e-05 9.858803382891539e-05 -2.701955946997996e-05 
-1.939139089119918e-06 5.735182776645149e-06 -7.655498257060786e-05 
-8.544796718318976e-05 0.0001429486985722377 -3.108776225560383e-05 
-0.002682010177257026 0.001244023393961646 2.241321934900678e-05 
0.000127376000634968 -9.945067888775339e-05 8.096335279290978e-05 
-0.0003231406731825858 0.005624230697205261 -0.00451721479217876 
-0.004614517597724296 0.01260536655671406 -0.0029362892850784 
-0.02116363425918704 0.2799906622164062 -0.09239366971030741 
-7.309274523358637e-05 0.000284261615010922 0.0004597157654677841 
6.372562275628064e-07 0.0005348927595945036 -0.000481447999476849 
-0.0003078057704272128 0.0001863429852262063 -4.313636981317179e-05 
6.554650316082293e-05 -1.236946257813808e-05 0.0001969839686042696 
-0.0009676609755709789 0.001079380540219369 -0.0001094985023461056 
