solver_type L2R_L2LOSS_SVC
nr_class 3
label 1 2 0
nr_feature 24971
bias -1
w
0.007657862706900191 -0.9424607471407556 0.1069981553148776 
-0.1229955435428324 -0.413966731831612 0.3832307088186696 
-0.0028503653374507 -0.0006440618301463238 0.005217293264774209 
-3.284991652351944e-05 5.426451433984543e-05 -4.177440297558261e-05 
-0.0007684759072486637 -0.0001167556305274588 0.001159721079731247 
-0.00272099682650693 -0.0001150488655824896 0.004139354439259934 
-0.0008167233099619622 -0.002534973736864028 0.007070102814432053 
5.294022300002971e-06 -0.0001290975265927588 0.0008817181240514997 
-0.7281150670700807 -1.723166841966547 1.0041209078673 
0.3659751199087126 -0.7537418693997966 0.2501539564799657 
-0.5179355317669655 -0.01049008587936954 0.2614133905623583 
-0.04227998704786497 -0.0005815351015868601 0.02100506364212571 
-1.170908911101674e-05 -1.172052791496279e-05 1.766719828523917e-05 
2.041498637911422e-05 -0.0004869269542854727 0.0004136336223901749 
-0.007479942862323027 -0.0002693572396059087 0.007483720971530605 
2.982990898670808e-05 -0.001881113599169695 0.000534586364718866 
-0.0001430029149119181 4.255668439634601e-06 -0.0006387018335432502 
-1.025154311631232e-05 -3.089377269637584e-05 2.777710683386852e-05 
1.440832088985423e-05 1.167214934325596e-05 2.293260765292119e-06 
-0.00185462318250764 -9.124189057352869e-05 0.00245693579630334 
9.535385055125416e-05 5.551181622491337e-06 -0.0006688357214821626 
-0.000117045099791757 -4.650812444710874e-05 -0.0001189324647193717 
0 0 0 
-0.0001206351304136696 -0.001628803733723387 0.001721720100464416 
3.544420411566908e-05 -0.0002615430707932887 0.0002509960306345948 
-0.002887606550564869 -2.270263469770902e-06 0.00330051842622283 
-9.922509253170579e-06 -0.0001153924587352152 4.249667405739103e-05 
8.884416924247701e-05 -0.0001529082843753201 6.087292643924233e-05 
-0.0005871879148320165 -0.0002525646169882912 0.001602646528408971 
1.237002190383051e-05 0.0001542931443500635 5.924638364274415e-05 
4.619567585935788e-05 -0.001667136974470245 0.0004608764760352383 
-2.8693234820209e-05 -0.001078638860498321 1.652981691017277e-06 
-0.0007679550562462011 0.5282624291408841 -0.7002124742377785 
0.003368156282901185 0.8130689837989505 -1.800393920246699 
-0.01226865773087027 0.6574452084552311 -0.7105873827530804 
-0.01340942411574598 -0.03831752049272318 0.2425269102135469 
-0.002651816203048476 -0.0487920239681337 0.1493040735123984 
-0.2454843176999689 -0.01130496689340822 0.09171230105578218 
-0.006146825628036554 -0.0150203499332043 0.01742150601114939 
2.09855977789631e-05 -0.009396448596258591 0.009847015643116474 
-0.02505739804947017 -0.0004991234302719189 0.02996345502597679 
-0.5686714034483461 -0.02539483656038604 0.8487137261642886 
-0.004238842938646229 -0.03809778519163958 0.02565962978663999 
-0.001257118392583384 -0.1954957377038138 0.1134335905246621 
6.226110437010371e-05 -3.893233992077845e-05 -0.0005042346918175976 
-0.0002362373920221345 -0.0001018657786820466 0.0004487864315100102 
0.0001272190757010459 -4.301903891228076e-05 8.495188472121058e-05 
-0.01678624305666094 1.915949334870336 -1.222588677693325 
7.241846909424496e-05 -0.008362462602654127 0.003929985446392625 
-0.02876267825778652 2.052503221536569 -2.289889251483485 
1.9823899469401e-05 -0.02645524480125998 0.0291114557440313 
4.139593893331106e-05 -0.0007735419788867044 -0.0005433415289050234 
-0.000831902712869455 -0.01322564559937958 0.02154799043092972 
-0.0002952862573379727 -8.930422734389158e-05 0.0002725790585704328 
1.676450278537476e-05 -0.0003902869886352817 0.0001898210014296877 
-8.615802213874929e-05 -0.0006091454972835174 0.0007470788289446767 
0.02639910918813115 2.025966489777959 -1.538586406385059 
0.000105187942036024 -0.04444251234472346 0.09916034025714883 
1.886066632131147 -0.146088228990695 -2.004635262590241 
1.2912527421224 -0.07879874392904031 -0.964998512494439 
0.001727961368521429 0.5933768375525547 -0.9479072598618529 
-0.01359645443194007 -0.001316524134248843 0.208329801425809 
-0.0004389966241560175 -0.0002320619499483056 0.002101729909708034 
3.608797981430426e-05 -0.00508544688218485 0.002769071372455031 
0.0001323508572090477 -2.925154038027336e-05 0.0003568132546733781 
-3.357249675020213e-05 -3.045761480755352e-05 0.0002492848498328249 
-8.53261685570572e-06 0.0005764967030152555 -0.00012258600342354 
0 0 0 
2.47153821707035e-05 -0.006096223323783791 0.004124459035237283 
1.540759162431426e-05 2.702188541625644e-06 2.455555403959291e-06 
-0.0003937860224543193 -0.0001363749156096169 0.0009076240222627954 
-1.906680248558272e-05 0.0001486724390098475 -0.0002238728221518164 
0.0002043240300020581 -1.984241519761345e-05 -0.0001859658533261153 
1.239467780429437e-05 0.0002331281871273681 1.24661044521113e-05 
-0.003165745134590308 -0.004142241959538169 0.0681595245234134 
-0.0006470343878599086 -0.004527509617048689 0.002741383403796415 
-0.0001939838616987637 -0.0003397322577723721 -0.0001394153804047776 
-0.007232438983360937 9.16616531254186e-06 0.003603621558273989 
-0.004519353748823284 -0.002653331444296645 0.01020390425990314 
2.802424546643582e-06 -0.001422639518676536 -0.0001200343472534799 
-0.01886930090252004 -0.008454474933896935 0.03525957511944281 
-0.8350623067569083 -0.0201568751095653 0.5131868346888719 
-0.01369521805312904 -0.01278186116147304 0.03144296618249531 
-0.01093445526378206 -0.006602992639673482 0.03902985350140265 
-1.295252517189571e-05 -0.002199065870790505 0.0004463878372934518 
-0.005487126229107002 -0.0008680630461418449 0.007479535621633842 
-2.109262134214417e-05 -1.279834091071283e-06 1.760594959753446e-05 
4.126589361062935e-05 -9.672722921446494e-06 1.06056572934888e-05 
2.395478497770608e-05 -0.0007007889589340387 -0.0001208640002849089 
-0.009364108171755488 -0.1549685890335589 0.3733764103400934 
4.052643007444725e-05 -0.5089457351035042 0.782455458924988 
-0.02810198240722356 -0.000410148757856455 0.02781669835695748 
4.476034390183205e-05 -9.218841819517549e-06 5.163295849140447e-05 
5.846381972406723e-05 -0.001528850879331884 0.001363024904763211 
-1.527195674965001e-05 0.0001973214719225996 -0.0002255349493997809 
-3.989201136077497e-05 -4.06882230786018e-05 5.067774454692615e-05 
0.0001602979696954375 -3.422883585784245e-05 4.427994076455515e-05 
-0.0004184421535353666 -4.12488085517886e-05 6.187298913952571e-05 
-0.001612680012214071 -1.827320408302217e-05 0.00199523346682878 
4.095818923996623e-05 -0.004257473403097688 0.004920630253170642 
0 0 0 
-0.01205408513603259 -0.01410928118188903 0.5620022655467893 
1.926133467618455e-05 -0.003147372541685354 0.0005416504208883474 
-0.006571458784602717 -0.0004799869576104174 0.01784949282811345 
5.759253853890133e-05 -0.0001701694204185557 0.0005046058941036799 
-3.503343689642343e-06 -0.000483456641732995 0.000241417291187154 
-0.0001481039590010639 0.0001264668589422931 0.0002424723534386368 
-0.006648968131123102 -0.022699697953755 0.01592289326149633 
-0.01456728678082663 -0.794274464049927 0.3100741582407506 
-0.1993721042008925 -0.001938740281724622 0.2064230436694414 
-0.0001029022160048965 0.0004605411758458868 -0.0001756593844172833 
-0.0001553399266851611 -6.600076099471008e-05 0.0003915584110735631 
-4.612854043108566e-06 -0.0004645483243289296 -8.614014586348229e-05 
-0.0007585726853557255 -0.002888634983631606 0.005804913929940604 
-0.007045196513864057 -0.002262019214196173 0.01051303847825306 
-4.259770465678424e-05 -0.03921858948896915 0.006395280209853282 
-0.002842389505557616 -0.03688077024662505 0.009165930765625803 
-0.0003364614117920501 -0.0005114664679886475 -0.0002039644961539039 
-0.004852182688711826 0.9408526421850993 -1.366919772727153 
-0.01388285554587463 -0.04448479841282899 0.04693925862074139 
-0.009057535284177545 -0.3902826820897845 0.06038892593971572 
-0.03044619734174514 -0.1703605206312229 0.2525871755245078 
-0.06957806094060902 -0.007718100928361315 0.08644467499335899 
0.0001003542988654059 -0.034094759355451 0.02238319897945263 
-0.2183789906279641 -0.0006160900768606444 0.07613614396640433 
6.475093752550729e-05 -0.0001709058969509309 0.0002627111651122274 
-1.595429084190283e-05 -3.664446475183089e-06 1.046310320217679e-05 
-1.448435938774899e-05 -1.479906569982235e-05 2.282277295158615e-05 
-0.240125128209345 -0.005446891449701394 0.1330888186712291 
-2.495482964863325e-05 -1.663988114268065e-05 3.931781473398197e-05 
-0.004598022145190502 -0.003452356767308358 0.007857088760485095 
-1.972312269696348e-05 -2.33309332306268e-05 2.591441449483359e-05 
3.473583981121655e-05 -1.404284752253622e-05 -3.789064411005385e-05 
-3.00189046331747e-05 -4.94298807852043e-05 7.562339085873134e-05 
-0.05272517481824563 -0.5646248068279242 0.2002579303133764 
-0.00446263965284947 -0.234117915053748 0.07371605605694667 
-0.04450122737878238 -0.2348927188418892 0.12041445862046 
-0.0002716933671869959 -0.2235416170299773 0.005438634497335758 
0.0001909505653812507 -0.0003126515148665132 0.0001807010998079242 
0.000196152939553294 -0.009931489453246836 0.007744066488707013 
-0.0009570821132700453 -0.01360186432058002 0.02551899805862575 
1.864640288307002e-05 -0.03528202123329417 0.0971550902952048 
-0.008669157950622388 -1.520106395038659e-05 0.006475696945966212 
-0.0001583194020670696 -1.223458843142406e-05 0.0001116130107767976 
-2.243929699703828e-05 -2.516564134457053e-05 -3.629195470538243e-05 
-2.205741323711528e-05 -2.433878867903452e-05 3.0988976035263e-05 
-1.570650558856786 -0.6161902134049444 1.387164396910498 
-0.04605993947412825 -0.918310513606447 0.7173036618134504 
-0.2126747963802244 -0.1070482458285259 0.165052895668089 
-0.00231339578904182 -0.004504466361197807 0.004907566944985369 
-0.000217817324460883 -0.0006580892701938678 0.001198539683415547 
-0.008866787249795663 -0.01538425903598168 0.02107172623063766 
-0.4813372904893305 -5.441660035734584e-05 0.2942530337273688 
1.43303000032646 -0.120838473497472 -0.8234299669610535 
0 0 0 
-0.0003104119310580828 -2.829722039142907e-05 9.879932671927365e-05 
0.0458121946950483 -0.003071273443416254 -0.06417718361169791 
-3.797456832195489e-05 -3.840681554287193e-05 5.320447303770016e-05 
-0.000452381157288455 -0.02649187867032394 0.00210646632775457 
-0.001522013004710951 -0.00108586825103936 0.003670885843730378 
-0.0005893092579838599 -0.001107850491654161 0.001913766459982696 
-0.003412046273745664 -0.000708676878437697 0.007384861619065912 
-0.0001748180742353641 -0.001077492490476714 0.001130852772071859 
-2.088189816644789e-05 7.526339492352987e-05 -6.027184433988517e-05 
-0.01231413494568256 -0.005613597409342517 0.03086586704475947 
-0.01297119011189556 -0.008471370888482139 0.0394045547069274 
-0.0004538270977265888 -0.01129241901943783 0.006588302650348917 
-0.0008026821226031364 -0.005364569076544821 0.00826194600354563 
0.0004065550340940554 -7.913488044244779e-05 -0.0003064033160603303 
-0.004588826013900753 -0.001844349796253685 0.0113664613464264 
-0.006820449610861159 -0.0004480183041794466 0.00984091726850455 
-9.171009043015849e-06 -0.2898496644310499 0.03889061848839422 
0.0001056031453002773 -0.000530252560497696 0.001586731652948167 
-0.000130059929697601 -0.002497732869160962 0.00185383610223869 
-7.934443810780925e-05 -0.0006732986381562885 0.001106947865509217 
-0.0002554194503644034 -0.0009170483106746872 0.0007143309184203143 
-0.0004675197255130742 -0.004148932932094799 0.00738350889947462 
-1.728144636354313e-05 -4.890134321906857e-05 6.504457505968129e-05 
3.138912986856905e-05 -0.001873251177790356 0.0007617154933159539 
-0.0003338205968971307 -0.005595669968143762 0.01429295349826149 
8.326467895477838e-06 3.993867873094497e-05 -3.303998037373986e-05 
-7.878251471885348e-05 -0.001288212434698021 0.003366043954629949 
8.707044908272223e-05 7.100997434394991e-05 0.0001513500982265614 
3.235603726496726e-05 -0.0005545551060151311 -0.0002242015654382281 
-5.249243579875484e-05 -0.0052645340523624 0.00896966831713528 
-0.0003127886618453929 -0.01458329766872261 0.1341451234303507 
2.032784328203153e-05 -0.000379946042617377 3.421957851992432e-05 
-0.001102922179600918 -0.01393907827262345 0.02388339502556605 
-0.0001879896591152083 -0.001025886530560413 0.00120513232099576 
-2.795111113878823e-05 8.2810838511248e-06 7.765250536064136e-05 
-3.092839253396932e-05 4.122561965218389e-05 0.0002386707204825037 
-0.01150914092827808 -0.003945853828920488 0.02365400435473585 
-0.006436876324452696 -0.001771233132729864 0.007884084935368782 
-0.0002358988914645731 0.0005084733677938859 -0.002159823498675816 
-0.0619562254039594 -0.004385273997330611 0.08948154141429211 
0.0008399563529701108 -0.00716574639008488 4.313195889457402e-05 
0 0 0 
-0.3957334335416705 -0.00198082641325919 0.01535659753784885 
0.0001378911391923526 -0.00237614056253503 0.002984365540803366 
-0.01098755128722107 -0.0003326911846842512 0.005896111951028951 
6.447682080811559e-05 -0.002323376254422925 0.0002666044866081657 
-0.03144574125906183 -0.001489305581913807 0.01858837290448699 
-0.0008272252456581812 -0.002485072207821013 0.003523631546369079 
-0.001279147455607136 -6.887157667389916e-06 0.001982776663258357 
-0.0003060837025711343 -0.0008345447590052105 0.001508095554179411 
0 0 0 
-0.00605288816130117 -0.002936384928264837 0.007834383909461716 
-3.801671189663911e-05 -0.0002659488046240242 0.0001881946620096115 
-0.003649878256884559 -0.0002686710450081632 0.00386104860497416 
-4.787997346820219e-05 -0.0002781701956756936 0.0003835292057281437 
0.0002701518138136303 -0.001930680179216862 0.002092329902898559 
-0.002688088975040366 -0.03356633462134279 0.0700321768792173 
-0.0002595951658738434 -0.0007453784843826328 0.001088367749744434 
3.839665838727464e-05 -0.0006491643855839289 0.001054733750716929 
-0.0007133178622298336 -0.0005167546341673713 0.00099815091356409 
-0.1378250530208018 -0.006832791795822937 0.01494906755313835 
-5.54499040026788e-05 -4.179364144429376e-05 -0.0001488836433657651 
-0.9682731411740514 4.430097884950389 -1.511861290455197 
-0.00316152852215789 -0.0001432879190200871 0.003638179900654496 
2.799745445060044e-06 0.0002945689728600189 0.0002238974981836315 
7.944128257282144e-05 -4.465235228157333e-05 2.326637138979598e-05 
-0.002462557444812844 -0.1126371806169583 0.09461427531571173 
-0.03095070891439496 -0.00092004235495471 0.04728371990021599 
-0.25543728143967 -0.03301755414466401 0.5938761735492952 
-0.001124055268936721 -0.0006909798858498274 0.006053057173189011 
7.952456453183823e-05 -0.007599088300946697 0.003913924329449385 
2.266700496727636e-05 -0.002249381081387348 -0.001038095537489861 
-0.001503151040164426 -1.363730754425665e-05 0.0009836137569243183 
-0.004560818022525255 -0.0005090644386529518 0.009702636372490164 
-2.327701309131452e-05 -2.271074346409069e-05 3.05744353580921e-05 
-0.0008750764800464579 -6.384843744879579e-06 0.001094625989771596 
-0.00193713621858588 -0.0003608535253125384 0.004743802617212108 
-1.181672362031635e-05 -1.453841785995001e-05 -5.144614433147557e-05 
-0.02077519633897858 -0.007306300636127209 0.04323423254236305 
-0.0002205171517168712 -0.01882181096261857 0.01470049254100592 
-0.001522323922586774 -0.01625139181632954 0.01279006278272208 
-1.129545626103691e-06 4.667929575326565e-05 0.0001192283130798566 
-1.911347204411898e-05 3.390181797107519e-05 2.694243662430642e-05 
-2.284371533533223e-05 -0.2785607508671061 0.006802611348883104 
0.9370553983971173 -0.7192201340382205 -0.08533683784186528 
-1.105505668561778 0.1266638566391736 0.1736337618660256 
-0.3079660883172538 -0.0002837435131386689 0.2998959122320438 
-1.897726313350812e-05 -2.18906662188626e-05 -3.441398824352828e-06 
-0.0002234203193184695 -5.21541540291159e-05 0.0002764942591358907 
-0.0001464256947953194 -1.286453745285271e-05 8.13115411011948e-05 
-0.003036300994273974 0.0001052258627886417 0.01817049256608502 
-0.001323618041663429 -0.01242387976540396 0.01320537319387844 
-3.913961789132766e-05 -3.207444310047913e-06 -0.0004808679380245125 
-9.667443070186141e-05 -0.3431801736531431 0.2798494562639349 
-0.0002448126486447473 -0.0004421153355531653 -0.003208903998237964 
-0.001440131109910226 -0.2759161292978673 0.1889634913472268 
-0.5168167348589762 -0.6158375431213438 0.887535690310703 
0.002746738897010261 -0.1631357616883493 0.1250194540903709 
-0.02216028076085996 -1.259902919389482 0.8272923636355594 
-0.003201592900102479 -0.00151642887788536 0.009297416765860187 
-0.001915658126710594 -0.007215305183197209 0.01165970005783034 
-0.001052939362944435 3.271014674886255e-06 0.001469096253309596 
-0.006820449610861159 -0.0004480183041794466 0.00984091726850455 
7.208311164385346e-06 -0.001175422874753721 0.0008556716118268096 
-3.19603606482027e-06 -0.01291722466351929 0.005641217299145365 
-0.0002541990169629373 -0.0006382128504295226 0.001916795797934339 
-0.0003100317100807179 -0.0002383552857713164 0.0007993032813304687 
-0.0001076053781255074 -4.14072114128197e-05 0.0001733250238393023 
-0.009600544226622017 -0.009320827200774304 0.03946173611561388 
8.496655836445354e-05 -0.005428406008636656 0.002356000791808451 
-0.00941571747984345 -0.0002594826912034856 0.01240824932133926 
-0.1685103826379646 -0.08465360007931921 0.2622037148097668 
-0.004279582135773196 -0.5787949572695179 0.4413770312918157 
-0.02259142623383317 -0.5686583966801186 0.6876674342139369 
-9.097813281796154e-05 5.891009378683888e-06 0.0003569909428981346 
6.069826009733617e-05 -0.001389349631093535 0.00131120564739916 
-1.922303753342623e-05 -0.001156726073677496 0.00077524006173626 
-5.363570189513913e-06 -0.000489872009559901 0.000349037107160373 
1.131325777133033e-05 -4.037341729449938e-06 9.751083140260962e-06 
-0.0001305952999235452 -1.758995980523712e-05 0.0001792019000620746 
-0.01073580042595174 -0.2153028465065735 0.01657111917510436 
7.182583631350327e-05 -0.001278924513665589 0.001418049867549465 
0.0002243351733772219 -0.6042838798892074 0.7267782289964773 
-0.001616540510681233 -0.3036073675169504 0.2690395676447213 
-0.170607559384009 -0.8901898669372069 0.3264945800859022 
-0.0002270887129920931 -0.005083623875195447 0.002296493747768682 
-0.04943664540273908 0.8485501487016029 -0.4465547326379581 
0.01063293068258917 1.556550293245241 -1.072978976744488 
2.242344504104661 -0.04336505601810773 -2.575921124429475 
0.01933251783812678 1.224390043045832 -0.8689080917088049 
2.264638729490155e-05 -0.001576417980424918 0.0002782637928234684 
1.121412722104258 -0.03329476131176825 -0.9434254960411244 
-4.136694391876593e-05 -2.829931592465965e-05 4.287952396954673e-05 
-2.852770782222582e-05 -2.714485862613898e-05 3.530460144546996e-05 
-2.132010850681542e-05 -2.176608521350415e-05 2.739801091725667e-05 
-0.0008595954191250119 -0.01710253179657003 0.01934616932631842 
-0.001276617157180014 -0.01694228726699946 0.02506829283335382 
-0.5239607258878431 -0.3960846517277791 0.115925281764948 
2.651840741753253e-05 -0.02326949831006123 0.1048987097890119 
1.131325777133033e-05 -4.037341729449938e-06 9.751083140260962e-06 
-0.008745359752225193 -0.001931119027740452 0.4261824480470998 
-0.009797164445680361 -0.001177175274555638 0.01043871786981769 
1.983717787643925e-05 -0.02536381363348864 0.04133360675343604 
-0.0007420348689067821 -1.728798363521228e-06 0.001574885512093953 
-0.001778481009845257 -0.0002418128718490729 0.00342110443990328 
7.048043506409479e-05 -0.006997075894981647 0.004505234030937718 
-0.0002483569356783943 -5.361831848259782e-05 0.0002435997725341674 
-1.263867874091962 -0.6866072553340341 0.275622378997273 
-0.005062651260786285 -0.001892398232636099 0.03048566834922964 
-0.1577763228688774 -0.01341192455173137 0.3318894097817944 
-0.0006062666744686362 -8.235479064098963e-06 0.006670774607687039 
-5.431666978685657e-06 6.859453519582426e-05 3.423011780786418e-05 
0 0 0 
-0.0001263307020388444 -0.004252495461369291 0.001496631979352874 
-0.0004641959825512152 -0.006388433155746233 0.00677008075621682 
-2.339669787965206e-05 -0.001796360652314487 0.001722880549750384 
3.391787405542123 0.1794404416227778 -2.120164565183815 
-0.02979412656052615 1.176244404083808 -1.302849439586534 
0.708944551151346 -0.01536177333325837 -0.4981787817532244 
-0.07931686796922645 -0.03791615351809631 0.02679839117700551 
0.001083423497671171 -0.0004492708267139664 0.000217224950206922 
-0.0009306197968884253 -0.01549094640292221 0.01045386225866412 
-0.002685450457724101 -0.001597223267417676 0.005151531525444415 
-0.01794969736240902 -0.0127207692955875 0.05465235744263721 
-0.005530415827712708 -0.005264376209635106 0.009090871082805223 
-3.750709133602272e-06 0.0001950811911587806 -7.911123424475523e-05 
2.407593341313804e-06 -0.001615071779273764 0.001459418016506487 
-5.665798189499717e-06 -1.742206058668826e-05 -0.000519236331058049 
-1.200823121711582e-06 -0.000929683257160469 0.0008419044932106187 
-2.340151044906584e-05 -8.635939196768171e-06 2.426071268087297e-05 
-0.002771386637478073 -0.0001561207690522547 0.004340028973412101 
-0.4791465333797579 -0.0008693426431468206 0.2403177517594171 
-1.333911298645733e-05 1.281988993505758e-05 -0.0002019097935109406 
-0.0001269784332489512 0.0001571040066190648 0.0005268638274552554 
0.004782158093517633 1.762351041463482e-05 0.1436859412972633 
-0.009782995265113399 -0.5530141820224179 0.2967055576932114 
0 0 0 
-0.00778620915338781 -0.0001429569559283381 0.004804642804495778 
-0.001045393842649382 -0.009084549737789693 0.01260664870812981 
-0.0001702457022507198 -0.01021155261722384 0.01675069924387239 
-0.0004276191142249228 -0.0004339450342366251 0.001594124755353499 
0.0001102442875379111 -0.002026584402229411 0.001671332642650595 
7.63975136528285e-05 -0.0008974235356577864 -2.154642133792735e-05 
-0.0006064633647395618 -7.34748007406459e-05 0.001637705034265224 
5.920699271011848e-06 -0.0003135411207584861 0.0002618227590778884 
2.401644547522619e-05 -0.001279976015456463 0.0008246728052444684 
-0.2326521851406468 -0.08258814221240619 0.3120607333236276 
0.0001468105711855034 -0.03130807740743285 0.01605270267070102 
-0.2779623791157717 -0.007988375011688248 0.6734993204420266 
8.274151418364015e-05 -0.04345637580739073 0.09145117951865336 
3.680630508176682e-05 -0.004595881989450513 0.0006803444431233128 
-0.0005862355583652746 -0.4951043725311796 0.2428111382861755 
-0.003673497688359591 -0.0002294212070780446 0.007124157591385541 
-0.0009148750017252021 -0.003120951691356151 0.003812673302272505 
-0.0004632263902691774 -2.593303655901773e-05 -0.0001071804449635835 
-0.0006182865169982737 -2.308809798961483e-05 0.0005657748025105352 
-1.941727732221182e-05 -0.003001158309852923 0.001905843135020608 
2.884601654337019e-05 -1.332337906517715e-05 5.526551793941859e-05 
-0.003162445436367255 -0.0005121358241075623 0.004096080981625817 
-2.50513684061183e-05 -0.0002533908527776334 0.0002021518995627575 
-0.003615909984472055 0.0004197814086312746 0.000640099790377169 
-0.04138690796051901 -1.256403670476893 0.8517997974425956 
-0.0004599484987763191 -0.1928036468255567 0.05068078356891208 
-0.01112156028409202 -1.027988986021675 1.930796375350327 
-0.009922120620512656 -0.0006103445037695146 0.2390072156185097 
-0.002288932706498917 -0.02102908439343058 0.02758293384884913 
0.0001062006193677475 -0.001397355842014345 -0.0005076507787281817 
-0.000838844925105464 -3.772638137001873e-05 -0.002814425485651926 
-0.001140182358706397 -0.001903183424103508 0.003934462429408964 
0 0 0 
-0.6007599151586661 -0.05132616978848541 0.4903755165764361 
-0.006597883295528264 -0.1786300613282008 0.4690500899186679 
-0.01014066849529187 -0.03893769272579338 0.03716612760426703 
3.246466770992343e-07 -0.001170111113487001 0.0005366506694891733 
-1.509891444755326e-05 -2.23510405352911e-05 2.721482414367405e-05 
1.014551947168816e-05 -0.003300301170210669 0.002186958857606286 
-0.03199838822000118 -2.360839006876117e-05 0.02066545773213246 
1.320349602884157e-05 -1.700262955972862e-05 2.355492165201993e-05 
-1.407808493349089e-05 -0.0003427507622821816 0.0004146421663612593 
-0.00615125194320299 0.0003316907337584196 0.02676695562363675 
-5.190958481274998e-06 -0.002223000584107122 0.0008374330420458443 
0 0 0 
-0.0008692028456301914 -7.351835368351077e-06 0.000282645673005773 
7.581341262905151e-05 -8.02696535767687e-05 -4.19689386971659e-05 
-2.092151292331834e-05 -2.413947906526772e-05 2.732531665242061e-05 
-0.002364654561433696 -0.1942255149218473 0.1740683086149966 
6.764059948436702e-05 -0.01544543049264754 0.01001154210309939 
-7.143009012516827e-05 -0.003225714650433915 0.006584115587412592 
-0.07031259197482163 -0.00241983681484647 0.216943741051236 
7.762305163299288e-06 -0.000328056194837049 0.0006144677355140849 
3.626745368639036e-06 -0.002639699016580349 0.002091162706720907 
-0.00593252364476567 -2.000043678760913e-05 0.01065738494669308 
4.181739329913353e-06 -0.002137304857862293 0.001038381273609658 
0 0 0 
-0.3525626901634565 -9.995112029562233e-05 0.01418569507647601 
-0.0125953604871296 -0.005991771102255719 1.030994226686743 
0 0 0 
0.005342674612236548 0.1047526614033962 -0.9421352814659121 
1.196680685317207e-05 -0.01499226856987122 0.003168471712084644 
0.9229168561816942 -0.1108488706154315 -0.1866230510895309 
3.227027156582024e-05 -0.00117470848791112 0.0006330912206407806 
0.0001336191294789587 -2.013923221202161e-05 6.610319662958691e-06 
-0.008697124829791498 -1.848647681132749e-05 0.007873138256616318 
3.433369923427488e-05 -0.01799264706258458 0.01503432730402502 
6.755479307444937e-05 -0.00892957444899891 0.003170497214575244 
-0.01952321523106742 -0.0001794476691602131 0.0180541350866981 
-0.03137270317664327 -9.885614853389091e-05 0.0138040031461419 
-3.111885491356254e-05 0.0001335635027743438 0.0001159042848929071 
-0.001379968678316792 -0.0007677730115689069 0.001994092106839616 
-2.523739697438149e-05 -0.0005661936259224028 0.0002603926185212349 
-0.002517932048676077 -5.839936941770999e-05 0.003837163550640905 
-2.316384800182543e-05 -2.360023140176667e-05 2.98878421733719e-05 
-0.009590058706816597 -0.0560763315379747 0.03601973874942848 
6.437499039589585e-05 -0.00692358728480914 -8.250023870268106e-05 
-0.0350260324303588 -0.01246882299325178 0.02458812409533945 
0.0004443209374609406 -0.0009359054833781453 0.001644915488384085 
0.0001838245897773499 -0.0003470937290901457 0.0002446668237050396 
-5.343107662262691e-05 -7.344780891825529e-05 -6.946559207002087e-05 
-0.001007929860292699 0.0002610063097139109 0.0009943935985771131 
-5.089934781315294e-06 -0.0002038714036244753 7.544704781005043e-05 
-1.336086484858196e-05 1.325892281009464e-05 -0.0002037101308538763 
8.916124387872483e-06 -4.195473367176733e-05 3.529853776785013e-05 
7.069679205164049e-05 -6.469317195107332e-05 -4.876860154777292e-06 
-1.542571716179014e-05 -2.685131189209684e-05 3.658144776862848e-05 
-0.02013172424667373 0.3291955156409351 -0.480024375443122 
0.001481180816674682 0.7457260358889758 -0.9526051344073806 
0.9717652111836704 -0.05370014232449852 -0.6195893416040962 
-0.08703727999613591 -0.01055958516590974 0.02057980983699304 
6.047054443484241e-05 -0.01201813241948124 0.005493159623855006 
-0.05298214571796599 -0.0009665051802306366 0.02402793509540758 
-0.008888639240223995 2.344599992418871 -2.002976295982601 
-0.002521307726043855 -0.4207342784188243 0.6700173474956438 
-0.03733532338390269 2.366148570753141 -1.634524597071264 
-0.001173975221484151 -0.001980579605646943 0.005093374246989864 
0.0001430682835078752 -0.003324601153297791 0.002408032192633349 
-0.0003736157769309381 -0.0004469148452145156 0.0007960695696880869 
-4.214438476084355e-05 -0.0001682711460538847 0.0004399284387869402 
-2.220160108409861e-05 -0.0004765902484408441 0.0003039230926207635 
-1.825852686238763e-05 -2.020858598800384e-05 3.044852292245271e-06 
-0.00570292426590178 1.743938962326201 -2.14164638987521 
-0.002930343949761083 2.425239913173457 -2.525059775507532 
-0.01805009223644667 1.877282142238172 -1.454875927284199 
-0.01166729335743942 -0.0001438472513650267 0.02619555775272394 
2.535634525971295 -0.122674690990201 -1.046277020236366 
5.40146282851861e-05 -1.348536802853694e-05 -9.198673216912246e-05 
0.0001329381324163604 -1.674594561576052e-05 1.247027069035347e-05 
-0.0001080371818217778 -0.0001276108916140018 0.0006475940596303532 
-2.237258655844897e-05 -2.260630931828992e-05 2.963594734335868e-05 
0.0001494799843642012 -0.0001022386366509818 0.0002363064788628998 
-0.000349627353080518 -0.0006306564052259152 0.001509312598293037 
-0.001075675084619649 -0.0001036769640530611 -0.0003882482978077266 
-0.298255567584943 -0.06510864237799879 0.4265538974789091 
0.0003913014869785129 -0.0439663182058529 0.1504688434358301 
-0.001462077135492939 -0.03107883714669987 0.03011790281964318 
-0.00294437256833629 -0.001669056391926074 0.004772455365727743 
2.887158543934196e-05 -0.0001471238550204779 2.723635063462411e-05 
-0.0006712948143620068 -4.459392176188479e-06 0.0006674215855874309 
-0.01718837311743986 0.5616195482379236 -0.7234133145425352 
0.003793595298559644 0.5833557875585025 -0.7517624277247661 
1.113331501746674 -0.05288646037224168 -0.3554030320765982 
-1.413491694369769e-05 -0.6939147290779459 0.8686196805805101 
3.055692469561311e-05 -0.0001295956135115794 2.429646963452382e-05 
-0.001785679942991903 -0.3081273766543508 0.3961580536198996 
-0.000108346603500793 -0.0001727718886858642 0.0002218767253246621 
-4.590708502344111e-05 -0.0003010946551453833 0.000654696902754408 
0.000204839081439071 -0.000476286148770464 0.001385390532812893 
-0.004199976656291097 -0.001047115008276779 0.009306300547612771 
2.620487918820387e-05 -0.00883010440302507 0.005841007264796557 
-0.002460097348904853 -0.0001522060021685756 0.008820735761104386 
-0.000883416728043461 -0.01277604475258685 0.3198810670148561 
-7.522581499037004e-06 -0.01570638854455198 0.009012817109695826 
-0.005637614841711744 -0.002283577118920178 0.01091215581418105 
-4.048683314475948e-05 -0.003540270791112255 0.001497973471914312 
3.667807127454105e-05 -6.477714866241007e-06 -4.477595354133109e-05 
-2.606074825307125e-05 -0.001791426078291293 0.0009451148784269292 
-0.00169114478461107 -0.0007853941251099329 0.005872369398920157 
0.0001782921928614768 -0.01082244168388968 0.005903168945441612 
0.0001659982977111006 -0.0004812689992160119 0.0005327975013030353 
-0.00104435663533077 0.0002982396523064511 0.001534734204057154 
9.894599460326934e-05 -0.001233541585283868 0.001058571454381907 
4.469991422472826e-05 0.0002041429348117991 -0.0003541609887676277 
-0.0006757733435397712 -0.003885541558014565 0.00497898000242729 
1.397699735585792e-06 -0.007062854244081961 0.002462842258031036 
3.05897015635206e-05 -0.002960141176871016 0.003123265521369877 
-1.037222540018594 -0.003148433270453373 1.126954583688034 
4.390543816558984e-05 -0.04367845646842566 0.01535653562389685 
-0.003911122494925051 -0.6569201722243015 0.4393497950414016 
-0.01375355492637423 -0.00279444961573481 0.03248919496833183 
7.294134936946579e-05 -0.01136295674186705 0.005803519764424923 
0.0009408074332044828 -5.74840408519187e-05 0.001152566931769929 
-0.003273581680218918 -8.865210569761389e-05 -0.001153787410475037 
-0.001804403817532102 -4.041667002447049e-05 0.0004980894934094067 
-9.971348935926113e-05 -0.0001040038197527053 0.0001126359716138796 
2.125518900769914 -0.2528267256094387 -0.7540852999615884 
0.0009037202233265864 -1.086049194488544 0.7151622488903864 
0.109267236698081 -0.2743778939914563 0.3181824961341267 
-0.0006738764550914257 7.084341068156563e-05 0.004341850678220598 
-0.006616005029853303 5.151335795449551e-05 0.01457311651140135 
-4.070304863973009e-05 -2.68088092726794e-05 4.0468708167758e-05 
8.968714117381126e-06 -5.097566104631523e-05 -0.0002861225106850573 
0.001644665544359107 -1.966694440939174e-05 -0.0003470523330702674 
2.364449722148896e-06 -0.001272453792069166 0.0001955470575342547 
-0.3114979663363809 -0.003288435108949188 0.1332769524944003 
-8.140609432326782e-05 -0.002179063234051883 0.003236072365507941 
-0.002798150587970563 -0.008836408741931936 0.008486590228944095 
-0.0009799574537226385 -0.411909796252948 0.9704634337164645 
6.125528735624689e-05 -0.2043971847835948 0.3261382153020357 
-0.02885750306286705 -0.002050331116913295 0.03960025165286028 
-0.0008274380166656854 -8.031981624121045e-06 0.000708079935169362 
-0.0001421607642525334 -1.364157070733258e-05 9.704622569855349e-05 
-4.671434210626962e-06 -2.645904464961745e-05 1.544071600555617e-05 
-0.002686238190833937 -0.009010481054088847 0.01837223530305361 
2.301969190017894e-05 -0.01067268659510512 0.006018596459490025 
-3.949391183136367e-05 -0.001375174577713728 0.002182061906071695 
-2.811027356298186e-05 9.063287559777769e-06 4.564135413839435e-05 
-2.698572313842325e-05 -4.222336802533745e-05 0.0004811504488001169 
-2.183972047508033e-05 -0.0001066454245123064 -8.015279284153265e-06 
-0.002049316005763391 -0.01942350610573919 0.03226070737760327 
4.465020272049287e-05 -0.02501288695854526 0.02148728736254029 
-0.4839975805829157 -0.007855189831786166 0.2861742146292683 
-0.03211555301791377 -0.02252458080223738 0.04948095518371746 
5.551460175278475e-05 -0.009036614606872212 0.005819730551837364 
3.914906522024328e-05 -0.01177965521324285 0.00645930593457735 
-0.007589929528337186 -1.286037350529145e-05 0.003493957582167949 
-0.007305097802854569 -0.005642235040855534 0.01362275177890086 
-9.704393118592098e-06 -9.121888800305442e-05 4.094835235629759e-05 
-0.002374589089102245 -5.422111127148567e-05 0.002287882823179971 
0.000141005781892709 0.0002994994095540236 3.815136229297177e-05 
-9.826135944888425e-05 -9.517760585882277e-05 -5.016642698818586e-05 
-0.416386612650173 0.9789960843696529 -0.5731278109298589 
-0.006524620672518116 -0.4940973232970331 0.3556868992435718 
-0.1396607709922948 2.150360141196156 -1.541815023179727 
-0.003426152334119489 -0.0004750572399371164 0.005008072392767415 
0.0002132756658739955 -0.001269229777007977 0.001085646849063544 
-0.6997965123787392 -0.001808740467592681 0.7976688871578151 
-0.0008383650595956166 -0.009160478109863437 0.3825741177765467 
-1.727218012029167e-06 -0.0001598981964242337 -1.442025917734262e-05 
-0.002024067268549069 0.0001614946264161679 0.003292604496669697 
-0.0004716526674260048 -0.0001734695211346109 0.000982714535546823 
-5.03962269102859e-05 -0.004568456468232927 -3.669386301920464e-06 
-0.0003149165245907419 -0.001183749983350174 0.001128731880628539 
-0.1885335660264081 -0.01058974326125663 0.1253733621701232 
-2.590796479036935e-05 8.745199961291782e-05 -0.000102587713807721 
-0.00612800656623493 -0.003103076179020545 0.02564009378806207 
-0.5494482926308787 -0.005261220063129683 0.5373922851436909 
-1.413919388697187e-05 0.0001088146742680928 -0.0001394192692878749 
-0.007665700540290951 -0.0001124705777780705 0.01365769699164476 
7.424114648131014e-05 -8.70551031478516e-05 0.0003460236603424467 
0.0001572532686907882 -0.0001164417693361815 0.0001229476521744617 
-1.511082709385896e-05 -6.60001072622483e-05 -2.488704166530731e-05 
-4.195681798117299e-05 -1.830909063327754e-05 4.877859371820936e-05 
-0.0001868127016737562 -4.53754816922593e-05 0.0003605076635226001 
-2.389472370299772e-05 -2.420771875672301e-05 3.157618018915403e-05 
-0.00476695341551953 -0.0001543009605097339 0.001141147614947483 
1.206863697594428e-05 -0.0002947158780691926 0.0001588606791910741 
-0.0001259087997500435 -2.324217952647398e-05 0.000110514521365283 
-0.0005537496858888854 0.0001065016846738121 0.001006287918553745 
0.0002319695419533324 -0.003767307553830289 0.003034143895888842 
4.181554145447215e-05 -0.006315134040792461 0.003569779797783329 
-0.0003164390532844653 -0.0001038320031454195 0.0002336246108951715 
1.038329771967317e-05 -0.0003366686964880568 0.0001894668470139647 
-0.0002977804199524942 -1.387399544042566e-05 0.0003581218805475462 
-5.354583302310434e-05 -0.0001437093506745272 0.0002552103533049881 
-2.493744702825476e-05 -0.001032131893416108 0.0003776816399456219 
-7.335565914342927e-06 4.564106673724453e-05 -0.0006440759151928195 
-0.001339692785046958 9.9391908163658e-05 0.001591260969876399 
-0.0009734866239178634 -0.002212079073812004 0.005073402815492436 
-4.938856689750724e-06 0.0008208387962227801 -0.0001651877009684212 
-0.001540118050044131 -0.007717189177817089 0.007286262289026153 
0.0001687321641390486 -0.01026162055219432 0.0071582830663403 
-0.002394660833414984 -0.0002673312831775919 0.00209793329840371 
0.0001171742962308723 1.125194385711781e-05 -9.312054049557587e-05 
-6.949809908895795e-05 -1.417369358967841e-05 9.828383087234692e-06 
-4.424200465660142e-05 -0.001806259773655385 0.0001819736829124541 
-0.001601514826304196 -1.636991163676786e-05 0.002348856975192957 
-9.154962263218115e-06 -6.591940177614658e-05 1.97084286842188e-05 
0 0 0 
1.272275387783529 -0.01742963792644593 -1.637856676919552 
-0.01601517320234657 2.956316669360139 -2.907076290772517 
-0.0003027631852159502 -2.53923609913613e-05 0.000333996511026097 
-0.001000183173757134 -2.239123304522198e-05 0.0006105471953192357 
2.669584104072989e-05 -0.001266669919663078 0.0001704080599482219 
0 0 0 
-0.01103535279738217 -0.007813293655392187 0.02924723262722934 
-1.525506856096087e-05 8.269848935797133e-05 0.000179227912543043 
-0.00829117957862323 -0.001525660588797107 0.01075700536577708 
-0.006616406176161239 -2.208271344207031e-05 0.0006767922346769931 
-0.04656095903789068 -0.0001136635748332025 0.05111328182803448 
-1.605899875279987e-05 -2.922852953045966e-05 4.268934643540073e-05 
-0.004046144726875066 -0.002183607248061207 0.008059779494535724 
-5.855715831852481e-06 -5.861555865765537e-06 8.835331885299675e-06 
-0.003763707639495983 -1.296443195603076e-05 0.003540602621280013 
-9.307369862596268e-06 -0.00542172563553205 0.1598013917792322 
2.603680403495237e-05 -0.0006984676271711873 0.0003920988548430891 
-0.03227744716209074 -0.0009178713307284685 0.02365747023464428 
-0.07838032755976121 -0.02417723108882656 0.1509013664413799 
-0.005687125731104406 -0.01135847839775572 0.01267445521017662 
-0.005159498695085994 -0.02065293205283359 0.0151316726899518 
-0.008174340380549046 -0.2992249780312877 0.1755265565748059 
3.01901541344277e-05 -0.01633006576473296 0.004253943774418847 
-0.0007515893396847909 0.0004054771709061392 0.00408392875488343 
-0.006397842560938015 -0.0002493783757472521 0.002311476023362381 
-0.002924324663581446 -0.001037868271444763 0.006521570033142016 
-0.001674607806243322 -0.004873271498012047 0.005219359055488514 
-0.002903728281131833 -3.064403858493212e-05 0.005507024269873573 
-3.277788403192949e-05 1.753337607985742e-05 7.205655990093484e-05 
0 0 0 
-0.0008503294991819718 -0.002135569667265144 0.002534578366324763 
3.05897015635206e-05 -0.002960141176871016 0.003123265521369877 
3.05897015635206e-05 -0.002960141176871016 0.003123265521369877 
-3.961404623917571e-05 -7.319041344915489e-06 3.316891364346029e-05 
-2.909292529724259e-05 -2.474085948014105e-05 3.698612519778005e-05 
2.354599136232337e-05 -0.0009731016297384008 3.827937508437972e-05 
-0.004895747697672284 -0.9154704096152668 0.9764557708567143 
0.0001019531661125957 -0.003874913590437742 -0.0007042700643106746 
-0.3096878320029313 -0.02696244355998375 0.1525194597385613 
0.0002619846753577796 3.532534353191817e-05 -0.0001760741567585724 
7.276887325123546e-06 -0.0001437931881482517 -3.298705772128323e-05 
-1.768648809184597e-05 -1.91658372225256e-05 -1.402117274338395e-05 
-0.009363309378900784 -3.114791534360861e-05 0.0002895054666995674 
-2.966566511810356e-06 1.812301099570309e-06 9.397288818627059e-05 
0 0 0 
-0.001211820620204346 -6.863607107519306e-06 0.001846290796520439 
-0.0002634413161826238 -0.0008170690872734483 0.001418633770524942 
0 0 0 
-1.243724380986527e-06 -4.531990074763405e-05 -0.0002269671780872344 
0.00158711261158963 1.891954667807915e-05 -6.679189408216328e-05 
-3.510671353975038e-05 -8.553759945148492e-05 2.56855464268211e-05 
-0.1966432530445128 -0.05149521893613497 0.149209093425253 
0.0001371245615775168 -0.005816138020094375 0.0003920628844269108 
-0.06933057934738834 -0.002683229261285483 0.04134909317414414 
-0.0001537432643091873 -0.000111740234190214 0.0002022242732310187 
-0.0002768454633460445 -0.0008462426823002611 0.0006766627361030619 
-0.02270322565357848 -0.00159833696268533 0.03150823028229437 
-0.0003210185948876292 -7.794656417084137e-05 0.0004998007583726698 
0.0001776174718269738 -0.00134293716988964 0.002493503554425709 
2.353473807841997e-05 -0.001192242011977608 0.0003264387774266967 
-0.1895422558906583 -0.02295556455463833 0.1318987855979441 
4.473994092200569e-05 -0.01519930829671961 0.01053878210911904 
-0.3842517347257869 -0.7259432162704759 0.2456168506739661 
-0.01213848306737415 -0.0002869880646916431 0.009285137424628448 
4.218729239545039e-05 0.0007265450097524907 -0.0001495024575909058 
-1.628959327871883e-05 0.0004892305638289652 -0.0004861917803070079 
-1.533180266655842e-05 -0.0001610361368957341 0.0004149173414198168 
-2.217465689761727e-05 -1.125356552942583e-05 2.242864439791268e-05 
-0.0004518467013649435 -5.600384552155147e-05 0.000737422993567493 
-4.692025151641114e-05 -5.034740148261882e-05 6.113205209437514e-05 
-4.847857982543916e-05 9.092327445386842e-06 0.0001073838858961367 
-2.460734903086397e-05 -4.144990302839514e-05 5.576549372811256e-05 
1.945694177566158 2.652817478896959 -2.66832870049131 
0.0002535401808076182 -0.008789687777477682 0.008356418648956095 
-0.1829157876635276 2.75712266151151 -2.800469254936964 
-3.904039267508846e-05 -0.004467618932956509 0.002947879600451515 
3.489208539874236e-05 -0.002537294496484164 0.001089552813804598 
-0.002137840633363282 -0.000549309371778769 0.004905914718889797 
-0.002663455704581113 -0.002989871063672031 0.009391166650890419 
-0.001989511685385182 -0.003936428181671871 0.007346996921823857 
-0.0007998856461190176 -0.001511584554669893 0.004073105150731689 
0.0001356628328727823 -1.772375900295792e-05 3.787643197675227e-06 
8.039463429260275e-05 -5.185928159444476e-05 -0.0001817974674324503 
-3.975692794011395e-05 -2.528984971262228e-05 0.0002061813464359331 
-0.001524465613877558 -0.001394746708310308 0.003634546215077791 
-0.0001892408867588645 -0.0001932938458238852 0.0002838621965769327 
-0.00573334754936674 -0.007500971348269895 0.01851526447549913 
-0.07435016370933521 -0.001642710501496325 0.02646862223408524 
7.770679745566522e-06 -0.0002787465930928557 0.0004752454298953569 
7.761683258978325e-06 -0.0003363209488246329 0.0006429560234680776 
-0.01878213062583373 -0.0490434629381893 0.3691240925954537 
2.87069395576308e-05 -0.1709425369132577 0.006027377877148409 
-0.0003552851679504604 4.661077420834188e-05 0.002240478212943574 
-0.001834481919344218 -0.000183448346400814 0.003607933519273654 
1.91702432832107e-05 -0.005675371764805279 0.001278833356848049 
-0.003913431054348709 0.0001490274330252508 0.002726259937127589 
-0.4592372670006402 -0.3625615755843662 0.03201378763254991 
-0.00026567413751085 -1.712531640840754e-05 -0.0006367878983188766 
-0.0463088920138754 -0.0009838620398946812 0.3881953820561299 
-0.01729553577394889 -0.006131813371774226 0.3508054370181171 
-0.001821081024966095 -0.002419934435089194 0.006074794511837447 
-0.0009678674770660319 -0.001673013447977972 0.00645083952119588 
-0.01423926189023414 -0.01436641258617463 0.03875205588652767 
-0.01294114776545229 -0.01423553348443173 0.05111208241418166 
-0.006749778164364211 -0.005900508969167984 0.02011411152273193 
-0.8101097635534357 1.811094093410951 -0.8163225738493651 
0.0008544989899552197 -0.003954657456531186 0.006653223406366727 
1.017158350410157 -0.006840107535550299 -1.236512118859797 
-0.4698326150946155 -0.03555854014442643 0.5093409253095543 
-0.0004563339995716297 -0.006165392027018676 0.003979075945812663 
-0.2611328313631268 -0.05340290856380624 0.1898627164816954 
-0.0006321369156070491 -0.0006044259367424636 0.001488846749895997 
-0.006497873482687644 -0.001096615837462001 0.01000966534949655 
-0.0007889445630892337 -0.002547621918805921 0.000623901489313057 
-0.04656877678231088 -0.09417321542101403 0.6285183166764475 
-0.01842993933187057 -0.500018658826052 0.4594233828462511 
-0.04562515428617549 -0.01906287865296083 0.06085074241923845 
-0.003158934726722188 -0.001151961031896787 0.01086717663150015 
-0.001002754021465609 -0.001692886543921744 0.002768625686086032 
0 0 0 
-0.000873169769124815 -2.670694843817318e-05 0.001397747512658732 
4.537628259454113e-05 -0.003102619088548572 0.0001192207145414933 
0 0 0 
0.0002825575149317237 -0.02596994833270272 0.07138246460093357 
4.747002028143364e-05 -0.01209645274531314 0.005365184144326809 
-0.06492301444289177 -0.001741153095772009 0.03286355283803701 
-0.0009775582182510135 -0.0005561740736023595 0.005574740992294906 
-1.345393645268158e-05 -0.001317303357274041 0.001537110762666697 
-8.427837008721268e-06 -0.002005632415320328 -0.0003011786866804347 
-3.233920332131635e-05 -2.843460326345199e-05 -0.0007001262211879776 
-0.0004855363549445058 -0.0002105540040229026 0.0009797485655179171 
-7.831602015131189e-05 -0.0006319057071063831 7.668113587137717e-05 
-0.002415226965436487 -0.0001772757145427544 0.00292496799083086 
-9.869068868054737e-06 0.0005443607243881236 -8.421285911840833e-05 
-1.572728566311335e-05 -9.352573927280647e-05 0.0001728207958137229 
-0.0008127100926469463 -0.0004623852945932397 0.004118619526338504 
3.506501420847832e-05 -0.003225764751081593 0.001684839534032633 
6.576855726618171e-05 -0.0009677486549673295 0.002737104836448022 
-3.61656244408662e-05 -0.0001040505520944724 6.263273908887655e-05 
-1.889104313028577e-05 -0.0001052514956014017 4.351860000499365e-05 
-2.434685945013936e-05 -0.0001101033910804476 5.275020947916224e-05 
0.0003138181020261382 -1.852809074467174e-05 -0.0002217841392419204 
9.322465363271222e-05 -5.945948857424933e-06 -2.325560546177579e-05 
-2.058715733013094e-05 -2.068196813333701e-05 2.771749970079882e-05 
-0.01504615825889456 -0.004919253324672081 0.03633534610350973 
0.0003284866701018843 -0.001022546072274926 0.002015643665285585 
-0.007512531706581112 -0.004481174990984099 0.1810564986598782 
-0.09226390208030166 -0.04671987802084991 0.2527281306050871 
-0.00295001899657106 -0.04711299332530308 0.05925709104916391 
-0.007631339573430982 -0.2723890433536604 0.02803495419765889 
-3.734990504403004e-05 -0.0009163451646815056 0.00102965638141141 
-7.981320473056683e-05 -8.018426560372644e-06 0.0002031665604862469 
-0.0005268951621444736 2.359902767838228e-05 0.0005958535464576476 
-0.006291412121350454 -0.01178564923518437 0.01968124939321902 
1.259059533468389 -0.06106189050615336 -0.8147357127143464 
-0.006602746997332672 -0.004052617619356511 0.04942902855967164 
-0.0007435515271418864 -0.03707102774233272 0.1544744131347763 
-8.023288634535913e-05 -0.02999088967579688 0.09301519456148798 
-0.1803021641119328 -0.002759888547906818 0.1605214701432299 
-0.0008301713716771834 -0.04230101925265193 0.01355406902745871 
-5.190958481274998e-06 -0.002223000584107122 0.0008374330420458443 
-0.0002941392244048766 -0.0009037256990182618 0.002035944481548632 
-0.001867834988052926 7.798817147076059e-06 0.002508957081619926 
-2.578863119403066e-06 -0.001814094220808066 0.0011416508074234 
-3.453560098050667e-05 -0.001649748668799749 0.0004151086361290482 
-0.0001432272203894098 -1.084963015916433 0.4333517370498756 
-0.0001534713570862239 -0.002497662827282421 0.004455285263496611 
-0.0009478686980946257 -0.6398030754225036 0.4776072574087043 
-0.0006789123876663833 -0.0008310444957420566 0.0005532947467875279 
-0.03094753831124616 -0.001758645924542627 0.03532834450868602 
-0.001842628358453565 -0.03083488800645728 0.0216766975562775 
-0.2815594213418759 -0.05892179990850525 0.4211236146083553 
-0.006054957888328355 -0.946732004512745 0.6535282233627731 
-0.06152232414831487 -0.02493019443125426 0.1855019487758205 
-0.000645395091552748 -0.6090973363634508 0.02831789263827595 
-0.001089638324802761 -0.002308912094547482 0.00530653316403919 
-0.000255909461763077 -0.005279627167570517 0.001921689157217525 
-0.1115165985971428 -1.083869869149476 1.104220632829274 
0.000240976456282626 -0.01027276545449459 0.005133010448208325 
-0.4216117127163029 -0.009314567868863493 0.2695401627197528 
-0.02108356376312969 -0.01348882117306936 0.03664013242690316 
-0.000140512955482046 -0.002983691553451233 0.007615188417266831 
-0.4490687937455554 -0.001801753283968925 0.5456855390439481 
-0.0001345374222847821 -0.01297486926960023 0.01172278712220907 
-1.11574591574142e-05 -0.002111923201991554 0.001837632752207723 
-0.0008946732012359033 -0.009415509702202998 0.01597372937378802 
-8.33142901952214e-05 -0.03449900414821773 0.01621834203424264 
-2.429960324034638e-05 -0.4572058240862878 0.02491599489658683 
-3.385259195642591e-05 -1.992831638227538e-05 -0.0002118992461471612 
-0.0003003943102201212 -0.0002747821280030067 0.0005300229294588043 
0.0001390801814762214 -4.268419396468079e-05 -0.003254708458580557 
-0.0002539467798096629 2.237545910035317e-05 -5.630145450752796e-05 
-0.004229164716255594 -2.468878405017661e-05 0.00183154179129495 
-1.252546790265102e-05 1.743228639496243e-05 2.321588895026883e-05 
-7.874844370960072e-05 -3.231421020736737e-05 0.0002365525512933406 
-0.002028694050568144 -1.516654989151674e-06 0.001730857575506288 
0.0001373430335864525 -0.001344049917586812 0.001510404984380845 
-4.001956797309437e-07 -0.001253548883276996 0.0004370530488271528 
0.0002545320842264412 -0.0003615294434666679 0.0008253917484582534 
-6.545054344246983e-06 3.327828716397947e-07 6.811202140160629e-06 
-4.843792562076693e-05 -2.120307692064316e-05 0.0001302148938973104 
-0.0006414980428111079 -0.0008121159542428743 0.002672670163663018 
-0.0005131353071383641 -0.002106731757388712 0.004080068676005574 
-0.0009129555760162537 -0.000425890935861707 0.001851806538565013 
-0.001620148922345778 -0.002681635765626667 0.006287268527818204 
2.790295286869195e-05 -0.002515979659102426 0.001798817115037417 
-5.034513679070544e-05 -0.0009867552298626803 0.002188579013487105 
0.0002130259140109207 -0.0003870701882337141 0.0004694005665903001 
-0.0001026763355142284 -0.001131612152807434 0.0007349996094224256 
1.366574575547989e-05 -4.662844381700358e-05 0.0001713441512178427 
-0.06421660279218673 -0.001498444322099381 0.05897808164020136 
3.533768625995796e-05 -0.001427541269533544 0.0006064048473669007 
4.011771090458331e-05 -0.0001769961369663992 0.0003439673802466269 
-5.137516171635674e-05 -0.0001146048959599233 -0.0001134142620326537 
-8.529640594687278e-06 -1.904075631629356e-05 8.21875200051023e-05 
1.205681746142635e-05 -0.02309398703477381 0.00433741524469318 
4.684488293465643e-05 -0.0005361548126507708 0.0005295568047577321 
-2.024174151697749e-05 -0.0001165284828024661 0.0001938700531352671 
-0.001184860347680167 -2.483874445766219e-05 0.0008692420877000717 
-0.005752197378483645 -0.005551941707144298 0.004230685659149385 
6.409732328645168e-05 -0.002670580060154402 0.000787184898353899 
-0.002730635371532285 -0.001685409384484181 0.009005113397287309 
-0.0001420408460180287 -6.18153398132342e-05 0.005266518725212655 
0.0001196903068608202 0.0005196949630274898 -0.0004048013892289281 
0 0 0 
4.724788006414786e-05 -9.391218198341252e-05 9.038891603924672e-05 
0.0001045474748103932 -0.000332459689061586 0.1920175877953232 
-9.406119176927603e-05 -8.970846934644107e-05 0.0001523999548652901 
-4.620685414442233e-05 -0.001757522652565551 0.001882467276867558 
-0.0001549408396964843 -0.0004238252304220582 0.0006958382837071717 
-3.887614980519259e-05 -0.005693689028356859 0.003324622495632262 
0.0002546727160648945 -0.05654350021860365 0.2529185148120789 
1.290909321360088e-05 -0.008306634006438428 0.00507857070583327 
-0.004519353748823284 -0.002653331444296645 0.01020390425990314 
-0.00137876171190674 -0.0004085678030864106 0.0042334499554867 
2.631278355534857e-05 -0.00504384989225391 0.002683485085152182 
7.108609781487114e-05 -0.0009285683953041726 -0.0003176094571340849 
-3.591312291924101e-05 -0.00977546468476692 0.004119743404388423 
-3.204542681283924e-05 -3.772848673835517e-05 2.995997266250024e-05 
-7.178897291544116e-05 -4.514077389839971e-05 5.885229291084869e-05 
-1.535658146902676e-05 -0.0002381104351301218 0.000227108085492484 
-4.929884754233937e-05 -0.0003194653394135479 0.0002765491728549204 
-6.603447759307625e-05 -9.842166221772654e-05 -0.0009791942074742436 
-0.01560883047401475 -5.758142303139753e-05 0.01882930380350391 
-1.098746026694097e-05 -0.0004387957270154894 0.0008858638929838134 
0 0 0 
-0.0002722794454539449 -0.001467488151348962 0.0002108987130668656 
-0.0005748297087363536 -0.001866494661287858 0.002724769820597613 
-4.383062349080711e-05 -0.0007295025235993128 0.0002798129838783542 
-0.03558933065827762 -0.01309004957910348 0.04802193752821896 
7.022531934159307e-05 -0.1349460941909753 0.05389542538220168 
-0.001120196066736716 -0.01157329821608573 0.02461426672846075 
-0.006964285309811368 -0.9296878976863919 0.4708937679679056 
-0.008556384818274363 -0.06150794887419749 0.05102972687032525 
-0.01053659533158689 -0.2824003149333159 0.3898390833224193 
-0.000207197259126143 -3.71550751396517e-05 0.00382663988133688 
-0.0004395736927655513 -0.0008495711107288362 0.001836966536372884 
-2.373307612702116e-05 -0.0001712561284093683 0.0002022548427630849 
-9.601410351254332e-05 -0.0006278581793618054 0.0002702799047854233 
3.4076781571671e-05 -1.882285158807905e-05 8.771264270054645e-05 
-0.001355276180002972 -0.0003058174212008635 0.003706432499469337 
-0.0001725957902362522 -1.474119034467875e-05 2.429020973698278e-05 
7.055434912446986e-06 -0.0006511152748423108 0.0002923917352837336 
-1.411953981576928e-05 -2.005133382668479e-05 4.587693023008292e-05 
4.666077803569015e-05 -0.0001648377813442177 9.783374048707538e-05 
-0.0002523655408645788 0.00016273905063629 0.0006755083085711093 
-0.001458473105500843 -0.004245866094968469 0.004555396863319714 
-0.4791859824759901 -0.001113756882004354 0.2404665351659806 
-0.001070528937738089 -0.001806428286269493 0.004209850583714747 
0.0001679428715121055 -2.125328694520281e-05 0.001355115050643572 
-0.002395771355026612 -0.0004115294411730493 0.005191174752394514 
-0.0001025974346296492 -0.0005907950683165936 0.0001912221982293127 
-0.001307208143084367 -0.0001125505694588633 0.001139760243421669 
-8.506282614197846e-05 -0.001371325113047053 0.0009397505957645071 
-4.750618771645639e-05 -0.002003155818375439 0.003277663730513534 
-0.0001024498369565038 -0.0001514672321134526 0.0002923757634079317 
-0.01413861726319776 -0.003613684715980006 0.030922940386445 
-2.170121088358483e-06 -0.003817856287664598 0.001295217398725058 
-0.000619509405874867 -6.661007792537235e-05 0.001060397662664539 
-0.08770803622607699 -0.03495781331592155 0.2912456475069838 
0.002712451701169856 -0.1237754396582961 0.06174562380933247 
-0.04286443635759805 -0.006257902661449175 0.05083385451811648 
9.229746074298498e-05 -0.0005846741969304786 0.001385627780679805 
-0.0002108054881122904 -6.354130654128732e-05 0.0009810095118116941 
-0.0002087656255554572 -0.006191006075596324 0.0004616979643585018 
-0.0001865854589162611 -0.003340980113572484 0.008506370433805513 
0.0001149444543067226 2.796673717862951e-06 -0.0006760872368092013 
-0.0003783212658439659 -0.5349993156311244 0.3533665715541437 
-0.002488310166937692 -0.003245689667639344 0.02007884984417535 
-5.855715831852481e-06 -5.861555865765537e-06 8.835331885299675e-06 
-0.0006486856262233943 -0.0005176777246426261 0.003027219418297564 
-0.002154735236407869 -0.1195176698335 0.01133759526192126 
-0.01326263592467119 -0.005504702667602046 0.01930878294674801 
0.0005334216200868773 -0.5798974238820396 0.2987077304629643 
-0.001998481019072972 0.0003906418978713122 0.001887616922091274 
0.0001439521490153718 -0.0001114077200609016 0.00116779655770022 
-3.773965907904976e-05 -0.001681176500799077 -0.0002529852256846752 
-0.009248192413501034 0.0001229284474250408 0.01436649282014568 
2.847070906197142e-05 -0.005249918456585384 0.002816552013211211 
-7.588457727039432e-05 -2.756061955225059e-05 0.0001621005597437144 
-0.0001689519123444088 -0.0001604034726165322 0.0005818209553623779 
-0.0006708514795184221 -7.678271686849924e-05 3.936530786691645e-05 
-0.003506757016399019 -0.007567430867548731 0.007879157418522319 
-2.233430458759574e-06 -5.050561314944868e-05 3.558380079754976e-05 
7.774165682782008e-05 -0.0001534133250743038 -3.766528999680069e-05 
-4.806391760509587e-05 -6.234980054856598e-05 5.908052966006152e-05 
-0.5819022697555025 -0.07068793562085286 0.3539288179583041 
-0.003202829428440834 -0.237252962262786 0.05422286784676176 
-0.4580213741486143 -0.05438262319896817 0.4519857159866109 
3.059059552471289e-05 -2.686414845325182e-05 2.374385018887042e-05 
0.0001519572951485823 -0.0001447821895266766 -0.0007247369779228024 
-3.386474253138545e-05 -2.27114382773715e-05 4.878428358530806e-05 
-0.0008170382431122686 -0.009275203277710009 0.006184541877420085 
-7.07027058528736e-05 -0.01469016450406193 0.01038446491333127 
-0.003747707721469568 -0.0006241275649465461 0.006729714568106455 
-2.890906399222224e-05 -0.001378402035199463 0.001806650329010945 
0.0002613238914435363 -0.001561513352259495 0.001919311063369831 
-0.001839820558920584 -0.0001100183051225169 0.002608594734212549 
-0.0006759269460558328 -0.0007188919567609122 0.002860562738807284 
-4.606242544646307e-05 0.0001661557521825209 -2.829980715069976e-05 
-0.0001606589065660026 -2.88955750227244e-05 0.0001798139216181184 
-0.002663343983804058 -0.0005914355017562008 0.00502686488636218 
-5.37579598974378e-05 -0.000269828045692921 0.0005308706419958375 
-6.393961412751588e-05 -2.621717288789006e-05 0.0001222949202430265 
-0.001409025890180426 -0.005759326954733432 0.009427289647834397 
0.0005001447753245175 -0.0004009424777521619 -0.001298796560673545 
-0.0001730565511516734 -0.2273271388248388 0.08502763257271112 
-0.006820449610861159 -0.0004480183041794466 0.00984091726850455 
0.0001250439828774836 -0.009220416606696393 0.006764679723173774 
-1.370865315429807e-05 -0.0001705440761200807 0.0002919233851195469 
-0.3829901093275274 -0.3713742270990074 0.3186174930040318 
-0.01330123219442429 -0.4977839876183251 0.3557580522554417 
-0.2285508484990059 -0.2391079934269398 0.547054389809092 
-0.0004430925901863239 -0.005391700887450088 0.005211127275490076 
2.355211046574619e-06 4.810588107795645e-06 4.734080946428987e-05 
-0.00104330951309914 -6.16037618736025e-05 0.001214059322420449 
-0.0009737408377390134 -0.0002717941641416866 0.002395753558299975 
0.0001298124111995511 -0.0001273297420405153 7.858690236109617e-05 
-0.0001817187099525112 -6.867815943455003e-05 0.0003398585851787362 
-0.0003673535095046561 -7.003954447947199e-06 4.685227355206002e-05 
0.0006980559025051181 -0.0005157873559445927 0.001458003278958383 
1.325215658965982 -0.01089818543748104 -1.864183769559457 
-0.002656774715128251 -0.006984228752507046 0.01637773979502687 
2.396154263602132e-05 -0.0004981544473083907 -0.0001136533125007541 
-0.001145248852299162 -0.0001808163127770894 0.003048752214910314 
-0.003778173300422455 -0.002154860388029368 0.14472678112788 
-0.4593620495947586 -0.003745715567590076 0.6782603447956819 
-0.009275864211090362 -0.0007537069126250853 0.0113859614030149 
-0.004390321462248293 -0.1624757197480911 0.04062113899224343 
-0.03932716437165929 -0.4104523949247574 0.07843248734707253 
-0.006121616618533216 -0.0103698381956825 0.01190446315047671 
-1.131909459335919e-05 -1.453466545653267e-05 1.591688278142436e-05 
6.188939866864732e-06 -1.154204933655507e-05 2.091151507792952e-05 
-1.323716907122526e-05 0.0002418222018804782 -3.261884223371593e-05 
-0.2709600926872289 -0.001660582416212951 0.1548265684871523 
-0.0002253674307513074 -0.002631476607183846 0.001249164483892175 
-0.0002621046817092108 -0.001639987603030453 0.0007491897858833306 
-0.009270024227321814 -0.002623688768504797 0.01365085875310119 
1.897306505653507e-05 -0.01248098815109696 0.00957628950094791 
-0.001049798687748792 -0.001050702815074499 0.001399826516512377 
-0.0001364752618930712 -1.225179710998118e-05 -6.455998719372537e-05 
-0.00176748875589452 -0.006144322260502317 0.03071375699689007 
8.155410951539807e-06 -2.275535013544344e-05 1.061425782542223e-05 
-0.00192397733673587 -1.723468076626544e-05 0.001279693679848223 
-0.0002744519116400418 2.755854839003224e-05 0.0006630704052890776 
-1.850228362128604e-05 -2.160376093015553e-05 2.931210050904559e-05 
-0.003179433965403764 -0.02855324026051836 0.0266046705992782 
-8.13994668297429e-05 -0.00618396294481591 0.007794122469344163 
-0.006957002114501514 -0.5796340279606252 0.2259719511378255 
2.076546164753387 0.2872222937661874 -2.29191316233665 
-0.2445936669270375 2.777706862938325 -1.942097134323116 
0.367204640348668 -0.06409796269955884 -0.3144206068935411 
-0.0007856019532714258 -0.01391140380498182 0.09555881317185365 
2.200306459230677e-05 -0.0002144283174707678 8.748922981771963e-05 
-6.768988202682011e-05 -0.003652519629117863 0.004808268700065748 
-0.1176205607400255 -0.4170988815869244 0.376552552271997 
-0.007249796385731659 -0.006107488673219135 0.009651048389213846 
0.2100894175598508 0.3380720797902747 -0.3176514491001269 
-0.007784955948756426 -0.004131754980903791 0.0122187110825421 
-0.0001690751740003821 -0.01914079487958686 0.0117272754575807 
-0.001877360874423852 -0.0009702990175824573 0.002160497851366793 
-0.0001341282152734125 -0.01000893291104771 0.01004128395459472 
-7.310254284630768e-05 -0.496298158297115 0.01499336959051193 
-0.001527033568432999 -0.01212929268682121 0.007146524826862144 
-0.2401294770233911 -0.0009836540076911926 0.1322689030819512 
-8.86763934057398e-05 -0.0002626332556041357 0.0004923951982342187 
-0.00125188404216493 -0.000340320199688984 0.003990782631778516 
0.0008159414218847908 -0.01279198292584473 0.009988171539128572 
-0.0001412519840802727 -0.006240150568676639 0.008248283987050803 
-0.001284763348098962 -0.0005078193153810973 0.0036444188812783 
-0.003114010333929032 -0.3708394275164904 0.08407780979297923 
0.0003046857040459384 -0.004369321650148904 0.02297493548304428 
-0.09667286628175713 -0.6159484151082586 0.4326412588195461 
-0.09916316765542613 -0.002075980316449429 0.01062628676142036 
-0.0001401198869543305 -7.303479277289431e-05 0.0005440888132845231 
-0.0008389277892490926 -0.00169677365047211 0.001475729442844515 
-0.001478756363431713 -0.0005739607396805268 0.002328184189855885 
6.558216209935112e-05 -0.006305258521342411 0.002157044496493899 
-0.001900093918201293 2.623024339336335e-05 0.002400666082423161 
5.573896388901942e-05 1.290325992706776e-05 9.85598129759546e-05 
-2.248434464131562e-05 -8.034571076272828e-06 1.340298420227712e-05 
-1.951004472571606e-05 -2.248288165198546e-05 2.57292880245013e-05 
0.0001851821134844018 -0.001933309343768042 0.002278384470045585 
0.000127224245041749 0.0006273189768634701 -2.086431508429155e-06 
-0.01037262744564282 -9.591135313755208e-05 0.011581300083058 
3.956992240696188e-05 -0.0001556487076729376 0.0001905883458456857 
-9.30376515974898e-05 -0.0001366492520051339 0.0001715585135261686 
-0.0001737675764565994 -0.3945607370492345 0.03774583770772233 
-0.001904042769072618 -0.006924473677148528 0.01110963814476036 
1.648577292170057e-05 -0.004559147676016968 0.003677934205854673 
-0.007454709161658761 1.638235102085705e-05 0.003550994981975697 
0.0001394352211744422 -5.366945741431965e-05 3.890017574158475e-05 
0.0001360679823652646 -9.85601810791819e-05 -0.0001851499506965674 
-8.018521568643835e-05 -4.927784573431898e-05 8.420245132671349e-05 
-0.0704346556239958 1.924498052620466 -1.620952015285329 
-4.029231178760121e-05 -0.00199936795994724 0.004191331456396064 
1.448343542871762 0.01416689336949367 -1.512157600333228 
-9.344726691909767e-05 -0.00429009495386924 0.003488678884050408 
3.096943189900099e-05 -0.0001097691099354864 0.00012977154636005 
-0.0002060262698181099 -0.003463416666318222 0.001845042886990388 
-7.31839685096749e-06 0.0001137623606436247 0.0002720534726132505 
7.79238566957924e-05 -0.0007060859040658257 0.0001145391874372545 
-0.0001042459710975577 -5.151201534263376e-05 0.0002614972964261977 
-0.0002972253517229847 -0.008105069499901784 0.01241251805569495 
-3.329555110588848e-05 0.0001852892945137549 9.676628227663712e-05 
8.320469836419204e-05 -0.02113598815434923 0.00561815699584817 
-0.1476293366689051 -0.01159532877771928 0.04282055104321499 
-1.151829304369788 -0.01795010486934193 1.182936658589026 
-0.003653797916429866 -0.2641575539417198 0.05424693418948767 
-2.071427918914552e-05 -2.289611103846937e-05 2.872246351452063e-05 
-0.0001647734440741847 1.026901515470917e-07 0.000261426702351212 
-1.60491370418182e-05 3.263961659064989e-05 5.404348847339411e-05 
-0.0002264255880803495 -0.006466075855153296 0.007177252332830393 
4.814702393945587e-05 -0.000221865770949925 -3.323243597185807e-05 
5.228107492516205e-06 -0.0003273840414302503 0.000592873223857677 
1.864640288307002e-05 -0.03528202123329417 0.0971550902952048 
3.457559084494011e-05 -3.747095272712926e-05 8.996700005848168e-06 
-0.009960935827259196 -0.001830807248534877 0.01344617187606166 
-6.706538124834665e-05 -6.091022116977283e-05 0.0004403536398002665 
2.725968677887728e-05 0.0007056379157417518 -9.228319976448884e-05 
0 0 0 
-0.003020544241225494 -0.0003882466731181011 0.004970541212321864 
4.191328623103796e-06 -0.0009078985401939293 0.0004111268577606672 
-0.0003674614499820218 -1.552063331427098e-05 -0.0001587282984410541 
-0.049770126900967 0.6195086075750772 -0.4863332899008134 
6.833129900121007e-05 -0.00105905527027798 -0.0005797835042735196 
0.5983174560483383 -0.019691002625754 -0.5663685767597276 
4.104732759178943e-05 -1.689618825174727e-05 -6.135447045923905e-05 
8.011839909271121e-05 -0.0005370910514466825 -0.000231253806713957 
1.568988874640772e-05 -0.003512636903609033 0.0003377272062866738 
-0.000220064727571562 0.000188136017300487 0.0003721491287574439 
-0.0001608669842333958 -4.332718862410992e-05 0.0006425336088411245 
-1.857597935333746e-05 0.0006395660984749419 -0.0001429915658492358 
1.055276046301448e-05 -0.0008751263667623099 0.000721787905779441 
-6.545054344246983e-06 3.327828716397947e-07 6.811202140160629e-06 
-0.002584378169682626 -0.0001072701073788258 0.003897534608271943 
-0.00150593421246738 -0.00429090431498545 0.007433549421243827 
2.211016396333288e-05 -0.0001341203420615093 -0.0001424242557916175 
-0.004790770444511139 2.44176849209864e-05 0.002161821275466503 
-0.002690480762286796 -0.0009373168934427584 0.008771550255412357 
2.325579253374589e-08 -0.5697920697152415 0.3617156589902296 
-6.680717842844772e-05 -5.036058928363252e-05 0.000112740800924242 
-2.891042532882044e-05 -1.824604500562106e-05 0.0009865409526032434 
-5.036163458380842e-06 -0.001867762896784541 0.001067797323796226 
-1.581924239305919e-05 -0.00171835281214576 0.0009868612161542229 
-0.137764007895821 -0.005296021251005381 0.02777984807541103 
-0.01184550501516478 -0.01027966425870157 0.01964990899370203 
-0.00111324939469195 -0.01181369948890174 0.008260321104932512 
9.051266833722175e-06 -0.0009005404679232253 0.000799320104183173 
-6.545054344246983e-06 3.327828716397947e-07 6.811202140160629e-06 
-0.001121866760364428 -7.325417752973715e-06 0.0006062202999941058 
-0.1146582461529937 -0.1743455462080987 0.08098417793643246 
-0.000260410110166428 -0.01803146293811956 0.01513658861196979 
-0.005621361469404996 -0.005799696246257564 0.01397772004226781 
-0.001679465257788601 -0.003321409936289481 0.2016180202885247 
-6.085761452493628e-06 -0.000198754313691452 0.0002298985328148048 
-0.0001388536473446006 -0.004689031267074794 0.004037510278862676 
-0.0009526102818473063 -0.002253455258478816 0.008514929197137562 
1.183201636902088e-05 -2.486939484756143e-05 4.952131465270542e-05 
-0.0003467246434648896 -0.001659608932142998 0.00246890248512591 
-0.0001248597486613842 -2.030963928705132e-05 7.096296077265202e-05 
0.000264540831941236 -0.001563030956757724 0.001915774516541615 
1.140946756165658e-05 -1.482536375802393e-05 1.901878489233636e-05 
-0.5085483848237328 -3.024444102803661e-05 0.003916567481755431 
-2.470296103901829e-05 -2.631082112106145e-05 3.170718189380711e-05 
-2.608782847520217e-05 -1.302752593070446e-05 3.419561538304133e-05 
-0.003109132816096477 -0.001363999120687287 0.008290792664756859 
2.645104560319046e-05 -0.02455812926999076 0.01605999010484008 
-0.001759187888004724 -1.993458871659888e-05 0.006532723702412763 
-0.0003589474737401174 -1.686272728902804e-06 0.0006081307092512711 
-0.003684080228175477 -0.0004657344639322518 0.003512047330293405 
0 0 0 
-0.00322901505064165 -2.002954264019433e-05 0.0008876567716602903 
-7.631906076000994e-06 -0.0007452484057100616 0.0003254724003558904 
-1.137202865050716e-05 -0.001113944315523098 0.0008811867438022462 
-0.0009217280669883561 -0.1778823294929539 0.3618917576768613 
7.401422113677604e-06 -0.0206907536551467 0.1228088002725485 
-0.01755917165735799 -0.02246530719952135 0.2745731750958307 
1.130712903769922 2.959474231899845 -2.564234922891436 
-4.332542848236504e-05 -0.001496297444878391 0.0001822845341529393 
1.90893224052417 -0.1328502119995691 -2.068131738706363 
-2.102621142463744e-05 6.907779832577394e-06 1.185918477087129e-05 
6.229131253784228e-05 -0.0006987181849823993 0.0004451352418680432 
-2.606076654708801e-05 5.581927695841171e-06 4.806026409396663e-05 
-0.002733020032525842 -0.0001124410160047387 0.004122692899199386 
7.48598457564347e-06 -0.0004058222992736313 0.0004730341025833276 
-0.004777886950943206 -9.18777353506447e-06 0.004113577653729993 
-1.078387331673672e-05 -0.002262564321035496 -6.196557534651068e-05 
-2.814354656695445e-05 -5.275563612199171e-06 2.974004569442428e-06 
-0.0007226892825895195 -1.170771632617836e-05 0.0008038477427367535 
4.721300395061459e-05 -0.7432385359079615 0.7946071055110946 
2.598727230339018e-05 -0.0006304360953452798 -0.0001881921090971631 
-1.614147509044007 -0.01790501133265748 1.057280180489863 
-0.001843805955225254 -1.706566553848608e-05 0.0001558011336953915 
-0.04102128172429493 -4.800927344479809e-05 0.06063367058631701 
-1.901453802967188e-05 -1.757384534810839e-05 2.810482544547432e-05 
-2.010508423723821e-05 -0.0004577482317590722 6.015716493383134e-05 
-1.316050524805758e-05 7.765022554426552e-05 -8.812436500982775e-06 
1.464777234447096e-06 -0.0001763596868195237 3.475673796786157e-05 
-0.01758398516866158 -0.2421427491488499 0.07244187667555239 
0.0003492598030662056 -0.003327994610190341 0.002754142916930077 
-0.005718604602260999 -0.004259084525988054 0.01095008360520899 
-0.0125438952350908 -0.005102383299883172 0.01993245497112987 
9.690208541427697e-05 -0.05033281019763212 0.08961950343204615 
-0.0002415941253255909 -0.04359139732768933 0.00270379394514955 
-0.02788371884144772 -0.1613829327059497 1.023519711236438 
-3.13918464083777e-05 -1.095322139091403 0.4222484069071165 
-0.006900656388415049 -0.001169848609101499 0.0104303350547702 
-2.092423120072485e-05 -2.468273761069249e-05 2.895169777832295e-05 
-0.0003236918202319622 -3.862507905902724e-05 0.0005975407890973183 
-2.093201731085478e-05 -2.065886036498069e-05 2.641688875552009e-05 
0.0002334565543142534 -0.0002656851746714638 0.000727538501044165 
0.0001532729482687951 -0.05124074251370968 0.003888387707796581 
-0.001090512551360728 -0.0003554150162993485 0.002024597204003235 
-0.1818278393296344 -0.001022960244134673 0.004301149906163464 
-0.6586664305948967 -0.00985372306936168 0.4383114544780023 
0.0002827734230511879 -0.0008745175746932719 0.00125171083925178 
-0.01589586216487323 -0.0001765723911011863 0.0300804815726327 
3.055692469561311e-05 -0.0001295956135115794 2.429646963452382e-05 
-0.0001703286457801212 -1.020665747661571e-05 0.000218312958807854 
-0.002029313503220849 1.681494630312538e-05 0.001798146925458275 
-5.855715831852481e-06 -5.861555865765537e-06 8.835331885299675e-06 
-0.0001887071979224645 -7.000808109714557e-06 0.0001421689375124103 
0.6362381905854488 0.9107070128131207 -1.159178105930638 
-0.03234563579731621 1.120016401012981 -1.175961384568087 
0.75250261880096 -0.024194821631262 -1.28516325640885 
-1.584942338930924e-05 -3.923517726292871e-05 7.500116278557869e-05 
-6.706809239633755e-06 -1.485754122383951e-06 3.359647866988005e-05 
2.328809388726981e-05 -1.03473052695586e-05 3.480595803258909e-05 
-0.0019166812230395 -0.4579277095560872 0.8536679731814217 
-0.02227366765673559 -0.04747920665158225 0.08320904646253237 
1.036186390856887 -0.7131650319267024 -0.7786302979205181 
0.0003638212629595647 -0.001882274038433543 0.001788016255476722 
4.066356544464066e-06 -0.002200384532706053 0.001446619751953595 
-0.002480616944055475 -0.0004053183601385193 0.003738314042895149 
-0.003188412903183473 -0.001440585196858945 0.007578016147128168 
-0.0009261987529429448 -0.002268439813983014 0.003949737138953588 
-0.0001737485069918378 -2.535837007034163e-05 4.738372772595249e-05 
-0.5285990924884924 -0.01147931362780815 0.6463914293250262 
-0.3343095739089063 -0.37690018283632 0.6329806052769997 
-3.955354002874343e-06 -0.01117627662588431 0.007232540903810928 
-0.002631335882874952 -8.181831203977037e-05 0.004370674641957544 
0.0001257453248108812 -0.001326282439900352 0.002693445750860317 
0.0002026805760289222 3.174153082341343e-05 2.968615607502493e-06 
-0.0008968953146918313 2.206044251874669e-05 0.001167721499108454 
-0.0009975666311703422 -0.0009441755507203524 0.00247328716251024 
4.516566497093055e-06 5.548895834068374e-05 -9.068022656623706e-05 
-0.01007326466266297 -0.3285536558287254 0.5511340976521875 
-0.04323486755506713 -0.01562729926548861 0.04372302810875096 
-0.6423365862188735 3.174818927323254 -1.93434175410279 
-0.695846242011261 -0.02776254125828403 0.6651474555833897 
-0.002782552204732592 -1.760186738726923 0.2434280009477184 
-0.0004413817555692529 -0.04128833690634369 0.01894914693388949 
-0.000752649268363648 -0.002927402114689979 0.008685988188309969 
0.0001909932408060576 -0.03743568621657812 0.01057765497487358 
3.23830513913463e-05 -0.001302269236589547 0.000728184925382503 
0.0003826567923788185 5.769764524074368e-05 -7.715229258558295e-05 
9.322465363271222e-05 -5.945948857424933e-06 -2.325560546177579e-05 
-0.000108294938766427 1.366081890182301e-05 0.0002685365481990941 
-0.3619268158720569 -0.006888888077032756 0.02742663646077204 
-0.001072043549649924 -0.01153155791719298 0.007942247798565821 
-0.003674800358221523 -0.005706597258061447 0.0292208072088616 
-0.001971516817940137 -0.00011817780581186 0.002415315078823375 
-0.0002095684976445215 -0.0009128798050451891 0.001261042665068013 
-0.001891722514195069 -7.064782009228895e-05 0.0008074140836886152 
-8.769868274367846e-05 0.0001250416182571937 0.0006543142164545275 
4.59687934438712e-05 -0.07450537096933042 0.02401425456463424 
1.329333156056223e-05 0.0001859241109415956 3.054291763591837e-05 
-0.00910113254134347 -0.07091245384432593 0.09973806089496259 
-5.748032583110071e-05 -0.1064914878362741 0.1210681094024262 
-0.05984654527451738 -0.0445238166246941 0.1101907355102525 
-0.0002437930108142321 8.079656847811436e-06 0.0006158233420949874 
3.775741972972681e-05 -0.0003147051105831587 0.0006099849275281651 
7.583293620744436e-06 -2.303474207401012e-05 4.527861965909572e-06 
-5.070633083855451e-05 -0.0005842945273517876 0.0005629677122250777 
-0.0002508495080269633 -0.0008187855264297196 0.001491689290434175 
-0.0002193876129400622 -2.363744809931601e-05 0.0003238895527597676 
-2.097567464044556e-05 4.390711514316623e-05 -0.0001406303143404835 
-4.032450259469515e-05 -0.001183785820549106 0.001190354034933114 
-1.566633501250992e-05 -0.0256025012901662 0.01523797225909839 
-1.036346014271336e-05 -0.00336784014577094 -0.0001986194978652347 
0.0002073024460420773 -3.344763587480978e-05 3.0011732811628e-05 
-0.0001019364003608343 -3.335018713944601e-05 -2.105283530037091e-06 
-0.00150758296594745 -0.001998020959495298 0.006039282149880398 
2.78926780016345e-05 -0.006798712881505119 0.004431967076355465 
-0.0003400309063013195 -0.0002011392401884751 0.001749100610346425 
-0.004157487404310535 -4.053533146833598e-05 0.004429859758221611 
-1.277544803004123e-06 -0.003180414607345376 0.003206489719503292 
4.959480835032527e-06 0.0002875726692732917 -0.0001872425807716942 
1.151798304000418 -0.03047644996168236 -1.348562490156888 
0.0007832206688702872 1.257958981673402 -1.165315085983552 
0.0002568669855927031 -0.002017089570564185 0.002831505854810692 
-0.003653572554846282 -0.01627130140589994 0.02284673417607915 
2.22176059051558e-05 0.0006383139839658364 -0.0003846240079354965 
-0.0009529944175938591 -0.01331233722620977 0.01439658927627652 
-0.009582602134605009 -0.003423409605537478 0.01582680800197239 
-0.00700378698094543 -0.005223893396016739 0.01353992530808985 
-0.001115097184365895 -0.002004207000982126 0.003137036805585049 
8.447094337490753e-05 -8.915117540801423e-06 -0.0001590686309512044 
0.0001339809200380413 -1.52200560471509e-05 -1.670499466261439e-05 
0 0 0 
-0.4447524642398711 -0.00710560614979319 0.2264648145231713 
8.8833088099445e-05 -0.002401155602658443 -0.0003253517920732523 
-0.003858908422959919 7.172419402052928e-05 0.01464011546555414 
-1.3335437251147e-05 -9.273661015144622e-07 2.592638074322655e-05 
-1.732207129954119e-05 -2.371577215977288e-05 2.312586044671847e-05 
7.554490926566074e-06 -0.0007689353463732195 -0.000348850228596352 
-0.003483289007899701 -0.009085789269601199 0.01528977261190213 
0.658474515531645 -0.08161656848415055 -0.09132949404869198 
-0.002184493339901573 -0.02246427345929855 0.02102403847119863 
-0.002922478591371451 -0.007984414994688192 0.02554052000733687 
-4.373818325675117e-05 -0.002827617667571176 0.002279310027572547 
-0.007861458875606988 -0.02059743489633195 0.01688238158625439 
-0.001890715041571709 -0.005376594803350524 0.01085392092519549 
0.0001126490048343377 -0.003237522986396687 0.001424946240203601 
-0.005564657347761929 -0.002666910039573181 0.01140811860968115 
-0.007498009849447335 -0.001807043883103664 0.02057360001090537 
-2.078039571939143e-05 -0.003465703411746157 0.00216025306604678 
0.0001253024507778012 -0.0009943282262463364 0.001096273842146113 
2.003017359537637 0.6741412715402324 -1.936874498405505 
0.01450480933327813 2.144384449611607 -2.113386615615359 
1.177986009553491 0.4784893457623529 -1.146612094819095 
-0.004120003548529166 -0.001048813229165192 0.009157571543836623 
2.302329252159788e-05 -0.01041635778692643 0.005629124979349291 
-0.0001676018067302772 -0.009289866958602502 0.01676932596825496 
-0.001449031747268324 -0.01541739719269419 0.1282438339696455 
-1.867773418444861e-05 -2.77474147955567e-05 3.269950115034639e-05 
-0.0008323793484426131 -0.006285769022932853 0.01176182816836018 
9.689923294714939e-05 -0.001702399995270356 0.00291015340084928 
-1.037313815699211e-05 0.0002256356533799699 1.9120155798495e-05 
-9.312716139969591e-05 -0.000358122182793286 0.000877279576210779 
-0.003792684282385847 -8.491201729354903e-05 0.005229595522203289 
3.418990961279038e-05 -0.006752180941198937 0.004097335288045241 
7.761683258978325e-06 -0.0003363209488246327 0.0006429560234680776 
-0.001370503627647239 -0.001196507576972543 0.003528422492140049 
-0.001162051109405876 -0.0005760912596270871 0.002596926072219722 
-0.0002343287696026242 -0.008240807145463113 0.003843203409666059 
-0.03728297003494421 -0.02675115482614052 0.07563085287745853 
0.0003017071744058344 -0.02588429409933003 0.01393882658585345 
-0.002897684509972824 -0.02253987933624778 0.02460876850522149 
0.01174004027787397 -0.1212398320704981 0.3380732315624735 
0.123746340744 -0.1745253937578961 -0.157601299041196 
0.3238166917462498 -1.02345542297056 0.3124537879199948 
-0.0004389966241560175 -0.0002320619499483056 0.002101729909708034 
-3.37768126831452e-06 -0.002017216347363688 0.0009709130372923962 
2.529186747990734e-05 -7.068922558437494e-05 -8.18483729858828e-05 
-0.0002487605444115423 1.060563300859867e-06 2.629319992219184e-05 
-1.026016354221054e-05 -3.102547430578486e-05 2.798021085939505e-05 
-4.764342479654796e-06 8.685295450319316e-05 1.320052386823843e-05 
-0.002609252456802604 -0.0001061285921533675 0.003885971197204485 
-2.569888473591581e-05 -0.0006637858917285149 0.0003586082533753475 
-0.0006876688539638399 -0.0002812901059365252 0.001301277052757147 
-0.01111430467843752 -0.001963656270110557 0.01912865979939739 
0.0001217450381700922 -0.001944216963772623 0.002013671081350307 
7.714018972043866e-05 0.001057021633771193 -0.0004409516130078963 
3.212383292711019 -0.6860219730938143 -1.448316655732841 
-0.001128626818433453 -0.6465031290034292 0.0551094482452767 
-0.5895776414651077 -0.03773068651977122 0.2020532383791736 
-0.001648713283345694 -0.005127820647287098 0.0283997039457358 
2.887158543934196e-05 -0.0001471238550204779 2.723635063462411e-05 
5.304903938958014e-05 -9.156130103235921e-06 0.00343923115622936 
-0.0008280359010552022 -0.006866547910959937 0.01610152719746241 
2.97370501311918e-05 -0.01579497972569591 0.01059745078669042 
5.452373341738577e-05 -0.001278122851392203 0.002661990507732822 
-4.881281446497082e-08 -0.006707350457123082 0.006567625342471049 
1.648577292170057e-05 -0.004559147676016968 0.003677934205854673 
-0.00330495202047475 -0.005200416929759682 0.009362632045094023 
-0.0009459479335267181 -0.000973244712991873 0.003800435774909831 
-1.43116343063504e-05 -0.0003115524809491845 7.284406029620424e-05 
-0.0008137390311365058 -0.0001349930179826842 0.001559189695559585 
4.857517506808053e-06 -0.0002634670556316948 0.0002264944239210877 
8.900301049649029e-06 -0.0009164137743671813 0.0008200792474702249 
-7.345800364314247e-05 -0.0002864400363576466 0.0003479951675411602 
-2.054302012411469e-05 -0.0001916620883731122 0.0002220531419118393 
-0.0002915842365705068 -0.001366453508761698 0.002127587560698562 
1.005121268589902e-05 -0.001607103577322079 0.000865749969309181 
-0.1367334976961876 -0.001245451918179159 0.00173388479447459 
-0.002405839816325129 -0.001676635791149221 0.003141407521583766 
-5.015802447415924e-05 -0.002138471187361247 0.0009071565713565532 
-3.357249675020213e-05 -3.045761480755352e-05 0.0002492848498328249 
1.35923732200719e-05 0.0003529023558419842 -4.614183193735203e-05 
0 0 0 
-4.173426093326013e-06 -0.0001098517909614452 5.221100527195159e-05 
6.656399785628558e-05 -3.971434730584608e-05 0.0001137642921857171 
2.091597750156942e-05 -0.002130396737527043 0.0004948145607607492 
-0.01832048632989138 -0.008872744028586097 0.05627181473349867 
-4.465089576500398e-05 -0.2624537328421592 0.1761736094763082 
-0.004089254311011824 -0.006744059815500129 0.01377817662173129 
-0.1116099162139835 2.644097949649705 -2.236503025016266 
-0.003534957848590555 1.859880297761199 -2.209438644658069 
1.238114609098983 1.621948130239698 -2.087390268598567 
-0.0002709483783039359 -2.73423183255902e-05 -0.000154774368374391 
-0.0002073734067885121 -3.987745313798942e-07 4.687166054227235e-05 
-7.990648750319178e-06 -6.437350083454143e-05 2.541233476195946e-05 
-0.0006842126115150145 -0.0002754436391977464 0.001768025915183008 
0.0001030783413253381 -0.00443484361349232 0.002763054763267284 
7.72642041448072e-05 -0.0002067434749881218 -0.0002109845568002288 
-1.467098317089227e-05 -0.0175464331510778 0.01880548745997868 
5.692167570390385e-05 -0.01676378782266163 0.01177159053393296 
-0.01611952535123983 -0.0002871004236284508 0.01656865893096027 
1.696699063960147e-05 -4.964569630215336e-05 0.004012237056574161 
-0.5513218630517266 -0.001103278701716375 0.3883921234444134 
-1.863596404439587e-05 -0.002092299933857937 -0.000810653395698767 
-0.02247347724532733 -0.6362779056956201 0.5750081104705211 
-0.001775747789496134 -0.6642572717414771 0.7969328466110601 
-0.01038855173221662 -0.1106905009366366 0.09287575403501121 
-1.423946206118472e-05 -0.0002400414808871561 0.0002178657219439802 
0.000110170905810168 -1.890314267539655e-05 1.610298781606063e-05 
-3.600070634591722e-06 -0.001939256978145637 0.001000273627921301 
-0.002196590763063671 -0.04486655400809533 0.1309293358631031 
7.59014082674409e-05 -0.02445478857389728 0.02083803373817282 
-0.003099901564581417 -0.00201210873002593 0.2708264189922479 
-0.02571412131448254 -0.01465094434409977 0.1372671734395342 
0.0001319507785286691 -0.02942562892586686 0.0265606770903118 
-0.05173189495559755 0.0001296849367566299 0.05493905492608114 
-6.422932035739672e-05 -0.53375776604794 0.01540484931817901 
7.378112054514312e-06 -0.001223963508114149 0.0004953506086873314 
0.0002703828582001329 -0.001596577293500991 0.002280285453338104 
-0.04917232114348898 -0.009573420732179339 0.07446218375587384 
-6.217899661073415e-05 -0.05979380087012393 0.1040074760118457 
-0.001210295020747069 -0.002307395775073866 0.005803341256775104 
-0.01810775354211171 1.853202512210153 -2.056332167758079 
1.719663019585707 -0.1312553098426129 -1.0073301459961 
1.92027267373481 -0.02401602066300462 -1.895648794154142 
-2.942456144439496e-05 -0.03955940785176801 0.07744180368015034 
4.877427443754493e-05 -0.009600276625339086 0.001308508772058727 
-0.004633839737825002 -0.01619794182683474 0.03126200674437378 
-6.173635438220024e-05 -0.00140295265030711 0.002443737022889129 
-3.092484283973067e-05 -0.0008566369559033321 2.426507154734298e-05 
-1.415697018416116e-05 1.087279992903586e-05 6.609904875373138e-05 
-1.538028809341505e-05 -1.576574918025136e-05 2.370420247493256e-05 
-2.261233340512004e-05 -2.057329903744258e-05 2.755920344660908e-05 
-0.0003933927876307615 -0.0001607820472968326 0.0006610829191694638 
-0.0004650834431578111 2.851474909535546e-05 0.0004595234693433149 
-9.274629783169682e-06 -0.0006939302708898181 0.000428905583549089 
-4.920974401149288e-06 0.000846588768615548 -0.0001927860133319893 
-0.004845544507369344 -0.3584282569195316 0.4546881597459168 
3.168720485599074e-05 -0.05137453320235617 0.1909406419588529 
-0.002409260859359072 -0.3122014353967513 0.1011185825238517 
-0.009588540403800201 -0.4223314639496135 0.09693712407672649 
-0.05341186052875387 -0.02889567810099321 0.3465734485023578 
-0.007906101838257636 -0.01771804923658405 0.02385247770511487 
-0.000160657429684153 -0.01493215379857062 0.1869080430732029 
-5.745549734752413e-06 -0.002592096048390207 0.002020778867919678 
-5.124804493340969e-05 -0.001969084233135236 0.0007480637295435231 
-0.0001001289568417181 -5.725828602427058e-06 0.0001412890806678224 
8.718191152838748e-06 -0.0009193360003163098 0.0008279932131221248 
6.253889125102902e-05 -1.531171979489408e-05 2.046121648567249e-05 
1.082478822925828e-05 -1.489954694341061e-05 1.911224197734237e-05 
-0.0004048691546740943 -5.982814714436063e-05 0.0003247673149299308 
-1.938465583036373e-05 -2.070104175955677e-05 2.542387480931883e-05 
6.14527369898415e-05 -0.0002145418615283825 0.0003299839242373882 
-6.362712684555688e-05 -0.0008499198074331607 0.00146986880863781 
2.799021730624488e-05 -0.003443358889799678 0.001670147626796472 
-0.000250420559530331 8.786167910988214e-06 0.003087716975648256 
-0.004516372971887858 -0.002417182665936454 0.007220687284441901 
-2.850250778451673e-05 -0.05453916242464411 0.02159755881868463 
0.0009432360049423972 -0.0462357339987693 0.009027106909359095 
0.0002743360035048734 -0.001331631269727312 -0.00136746391271854 
-0.005094919627305186 -0.00349847984011296 0.008475400905791641 
-0.002662598506351867 -0.0001057510752761869 0.001486311606689711 
-7.438332237636269e-05 -0.0005344621011338108 0.0009321666412087239 
-2.865691642266293e-05 -0.0001286607263968391 -0.0003679234910979088 
-0.0004932941127455655 -0.0007369042908523143 0.002587563732136417 
-0.0003366407734065262 -0.00522497166460145 0.004546007749193787 
1.452517499708246e-05 -0.002015817488286209 0.0009397766058777837 
-0.001082296042661617 -0.006029797963256278 0.003640226825666525 
-5.178411575491519e-05 -0.0004860687961691541 0.0002140828440879342 
-0.0001645472830711339 -0.003945316557109464 0.001645530829441752 
-0.001112853886269335 -0.0006500074320053657 0.005714993421292265 
4.083114115586219e-05 -0.0003157372132997921 0.001388388475817048 
8.426463312066857e-06 -0.006494646941673631 0.002872036463998683 
-0.0003463837414342644 -0.0008902743757102708 0.001739467397112687 
-0.001250639893991902 -0.003291298525524513 0.002374029822416301 
-0.002731734422854802 -0.007935366168339677 0.00718520873876864 
-2.783279060760054e-05 -0.0001293307540091497 0.0001208701874226066 
-2.190429973476967e-05 7.624072536220069e-05 3.976182563436788e-05 
-3.530808812514963e-06 -0.001688486129070278 0.0008580907897314999 
-0.001546882397351554 -0.000163898254410646 0.002005248118104589 
-5.077430538429383e-05 -2.692221581968095e-05 0.0001224465315515498 
5.385620352179646e-05 -0.007135540549585854 0.002633273192632491 
1.543393488749945e-05 -1.124867865683025e-05 1.040383406681589e-05 
7.894214802777686e-05 -5.459601133289121e-05 -0.0001614381596822961 
-1.363036142247436e-05 -1.393847317551736e-05 2.173188671013605e-05 
-0.0004663789761039502 -0.0004058874606303606 0.001620900327044877 
-0.0005163818231045694 -0.00440122321877106 0.004825017981249666 
3.443538880089003e-05 -0.001517411301051079 0.0002054521497302328 
-0.001662159037713235 -0.001601227810471977 0.00839144313881489 
0.000292481563544085 -0.01781207625913309 0.01983619644853333 
-0.0003145592236297883 -0.006920083375032974 0.003678818689697851 
-0.0001275814283786533 -0.02708269158951614 0.2403694878422954 
-0.278726221431699 -0.04824262001606206 0.4905707076347136 
-0.1524244020022972 -0.5962693506787651 0.7916783160211678 
-0.00399752643060128 -0.01245724955409177 0.0103454459791231 
-1.875719281255274e-05 -0.006710261021609604 0.008149258435983027 
-0.008877077578879016 -0.001380189167487891 0.02120460897508713 
-0.0166568370885951 -0.04409354919853193 0.250723969138188 
0.0003062335057622746 -0.06641730677750139 0.2591560537644588 
-0.007452000860846596 -0.003870233567214996 0.01130677226871983 
-0.0001418231551172539 -0.3769826746493908 0.2275012915394508 
-0.0002610896813450367 -0.07566977880368778 0.1144276097762312 
-0.01136008478713802 0.0002127237360897678 0.1451079369697359 
-0.01462031583975603 -0.01009980720615233 0.05546026117485084 
-9.358102516335765e-06 -0.0001835398916927713 -0.0006946127418381214 
-0.01633272531070245 -0.0002714693020418705 0.03265938039510573 
0.0001879003322459586 -0.002297191791682829 0.002251069334503689 
3.876484352145919e-05 -0.0004404449917140516 -7.543527298306107e-05 
-0.0001059511571325881 -0.005750230013886212 0.01133727275639375 
1.094515966682549 -0.08682701392902448 -1.169651494170967 
-0.02328258303496322 0.6745730447797393 -0.488922075044735 
-0.01651922598165 -0.01594542766873232 0.9043420313410057 
1.196873407774692 0.1992773670768571 -1.274275182251861 
-1.225685223727101 1.651159613909383 -0.1734587994236872 
0.6296354542813042 -1.128758363405001 -0.7422741775951408 
-0.09111349711557759 -1.18425868658362e-05 0.0023708648317368 
-0.0001475675391350283 -1.313069053773811e-05 0.0001288809033686494 
-1.537381830838101e-05 -5.086315620917852e-06 2.183674473670615e-05 
-0.006005721661711737 -0.0002738085764316229 0.01072681369533767 
2.681865047120265e-05 -0.01063310600071644 0.004350866680747737 
-0.0001020917215259938 -2.394088910197995e-05 0.0002114265025804026 
-0.240133151820294 -0.00258374719761937 0.1330501651690555 
-2.689000294267565e-05 -0.003077519497917678 0.003704416926425781 
-0.007877862825929564 -0.0001862971739673675 0.006184104672470314 
-0.5526938943651882 -1.494685673304261e-05 0.01237570853698915 
1.492628357708172 -0.5619313915254645 -0.00114828035971234 
0 0 0 
-0.003934417924534734 -0.001018773615807294 0.008588008993984786 
3.249633286926743e-05 -0.0116527210312398 0.005778979333565951 
-0.002460097348904853 -0.0001522060021685756 0.008820735761104386 
-0.001423373665389499 -0.0002889408173334691 0.002966450137576558 
-9.859329600968456e-05 -0.001162780715171398 0.0007193273870223839 
-3.98607481152754e-05 1.62787275115101e-05 0.0005331115256793612 
-0.07879429590285776 -0.4944371813157196 0.07232740003869326 
-0.8862180960653794 -0.06397230408796481 0.6438300216329073 
-1.033913415999111 -0.313179223686896 0.1813941201369602 
-0.0004091754232216535 -0.0005541953807063245 0.0004971717528614453 
9.132400933949635e-06 -0.0004360076377238407 9.740025297618913e-05 
-0.0001933760888626834 -0.0004366135968917544 0.0001319677347323306 
1.463419299580488 -0.01860864234225263 -1.341946062727994 
-0.03066795033823889 -0.01231924588809112 0.05727739013347478 
-0.0009822576032623761 -0.02244111198795606 0.00476011121342106 
-0.3064204785004405 -0.008811850610525872 0.06899066215119665 
-0.003499028691400425 -0.01428571603942635 0.01806947720551583 
-0.007713517991121196 -0.01137677764240469 0.01734990263563477 
0.9554508406255812 -1.075934513047117 -0.8259563219549735 
-0.5767187321891787 1.263159212375059 -0.1942074003947282 
-0.0571810772072712 -0.8359522956936157 1.620773029661909 
-2.516548166093315e-06 -0.00175202924711531 0.001393619563113745 
-1.444921076038932e-05 -1.39823465448192e-05 4.3631122388917e-06 
-0.0001362700713391598 -3.414274529907393e-05 0.0005249475608430226 
-0.002291502559240523 -0.0008879195378868255 0.02745515496710437 
3.002222372737786e-05 -0.0144601411360273 0.009932628800143903 
-0.0001403999289348541 4.273284042204144e-06 -0.0002172654582407451 
-0.003020544241225494 -0.0003882466731181011 0.004970541212321864 
3.626745368639036e-06 -0.002639699016580349 0.002091162706720907 
-0.0003016423563364716 -1.543821950283497e-05 0.0004289888595987906 
-0.000442742285135377 -0.01968743169851404 0.01349632528853476 
1.352752086850842e-05 -0.03811848705288138 0.03685175514845095 
-1.046893015606397 -0.0001249452462055227 1.289996512963919 
-0.02290054232006345 -0.0002269016499689227 0.02960556262550816 
-0.0009390073719961429 -0.01285880733002246 0.0234490140075371 
3.627367270780817e-06 -0.002623336683089643 0.002062806824416478 
-0.04770562391788069 0.9465654467181652 -1.202940741346028 
0.004404622950188969 0.672781277178346 -0.6841169617827701 
1.330914448557445 0.01893284738392623 -1.706415581145435 
0.006112116363109772 1.154365279435191 -1.426566300734403 
0.0001118204284267028 -0.01277268054209572 0.002533954258526547 
0.5009312490375865 1.293966044401787 -1.230161004233448 
-0.01814494345389933 -0.003158719319293991 0.02473568704776969 
-4.096032331347259e-05 -0.001535141777656667 0.001680445880094508 
0.0002355978625596338 -0.05678398384821693 0.03190069104590355 
-0.009855929156821944 -0.004185204320997668 0.01834077205418511 
2.627365224402164e-05 -0.005865201828920011 0.007125007250859479 
-0.0005560920047373118 -0.007916119729564389 0.01713232776918566 
-2.461831377601223e-05 -2.827580665841182e-05 3.209669584701963e-05 
-1.956589390417918e-05 -1.764621887182774e-05 4.075880114852006e-05 
-1.496706589982761e-05 0.0001562014703218823 -1.019654423125457e-05 
0.006715377613726302 -0.01300808030234929 -0.2102821797301017 
0.1413799471622034 0.6111337249192463 -0.6881024923474002 
0.2891359882262917 0.09565957988889176 -0.2452942103434435 
1.035382820292854 -0.07159929673709182 -1.107314234088695 
-0.3905560392174673 1.731526546137454 0.06604154022389538 
-0.02108601253678645 -0.0310963314821806 0.3749327319251096 
-7.763147858611897e-06 -0.0001433947718100586 0.0002049288455465246 
-1.989015156195969e-05 -1.834139330870531e-05 2.487571725365948e-05 
-1.90491709387052e-05 -1.939373308359649e-05 2.552401006408206e-05 
-0.3709396569053312 -7.771316898740916e-05 0.0948198266186947 
-0.03544171581349424 -0.002513107358404082 0.03775842040565006 
2.327009319635564e-05 -0.01717981576527047 0.007039898727936888 
-0.002201900505855506 2.012013403429831e-05 0.0009354793825346961 
7.20718576862198e-05 -2.347419036632416e-05 3.668941737762125e-05 
-3.640384743853717e-05 -2.443420691541005e-05 -8.219486704324447e-05 
-0.001543976302755974 -0.004131384671885589 0.008525507017661974 
2.046948515633462e-05 -0.001438355376046936 0.007142128662168991 
-0.000367570264072373 -0.0009466321245654695 0.002639007570451012 
-2.174102496576662e-05 -2.365231672848908e-05 2.969985647988716e-05 
-1.708171820635942e-05 7.276121110494807e-05 -0.0001408128744797702 
-3.621072828105767e-05 -2.253730394736539e-05 5.220752249650908e-05 
-0.06152204634639841 -0.01714249696073718 0.07691159183456674 
-2.124381799750705e-05 -0.008045463805920711 0.004893590539319358 
-0.1073569554686329 -0.004713990545716895 0.01583477964311818 
-0.07509879681857762 -0.001973194416488884 0.3438142031962422 
-4.185492720767121e-05 -8.488123553654252e-05 0.0002432153771376798 
1.27053544855167e-05 -0.0001304028902580834 0.0003545482062230785 
5.825074807533256e-05 -0.001598274193579364 0.00161615764658529 
3.577896825392172e-05 -0.0003114403324750539 0.0001237613740859206 
-0.002710921031998595 -0.0001142869309810277 0.004119328368455217 
-0.01297564565923146 -0.001997472909765051 0.02423350918553513 
-2.23799699526593e-05 -0.006134856676649618 0.005249720996713707 
-0.006204861662867927 -0.0001298855691764411 0.005472201514961758 
-0.5556036517134221 -0.880517873795163 0.6709953828836273 
-0.3329568247506186 -0.2975015989130401 0.5560601369088698 
-0.02845816744684376 -0.2504674568725805 0.6644171137786611 
-1.986757124154491e-05 -2.103395721183061e-05 2.509830906266856e-05 
-2.592989546885859e-05 -2.716020065762963e-05 3.343704078232827e-05 
-2.091068393253649e-05 -2.063818114006662e-05 2.638916040769887e-05 
-0.01352178818600741 -0.0008905246996776965 0.01830847614745517 
-2.540768183026104e-05 -0.0121562631242047 0.01718983162412097 
-1.634154272446559e-05 -0.001887108870908562 0.000550336088404984 
-0.0007028123239142396 -0.000315483259978016 0.002560201025060312 
2.9441579470081e-05 -0.004446264116402953 0.00271243624089533 
0.0001243704849907361 -3.487172061588569e-05 -4.345704370345764e-05 
-0.000174507334722747 -7.862719973834253e-05 4.542489176581948e-05 
-0.0003665420662080989 -0.0001063493267245082 0.0005577461440781516 
-0.000155857493947154 0.0002647902702915722 -0.0001925293461773198 
0.001668119560234388 3.644897344513453e-05 -0.0003541784039630313 
2.187459220037859e-05 -2.26963323764998e-05 4.915255060046745e-05 
-2.133347182855541e-05 -0.0003704610740341026 -0.0006602813730666955 
-0.002197758410230528 -1.095313153824294e-05 0.003439564482889693 
-7.80906776779387e-06 -0.003790930597558477 0.001891641475356183 
0 0 0 
5.567543518532742e-05 -1.6939393682922e-05 -1.844974897621323e-05 
2.416792722771229e-05 -4.608451480316601e-05 0.0007584448917217494 
1.505506158497717e-05 -0.0001478229321165447 5.246305001790505e-05 
-0.0003716511923517417 -1.187564356960556e-05 -6.094248428765284e-06 
-0.001741125322630951 -0.0004683872004536697 0.006198829196206329 
6.859512299936474e-05 -1.098497785578122e-05 -7.33446590892925e-05 
8.666826812024036e-05 -0.002723276281715794 0.002694033305730457 
-0.002072483318857164 -0.0008578727034737458 0.005572233052310217 
-0.0002898195956219083 -0.007432457838296157 0.01237846725184489 
-4.685787699061986e-05 -0.2979884846282745 0.01302105506396747 
-2.627940102779595e-05 -5.281508282164904e-05 0.0001285012313221055 
-0.01341975207325067 -5.593831627216506e-05 0.1511680065354573 
2.491281190840311e-05 0.0002131798675764935 1.252646135031486e-05 
6.315215120439537e-05 -0.001291208138389858 -0.0002353094060495205 
-4.131055910238561e-05 -0.0001178690994564158 -0.0001880345062208296 
-0.005971074156632786 -0.003440452245951718 0.0366398463205587 
-0.2342145252887922 -0.06129349777059039 0.813206051551149 
-0.000645216956867271 -0.0001135730036810045 0.0006978685848835358 
-0.0003668937151418011 -0.003556716212953501 0.001392671897016647 
-0.01698835264222841 -0.01135608807155045 0.07565380987828312 
-1.20983826162777e-06 -0.0001740525801343113 2.534655779502e-05 
-0.0003719141267921893 -6.744692675237099e-06 -6.945892281552476e-05 
-8.151916500369176e-05 -0.0005120370943093734 0.001070382677849766 
-1.217936565790393e-05 -6.727482839167106e-05 2.567964832776187e-05 
-7.928045676844418e-06 -0.01253914340087944 0.01268188671425227 
