solver_type L2R_L2LOSS_SVC
nr_class 3
label 0 2 1
nr_feature 24973
bias -1
w
0.7417407002242811 -0.2742701563450722 -0.4808764222917997 
0.3108383789457452 -0.2690677841979992 -0.1469733014194834 
0.002671586160588867 -0.01501956457144338 -0.0001448562938249261 
0.0001425235129648805 -0.0001216687245697151 -7.373067222713115e-05 
0.003753376928988251 8.157957191565939e-05 -0.032558326428155 
0.002275541718019093 8.22008556510303e-05 -7.011664514975972e-05 
0.0005368139538853539 -3.094250619501217e-05 -2.947741126728578e-05 
-0.0003056278113477166 7.043226080583809e-06 7.972721841399614e-05 
-0.5099812770438065 -0.07154243299391239 0.4872270162502158 
-0.3835296044772517 0.9498967657083062 0.1893053870248122 
0.008210442921433959 -0.006104995213039278 0.006578968494642246 
0.00251294260628066 0.0003020838837933862 -0.01153484999531657 
-0.0006518561848517622 2.84310074068739e-05 0.0001557713088317516 
0.000151586578947836 6.358720566376343e-05 0.00126809518576263 
0.002885078188107596 -0.0003264860581344247 -0.0006445851243485003 
-6.067499302231722e-05 -4.945976229757526e-06 3.189425650472209e-05 
-0.0009955237730084787 -1.708118651787182e-05 0.0001389756926281877 
0.0001468410832260225 -0.0001199410247580372 -1.227193154799263e-05 
-4.856671856840265e-05 -4.371156163281344e-05 8.562710444440184e-05 
0.001877677759758708 8.219958311824795e-05 -0.001413999008519851 
0.0004766064117003892 0.0002022919260752569 9.267057924914896e-05 
0.003755704099510198 -0.001062203384376253 -0.0006271893750879594 
0 0 0 
0.009670853220018334 -0.039003605661112 0.0001043639535413526 
0.001012118609555436 -0.001203383744944887 0.0009237835678419593 
0.01226782396258705 -0.001084754862880299 -0.008625785031199271 
0.0002485408284069401 -0.0003210575531083909 -0.0002457415498254742 
0.1686129878505737 -0.01828475450092285 -0.002266709285273749 
0.0006623230353608261 -0.0005218339575591722 0.0001794587726006875 
-5.765238518009738e-05 2.044124639114188e-05 0.0002857062726308552 
-0.0008768019627068438 -3.048692935038611e-05 -0.0009681157131045164 
-6.420540637402063e-05 -0.000254421049015796 0.0001424360106127269 
0.0002944727798862681 -0.0001823560184418318 -0.0001665609028607923 
0.0006989550589458209 -0.000321260460826706 -0.0006879368915929874 
4.611029322829544e-05 -0.0001669103710296078 -6.557598788536378e-07 
0.03235895730211923 0.0003699547915586754 -0.01213012578197654 
0.01300577764910551 -0.01340864978355945 -0.000230814090446621 
0.002512630742842663 -0.001852164016569134 9.264780825768076e-05 
0.006841474917277546 -0.0004933298188517116 -0.006207106695193395 
0.004311907493707827 -0.002235753612716451 -0.005060595850657929 
0.01297023018617026 -0.00379093237649907 -0.005312276260111217 
0.005086195078412247 -0.0003210341214566276 -0.002455684328136307 
0.001385871653031123 -0.002042568289638222 -0.0006275365240500173 
-0.001273213451633411 -0.0005233169358742528 -0.0009225164221728821 
0.0001088603196522317 0.0007456535992467885 0.0002282780087754213 
0.002820411431357899 -7.879837133769963e-05 -0.009144660474759612 
5.734911197120479e-05 -5.641411769866026e-05 0.0001809170242339666 
-0.0005837039875487035 0.000581014374880718 0.000162428030497543 
1.073199639245913e-05 -9.867710860909705e-05 0.0003533762576913366 
-0.0003887511992199432 0.0001030727053892714 0.0006063584785979518 
9.480749520241833e-05 0.0002304811750311831 0.001181449258365934 
-0.0001007756819184805 2.060236675492093e-05 0.0003212762573755913 
-0.0001262844455037275 3.383382797590553e-05 0.000200095710327097 
9.554761437666761e-05 9.769299357747859e-05 -8.352340063702663e-05 
8.56266909972381e-05 -0.0001161030958723741 -8.197519098946158e-06 
5.010454111136969e-05 -0.0002596171384608875 9.189564203698911e-05 
0.0003728393354632178 0.0004139721709741302 0.001215811323047647 
-5.477357590081462e-05 0.0001164019127797346 0.001664100983770437 
0.002137571334081854 0.0006948848876839927 -0.00350296871034272 
6.278871010342365e-05 -0.000118992908334872 6.573208912841732e-06 
0.0001045499057323661 -9.120294868211232e-05 -5.436141607194976e-05 
0.0002024575210484661 -7.452042156929716e-05 0.0001395738958580827 
0.0006847700123058864 0.0001696780335661861 -0.001128382732367977 
-0.0001187930480033399 -0.0001090634370780325 0.0001268999590799348 
-0.0001116814660413667 1.954066981865927e-06 0.0001369651580728898 
3.246501544668872e-05 0.0002249800872600455 1.017301135390651e-05 
0.0001547812583204432 0.0002494105925979458 0.0001947309833612696 
0 0 0 
0.001385353875455051 -9.060595856649233e-05 -0.007438678320959627 
0.0006439681402861802 -0.000650518150987211 8.736126738566899e-05 
0.0001309813419034495 8.820874277523282e-05 0.001926062083062415 
0.004527116744629681 -0.001018683471894807 6.401857790410682e-05 
2.504889044947179e-05 6.642289631116526e-05 1.094434954501843e-05 
0.00127915279143749 -0.0008095338121419945 5.870322851027582e-05 
-0.0005356001656932663 -0.0001847393598621795 -0.0001654115009331741 
0.0009856511511178788 -0.0005997606878474417 -5.076562996263874e-05 
-0.0006288003658181525 0.0002315193345791312 -0.0001724329570240195 
0.0007070887516417505 9.384321887297319e-07 -0.0009485511858036191 
0.001249916816566592 -0.0008091582606263463 1.853650450368414e-05 
0.0002869722587696812 -7.565513332112875e-05 4.893147290028256e-05 
0.6053633375590055 -0.005672908992104922 -0.7004930126820831 
-0.3528826345714821 -0.9054281922073653 0.8831399039964799 
-0.00409789060555848 -0.0003499537693334513 -0.0007144758188553867 
0.001750446071138119 0.001069925570611116 -0.00199493279159963 
-0.0006783743651921162 0.0003024946211297167 0.0001747756851694886 
0.0005686787036362468 -7.253100105229054e-05 -0.001600737393110643 
3.472026277597558e-05 -6.876666491966962e-06 -5.737449743072692e-05 
-6.93151198340709e-05 4.162559318298822e-05 0.00194034244665406 
-0.001223211076023145 -0.0006904461757608577 8.420979556020271e-06 
-3.564304409474244e-05 0.0002643454212930967 0.001381532795250081 
-3.990893299807264e-05 0.0003560568298909871 0.0001005152636262763 
0.003227361390423717 0.0001396645071603246 0.0008782333155644725 
0.0002096376792911156 -5.089905363070415e-05 -6.942153403616972e-05 
0.0001888580831494691 -0.0002069331081620751 5.859749093140063e-05 
5.628121429110207e-05 3.658906293397518e-06 -7.965513967155076e-05 
-2.047592237120854e-05 -5.813479762671133e-05 -4.8766626418597e-05 
-6.676938092548209e-05 -2.818727979132757e-06 -7.50335927612815e-05 
0.0001246360544009207 0.0003250633440753115 -8.986744625510058e-05 
9.879173485368057e-05 -9.025151389138304e-06 -7.752131901823432e-05 
-0.0005715805765008818 0.0002868639399070081 0.0001506407772018028 
0 0 0 
0.00071021980504807 -5.762967050781767e-05 -0.001824754947336638 
0.000174455993984077 -0.000201160218231577 2.688553478995267e-05 
0.0002650532227382796 0.00011333665735743 5.31733204160895e-05 
-5.771505320711827e-06 -7.135077471138541e-07 -1.330056460355062e-05 
7.741396776417785e-05 8.987804951607933e-05 -3.695341690070415e-05 
0.002118025770976381 -0.0007293101950945764 0.0001299026372015096 
0.1447344677681976 -0.1518639121600611 -0.006673423300666014 
0.1023939709909083 -0.1365268870133316 0.008007504715083758 
0.02373273951441632 -0.01693157748270903 -0.01326453078747245 
0.00478671527872708 -0.002187991653064129 -0.002471640855068807 
0.04670400782783381 -0.0008584936504747755 -0.003953695865813247 
-0.0007369644278752386 -0.002302859935238798 7.747471853675022e-05 
0.0003578992909942128 -1.946620541554423e-05 0.0001639050216484909 
0.00117519909727326 0.0003930117380082323 0.001556476146945702 
0.0001965589805213791 -1.760069657217489e-06 -5.856940346822483e-05 
0.05907394160148243 -0.05643606939147451 -0.001802556629180442 
0.003409445846411784 -0.004433827500976479 0.008157983648785975 
0.07063658750281931 -0.2018494195195857 0.02993490698490532 
0.03616592911113624 -0.06470973909069189 0.003905775432293751 
0.7346419028161048 -0.01646357200795378 -0.7271779488891383 
0.04306125911270419 -0.03665343822735789 -0.03102613798655095 
0.004566840536882404 0.0006377881192601913 -0.01274487961728595 
0.002287999703258595 -5.731620201502667e-05 0.002046346041662743 
-0.001041062077396653 2.104248035075905e-05 0.001412150612176026 
-0.0009342346691267982 1.721370106572017e-05 3.459037354633429e-05 
-8.375164336828568e-05 6.217833105983311e-06 0.0004567464072862014 
5.135598073074459e-05 -8.663523640978757e-05 4.232290331368522e-05 
0.009847057703843757 2.229987415874711e-05 -0.009832208744265261 
-0.001105998160636093 -0.000972030567921563 0.0002377473765326757 
-0.0008353985992048295 0.000485453903801869 -0.000216185499723494 
0.0002220221270307817 -0.0001166615509694733 -0.0001156683194830922 
0.0001210517074357343 -5.608549452852167e-05 -0.003491088412394373 
0.0007124159110872821 -0.0004229961503386144 -6.483879087594674e-05 
0.07601748095162165 -0.04303484615149233 -0.02437841319126005 
0.01091939102879038 -0.02173171454338372 0.0003542519447819165 
0.1077335587873937 -0.003794215885041968 -0.1647591066413696 
0.0126366160136021 -0.00586271464366597 0.0003945101079519792 
0.002271130239381005 -0.002198304403021066 0.0006359278509044254 
0.003757508847889382 -0.003477321087856488 3.766643099148661e-07 
-0.0001260655734868149 3.38175553351458e-05 0.0002000130438884738 
9.203187831618192e-05 0.0002308333282041265 0.001186868198655033 
-2.522581959609216e-05 -1.325602783461401e-06 0.0002826107337470348 
0.001058777221364542 5.14842191403357e-05 -0.0001140807590232456 
6.186381980041059e-05 -4.74959475723647e-05 -5.100144196626204e-05 
-0.001724559863996787 -0.0001454708792487062 0.0001091145358683149 
0.1262976221384164 -0.09381839313888529 -0.1912088015607931 
0.2136996233964044 -0.1553984991706051 -0.00755444079659679 
0.05499893482274364 -0.01412996709199027 -0.1611325584351133 
-0.0006176006284967444 -0.003004528558230983 0.0006911140942151717 
-0.002048279268778045 -3.338762519431782e-05 0.004231041725910038 
0.004448635880644841 -0.006071897272056551 -0.002288527117999051 
0.01292056224350815 4.170491609373684e-05 -0.03648677157621066 
-0.1049056441816669 -1.021006324540061 0.8665048979998198 
0 0 0 
-9.277951150988786e-06 -5.714242307134481e-05 -4.235788396945422e-06 
8.93030586041206e-05 0.0001232275321822455 0.001539177207414546 
0.0001032432064964899 0.0003661891730383929 1.929101935196954e-05 
-0.001181911669245656 -0.001940346811614453 0.0002002273330352901 
0.01058764624454913 -0.0004016982717891901 -0.01165824970948443 
0.009155110305187206 -0.02368584884976194 0.00133741656695446 
0.0001748462775629679 3.887847808870413e-05 -0.0003457993603686028 
0.0004843073888796834 -0.004040833436612098 6.907330856538418e-06 
2.912094689010527e-05 -2.956089167585727e-05 -5.113384797136905e-05 
0.1676694830829402 -0.03104747349533012 -0.05494889272510078 
0.02003190737105382 -0.009790030816062436 0.001813248469197767 
0.01126325205472061 -0.006674099767801028 3.26564158377493e-05 
0.0146966143152569 -0.007073468000042965 -0.0005785806442345995 
0.001485641115297529 -0.002295680146630902 0.0008870669369192361 
0.02245975213431006 0.0007349598734074372 -0.02129824269518735 
0.0006499477196656645 0.0002486321225301869 -0.00283023299285499 
-0.0008967188507849835 -8.496674599809807e-05 3.994238164756203e-05 
-0.0005885844475100287 3.269090770418298e-05 -0.002129224504804189 
0.0009340005168406365 -0.0004606414919536301 -0.001040546516747437 
0.006029172942585191 -0.001007125968817871 0.0008815525440978113 
-0.0009202586995081814 5.153686765387976e-05 -0.0004059941498108976 
0.002761590015186972 2.874100360030707e-06 -0.0004621123056055844 
0.002059611152814149 -0.003265268320014557 4.165632993848593e-05 
0.001182367688078836 -0.001549500373976746 7.425334485389896e-05 
0.001399027603936221 -0.0002154250526912114 -0.0001501524910361858 
-4.776335114440619e-05 0.0006310956451454556 9.528746940790058e-05 
-0.0004856551425447489 0.0004025186322736316 6.911840428893393e-05 
-9.808783984158745e-05 2.566948636098975e-05 0.0004305305590731618 
-0.0002755275642768551 3.660235285993685e-05 -0.0008562013695032851 
0.0001082049533674923 -8.723598102789142e-05 -0.0001406985132993026 
0.002002099363070862 -0.0003214807944062712 -0.0001212953263769708 
0.0004174272551595792 -0.0001855793225091815 0.000554023182500363 
0.001859487440374415 -7.175549802136492e-05 1.484998120377187e-05 
0.004613507484932195 -0.001250337834964604 -0.0008309982489628882 
0.0002272273885792843 -0.001839052937055526 0.0001589076005536586 
0.000865333641176368 0.0007670227742296522 0.0007907950860316658 
0.08979862185403097 -0.1126301208258793 -0.004983294030876249 
0.0005906775251123502 -0.001408390640918619 0.001950025714532811 
0.1783276372670878 -0.05740948385303462 -0.01371525414294418 
-0.0007542243528216896 0.001768612567008409 -0.002183405001575981 
-0.0004012159656040034 -0.001948134015764295 0.00109124031609163 
0 0 0 
0.02202115519603996 -0.003505210459427823 -0.007169972815396721 
0.00450124661834791 -0.004569173308429117 -5.305563454341172e-05 
0.006146343304736077 -0.0004279974287119361 -0.003248749716103208 
0.003738073663890437 -0.003156292127034403 0.002318089285305805 
0.00921943073190885 -0.002266307776144251 -0.003377101632617562 
0.02098758305073236 -0.01813461648474949 -0.003021432803101627 
0.000122243152985055 5.084226976659916e-05 -0.0002403663583810459 
-0.0007319925402792309 -0.000166859850713317 -7.435101837232018e-05 
0 0 0 
0.002159293450455785 0.0002924290972880206 -0.0002587867093023464 
-0.0004876168134974878 -0.000800704750948981 0.0001071271099381981 
0.0006154515152659903 -1.934211406222165e-05 -0.002127752139351884 
-7.618276914927129e-05 1.604219771370769e-05 -0.0002558603890813858 
-6.606004282390274e-05 -0.0001590788604165505 -9.686711855636895e-05 
6.718286336804398e-05 -0.0001127203763527739 -7.643067088725407e-05 
0.006535951942916153 -0.002079041382889893 -0.0003841780087180858 
0.0009794615514984817 -0.0004638726758153837 0.0003459783785788644 
0.002467613406257722 0.0003760859999087445 -0.007104670628926567 
0.01263407356419875 -0.01126763264178426 0.0006046460367034537 
0.004492566679543526 -0.002441329607243269 -0.003222562691826148 
0.008682835577294767 -0.001055388160703684 -0.008254311020060804 
0.05521353427520703 -0.001314844108847649 -0.002442229624978508 
0.006394570952654497 -0.003812628990438502 -0.0001249488315343262 
0.0111293912142185 -0.01122690361644134 -0.000269213187269539 
0.01338708162360722 -0.006983987657838467 0.004174647313775333 
0.008129167058683516 -0.002526234077117457 0.02485417831557848 
0.007370484622975128 -0.00317158707076217 -0.01207068846828957 
0.001996630621444906 0.0005088669830498356 -0.003337437154923396 
-0.0002965348024255617 -0.0007922357580817417 0.0003641143931063106 
-0.0004311327909727392 -5.864939428108917e-06 1.229737074435077e-06 
-0.0008314521740397163 -1.679793374451944e-06 9.394523246899243e-05 
0.0003829571697153607 1.673970955805263e-05 -0.0004934859387921234 
4.216721448359934e-05 -4.524570472938322e-05 -3.682602362392265e-05 
0.004272463375592576 -0.0006545298961930505 -0.003339324352192476 
0.005360135857563677 -0.001109576382827033 -0.003844711539176483 
-0.0001120153112250465 -0.000648674281747057 -6.003884661667692e-05 
0.009204283978835524 0.001353536095400478 -0.01757635733870823 
-0.0010722930944441 -8.167582011573516e-05 0.0005806705289128037 
-0.004134186523458609 0.0009645671678038603 -0.001132158825928889 
0.0005819083780789677 0.0008271152098542296 -0.0001215450572975827 
0.003165936170659551 -0.001247270865307876 0.0008010958499372591 
-0.0009119459121304921 0.0003605805154955554 -1.582785130637617e-05 
-4.977943963743595e-05 -0.0001096554987877693 0.0002940440465182715 
-0.0001608696125879487 0.0002986586200186609 0.001575928582791548 
-0.0006859523236870937 0.0002213640875058387 0.001437518734496163 
1.407159286512627e-05 -2.408007554291055e-05 -3.970805499211182e-05 
0.0001852504981627366 1.397002046258369e-05 -0.0004158812195629924 
0.0001882567888194874 -5.537889575294135e-05 -5.068789680133129e-05 
-2.281222984843615e-05 8.000885217152548e-05 -0.0003847448915967825 
3.983423012571273e-05 -7.31951922368564e-05 4.753468355156838e-05 
-0.0001447319365276658 3.191720335150569e-05 6.427435196858798e-05 
0.00174261273795118 -0.004713285828480173 0.0003504270406005269 
0.003223286638848337 -0.001228786291006514 -0.005770255394741797 
0.004730014271983718 -0.001553382310619736 -0.0007904428608365269 
0.2435965080361331 -0.04585469585141745 -0.07277114599634012 
0.02366544901889 -0.01996363332764239 0.002640930972909973 
0.02070778443249777 -0.04293050838674282 0.005453802440231771 
0.0008367108863472889 -0.001937596671722255 0.0002836299004686942 
0.004172332412528837 -0.00395999166427809 -0.0002999284993881508 
0.007396872424083939 -0.001805674479270359 -0.008553090285563789 
0.0006499477196656645 0.0002486321225301869 -0.00283023299285499 
0.0001179924979843944 0.0004908178787906611 3.610739180668464e-05 
4.781264707109845e-05 8.586972118322704e-05 -5.506888260563899e-05 
0.0008741046071325817 0.0002806143753717348 0.002080360443769766 
0.0006738278522376326 -0.001193956943761987 2.473423874896394e-05 
0.0005476411324626232 0.0001592737206658387 0.000983954271463233 
0.2087906071278762 -0.002735038089182871 -0.2156654017530753 
0.001067012227969105 -0.005717881970029728 0.001289961424773422 
0.007040741566974995 -0.003511979331585398 -0.0003078333636389153 
0.05035673281676525 -0.01276676659158614 -0.0390258091130603 
0.03526527246648588 -0.006618996878638402 -0.03441981788474144 
0.03454857155738962 -0.03177371561249885 0.0009135987931053668 
0.0002788371045984399 8.614460234995946e-05 -0.0005438517432635205 
1.36079973321445e-05 -0.0001764727882984788 6.223614509877774e-05 
-0.0003298190210134511 5.577834929078254e-06 0.0002332748394860061 
0.002882341005197957 -0.002790048998782527 -0.0003969318160775554 
-0.0002515101272915556 -0.0002165317045553028 9.684898400393864e-05 
0.0007280731174357162 0.000337771416384086 -0.0004115157517993911 
-2.27016829735607 -0.08434147790933202 3.101889347230466 
0.002725920708133217 -0.002463427887773281 -0.0001611793870211346 
0.001363969328872958 -0.002999350347838536 -2.88492113148977e-05 
0.01552308316157387 -0.005043421037917862 -0.01046436429693342 
0.0246902953481254 -0.00658530992047437 -0.04575066743184694 
0.01484566199648243 -0.005683597228387802 -0.002428249904312013 
-0.0003743114631459213 6.686027749977912e-05 0.0007266963848972192 
0.0006897417483649885 0.0007551608817624753 0.001184188562045553 
-0.0001950653739563157 0.0006007845566827394 -0.00238478055906316 
0.0004639609332082353 0.0001214843672544516 -0.0001900302080018942 
-1.937833223452544e-05 -1.608506153545766e-05 -1.60351610030547e-06 
-0.0005947871146579927 0.0001941401143630317 8.434875103683499e-05 
5.133556616056848e-05 -3.802379091718084e-05 -7.716218047597735e-05 
-6.901117165250825e-05 -2.823633902489658e-05 -0.0003282395423803453 
8.176319534184271e-06 -2.878615397346143e-05 -3.956081874820158e-05 
0.001953102361286843 -0.001237249225756688 -0.001727546354150159 
0.004812634617410726 -0.005740343686489284 -0.02407045820360493 
0.006180190248520429 -0.001337110859524768 -0.008172996484466399 
0.007195658134694309 -0.003135891049737521 -0.002359396101002259 
-0.0002515101272915556 -0.0002165317045553028 9.684898400393864e-05 
0.004624717871416246 -0.006310474025665694 -0.0004591704552467911 
-0.001247781988031736 0.0008490610529615563 0.0009654349184020499 
8.584340578143276e-05 0.0002298672754844108 0.001188235645411778 
-4.894677330947437e-05 0.000757971740869949 6.4172097162714e-05 
0.00561661851178143 0.000358884066917689 -0.0002806082025864766 
0.001110920144397914 -0.001913781493957167 3.092170346883268e-05 
8.562340063877722e-05 5.524874155372063e-06 -3.734842534372496e-05 
0.001473918252092088 0.0006645571605974475 0.0002768332197125894 
-0.0007706451309659643 -0.0005259659800358132 0.0001786934302620153 
0.000638339889328777 -0.000309878333438958 -0.0004495781183833464 
7.129387136661554e-06 7.639708997175904e-05 0.002824714063932746 
3.090933870121945e-05 6.624895095780351e-06 5.119046034199272e-06 
0 0 0 
0.0005039322396270746 -0.0006233783684210171 -0.0002461222900382792 
-0.0004574880187220593 -0.0009652855442461901 -6.475279893838362e-05 
0.0003903354547245366 -0.0003987521160953399 -0.0006245283805901629 
0.005320945064160608 0.0005558787684378884 0.0001165585288168765 
-0.001452572553011698 0.0002721503468226553 0.00709883788966529 
0.002080307924860504 -0.001434051687543017 0.0006038653022374717 
0.07415932676390624 -0.04607102880640424 -0.04767414990101013 
0.01560085594660634 -0.0227026746957713 0.001772608894829829 
0.06829896446854836 -0.0334704578692256 -0.04257117956413327 
0.003280555741863592 0.0002863071282306541 0.009953547687553339 
0.00435984484822519 -1.253965963538176e-05 0.004408102076064783 
0.001911796095066031 -0.005592364240255034 -0.001344119100884836 
-0.0006582158801258993 -7.263605211417772e-05 -7.19489053133415e-05 
0.0006246398810574035 -0.001191377236233697 -4.118629980580968e-05 
-1.454761786276732e-05 -1.832775546094803e-05 1.422477419671672e-05 
0.0009373109235826333 -0.0007554158383646539 -5.327201363854013e-05 
1.999228209936941e-05 -9.425540649478602e-05 0.0001291044578003032 
0.002034140257774621 8.007194372322821e-05 0.001205071311956267 
0.003793129427029298 9.940720219765412e-05 -0.0170094329892777 
4.065138922416419e-05 -0.0002233786719224046 5.368524229279055e-05 
-5.853063361338471e-05 -6.109244643763348e-06 2.06474783109735e-05 
0.2769262052298687 -0.0001029541255212693 -0.3014840216134397 
-0.9597042382145154 -1.437899644211483 1.262301926479757 
0 0 0 
0.003119091722568518 0.0007278259144608282 -0.01033650992826173 
0.002543155292977777 -0.0004179247626912814 -6.344951360919126e-05 
0.001786473003212399 -0.000679014900406994 -0.00219217276078441 
7.434820872580632e-05 -0.0001045542382248944 0.001687281665614552 
0.0004279494569098857 -0.0008659277833315337 1.303928070002846e-05 
-0.0001281283029324568 7.862416920741762e-05 0.0002575248368571831 
0.003018925015971327 -0.001142404414671596 -1.804165770289308e-05 
0.0001839687047347617 -0.001397086412669882 2.934862098921129e-05 
-0.0009582518417779572 -0.0004691166109103329 -7.673382756752206e-05 
0.01785998403072749 -0.01748774058742831 0.0004302594404670048 
0.04756970179631372 -0.007629281624336728 -0.008561377340060175 
-0.001403937319343341 0.0003466561682272031 -0.003270708179789047 
0.0004611859521049573 -0.0009759285087841314 -0.008520177047701787 
-0.0003831151147667903 9.05062327880839e-05 -6.234571968497897e-05 
-0.0002665281354458641 7.186410058083892e-05 0.0004040838000669869 
0.009999182482898857 -0.00146578327129435 -0.002880461228030575 
-0.0002304289720556573 -0.005166778470006199 -0.0002883147479435789 
0.007545993619302143 -0.001610988586149816 0.003289031325576886 
0.0009015669677362734 1.623619903546351e-05 -0.001690784116329853 
0.001296225862867985 -0.000801128760769102 4.96770816537971e-05 
2.818630632927637e-05 -2.377539620408354e-05 -8.190949639304585e-06 
0.0891707228467189 -0.0009165051950490412 -0.007761933606545847 
0.0002552659447657012 0.0004977440081868879 -0.0001414672546583668 
0.001143961367485779 0.0002370709231442285 -0.001163847894391557 
0.09355188375975226 -0.03272041344601812 -0.05299351570606442 
0.02228246217464937 -0.02181278538343069 0.002533278876569521 
0.04016690955367935 -0.01086676037164716 -0.007115870775987535 
0.0131250800709214 -0.003396215941906048 -0.003709587400905895 
0.005098773615583009 -0.004724509282463064 0.002076559534330734 
0.0006756654446172573 -0.004770874894826058 0.0005443316189346182 
0.04164829824654966 0.000615591398299479 -0.03858118877853866 
0.9564190921367305 -0.2019109390243648 -0.9788214351241489 
0 0 0 
0.02959039195603241 -0.0113656426712054 -0.02115568524831747 
0.02047580427561379 -0.02442115004982883 -0.003738884968274579 
0.0002503358355273059 -0.005094008903672942 -0.001129326424322417 
0.0002830963759805631 -0.0002901945045125304 -7.945889214633611e-05 
-6.933696032490927e-07 -0.0001228615540091429 3.373953031969546e-05 
0.0002240541930066652 -8.488960943506005e-05 0.0001359676414796919 
0.0133309434184548 -0.006390599984138114 -0.01269440745032214 
0.0009275046247135679 -0.0001418604128561564 -0.0004778966666030793 
0.009270107973122379 -0.002233188385559336 -0.001334510224372859 
-0.0001854263663086944 -1.472813979775347e-05 -2.308774475397756e-05 
7.17658454114047e-05 1.849324941814112e-05 -5.229416654642259e-05 
0 0 0 
0.001135545794775253 -0.0001981593542700984 -0.002897062877048098 
0.0004367646903390264 -0.0001912879771535984 -9.337879520846768e-05 
0.0007765003948261956 -0.0003619450539862349 -8.149089165149071e-05 
0.001096813914120763 1.218678293154502e-05 0.0006022084795604427 
0.001278195568988902 -0.00029749197830943 -2.047391156783004e-06 
2.03106072882313e-05 -0.000376541386690834 0.0001876299309721253 
0.006673212543786619 -0.002421092593281274 -0.00165150509013042 
-4.388533651165845e-05 0.0002848200611484642 9.487817849823694e-05 
-0.00112141145115991 -0.0003794510582098677 8.400857215984464e-05 
-0.0001398435665650175 -2.352170874935992e-05 0.001333101885397615 
-0.000960798744535364 -8.563653407621895e-05 4.051282491098308e-05 
0 0 0 
0.0003466530907751597 -0.0001067037104949067 -0.0003951669562937983 
0.002314267667720836 -0.0008297395581854205 -0.001815700784426118 
0 0 0 
0.0001623567791671469 -7.399344975265013e-05 -0.00124897123779116 
0.0001030773544341232 -0.0001603654203106877 -2.604026276549278e-05 
2.304864064289451e-05 -8.34606378495723e-05 -3.38519335674239e-07 
0.0002490389818231713 -0.0002339433719666615 0.0007278333386873173 
-2.973410198991017e-05 4.109901888713838e-05 0.000113083373531352 
0.0002461829143891454 8.224061587972733e-05 0.0003768805223977684 
-0.002022740142299466 -4.997347728113704e-05 -0.0002641995988741521 
-0.0004197062053019709 -0.0008530215362181934 -7.420157904242226e-05 
0.003546902996055915 0.0001899991133134832 -0.005630736801691075 
-0.0003920844002417664 7.111723926050536e-05 -0.002299428087395325 
0.0001065109448627394 -5.299295924992383e-05 -8.403490857223046e-05 
0.0009478838202997905 4.124216957517057e-05 -0.0007557170630401245 
6.045751201821826e-05 -4.368405172419678e-05 -7.12748536458802e-05 
0.0001286866882588616 -1.365689009614044e-05 -8.446506977914112e-05 
2.851391699193866e-05 -3.304831634787614e-05 -5.392324866853818e-05 
0.007490339724660702 -8.678654746133685e-05 -0.03685876036025615 
0.000339819019445151 -0.001131272394391676 -4.989741814909198e-07 
0.0002952920520247806 -0.0006958310755694082 3.55575771132331e-05 
0.0001311511409927378 -0.0002153223257093326 0.0001731029559906141 
-0.001139685745977234 -0.0002510705274739853 0.0006318802704751947 
0.0001395115416800257 -0.000123077662506818 9.938999996748472e-05 
0.002526820886733117 -0.001603399139758574 0.0005173473759359284 
0.0003825530592481855 -0.001165147761293776 3.960527222021621e-05 
4.190889524774303e-05 -0.0002238731333772415 5.355360783327962e-05 
0.0006070595131027385 -0.0001687153533643081 -0.0001345866880646536 
0.000463168031943578 -9.969011628330524e-05 -0.0007246837461294366 
0.0003321795686397337 -0.0002937271941146067 -5.461948064381671e-05 
0.0002230561348954757 0.0001689449746506671 0.001063586476015214 
-0.000457671141462592 0.0003979582069413765 -1.770910299879401e-05 
-0.0009001698681160102 -0.0002953922005443212 0.0001719494882113638 
0.003193677694423424 -7.941942076094755e-05 -0.002728385839077951 
0.00502753827450607 -0.001572117400593469 -0.001164920541103392 
0.002533090059008219 1.277950275794261e-05 -0.004339022472679093 
0.01848934135130612 -0.005617779027541956 -0.0168150234980709 
0.0132200691208915 -0.0110693509596568 0.003136887447613863 
0.01728321290276985 -0.01140214036575094 -0.005064560876246503 
0.0002729321944791234 2.423224517830496e-05 0.002376097412173491 
-0.0003193792125949543 1.490589820046893e-05 0.0002627962117792897 
0.0005642107422558783 7.38198749012985e-05 3.896316798605725e-05 
0.0001239581322165103 -1.453384769134195e-05 -0.0001124269102907577 
6.817579635295285e-05 -4.460837075943343e-05 -1.181661002075698e-05 
1.439847087432051e-06 -2.027481293047844e-05 -3.282104786557406e-05 
0.002277116111879024 -0.0003436802816601808 -3.389501290799273e-05 
-0.0002478864946466887 -0.001279882692066779 0.0002349551664165955 
0.0007510644418450756 0.0001157919655296837 -0.0004255469474036379 
0.0115340656813373 -0.0002325394299791813 -0.01973304132414445 
0.004830193506364129 -0.1832667033517704 8.027658972785847e-05 
0.0001592067077865281 -0.0001339748224035442 -1.85753154392638e-05 
0.0001434997800564046 0.000559832166393239 -6.513405320219909e-05 
0.004869742902081374 -0.0006590183489382622 -0.003116950868772833 
4.3542857317369e-05 -2.443557473787685e-05 -7.062946205673871e-05 
-0.0004515711434437166 -0.0002408948536494904 -0.007289171385093067 
0.001296748943587135 -0.001146040662996479 0.001812334999237501 
0.0007641560321597398 2.701220602389116e-05 -0.0002284531368305021 
0.1757783497808258 -0.04626824838167776 -0.01763352107132015 
0.001586810727065005 0.002025035314246935 0.004856303474234045 
0.1953869428565842 -0.5352570691488444 0.005746639985232599 
0.004866727484633781 -0.001965980488130014 -0.005647683482180048 
0.0003019575598760225 -8.21362739097602e-05 0.0007759863282916641 
0.003547969469304566 -0.001662464001513906 -0.001162789037855755 
2.311084604832706e-05 -8.347485088382176e-05 -3.60844475387369e-07 
0.0001623768369575643 -7.400205102449569e-05 -0.00124174302244665 
7.11756867027047e-05 -8.482323319437583e-05 -3.754405211706766e-05 
4.688844506188358e-05 0.0003684410793038131 -7.656129152859495e-06 
-9.378866991681549e-05 1.557481380174972e-05 0.0002041286689367606 
-0.0001281014692595613 3.414490196304798e-05 0.0002007711116708899 
0.0002239547553156077 -1.250930343815386e-05 -0.0002796585841201634 
0.000203569351130634 -0.0001757513739300918 -6.49642985016917e-05 
-1.537452471997666e-05 -8.123407799945603e-05 -3.872158806378262e-05 
0.004194859988600317 0.0008213014001977051 -0.006736294109336966 
0.0068425751478829 -0.003132318139097051 -0.002039793023068497 
0.004356536663390797 -0.0006666629781425127 0.001305029370226169 
0.005036985104988875 0.0001334302392675307 -0.000735700871332556 
0.003954497189213351 -0.002886363111210822 0.001164346132215577 
0.001454279433727771 0.0001636330995943751 -0.0009399862301578682 
0.0001132016059180428 -5.895485088844028e-05 0.000183966666607312 
-1.645483127645943e-05 5.750445624379917e-05 -0.0002238819507143671 
9.11547316817008e-05 -0.000325581988351441 2.681697236166043e-05 
0.01083738069159435 0.0006279147848479188 -0.0141530151222243 
0.001680986713912948 -0.001318617677545088 0.0006297792886594335 
0.01098581162202568 -0.0001355401713363352 -0.001447844194954318 
0.002684313196894314 -0.00142548643978818 0.001481942645657657 
-8.996655715051405e-05 -0.0003449740269744287 5.895657358489638e-06 
-0.0001918577629112213 -0.0001759666862612085 0.0001047372755854333 
-0.0004562229540112211 4.63326457771836e-05 0.0009155133684996548 
-0.0005010859212480729 -0.0007310213899743294 5.253552998051448e-06 
-0.0002450242374759856 -9.937215575201134e-05 3.824361740103494e-05 
-0.0003858550404039646 9.741049604650651e-05 -0.001050016210585123 
-0.0001656454195514531 2.79775577134974e-05 -0.0001166053431440354 
-0.0001832055865866949 -3.860263919324809e-05 0.0006129008071421524 
0.02826434570396347 0.0001089234487900686 -0.02195557275315627 
0.008997251484700677 -0.005335126023981064 0.0006765404958034934 
0.00339561532569234 3.383246677518966e-06 -0.01602128522385469 
-0.0005418910643859987 0.0001302561790157547 -0.0007029788473618324 
0.0004261452820855012 -0.0002393062089626499 -0.0001530782444008564 
0.000683619649685688 -2.0592285558251e-05 0.0002462295586822276 
0.008152927120556529 -0.0141774779876307 -0.008075398860377579 
-0.008653670146402571 -0.0006206735762761882 -3.953241289300736e-05 
0.0003819829721940175 0.0001140246253634242 0.003026292337918793 
-0.001359036696102195 -1.584270927070072e-05 -0.0001914451029098247 
0.0001242623639125887 -0.0006084887996245762 0.0001808468942147684 
8.033309751968103e-05 -3.311053415783573e-05 -0.0001499740147123404 
0.01630474154497078 -0.003055282208322006 -0.005011996628499363 
0.00877632120885264 -0.009278509655613002 -1.923844012657399e-05 
0.004904465949357476 -0.0001520307480471506 -0.001335117100941419 
0.01170816168820209 -8.348224254876628e-05 -0.01418184102160895 
0.004458071996918271 -0.008015695887092007 0.0005981874518781871 
0.0041370550324566 0.0003241682212957163 -0.002275872154223251 
0.001184755328841919 -0.0001795603606885164 0.001722886780539072 
-0.001612843581909203 0.0005613594407316426 0.0005291081306486976 
-0.002475543050027995 -0.0005558168517164078 0.0003369163835442157 
5.143208716372414e-05 7.258585975975171e-05 -0.0004333070767435326 
6.257780638242692e-05 -3.145991470038722e-05 -8.216966814169942e-05 
-5.377640187573992e-05 1.117718132760965e-05 0.0002670507224587494 
0.004639413311063635 -0.006236956525554915 -0.0004591474128492996 
0.006813023617418322 -0.0004742124141343516 -0.03780839441419531 
0.002991270198444509 -0.003996672918764316 6.365765677042401e-05 
3.046570070560832e-05 -9.276532467692418e-05 -8.271549137824983e-05 
-1.126808300359158e-05 -9.272989487426283e-05 -5.589311144495346e-05 
3.123582943339235e-05 -9.085420270614186e-05 -5.829817023513015e-05 
0.00699659825117885 -0.001712864995806261 -0.001170384848917514 
0.01054994082585707 -0.003569916636982304 -0.002984781066127282 
0.008714928695482736 4.365582415907339e-05 -0.006372984450145443 
0.004540449468123745 -0.003388773796708268 -0.005860718702879905 
0.003046500823066 -0.000813986632568007 0.0002351710779526429 
0.003310440913442211 0.0006889849949141058 -0.0001394596495967868 
-0.003200734838972471 0.001067002353076211 -2.535868829069496e-06 
0.005719178984387801 0.00165835946185747 -0.007563478802638303 
-0.001612025011167016 0.0002959070666726725 0.0001416050278303522 
0.0008816820432700423 -0.001120459709010616 2.565596600965262e-05 
0.002574442784143475 -0.0009326112907631255 0.00322420499819539 
0.0002572687778935339 -0.0001308075928706115 -0.0002402850333279383 
0.01470514076893748 0.002238855537063369 -0.03511283639634925 
-0.005937358751800358 -0.003463600902099856 0.004120939139510518 
-0.004005054836442264 0.0003016763360243174 0.007108575260296509 
-0.0005674559404786241 -0.003209523566745525 -6.214282635198738e-05 
0.001234180071712882 -0.002609340758082922 -0.001269447167139476 
0.003536087073042395 -0.00333974239717598 -0.004183253099357394 
0.000710668814314054 6.856983128022807e-05 -0.0004451990150771022 
3.655262286244765e-05 1.86744999944023e-05 2.269962294617888e-05 
-6.190670720532411e-05 -4.57688972681697e-06 2.219980736771685e-05 
0.0006107879083675577 -0.0003786367031055917 0.0003121103502365111 
0.0001419427622780624 -8.49042621025895e-05 -0.0001012765381003282 
-0.001935025812531125 0.00148867191938506 -0.001173813608433443 
0.007033941606423284 -0.001932123501955553 -0.007729193713745181 
-0.0006204509464077191 9.812175777035006e-06 0.0001167704010693334 
0.00163231832276097 0.0001076597185110913 -0.001245110857108711 
0.004484166923775744 -0.001947440176127887 -0.0005620666151822749 
3.051011084628038e-05 -1.840364172546072e-05 -3.869697737359689e-05 
0.0001711138088568721 8.790808347009348e-06 -0.0003437448111539367 
0.007837159448710759 -0.001783333904917662 -0.003297408296954512 
9.09528870933961e-05 -0.0001796608838320314 0.001417195029733506 
0.02076225204947356 -0.005109426403486748 0.0002311972651793645 
0.0001220282825172438 -4.769131209209478e-05 -8.337941299434435e-05 
0.003242709919667992 -0.0001114604315156395 -0.001689945506558022 
1.752625778480309e-05 -3.139396346516433e-05 -5.2586780494222e-05 
0.0001024744761327625 4.354274039048876e-05 0.0009704972275947946 
3.374591749108906e-05 -4.236551415327457e-05 5.178239428096114e-05 
5.175420477025153e-05 -7.321732071110602e-05 0.0002980861244234126 
0.001899344130112005 0.001233087414126812 0.003083108502375195 
9.646469128058875e-05 -0.00152244715997272 -5.206634901694003e-06 
-0.0002145203830832008 -5.394075794619501e-05 0.0002231655828380623 
0.0007600166628537246 -0.0001369442461648351 -0.0004874304135030655 
3.527196297293331e-05 0.0001396771105513501 0.0004314656890426815 
-0.0004921462616164115 -0.0005510925877171135 0.001397923140147063 
7.292277225182368e-05 -0.003451450683300074 -0.000670791133121271 
-0.0003642497369365002 -0.001359430508873132 -3.574826481459706e-05 
0.00050281991881413 -3.517307275783641e-05 0.0001642918479491843 
-1.387068116763533 0.1734574178417582 1.279455903500047 
0.0006013260347181534 -0.0007386980680904514 -2.509004561463057e-05 
-0.0001091474633168212 -1.84672487633658e-05 2.044113458954534e-05 
0.005096844801088822 -0.002415752833501023 0.002662161174199971 
0.001891278473843039 -0.0001188480042592817 -0.000238257898549213 
0.004916434395866711 -0.0003808689269746935 -0.004166128345130506 
0.0001928767511884007 0.0002492025892881205 0.0002583578672197915 
-0.0001202521085659756 2.367627083368002e-05 0.002591977809167072 
-3.235553052501495e-05 -5.759285152511026e-05 -0.0002413236566407073 
-7.454181280819783e-06 -1.01084888025782e-05 0.003746451119248336 
-0.0001658057968225967 -0.0003140726180579996 4.620295644032644e-05 
0 0 0 
0.00291163633700184 -0.00113269446425274 -0.001275354685335083 
0.003945872456431824 -0.001967186245600608 0.001134468065546097 
0.001285565237256435 -9.968114505302082e-05 -0.001225783245802728 
-2.30991372410032e-06 5.689199107438317e-06 0.0001482532404879749 
-3.590096198272681e-05 -1.340939707971279e-05 2.200244658901972e-05 
0 0 0 
0.005030890069338411 -0.002838562253570951 -0.0003334259949073343 
-0.001516002686628652 0.0001347877998029605 0.0003855122702062183 
0.001916247138010746 0.0006873875720928468 -2.845043162573314e-05 
3.879704133090826e-05 -2.050796693352699e-05 2.583932748309005e-05 
0.0002292456792243978 -2.294039639992426e-07 -0.0003776795378027745 
8.482134189571555e-05 -0.0001826640583936172 3.366070475553273e-05 
0.002762675979916099 -0.0004250852857284855 -0.000218827385001973 
-0.0003260203639022325 1.421302238473457e-05 7.790940199724424e-05 
0.05670308840836624 -0.01172948598788528 -0.007759039428421009 
0.0001896391705701011 -2.5949631907414e-05 -5.139540627318994e-05 
0.000128294746114243 -0.0001101525005548789 -2.31654339301258e-05 
-7.38550716060253e-05 9.033988613529432e-05 0.0006569784981302694 
0.01823674106122286 -0.02320871933149235 -0.007459417486819019 
0.02293715604931951 -0.02796788530050065 0.00852824375875144 
0.01786563928072676 -0.01339170568852319 -0.005928785558988632 
-6.823590189648763e-05 4.925887815179219e-05 -0.005022089499287226 
-0.0003037590154661431 2.145482618810195e-05 9.355297547513949e-05 
0.0006929161898834677 -0.0002477829032302863 8.439977179415753e-05 
-2.457859466116916e-05 -0.0002300258179923353 -1.236153588983466e-05 
0.0007688191788767649 -0.0001723583309403599 -0.000144064406357592 
0.002040831705150815 -0.0001046627999982663 -0.006729052870061556 
0.0006959448873803411 -4.812298631037225e-05 -0.002496152961318869 
0.0006553027709795276 -0.002153665679976212 0.0001126011545876275 
0 0 0 
-0.00072253759522903 -8.456041531395449e-06 -0.0003639498164540294 
-0.0002450242374759856 -9.937215575201134e-05 3.824361740103494e-05 
-0.0002450242374759856 -9.937215575201134e-05 3.824361740103494e-05 
0.0001137887350339454 2.249630040862095e-05 -6.726958601910191e-05 
1.956035301709847e-05 -3.137639267017852e-05 -5.400417249226141e-05 
-7.124180849340777e-05 -0.0001543607407119373 3.177108756584734e-05 
0.01201079069054246 -0.006933476456856557 -0.0003859427602128624 
0.002502735183041001 -0.005380431910723378 0.0001759240384427477 
0.01241063675475897 -0.001829328298599575 -0.01263980077614058 
0.0001112647121466748 -9.016278871268798e-05 -3.65200734958174e-05 
-7.747359805750931e-05 -1.371627060456757e-05 8.285082657880011e-05 
-1.020114244140787e-05 -1.63883118341861e-05 -3.117443923451919e-05 
6.691985417158173e-05 -3.001508691102141e-05 -0.0001200431804538062 
0.0003166678509027127 -0.0003925048386020593 0.0001791099823452689 
0 0 0 
0.0001219022270931006 5.089686415043395e-05 -0.0002344603507021817 
-0.0008521645891967621 -0.0001655239897930312 -7.121421153992642e-05 
0 0 0 
0.003880968774265691 -0.0009055059866750812 -0.0002381672226073727 
0.003798200022002571 -0.004068579608897032 4.625093542260125e-05 
-0.000282159704891786 -0.0002100086982232366 8.384404703294308e-05 
0.0002470058907008593 0.0015663067852701 -0.0001691155722211605 
-0.001476827751900186 -0.0004449697911304102 0.0006769049492113037 
0.0005837260702671436 0.0001482782616283694 0.0007982079091024438 
0.000458546500390204 -0.000263348032357096 -0.0001322895072849789 
-0.0009520089674625189 -0.0004428176140275307 0.0008926835018209856 
0.001530307394589137 -0.001398395670818808 -0.001425395979823328 
8.062185062572634e-05 0.0001871325953124418 0.0007826070400023217 
0.002946384337861664 -0.001696621492525105 -4.01291664262968e-06 
1.919746129757297e-05 -0.000109112226149273 0.0001654373221463025 
0.01254939784787253 -0.005849063684002532 -0.004756792127104352 
-0.0005903091610646788 -0.000463987197105036 7.787111325191551e-05 
0.00494659288805175 -0.002922846786310815 -0.0002276126013714353 
0.005537853386889335 -0.0003629791034013289 -0.002149139837020045 
0.001392776389623913 0.0007159281282818969 0.0007697771989720969 
0.0008605179634873423 0.0002521798833287702 -0.000164772793185155 
0.0002797246717854784 0.0001175490828126885 -0.0001899905669038323 
-0.0001087614216581474 -5.211551176140694e-06 8.921623924978163e-05 
-0.0002116523733814895 2.005031758616554e-07 -0.002673407351136201 
7.784832669563585e-05 -7.219105671380402e-05 -0.0001173164116804676 
0.000130597243004752 -3.512890702784452e-05 2.588331037335712e-06 
7.03859997550412e-05 -6.350554976043137e-05 -9.357640350538678e-05 
0.01856336019497735 -0.01666127781109402 3.668595722684784e-05 
0.004801458377196947 -0.003599298972379003 -0.0004666857639418653 
0.0119501593966338 0.0008032950360776209 0.0002216949389059237 
0.0003116540357259887 -0.00157336108256261 0.0003274095267338231 
0.006645553486784509 -0.007932829823731368 0.0003834070237063478 
0.002413502951164495 -0.001787152952854645 -5.071389570781562e-05 
0.008883289346479563 -0.0007394173059633052 -0.01903921271744404 
0.002301256201128993 -0.002034450330496929 0.0003398438990849754 
0.0001629210328363112 0.0002554129505902452 0.000100752004544966 
-3.950383590165684e-05 1.155191849463269e-05 0.0001368864241044421 
-9.767555978206511e-06 -8.627663334527683e-06 1.173739024897422e-06 
3.718700698844852e-05 -3.982086004667802e-05 -5.927682277090245e-05 
0.002316530480249267 -0.001293802829340299 -0.001563688480550674 
0.000785846687034309 -0.00150905393851863 0.0005735246892565053 
0.002804618618524274 -0.003191757305026292 -0.0006794050359843174 
0.004733740743424252 -0.0002532960400802705 0.001027727522832777 
-4.392548509800681e-05 0.0002907543748833151 9.487875925869043e-05 
-4.388250231622006e-05 0.0002849251003871252 9.488050204244862e-05 
0.001775130820692039 -9.305936761264717e-05 -0.01350921919270334 
-5.23021324046054e-06 -7.985428486702915e-05 1.303571766648895e-05 
-0.0008727854831394541 -0.0002189913409156334 0.0002532214602518507 
0.0002919060276916143 0.0001076125976432949 -0.001247656645310097 
0.0002471287590182681 -0.000116424225814467 -8.303795120218364e-05 
-0.0001831619017761546 3.463525902868543e-06 0.0007920939325031509 
0.001572539550763321 0.0001258332590659915 -0.0008467878568916464 
-0.001807688142876748 -7.298760517701564e-06 0.0003221314795915915 
0.0003289276579142305 -0.0004728887561813891 -0.0002539075674409809 
0.009120281523512828 0.0005599005388015596 -0.01825418258941623 
0.007733822655672492 -0.002666219758212126 -0.0008314655160849529 
0.002726444676301898 -0.001189948984157411 0.0008542884547531708 
0.003493253482205876 -0.003335849635431925 0.001147128217156557 
0.005025189269917897 0.0007820977526029354 0.00378734167745514 
0.01323377228738422 5.566546916123711e-05 -0.03777987616503915 
0.03127787064139749 -0.008874398812427591 -0.01914481174625084 
0.02034658878333402 -0.01600663927521422 -0.02210098842571265 
0.008526034729630169 -0.001960699239777281 -0.002626553036964112 
0.0347539314124876 -0.01328037781359159 -0.004720478434458945 
0.003405938137852935 -0.01371933445098295 0.002673323698560267 
0.003789262519117441 -0.006184919357542014 -0.01608818026189424 
0.003476506985636078 -0.002816952251389358 -0.002899315402574129 
0.02770983255072221 -0.001681744859955676 -0.03329218589519226 
0.001229233485932213 -0.004312224255490078 -0.0001772400424729792 
0.001621742374514323 0.0009237970769602144 0.002788361115765998 
0.001206225918160157 0.001095002900634205 0.0001511192862755999 
0.0002727931003347152 0.0003620161059028385 0.002301008774413033 
0.0331737780977765 -0.1365774327596216 -0.002682475557522226 
0.1702038912070879 -0.2731816646706614 -0.003722819370511175 
0 0 0 
2.60918468008495e-05 -1.852415065474305e-05 8.986582503506145e-05 
-9.494098108845337e-05 1.380340362338708e-05 0.0003813653672375751 
0 0 0 
0.004483312526133766 -0.0002181373334940925 -0.0003048986727762454 
0.00215483318577641 -0.002733834299326832 0.001141621844878598 
0.004968960601210286 2.557171338776105e-05 -0.009224765644716732 
-0.0001464882169918458 -0.0001948945462150484 -0.0001520783698507791 
-4.722135503007583e-06 0.0003726022985930772 -7.090814345478641e-05 
-7.206002399235849e-05 2.989028718774741e-05 5.960800653762508e-05 
0.0001683643655389008 -6.302496612921782e-05 0.001058550852602959 
0.004702153034483137 -9.082720401333851e-05 -0.00337025749963675 
6.583422988288251e-05 -6.324914213459673e-05 -5.112955681702367e-05 
0.00849355340874784 -6.784961126185645e-05 -0.008441277692923927 
0.0007726186284125149 0.0002518047005662093 -0.0001566474652349964 
0.0003167537445781261 -0.0002345459662116825 -5.649507900410601e-07 
0.001350195444155831 0.000339300357285554 -0.002240818700641964 
0.001033756194400347 -0.001788250004261501 0.0001953709200457978 
4.082290024809545e-05 8.270129655081649e-06 0.0001621654085004808 
0.0003672864199996691 -0.0001877661324961309 0.0003992466834875324 
-0.0001352135510888352 -0.0001800729148524754 -0.0004821763607070567 
0.0001573395770258475 -0.0002353243743861206 -0.0001153018591293085 
-5.332943336850597e-05 0.00038263470667416 8.842400262977372e-06 
-0.000215100819407439 7.49300328576492e-06 0.0007033785833568697 
5.402987305280854e-05 -2.933213392987901e-05 -5.396841826929367e-05 
0.09498050786932515 -0.001308439376840263 -0.04621931039514621 
0.0007166468089076695 -0.006528780616000666 0.001192247985041117 
0.00690967660863927 -0.003963613502526926 0.00203878501644611 
0.125981572077921 -0.2744704702501427 -0.007884881727604881 
0.02878811734295642 -0.04781593630810906 0.002424240446767188 
0.2114148740340411 -0.03086616421552994 -0.007534080550542389 
0.0007559025597006407 -0.0001989698063281153 -0.0003466518702520507 
0.0006568906577539644 -0.0008275488655711267 0.0001281148353940067 
0.001292478054952519 -9.803849284646642e-05 -0.0001538098399437517 
0.005081582256681401 -0.002093184062790411 -0.0002824163057972386 
0.0007311224772608352 -0.001350542941929652 0.0002516733782854869 
0.007405332715765089 -0.000409358549717629 -0.007153744855465623 
-0.0001293232080496062 3.466345397532049e-05 0.0002009149552798555 
-0.0005365902892704639 6.605308882689805e-05 0.0003115178896251869 
-0.001575340117225728 3.295020794323644e-05 0.0002880389028612669 
0.0002273627362999576 -0.0001910858381480089 0.0001325072049356058 
7.17658454114047e-05 1.849324941814112e-05 -5.229416654642259e-05 
0.0005161738934937409 0.0008007141619685507 -0.0004406714071058277 
0.006685454361292512 -0.003720871529929312 7.806554622263595e-05 
-0.0005985976137134422 -0.00180749244431773 0.0001904605472592808 
0.002294338200132277 -8.922082285661842e-05 1.324730511605443e-05 
0.003612414766461756 -0.002677094844357335 -0.0005149749718752926 
0.002210340409309953 -0.001775061959319519 0.0002117638353049972 
0.001270010472932337 -0.001236266687275828 0.0001245991082961178 
0.003026974467997049 -0.004212154596203729 0.001190101340159814 
-0.001012072236939775 -0.0008094876266792663 0.0002778651673697843 
0.001878649549712338 -0.002689349948204718 -5.934003736110443e-05 
-2.275000957943626 1.328130416770733 3.271462940320617 
-0.6330325125839013 0.7193107918061178 -0.0795331692426 
-1.961332887529999 -0.4596491564895391 2.26591686185079 
-0.0001271758299814377 -6.716774977354504e-05 0.0007308240795924526 
0.00573808699331529 -0.003600331402232739 -0.001638381193674109 
0.0004270237661736855 -0.001445818453225154 0.002449308084130187 
0.149611105947523 -0.008930751957591706 -0.00734358482065268 
0.00243707236319323 0.0001981475483241147 0.0008482524612315658 
0.01119366233907165 -0.002950332529924867 -0.008994218932429182 
0.009795754030776791 -0.0009572579825011505 -0.01240430427915529 
0.004057777531615242 -0.001430193399898305 -0.001322110630062336 
0.004586934286182016 -0.000455889754996361 -0.002924680675057345 
-0.0004018356204394389 0.0001098580119290833 -0.000187125114521498 
-0.0007060940127259424 -0.0001255887069331949 -0.0001051050163156523 
-0.0001302517763572465 3.466280651271448e-05 0.0002026796028273371 
0.0004436376821086011 -4.170293587351174e-05 -0.0002753781577181403 
-0.0002433135444319861 -0.0005905468719855776 0.001107093598218032 
-3.855046092324409e-05 -1.14538947874428e-05 0.0002154203162299039 
0.001461620449926398 -0.002040309636941013 0.0001183767539639578 
0.001578834331097741 -0.0009638147737508511 0.005131994863239088 
0.001741741865780952 -0.002935230388814942 -0.0005819112186410097 
0.0001225504376308265 -3.569083637575023e-05 -8.978819024821063e-05 
2.239417563153517e-06 -2.079799010507419e-05 -1.403513632082851e-05 
0.0001042848793443681 -2.303158688339612e-05 -0.000268371981428325 
0.002077435777562636 0.0001685016046191258 -8.02627740078367e-05 
-0.0001407615370307751 -0.0006928853180652064 -2.361240869591637e-05 
-0.0003687420923201554 2.402728532400934e-05 6.659292089045588e-05 
0.0005164881653999633 0.0001732054090480157 -0.0002492928269204343 
-2.318259677152171e-05 -5.494711856820582e-05 7.43843172234465e-05 
8.902121712693744e-05 0.0002332352533949016 -8.626362021139834e-05 
0.003943800668485951 -0.002144847507228992 0.001129915608198526 
0.01958221958005275 -0.005990774982479423 -0.001971102381897819 
0.00200484085536027 7.527201218859094e-05 -0.004170801888944988 
0.0002314293745099516 -0.0003683762849191489 4.922341283326023e-05 
0.00048718849381784 -0.0002780619466189404 0.0007552390035274576 
2.305393322552528e-05 -0.000880340979566027 0.0001567406384679571 
0.0002702664796810529 9.403354836592852e-06 -9.693086779943116e-05 
0.001330895745212094 -0.001175890791630326 -0.0005101941958992394 
0.0006260299594804045 -0.0008238184321910578 -1.660952237781878e-05 
0.007747806742745825 0.0001938640551004553 -0.004416438464584597 
0.0004883016526961496 -0.0005469181524007352 0.0001671543664043192 
0.0001494809100900606 -0.0002819255946141965 4.407045835406407e-05 
0.0002523995027504117 -0.001122325093511338 -0.0001680464996651951 
0.003131097486788124 -0.001270015533716805 0.0007127371751016724 
8.497685371104975e-05 0.0002204470803048656 0.001201757790650804 
0.003526847821094589 -0.002513496284801112 -0.0003832827899764061 
0.001155617012114148 -0.001238183005382852 -8.218450893650959e-05 
0.01575966984238733 -0.0005077115337253606 -0.001598607189272862 
0.0003830393433541561 -3.176066774546858e-06 -0.004679204680014046 
-0.0001626511832245525 2.468663700329713e-05 0.000254386544043805 
0.002684739767563863 0.000386340616689953 -0.00459066156636542 
-0.0001717985301502034 -0.003718911334999216 -0.0001036748145747385 
-0.0006291169206751604 7.894824792751388e-05 -0.0005336742049218701 
0 0 0 
-0.0002573257590821802 3.969519467263317e-05 -0.0001480926879510241 
-0.0001172453830910299 -2.89915439388726e-05 0.0006342065037202597 
-0.0001056293376574326 0.0006058389660597538 0.0001074321165032513 
0.0005905843972690979 -0.000157135131195961 0.001056472738244887 
0.0008473199186906518 -4.813000869937702e-05 -0.004544581130895035 
0.001225872495969875 -0.002802971904229741 0.0002654311211415483 
0.003362623439194434 -0.0006788811060673285 -0.00255737118798342 
0.00166428366141122 -0.001957460793489466 0.000265825572450246 
0.001249916816566592 -0.0008091582606263463 1.853650450368414e-05 
0.002493068788618194 0.0002127162173973832 -0.02931869205843209 
-0.0006905589052057661 -0.0004789986180023794 0.0002176114685623838 
-0.0003731794999023622 4.057065871437822e-06 4.776001572753233e-05 
-0.0003592414631692816 -0.001406677954758515 -0.0001476872593820359 
-0.001022718695642952 -0.0004859104306374717 -3.353343932164304e-05 
0.0007051478929441377 0.0003393367887183049 -0.0007056586525643712 
0.0004913473561384394 -0.000190475163902662 -0.0002025052319235308 
0.003166035027129915 -0.0003596181609558712 -0.0007657787938943108 
0.002728334107425594 0.0004828488609549712 -0.0005607697449115273 
0.0006812373644765313 -5.381063985980734e-06 -0.01095720596588691 
0.005054915972266606 -0.0008095593165362455 -0.000418821286736256 
0 0 0 
0.005502259069143926 -0.0006447132236257066 -0.002346507503765507 
0.01069481626676618 -0.0008588886418913041 -0.009366542119413382 
0.001975185548383944 -0.0007017568684940911 -0.0005426985434112673 
0.004700725652331588 -0.001085719219156928 -0.002629751952008532 
0.004100343776748123 -0.00504196995855385 0.0006987018262749217 
3.473538429438e-05 -0.00130956689357787 0.001892633385431381 
0.004119253973118353 -0.001172501553571315 -0.004691531242265656 
0.0003333294340589262 -0.004443132981353838 0.0006431432872149455 
0.001556508277557752 -0.001497617896817843 0.002379305447112393 
-1.232486210162242e-05 -6.874187616841776e-05 -6.090444289416424e-05 
0.0001053637166559626 -8.607290252502409e-05 0.0002409486203355866 
0.0001323548785512217 -0.0001063738163976943 -0.0001342536469949538 
0.0004273757261450571 -0.0003922527675978211 -0.0003149268832591879 
-0.0001431577661237946 -0.0001364903804383014 0.001646134081026724 
0.001406643710531809 -0.001310846379895386 -0.0005114883596741425 
-5.818053426280307e-05 1.524351563790169e-05 0.0002428181291670387 
-0.0002320528195695433 3.393933803750156e-05 -0.0008100836323127783 
6.241218188100692e-05 -8.939802046958321e-05 4.368468897186938e-05 
0.0004918340178292845 -0.001069378773514974 -0.0004544406187841743 
0.02534398246972138 -0.003013619751279694 -0.002706643121721955 
0.01034677117139064 -0.0168342088556427 -0.0008411178534998135 
0.00414521085373471 0.0002173753064531712 -0.01824664691678352 
-0.0001774952952165031 -0.0002585606036689409 0.0001855747827914112 
-0.001101525639129362 3.872782121617615e-05 1.803710580324269e-05 
0.002985707998413291 0.000242782160528469 -0.0001511103941671542 
0.004480392143635205 -0.003172009661343054 0.0004538069486919809 
-0.0003630627439114127 -0.0001380615447507318 -0.002093540067108672 
0.0009449565543198979 4.177755269346993e-05 6.581697909928833e-05 
-0.0002419147902846772 -0.0007647884778107326 0.0001572638503701268 
-0.000332561688400917 0.0001018152831990294 0.000817380127256669 
0.1828568148320625 0.0002371167470932116 -0.029913129222355 
0.002672904395733726 -0.003553006839769583 0.0003995626019921752 
0.007361823493829764 -0.003353996506556846 0.001099545380113121 
0.2529148411831663 0.0009115477623495329 -0.1400395766920026 
0.4716078187473214 -0.2440950424694228 -0.02030984814604475 
0.1047412102038701 -0.004863798703783085 -0.06712217996210104 
0.002121493719446459 -0.0007246696762740991 -4.07576353624298e-05 
-0.0001123481644577707 -4.179164562985349e-05 0.0001297685883670292 
-7.911549449513636e-05 3.37185121803859e-05 -0.0001217562313967472 
0.001738790974621418 -0.002824482073174221 -3.346673296597795e-05 
3.51587175637675e-05 -0.0002810786217428278 0.008089630987178971 
0.004742200663393899 -0.003508343048495932 -0.0003176813438133211 
0.0004635699045161795 0.000411338334149664 0.0004105665517189005 
-0.0003260203639022325 1.421302238473457e-05 7.790940199724424e-05 
8.60003602802102e-05 -7.760291468199636e-06 -0.0004030860880867761 
0.001769981508249159 0.001580545167191649 -0.01590945182368216 
0.01652770617895026 0.001211348683461061 -0.02523493343602399 
0.0012202014031282 -0.0002658715757205946 -0.0003517716309178946 
0.000369139338831661 -0.001872187507682249 -0.0002538909608004748 
-0.0008963053077780803 -0.0003530002608789674 0.0005333183198906523 
0.007623401761569273 -0.0003696120690756954 -0.001084411133169189 
0.006903414587962042 -0.001090285500236005 -0.004123255204866542 
0.00152325147541562 -0.0002954945388969632 -9.154766991967652e-05 
-6.411445136894107e-05 -0.0001895991218566966 0.0009346632819033232 
-0.0005581006807344087 0.0002049382374315017 0.0002732620954876964 
0.002515568943884204 -0.002181155867076215 -0.001047924245039204 
0.002935369035308632 -0.007069028475737812 -0.008835360996761686 
-5.842821382426781e-05 -4.966704663477271e-05 -0.0001159973951137426 
9.146975456423029e-05 -0.0001173651712402342 0.0002728842302112992 
0.0001701762842443129 -0.000287069462203506 2.879512565082663e-05 
0.06623713638778755 -0.1014162488987886 -0.02089519601511353 
0.03711433829173133 -0.02176686724474928 -0.008354535467652692 
0.02840673382108714 -0.002493153174693355 -0.02696131682753276 
-8.016244255822976e-05 -4.756148869351976e-05 0.000914763694871459 
0.0004579425264344764 -0.0002048998293070368 0.0002437980217179228 
0.0003439251539028897 -0.0004174967215466964 -5.926254523021384e-05 
0.01433526715126918 -0.008006543467344201 -0.01413550796937007 
0.01192933478225176 -0.01593675740205521 0.0008015350562291044 
0.01000614213206877 -0.001131440828551723 -0.003519375402896529 
0.001072408030510065 -0.001027501344746383 6.050377411971966e-05 
0.0002992714706499022 -0.001247947865940804 8.186489373711841e-05 
0.001556391454099177 8.049703075982429e-05 -0.001267831822407438 
0.05913130125611908 -0.1295223816960742 -0.0005899704488217968 
1.697348873541387e-06 -0.0002729770008637756 0.0002555466321982977 
0.02283188783683255 0.0006693192014030129 0.001190047060985282 
0.000527468927072255 -8.532135039552688e-05 -0.001375008209020603 
-0.0005542511610755359 0.0005241212400553123 6.892537091678385e-05 
0.0001355975326471171 -1.370613712201647e-05 -8.219740733672748e-05 
0.01446291369344383 -0.001498595020712 -0.3080206672052653 
0.003736123117977287 -0.004642373666938516 0.0003056918801684274 
0.001148177260301891 -2.899385416282502e-05 0.004392247988817239 
0.0006499477196656645 0.0002486321225301869 -0.00283023299285499 
-0.001138182277936677 0.0001008233691947742 0.0002595572575171578 
5.835989541936944e-06 2.297444731840549e-05 2.555101561150355e-06 
0.1867676440837914 -0.03700078262465779 -0.186982791000107 
0.08902664428807697 -0.09442005491755155 0.01718259260098547 
0.04955741339147962 -0.1783366256285231 -0.01018641571236888 
0.0005211136385074037 0.0005961218003796276 0.001385068414843787 
-0.0001469232917252504 3.758676196423048e-05 2.09990177839675e-05 
0.0001484936805560317 -2.209382946686002e-05 -0.0001069304359640241 
-0.0001144291664005029 -0.0005015291094601628 8.180556521485072e-05 
-5.483758226938965e-05 1.548819256451609e-05 0.0002650745721883992 
0.0004285174864895223 8.624571185761437e-05 7.163723116422862e-05 
0.001906926480114404 -0.001756347454299707 -0.0001819187677249362 
0.001022731026295851 -0.0004686372432275612 -0.004465243888871658 
0.0231458678602428 -0.034172342229076 -0.004731774147837493 
0.001735322848956228 -0.0004707619352645567 0.0002569998279524109 
-0.001232071721944795 -0.0006908326167098368 8.47191225014862e-06 
0.0004942265710769327 -0.0005968403569666991 5.00093287169355e-05 
0.007632550617675979 -0.009939107448338048 0.002044104209624978 
0.009688298795735066 -0.002066836291166502 -0.01288985341877372 
0.01618397027111221 0.0001244984578869556 -0.03255357109298796 
-0.00263005423388317 -0.005096006863679433 0.003975979752184266 
-0.006373524719904686 -0.0004168089177444607 0.003621354833011133 
0.01808256803258175 -0.02525854507720515 -0.004494310844346498 
-3.207710037100946e-05 -2.659829941792577e-06 -1.826051799643293e-05 
5.215731243284024e-05 -3.042124505561848e-05 -2.664150468701269e-05 
8.199805038455066e-06 -2.278139074485734e-05 -1.739411540659827e-05 
0.005144412974379666 9.957428763791872e-05 -0.2194879475231112 
0.0007838230311671728 -0.001147394039893065 0.0003108545047351751 
-0.0007693694595024763 -5.365587138523788e-05 -0.0001016485792132056 
0.07213821290829436 -0.0005029162212741755 -0.3832368899563076 
0.008478277560161058 -0.005856079061138712 0.001980053975376142 
0.0009697211146871329 -0.002369044652607513 0.001176715888642983 
5.584507955475131e-05 -2.091061031933683e-06 -9.243753589492e-05 
-0.0004283159468269893 0.0004499826788815568 0.001265979870212522 
-0.0001212775243328526 -6.204870628871801e-05 -1.750583779301645e-05 
0.002022185255932157 -0.0001208252896657558 -0.0002499352089109924 
0.0001359400625322742 -5.020364009165861e-05 -9.095717911858561e-05 
-7.914924881357479e-05 -0.0002869812151786971 3.365702805365023e-05 
0.04345171745590247 -0.01498863751544559 -0.01042571306715122 
0.00644844419847681 -0.01315123074787581 0.002069315637881969 
0.01621518093904648 0.001380946540264555 -0.02907297696272987 
0.1169311762812969 -0.0428367518715639 -0.3348368066633771 
0.0761959517499378 -0.06472674009309179 0.00711115430040918 
0.07864437090082874 -0.02994343772686331 -0.02791724585796088 
0.000181375943555345 -9.655018413021974e-05 -0.0001114880349028791 
-7.129944274854309e-05 -5.233962163918748e-05 -1.037159387645877e-05 
5.034242247498206e-05 -0.0002658820079047149 0.0001097906550367876 
0.2589914727014837 -0.2528749138978464 -0.1276114848250383 
0.03892640852617799 -0.01994542073932438 -0.00177286819302785 
-0.2742066865906385 0.1259170115549599 0.134949741473559 
0.02380786117916493 -0.01708209637004848 0.004108617750423437 
0.009839221271893357 -0.0170982846212428 0.003280369975133818 
0.01470760676664806 -0.009054456094604682 0.0003692180961713772 
0.0003267731237263728 -0.0006973708789782736 -0.003597097630459665 
2.596005586576657e-05 -0.001991149344803945 5.705128666521697e-05 
0.0007071282002657884 -6.154853058748791e-06 -0.0007191796843869793 
0.01227959573032784 -0.0002389765488758755 -0.01157252253986632 
0.0008341823704488702 -0.0008813425271151572 0.0006407862447554293 
0.002604364527998011 -0.0002425142463064005 -0.0002283853788665558 
0.001184018745078208 -0.001160463852799277 -0.000138892544952602 
7.74106463331846e-05 -0.0005858694940647969 0.0002939622581902676 
0.0007851236925822075 4.777406558683323e-05 0.0004249650575139893 
0.02481322877545695 -0.01029531207290982 -0.3113091983076341 
0.01503580068110685 -0.01116023036907341 0.001903649947610893 
0.0147740283597143 -0.008726017334547706 -0.0003368449017829968 
0.007132777141583366 -0.001866641194392202 -0.03046847922179621 
-5.228725013718552e-05 -0.00304807749018946 0.0008729295339201789 
0.001184568750751347 3.619225884698498e-06 0.0004108064259249502 
0.0005733339141698879 -8.517869100688293e-06 0.0001122868314142765 
0.0003813905081982537 -0.0007743904180900832 -4.794322607297086e-05 
-0.0003968340685221738 -0.0002263142816530663 0.0001162901787882136 
0.001013252803526681 -0.001859121073269448 -0.000125056911165489 
0.001747373525711332 -9.149325460552648e-05 -0.0031330043704285 
0.0004681574310996511 -0.0001326092962699739 -0.0002317219568199555 
0.0008562752674501836 -0.000724464602162041 -7.785297520841376e-05 
6.670038736110217e-05 -0.0006899229141492886 0.0002386746620005586 
0.006043560923299873 0.0001041850457157694 -0.005925732314089722 
3.089999669891545e-05 -0.004396459436342478 -0.0002161437700757328 
0.0002622051327564055 -0.0001973761758537461 -0.0003804697226135373 
6.986266179990107e-05 0.000754876120298034 -9.881713086301603e-05 
0.004142158686743361 -0.003940186687827128 -0.0002994616252199356 
0.0005436070497894134 -0.0010199543344417 2.852822371822677e-05 
0.003673099369846364 -0.002252014522317516 -0.001805376089878779 
4.326821066582936e-05 -8.622859326290742e-05 9.122095993705751e-09 
0.0005029919268401377 -0.0001293013867919715 0.0005883158103838229 
0.0003023931530904312 -0.0002874845629646895 -0.000190682162933443 
0.001223697262428663 -0.0001475349669815195 -0.0006891939210626166 
0.001575943632947818 -0.001188005708908055 0.0002452981159584208 
0.0004592667101751744 -0.0002826063917744067 -0.0001721633973315182 
-8.252434618136852e-05 -0.0003528189296252266 -0.0001174542437175562 
0.000108959324435212 -0.000162377935319947 0.0005640047848397693 
0.0006204433533254801 -0.0003385718859019387 0.0003764034057709697 
1.581582695223448e-06 -7.873753965984707e-05 0.001190886411368558 
0.0007353620509671237 -9.326628644958321e-05 0.0006452849412309361 
0.0022307920749977 -0.002179515145138685 3.482242859960097e-05 
0.01110160359524091 -0.1983432436172604 -0.0008975992269408876 
0.00306632211773182 -0.004718282386209193 1.565439453033025e-05 
0.007444380133510176 -0.007208946810748581 -0.0001974706186357115 
0.01422936902417364 -0.001245327840990752 -0.008530355453919647 
0.00559992027683637 -0.007072772783467271 0.001071695747113856 
0.01063740364221785 -0.002528035861424335 -0.01070058207476057 
-0.0008824686189473848 0.0002868497616032926 -5.496120185781341e-05 
-0.0004597272169994162 -0.0005394258462060878 -5.220787678015225e-05 
-0.0009970466003427498 -3.602017598151698e-05 0.001137417010921446 
7.432087530938298e-06 -8.462636347831976e-05 0.0004772622441827727 
0.000563404747707574 -0.0002192255161771056 0.000741553439780323 
0.0004736633858614487 -0.0004490269969083088 -4.40509102173899e-05 
9.203187831618192e-05 0.0002308333282041265 0.001186868198655033 
0.002452253438567756 -0.001671867653302774 6.067315619039494e-05 
0.001295260608760097 0.0004071737358806119 0.001617130656621131 
6.491225287914959e-05 0.0004508411230746981 2.035417424908313e-05 
-9.416182420560075e-05 2.840476669921702e-05 0.0004520880646821406 
0 0 0 
0.001557051982909604 4.377867173419148e-06 -0.007694521240375958 
-0.001280541556889624 -3.467848765223053e-05 8.441465279985211e-05 
-0.0003715512423918235 0.0002988449266467189 3.748489058171241e-05 
8.818990352292113e-05 0.000228482365762113 0.001159257531958476 
-0.001353257961404227 -2.091652644476814e-05 0.0003487274500158784 
-1.138091306643149e-05 -6.127768455869017e-06 -0.0008215241547039978 
0.000176175628637637 -7.081820103675353e-05 0.0006187794768966932 
0.0002419848906296958 -9.295164263982001e-05 -0.0002285789991456074 
0.0005929038572619166 -0.001082368038046967 -0.0001138072833320693 
-8.974259567333395e-05 -9.033170449103961e-06 0.001392023725775951 
-0.0006417197310276376 -1.446880834931044e-05 -0.0005826274777511476 
5.958772161310701e-05 0.0006133988815394942 -2.319994858117313e-05 
0.0007873758823960906 -0.0006545261018563741 -4.197611759236069e-05 
-2.318259677152172e-05 -5.494711856820582e-05 7.43843172234465e-05 
0.002218190169443925 8.220766235873646e-05 4.221130302777906e-05 
-0.0005075992246726672 -5.005427373539959e-05 0.000185333955021079 
7.151890406730237e-06 0.0005413008111874631 2.707868891271684e-05 
-0.0001507648897623075 9.393657311866322e-05 -0.0001593081406449577 
0.0009883930599232425 -0.0009199986166837535 0.001783466784661533 
0.0001005384255320978 6.958737183450309e-06 0.0001854945112110875 
3.34364624561006e-05 -3.560411419163611e-05 -0.000454529934711274 
9.925813514859879e-05 -0.0001037471192426164 -0.0001073914243390108 
0.000176599078690337 -0.0001312501044991731 -0.0001106395071998453 
0.0001291721300439837 -0.0001049938311963346 -0.0001317718796975788 
0.02782598226412623 -0.01768984135415419 -0.00788701031903148 
0.05166241865026115 -0.02272110135443055 -0.01383388136368775 
-1.134593999351188 0.2437388414725399 1.144537113395122 
0.0008008907322239453 -0.0006589590654697857 -4.199791348025673e-05 
-2.318259677152172e-05 -5.494711856820582e-05 7.43843172234465e-05 
0.004299502537203692 0.0001156050895139005 -0.001086589330917878 
0.02177701276861813 -0.01622788202564389 -0.03973863811721612 
0.01041486302816119 -0.0130225003547817 0.0008437407278795672 
0.01083649063082054 -0.0006171755843032033 -0.0154776743181267 
0.002847761586753344 -0.004919203916542055 -0.0002752323880824929 
0.000127247808842253 -0.0004818243988171542 9.297457259751978e-05 
0.001188275503493361 -0.001404407971989724 -4.765926762391164e-05 
0.004335255467984059 -0.003244322171779268 0.0002689983988216536 
-0.0002995697853664643 0.0002571560521657699 0.0006922749374421908 
0.0002239199756249716 -0.0003156215380765941 -0.0004898644392464028 
0.0001442362138120501 -5.297801695388505e-05 -0.0001789358229603743 
0.0002781228438919673 -0.001425207375830562 -1.732269971130265e-05 
9.67860517998941e-05 -3.784703295596773e-05 -6.097333343916522e-05 
5.352246681083262e-05 -2.018723595334422e-05 -1.124811169645611e-05 
2.746010368379563e-05 -4.054336422602076e-05 -5.46976075201322e-05 
4.958416229365984e-05 -4.53437842520225e-05 -6.356254254893509e-05 
0.0006130982792719873 0.0001870992129978689 -0.007302862925111013 
0.001332980710202359 -0.001778820199635492 0.0008360163251930774 
-0.0008719262136241086 -0.0001669692209384993 0.001604586923339826 
-4.918069617731562e-05 0.0007606199310899616 6.430344413586557e-05 
-0.001344210347646422 0.0008527381201924004 0.0007912634970517545 
0 0 0 
0.0003202603635581915 0.0002281616443909407 0.001796206603046288 
-0.001183338578119537 -2.420078622075458e-05 -8.777485431576516e-05 
-0.0001094987869201591 3.627216794307003e-05 0.001294020675249145 
0.004551037974519202 -0.001881297015124865 -0.000976254575202155 
0.0007969612726162594 -0.001131824255373317 0.0004223186037523845 
0.02223358843627989 -0.0004351912986027067 -0.01599996115579435 
0.01958224629063682 -0.1936027219541427 -0.02392736214689133 
0.007953526366853151 -0.01442238229249606 -0.0005685572068186055 
0.01943408571710022 -0.0001094125834683627 -0.03503174698015831 
5.523324479129094e-05 -0.0001176215653364132 -3.979934676686187e-05 
8.979247238272675e-05 -0.0001132669279882771 -4.497601913946579e-05 
2.235956834109298e-05 -0.0001248643094773035 -1.399086565985247e-05 
0.002250936971101111 8.221799675690943e-05 -5.670045677842458e-05 
0.0003982100349397183 -0.0002633856581431252 -5.937666380001736e-05 
0.001544737130294583 1.346361833309884e-05 -8.711823046291702e-05 
-0.0004062186045860454 -0.001256758836265525 0.0001077605635501308 
-0.0001894642427159556 7.417520977633023e-06 0.002486331671081018 
0.006106597178281287 -0.0006633074874669159 -0.003246594296901545 
0.004518321767065555 -0.002203347354430827 -0.001278330800532522 
0.002377273967021867 -0.0009229589591353934 6.132841531368646e-05 
0.003200101301385583 -0.005275252764349755 -9.627343418072675e-05 
1.110990343185025e-05 5.611699679439889e-05 -2.686339052877799e-06 
2.912552472155497e-05 0.0001272335198093861 0.001444580670284483 
7.161387002887159e-05 -0.0001283991824976168 4.338055588558431e-05 
0.0003059378846651287 0.0001186015044009526 -0.000505344668048612 
2.935211928257315e-05 -0.0002197717300336801 5.45245706218331e-05 
2.851635746218041e-05 -0.0001571152844991187 0.0001127956263519368 
0.0078527746176954 -0.002834767293750827 -0.006916315377307256 
0.001091353828136626 0.0007096114361900904 0.001187108606156423 
0.005183380305994633 -0.001105676827939731 -0.001861493938779772 
9.577818597166452e-05 -1.489754079938914e-05 -0.0003683476855876594 
-9.278607817355265e-06 5.322627050503393e-05 0.001229009569002039 
-0.0007744995536908543 -4.771641680011276e-05 9.3908033911205e-05 
0.1710341195217543 -0.001657583939184467 -0.05443482880345515 
7.41179364550722e-05 -0.001582409028904066 0.0001263212754257989 
0.004936290908198731 -0.0007067309511425227 -0.001989185050536289 
2.08907641242311e-05 -3.164643817494049e-05 -4.582110582191469e-05 
8.450602636521918e-06 -2.748306684447076e-05 -3.910088825245296e-05 
8.037763392896045e-05 -8.938039777427269e-06 -7.560989445379957e-05 
0.002497259338660366 -0.001803324201165095 -0.0002006950518572632 
0.000236827863700273 -0.001043233037132414 -0.0002471728221127008 
0.004971994084143828 0.0006693080419431336 -0.01077008203752097 
0.0007089959763426472 0.000438373940284394 -0.001276430692415368 
0.001601514539366171 -0.001648902628706801 -0.0003717896046648279 
-0.001541953688741413 0.0001981309614735034 -0.001341338372988896 
0.0001265955242739894 6.233853480743002e-05 -0.0002193577331444602 
-9.378866991681549e-05 1.557481380174972e-05 0.0002041286689367606 
2.641083919430865e-05 -0.000181762750426325 0.0001054628434638726 
0.0024748443513784 -0.0006572701224013637 -0.002297642817426939 
-0.0003260203639022325 1.421302238473457e-05 7.790940199724424e-05 
0.0007482244007527365 0.0003993207882850778 -0.001870049453704447 
0.004644665439530906 0.0008135277397157076 0.001482329151800479 
0.006328290742908866 -0.001865170344283496 -0.002882249875251031 
0.02329171786404912 -0.006381995818258414 -0.01641333883310022 
-0.0009253996701248406 -0.0001948624214876926 0.001619751747402433 
6.711629742021835e-05 -0.0002259919924353994 7.769624530777661e-05 
0.0001052058225083989 -1.389095072588656e-05 -3.834609112628475e-05 
0.02490966994531984 -0.01120699685799175 -0.01424908279146946 
0.8329508898651996 -0.00488371553273121 -0.5227858406450295 
-0.07741867693657412 1.113362963838599 -1.478651720481369 
0.003813616774895215 -0.002107961930810103 0.001530337985802588 
0.009515334434340234 -0.004088317306509856 0.000376464136279804 
0.008119399976874447 0.0001568645183318927 -0.005130447978561418 
0.001719817662843648 -0.0004520675520237244 -0.0002668418900225838 
0.004533609578083317 -0.005517354585527687 0.00150026594918544 
0.001231717999394438 -9.958396117745757e-05 -0.001195834295416871 
0.00359518562485966 -0.0008707218964169658 -0.002269106354186321 
0.00703507092657184 -0.007368614142010253 0.001237621095434614 
0.0001889275531048788 -0.001100958113139618 -0.001670829385871452 
0.007887619302518408 -0.0005245683927136976 -0.006461344192868478 
0.00202477377008571 -0.00101670539871192 0.0002136035278321419 
0.001835216665727261 -0.001243697402761306 3.46419860574193e-05 
-0.0001330365007906531 9.413324810000034e-05 -0.0001832739720974723 
0.0002738385353436459 -0.0001315534821875957 0.0001831719170214104 
-0.0001478477855521327 2.356718094010851e-05 6.039932127428111e-05 
0.1389043924393137 -0.08849773310949263 -0.1306161257733245 
0.05078959267172471 -0.04342979762635068 -0.02097134768362179 
-0.1018220858622395 0.3834058759753469 -0.1228890605928596 
0.01118136917636493 -0.0006313967154618674 -0.01272670975489983 
0.004387307904703002 -0.003764122998181367 -0.0002765073046681989 
-0.00138993910434709 -0.000515341847492797 -0.002744309873761094 
0.0001752761430381012 -4.567098458079775e-05 -0.0002628115516978748 
1.716316214131537e-05 -0.0001357206955784207 8.625517217618368e-05 
0.0001060531124554134 -6.577530782019922e-05 -6.281044516040722e-05 
0.0002913507904601961 -0.001456500205992417 0.0001059982924893411 
-0.000215100819407439 7.49300328576492e-06 0.0007033785833568697 
0.001359937651874342 4.522275506447339e-05 -0.002802276174850672 
0.02188201158393195 -0.004572900354525263 -0.02239346521042194 
-0.0001858464406167319 -0.009715213184948541 -0.0001953727489437343 
0.001111546090398798 8.055273319509739e-05 -0.004427781309199981 
0.00396927460016905 8.607738120342749e-05 -0.003380133179348658 
0.001967560489995868 -0.0007041024860771592 0.0002444433482071628 
5.058762252014533e-06 -6.17769213182773e-05 -3.463791369813872e-05 
0.007930150491511629 -0.00159945094290963 -0.005582768846386726 
-0.0007606092372207093 0.0002268054986719606 0.002014178891666499 
0.007050853662191418 -0.005145185735658923 0.0001110545763145114 
0.006389497113354807 0.0005029598640698627 -0.002183198797546301 
0.01129482932024903 -0.003698046641860334 -0.01116113062525954 
-4.761662707040793e-05 0.002913098492696065 0.004428154303136448 
0.0005957657457760986 0.0001010552498145442 -3.183454021658721e-05 
0.002418587869337858 -0.0004059330294258181 -2.756375778158866e-05 
-2.735548573910004e-05 -1.750726484616539e-06 1.485029216389044e-05 
-0.0002129709378842417 -0.0002377736345021939 -0.0002178767495104626 
0.0009709461673444837 -0.004708514300663583 4.408576211394609e-05 
-0.0008313377966135693 -0.0002154842696618045 -0.0003904542699217261 
-0.0007982873440913287 0.0002360174715897047 -5.516209618927258e-05 
-0.001291832633263907 0.0004023630979073115 -4.960481833130752e-05 
0.000167118420338883 0.000769366601606956 -5.167914457805677e-05 
-5.495766521728488e-05 -0.0001523510526418845 0.0001329894040079849 
-0.0002487363287643118 5.843986994680994e-05 -0.000369953344710666 
8.289197349782642e-05 -0.0001437232031057145 1.250273763912806e-05 
0.0008320512395968665 -0.0001359394180866121 0.000212829546611356 
0.001167630337709311 0.000100467285442044 0.0005133400080817646 
-0.0002292006081236087 -5.076236141968656e-05 5.006655426632209e-05 
0.01132277243762098 -0.008700470644704958 -0.0007100645947513599 
0.006492992669409521 -0.009821455407773754 -0.0003715947391958497 
0.0004785373409023574 -0.001290173196547849 0.0002142711634240725 
0.001298478904436039 -0.0007772677387741079 1.535515711839554e-05 
0.005006661857113329 -0.002309191088162425 -0.001332752024112142 
-0.0003334539333906602 -0.001034652892854474 -0.000126501933235985 
0.01746264870356583 -0.004579139371312616 -0.0004668930318280801 
-0.0005468031056828722 -0.0008365495523933392 -0.000499599199288051 
0.00523769553450262 -4.556105256887148e-05 -0.0134509740632224 
0.004348215448751237 -0.001908814169768878 -0.003863565416932005 
0.001342040843913377 -5.391199185725049e-05 -0.0005049778229682817 
0.001956517430647341 0.0001625387574783974 -0.00333711058802092 
-1.938174175943515e-06 0.0003990638494019153 5.138589843978699e-05 
-4.835040176627517e-05 1.037228262133861e-05 0.00163908605143207 
0 0 0 
0.0002387514164153251 0.0004612192479353141 -0.004460096202943219 
-0.0006516715047352339 -0.0004934649369429807 0.0001130466874142325 
-0.0001739037145150811 -0.0001452470108104719 0.001671694041148721 
0.0001202361117170891 4.680501750858178e-05 -0.000119864625172863 
8.567755284864338e-05 -2.864886287380349e-05 8.091709126549361e-05 
-0.0001436875152575985 -1.956925029438806e-06 4.011327006656257e-07 
0.01173590232396284 -0.00120144642163109 0.003654721010554971 
0.01016267935186109 -0.01022645159936148 9.779415221334751e-05 
0.01597097495590502 -0.00377128049413189 0.002437164805563096 
0.0185032613352558 -0.01010389424249537 -0.002086114852141535 
0.007927172756625373 -0.01116369365631871 0.002731382432145123 
0.008836507327210532 -0.000872426032630456 -0.002743622545312288 
0.1091114430636451 -0.003052352672359804 -0.008311823346219402 
0.003154461226042988 -0.02298425428881892 8.04088154550447e-05 
0.004407011996997616 -0.001884445785209406 0.002307398181931734 
0.0103362853296334 0.0004175291513126805 -0.006032060626526741 
0.003058376490472339 -0.002624574665070569 0.0003914686122156073 
0.002655669587209876 0.0003389280542658709 0.003143554893878797 
0.2338714648142302 -0.1427285003711614 -0.2395654325670179 
0.05450801674521269 -0.07313878588734318 -0.004195674692715224 
0.1221990849311476 -0.01672278436754005 -0.1432538538654038 
0.00401953789985164 0.000828134292319363 -0.006583228936773694 
0.006499675591073213 -0.000471531058344912 -0.03236775080591964 
0.0004085943828425091 -0.0006993688544462193 -5.30732320368203e-06 
0.0003598178091252553 -0.0001090512932931007 -0.000163326361128185 
-3.160386433759277e-05 -8.786473788365034e-05 -3.438900937712268e-06 
8.678575565185994e-05 -0.0001089295317025186 -5.830683362187742e-05 
0.009970208652244853 -0.01083660689612506 0.001117181088155271 
0.002124820656873222 -0.003910547293283465 1.034335453078222e-05 
0.01020298141059215 -0.07458077830659547 -6.035455125031278e-05 
0.002288065769548177 0.0003044295093416136 -0.004786039869149349 
0.0009930300089011324 -0.000287239892755133 -0.0001554866396619343 
-4.388250231622006e-05 0.0002849251003871252 9.488050204244862e-05 
0.007163075672101273 -0.005014290193891323 -0.02974095921059762 
0.004151816236257492 -0.008171963538700399 -0.001048915239667887 
0.001904000778891601 -0.002187510523013879 3.628383178343442e-05 
0.006924329126703203 0.001494515254402412 -0.01119775713790871 
0.006460841474830066 -0.006631078080213569 0.001336171903051707 
0.0002125841501796427 0.0003852254283582233 -0.0001024154178650207 
0.2819565892619161 -0.1369891397265408 -0.01120697963510763 
-0.6616922488815223 -0.5208087821007106 0.9715594809546192 
0.3458499645674168 -0.1195366122442494 -0.1764026450716535 
0.0006847700123058864 0.0001696780335661861 -0.001128382732367977 
0.0001733916263967782 -0.0005994135391241942 8.911177594436259e-05 
1.43360759106461e-05 -1.585678503200668e-07 3.286745094310167e-05 
0.001369051450882948 0.001010950044882898 0.001319289179258853 
0.0001470696941740496 -0.0001211994898566084 -1.232089701682668e-05 
0.0001707558724476138 0.0001591781442919167 2.587487150601955e-05 
0.002195117960361986 8.221590400429629e-05 5.617239241191618e-05 
0.0005208633034000167 -0.001149496837972503 -2.212684319958248e-05 
-0.0002530293754598089 -1.415543183123362e-05 2.350501581889702e-05 
0.1233765702009678 -0.1013856084955728 -0.005350217785569907 
0.009639086405972459 -0.007200899529300225 0.000348727954730948 
0.0119618004710039 -0.008007463862268565 0.001768834703977329 
0.03094271488655269 -0.0481637880790176 -0.03957043701855255 
0.005537834798263181 -0.005874364720774189 5.588564375493964e-06 
0.08106631730402179 -0.006883384020300256 -0.1885442299872837 
0.1437021403765015 -0.0006690863482411089 -0.1052779298326974 
0.0003019575598760225 -8.21362739097602e-05 0.0007759863282916641 
0.0004109787028831548 -4.438475900567685e-05 0.0001716364691067977 
0.005229088024821675 -0.001985637038327143 0.00150142944871073 
0.01325094027944132 -0.03316915463658557 9.739125323787502e-05 
0.00399622040815734 -0.00161460764323698 0.0008949311351903861 
0.004856246051581172 -0.00249713599436052 -0.0009582063936883906 
0.0005436070497894134 -0.0010199543344417 2.852822371822677e-05 
0.002738287026624608 -0.004969338249636058 -8.508305046831084e-05 
-0.0003973442840913368 -0.0002986203149453946 0.0006570545360258809 
-0.0002114012092419471 2.760773079518086e-05 2.134007638348153e-05 
0.0005290091127265383 0.0001586991395077219 -0.001517488000133701 
0.0002337127879741075 -5.537381154082326e-05 -8.289997098658825e-05 
0.0007971818272756887 -0.0006521355822015643 -4.199336877722342e-05 
7.683811088833465e-05 9.930276501524337e-07 0.0001094368438324097 
0.0001691631905640062 -0.0001038345885194221 -0.000157792003888466 
0.0007401007297019299 -0.0001469517621156869 9.550547876312883e-05 
-1.138246740898305e-06 -9.772903832500322e-05 -3.628131118311756e-05 
0.01068992704065121 -0.004572263968891438 -0.001968931885973239 
0.005315781849871679 -0.001710462964821017 -0.01473565751387885 
0.006935525171819803 -0.003396663028510467 -0.0008440530993458006 
3.246501544668872e-05 0.0002249800872600455 1.017301135390651e-05 
-4.707938206123659e-05 1.420014770286018e-05 0.000226150396846336 
0 0 0 
0.0001877734213702028 -0.0001566793058771252 -0.000240036389023711 
0.006344134040301136 -0.003693943360005687 -0.0004658029240640146 
0.0002860132729004449 -0.000113889330027602 -0.0002553102404758078 
0.01123084122900081 -0.00843469045546277 -0.0001944858448063585 
0.005319390994566553 -0.0004794462925264119 -0.004716762967979827 
0.004439970904631944 -0.002765132218966089 -0.001931377911976123 
0.04113331406910085 -0.01378356792965622 -0.05481191660957228 
-0.001867359253769837 -0.006389866260076927 0.0008535160674561586 
0.02813314010363605 -1.958192910780051e-05 -0.04689807759531246 
0.001980993994133928 -0.0001169787296349344 0.001146285828939962 
-0.0001065311356944401 -7.982890224109722e-05 -0.0001046616597786267 
0.000563349209725244 -0.0007056221414966278 -7.694737047768541e-06 
-1.647132413216013 0.1207280309420435 1.677384386929839 
0.002713762034185448 -0.001899736459280795 0.0001480919581599596 
0.001707578717703619 -0.001013186125766395 3.393128488846935e-05 
-0.001014211011235704 0.0007082709933692666 0.001738131400916556 
0.001227497809336381 -0.000321965440953492 6.680821516100615e-05 
1.209922525709348e-05 -6.126245023418503e-05 0.0003313775587622857 
0.006249598111038247 -0.002682085891663025 0.0001853934777105108 
0.005812000044054833 -0.01542410167478637 -0.0006732410243071874 
0.004933959908236744 -0.002903677441196932 -0.0008941795519264053 
0.002627063632219257 -0.0003874265945198019 -0.006363287848398752 
0.001587130382358988 -0.001415697155846662 0.0006213800175020861 
-0.000212844251147298 -0.0008437187497805092 0.0005128606855953505 
9.856209368574106e-05 -0.00107649298743627 -8.523936573997457e-06 
4.016580545232264e-05 2.129395763554179e-05 0.001125991127934689 
3.607741483509743e-05 -0.0002769500714267331 9.533693337082788e-05 
0.001944977707527792 -0.001824001474834315 0.001152324249113526 
1.462880703456873e-05 -0.0002191153623726838 0.0001287702244224329 
0.001311886869827099 -0.001812123854205379 0.0002695876430044492 
0.01420420909525123 -0.005677924378908857 -0.003593939228720205 
0.003882419981850389 -0.002361065307132111 0.001056977942605576 
0.312517345449884 -0.00226589230824933 -0.3020734394281324 
0.01770775612255573 -0.005054334338606793 0.001009614581159852 
0.006689652651174307 -0.007334655792886317 0.0003486135259483225 
0.00693763424524612 -0.003904498400901937 0.0006047238231584619 
0.004475805899291981 0.001241761053867101 -0.003535004009328817 
0.0008482009879352207 0.0006736607090952427 0.0005186048670075231 
0.002379928163566416 -0.00127044841042309 0.002073950364513051 
0.352468553115335 -0.01332186989798886 -0.3297348557202364 
0.01032041401573557 -0.01132699843973583 0.0008999298867966797 
0.00629082875560038 -0.003941798006911466 -0.001612052885452769 
0.008310780325852387 -0.004253974325095511 -0.001024930290604727 
0.0006979259533043338 -0.003280640456892404 2.706906080602088e-05 
0.004230677693674356 -0.03068340635497074 -3.35091377596168e-05 
-0.0002326710180802525 -0.001158562252115358 -0.0003032842373905549 
-0.00153578277795281 0.0002909508011245594 -6.904063060831184e-05 
3.815791437010115e-05 3.872199424453442e-06 -5.365244347892103e-05 
2.006192437059594e-05 -3.053298648770471e-05 7.193807789216308e-05 
5.591170525950766e-06 -2.614927130325154e-05 -4.882844983516087e-05 
6.757714484019948e-05 -0.0001322659785238022 -0.0001069505705447024 
0.001188543618562647 -2.955394742704616e-05 -0.0001491992895097532 
0.0006413014424440418 -0.0001978755173359933 -0.0003055569364955993 
-0.0001072003607869329 -1.843765749477862e-05 2.046889299197416e-05 
0.006930547717982471 -0.0001843122807674679 0.0008735117904902721 
-0.002833137490129525 0.0005338372308498233 0.001572536056344519 
-0.001606148224342372 -0.0003037407071833062 0.0004617346701892049 
0.1655052901004045 -0.02975102456433393 -0.08316713584992852 
0.04515099569941055 -0.05763738184192327 0.007401056973776266 
0.08604088386573225 -0.02533306829256583 -0.009397890292958117 
0.002053221258739042 -0.001015854088416499 -0.0003919340940704159 
0.0005894795230741723 -0.0003795482090672075 -0.0005276286799305604 
0.0006079709649593663 -0.0003942227351178002 0.0004371834224867755 
0.0003396502901579478 5.465677600854874e-05 -0.0004868945036606539 
0.0008111925797999568 -0.0006647076436814586 -4.201931383872709e-05 
-6.561181984827464e-05 -4.703986062252141e-06 1.744267079679053e-05 
9.736903859075042e-05 -3.802821695865023e-05 -6.136212837424071e-05 
0.0002185668457882899 -0.0001088383819190209 0.001047125542387034 
-9.80901730554301e-07 -2.218246777931184e-05 -4.241611540229054e-05 
-0.0002187642660381861 -0.0003398496657170187 -6.929615598653555e-05 
0.002017576780698202 -0.001458731743035993 -3.402101223917214e-06 
0.0002279850733771011 0.0001905610720553457 -2.830064605991424e-05 
0.0003085293732140189 0.0001640753068013237 0.00284958205892781 
0.006377020548333744 -0.0007193187743720103 -0.005790446007434484 
0.004531487444311037 -0.006003436867038098 -0.0004126825317833028 
0.00126366246294455 -0.004028808104189557 -0.0009847080283974467 
0.007565314158888959 -0.001098911510073838 -0.00125018271945794 
0.01223964285791763 -0.01215794221509731 -0.002895710006760899 
0.0003522975882677052 4.597520291150788e-05 -0.00202796573805094 
-0.001182693572229314 -0.0006270848213475093 -2.223795091645321e-05 
-4.400197717288954e-05 -6.9926933244023e-05 -3.715698703452363e-05 
0.0007588606526315643 0.0001473756179465517 -0.001213852729693202 
0.003387462849397482 -0.0003125369669706771 -0.0009432510887542753 
8.817256898913654e-05 -0.0003472080916453858 0.0001931407109775069 
0.002835344924996854 -0.004369059933663615 -0.001032556760399684 
0.0003701164227536447 -0.0003432943399554938 0.0001042834894261011 
0.005987646266816358 -0.00413476942118082 0.0003994930988700062 
0.007819030520507647 -0.001407867162078258 -0.0044994147054884 
-0.001025022464884436 -0.000289658554996264 0.0004192285082467591 
0.003627353249261097 -0.003936235099478506 3.07770025192166e-06 
0.003718020550495811 -0.002343044559524527 -0.0006106390092146808 
0.0006643459318830313 -0.0008844954412172831 -0.0001431664861811762 
0.003756003759233875 -0.0001168380811406338 -0.00442595460624158 
8.293418265508853e-05 -2.749287746643212e-05 -5.922932817931321e-05 
0.0002631056041120468 -4.74041904166766e-05 -0.0002970480961085154 
2.834328839084351e-05 -0.0002056642277814875 9.52628340758563e-05 
0.001601968423787358 0.0002527536382894746 -0.002012325303599842 
0.0001086780424041838 -0.0004190050139100683 0.0001669557869605869 
-0.0001270888940004653 0.0001035233568646754 -2.086783901145471e-05 
-8.362422494604795e-05 2.507029057395256e-05 -8.785332352105572e-06 
-8.038355297063161e-06 -8.878672217166144e-06 0.0003601126195968365 
2.742836528875372e-05 -9.05348020452055e-05 6.369431201759217e-05 
0.0006428533605458744 4.439163331138374e-05 -0.0009767023763347735 
0.0001415413489698117 -0.00051139469917351 1.7731017710659e-05 
-2.824336607578771e-05 -5.229329796369935e-05 0.001406671646633308 
0.009952199845464549 -0.001641797519833612 -0.007436307276826387 
0.0190766795401214 -0.0250454079778757 0.001218282608376569 
0.008986283448360558 -0.009741766647167856 -0.004288224283895639 
0.001803922453266641 -0.005411529998949424 -0.001180095130749625 
0.006388326221695387 -0.002066155604784355 0.002044826577527089 
0.009049385573899995 -0.003491275036993494 7.922619048239482e-05 
-1.346041319552619 1.044685727896766 0.01899678962053954 
0.00486216231229857 -0.004169738202624587 0.0004004913852217667 
-0.8698314718434794 0.02876756723091187 0.7245540008158973 
0.0174518146255218 -0.008237938450715365 -0.002796028372359359 
0.0145523254250688 -0.006575955301772277 -0.008145280558821031 
0.009968782806436932 -0.01158535711076107 -0.0006141505577862512 
0.0009379265148918352 5.88645539085578e-06 -0.0004674319768623681 
0.001553210580461291 -0.0007064345156320984 0.0002323080670307905 
-0.000822109399684697 -0.0006730181726676913 -0.0002071967369680113 
0.02120786790640725 -0.01368117624391566 -0.003948717375939986 
0.007191056891605924 -0.008510756973547124 0.0005743019534116742 
0.01034319004106568 -0.004087634703990179 -0.003006375833717411 
0.0008823621927957851 -0.001509657329100752 4.874647428149163e-05 
-0.0002656836240083321 1.065697205753941e-05 0.0004440600516917381 
0.001133391714052012 0.0001035842690817395 -0.0005219917913874883 
-0.002256861750487989 -0.0005223680246292208 0.0007928208794059723 
-7.423678272013538e-05 0.00137998180919988 0.003054194320401001 
0.0002576213402685046 -0.001123580770200826 0.0003692210799990422 
0.05642779756683632 -0.003829305049843823 -0.03345629608597026 
0.02749748534178093 -0.006890672978578075 0.007712099816504017 
0.02040326732664787 -0.01757279647625734 0.003620781534564795 
-0.0003730091650097898 2.349347894733555e-05 -0.0003073679752768847 
9.972483610921295e-05 -2.283084259040891e-05 -0.000107330225772991 
-0.0005092560595603002 -0.0001982883831522184 -0.0001425209259512289 
0.0008879165284636964 0.0003365696786364334 0.0008990909387785954 
-9.198563594261424e-05 -0.004033204414589917 0.0004110682712861284 
0.0002508024922261316 -0.0003537478705471984 -0.000282748993286486 
0.009336923630248238 -0.0007991718220230499 -0.009097288623964585 
0.0001068726329977961 -4.21937582814228e-05 8.533489984020791e-05 
0.00265553390651148 -0.0005756212096773585 0.0001069292097980233 
-2.600777856134465e-05 -1.234657076346149e-06 0.0002977138740178489 
-0.0001036306057978834 0.0002038576284688681 -7.464118286171372e-05 
0 0 0 
0.003783642171669144 -4.880469030693746e-05 -0.006238313208327431 
0.00552736766006003 -0.005263978116310361 -0.0007279761021808603 
0.004356536663390797 -0.0006666629781425127 0.001305029370226169 
-0.0001424643113532655 -0.001225895620964779 -5.629463057305858e-05 
0.002567962988161339 -0.001708163190395205 1.037314776473103e-05 
0.007700240348510308 -0.004966752069163089 -0.0002458264630451608 
0.3034144688677776 -0.5404389673798258 -0.5524605429201412 
0.04697597622594054 -0.5441541735520316 0.1347267754208864 
0.2742358116645831 -0.6541090693464707 -0.3207009864350238 
0.0007722882793585118 -1.520781834241786e-05 -0.009479984054574918 
6.053062741523002e-05 -5.238005172471285e-05 0.0009538539044657477 
0.0008488072444840129 -0.001535252822253278 -0.0002486423087632099 
0.007148512464398033 -0.2374594948425197 -0.005218863031966799 
0.0007316842660891592 0.0008214173405049734 -0.03124560732436616 
0.007498658793041691 -0.02882107389731897 -0.0002301622706098938 
0.0324116583365163 -0.003505547659233508 -0.03416309684715168 
0.007942182226086027 -0.004161390464457076 0.002240690818186527 
0.01196577695858877 0.0005367179181077297 -0.004279786894335395 
-0.00756729627436149 0.0009627153222011855 0.005295096954320838 
0.001835877121408667 0.00340771685666901 0.0136707660694319 
0.01065402831052213 -0.0036463272681427 0.003190687512893914 
0.007605364417938038 -0.001539275344968164 0.0006998465800102848 
0.003588289450000903 -0.008432669361626175 -4.079800370718649e-05 
0.001713550717737655 0.0002737826090118921 -0.00137013900931821 
0.002151636208199512 4.875976483102716e-05 -0.001418991828683537 
0.001265171485499557 -0.001313412092809402 5.567575191855267e-05 
-0.001019431230203664 -0.0005549200480160056 0.0001389964895026819 
0.001557051982909604 4.377867173419148e-06 -0.007694521240375958 
-0.00112141145115991 -0.0003794510582098677 8.400857215984464e-05 
-0.0007279243723006752 0.0004445311829390524 3.785439796574966e-05 
-0.0001308954812985992 3.531383268942617e-05 0.0002025121024707116 
6.704119427538367e-05 0.0002356259258566379 0.001209848190088399 
0.00124625278527941 0.0006104747886534343 -0.002736490313506842 
0.003269670750084059 8.292056194776989e-05 -0.000397253130412691 
-0.0001260539317206356 3.38291282340153e-05 0.0001998814842341856 
-0.001120761003095749 -0.0003795572965934619 8.400624859032298e-05 
-0.0003947980236410898 0.001495971136529347 -0.002601847447043005 
0.0008938692566127823 0.001148404686592668 0.00484422370358404 
0.007322687223590347 0.001892019284025862 -0.006991935644013955 
0.0007997757970225146 0.000680585763754093 -0.01250789738463789 
-0.0009068382418802949 -0.002788566944888259 0.0006057766024808105 
-0.0008539616723820647 0.0003837134096583654 0.0008256689700124701 
0.01828358764069309 0.001841836464625281 -0.08833805942086914 
0.003522789691701172 -0.006185486747155999 0.001198701327042847 
0.002933781318835293 -0.003154716821946772 0.0003706944321875993 
0.0006371533475278978 0.000156739173405425 6.369058025610366e-05 
-0.0004435491235131196 -3.856688690538824e-06 0.0008900812022134569 
0.001090573357078845 -0.001238344679754626 0.0003541553627516386 
0.0004234000873931785 -0.0002661479121090167 -5.416908442152224e-05 
0.0002460043975477089 -9.082446023096022e-05 -0.0003827142369580636 
0.0003497352967947857 -0.0001832808055412989 -0.0001112371542998659 
0.3599652170141951 -0.3361817662594396 -0.2872291036879459 
0.002099430842143411 -0.3252623369418742 -0.006692098945951592 
0.1314674216370971 -0.03151010092501466 -0.2495896258522465 
0.150345385145942 -0.003339394699785841 -0.02318520709514132 
0.008821352545968443 -0.006020633233706716 0.000810234885060472 
-0.003604415850529865 -0.002692620519127798 0.003783221087474246 
-0.0003107809107716582 -4.19420223284737e-05 0.002886203831820047 
6.535188785009869e-05 -5.45210800738339e-05 -1.166204657537748e-05 
1.183504196548041e-05 -1.369309039033714e-05 -5.745734305661179e-05 
0.002492447019736026 0.0008643606746283021 -0.006595802388108574 
0.001545736508919675 -0.00110729479939931 -0.002032856144302193 
0.001787865922211435 -0.001777451795533198 -0.0002727030653377048 
0.003765845225902456 -0.003163252581680062 -0.0001907489290789856 
-2.367036950648423e-05 -0.0001974106585723652 -0.001754983302723988 
0.0007150534339464663 -0.0001727926085604859 0.0005562784009007952 
0.007482129845013737 -0.0057562369272603 -0.001989953522333912 
-8.994928869539356e-05 -0.04127241740457609 0.001775158528802948 
0.01001307487729528 -0.003559430153342538 -0.007214460516786582 
-0.0001236121883993883 -4.415397298934264e-05 -7.168143723295784e-05 
3.641201525567094e-05 2.728539611298132e-05 -2.061656462903916e-05 
8.051907556795694e-08 -3.235834728213051e-06 -4.433348707430541e-05 
0.09512849536381207 -0.1562138528909047 -0.05860943809838869 
0.5030689042224844 -0.001727232098658476 -0.06811230037341082 
0.317087345650825 -0.001131925268969064 -0.3306170777273146 
0.006059299505711017 1.028476493311948e-05 -0.008223919765476333 
-0.001058835721263683 -0.0002491330960348189 0.0001508393579735749 
0.0001800448031627961 -0.0002821942156930842 -2.491044355734315e-05 
0.0002414387790601061 -0.0002186749330289397 5.712551425623541e-05 
-2.899524254804379e-05 1.205606738181322e-05 0.0001201052097439629 
0.002268713265284825 8.219938265270034e-05 -3.887868164923936e-05 
-0.0007976147884105262 0.000293700004846622 8.415678960809505e-05 
7.647393972147476e-05 0.0004505029023551882 9.614369421133218e-05 
0.0002573111691577342 -0.0002971230141999953 1.408939019673011e-05 
0.07325588638409659 -0.03281026985399616 -0.08235540083623222 
0.03402454403491106 -0.1795262873437089 0.008077175487611256 
0.04328307050728008 -0.01240846723050733 -0.03182293141162288 
9.573604742268135e-06 -2.536796952233978e-05 -4.295526438468756e-05 
4.538787573913791e-05 -4.342380004345003e-05 -6.189935339505706e-05 
8.024985066984519e-05 -8.893606396740899e-06 -7.372875570424892e-05 
0.001659830816496101 0.0004971677086796233 -0.005478604514007029 
-0.000721388206011174 -0.0004316067873881798 0.0003354401253205383 
-0.0005223011844097414 4.194491050055573e-05 0.00136096549777608 
0.08513691065734287 0.0001659763616506211 -0.06798802552458166 
0.002080516143467547 -0.002249535243219657 8.92837685192101e-05 
0.001373847456449974 2.259565547869824e-05 -0.001237834198765224 
0.0003256936474313168 -2.987356662178899e-05 -0.0001080827065384026 
0.0001770590045003404 2.270052232763747e-05 0.00139955963691809 
0.0004984406989854831 -0.004842390279141272 -3.924045683627865e-05 
0.2491350540338614 -0.4042539128788299 5.846827350695479e-06 
0.0005622636159852672 -0.0003243795551075548 -0.0001341473134828819 
0.3352314728030666 -0.2110994893425875 0.000687030813425242 
-0.0002143338965726422 5.681543750367305e-06 0.00180215744394468 
0.0004137230241999954 7.692463940044444e-05 5.407355059117613e-06 
0 0 0 
-4.562716594917075e-05 1.345469732623012e-05 0.0001847820860305974 
-9.431598507525429e-06 -8.717060935135201e-06 9.549569021022412e-07 
-1.072024151623678e-05 -2.727262348267975e-05 -8.870391636880193e-06 
-0.0007542557659902589 -2.944401041547835e-05 -0.0003262572799754037 
